http://dbpedia.org/resource/Apple_Inc.,-0.5270140767097473,0.05780360847711563,-0.662238597869873,-0.21792833507061005,0.07866304367780685,-0.3359264135360718,-0.015585171990096569,0.18591485917568207,-0.06600098311901093,-0.6878929734230042,0.5316816568374634,-0.14117524027824402,0.3807307481765747,-0.5216552019119263,-0.40277647972106934,0.6844882369041443,-0.05567966401576996,0.7374348640441895,-0.24037328362464905,-0.17309629917144775,-0.2642240822315216,-0.25145065784454346,-0.3541569709777832,0.06156991049647331,0.1706935167312622,-0.08036690205335617,-0.49985942244529724,-0.3442176878452301,0.09789834916591644,0.1466064602136612,0.08656110614538193,-0.3925010859966278,-0.6159392595291138,0.7825286388397217,0.3535318076610565,-0.8799091577529907,-0.18581221997737885,0.7539023756980896,-0.4577372670173645,0.5127209424972534,-0.6597539782524109,0.27046576142311096,-0.2408529371023178,-0.8989999294281006,-0.3673177659511566,0.07121870666742325,0.3176231384277344,0.4340525269508362,-0.09787675738334656,-0.38474640250205994,-0.2865826487541199,0.03353850543498993,0.5060824751853943,-0.1413121074438095,-0.2957448363304138,0.3681175112724304,-0.22818563878536224,-0.47819483280181885,-0.18356826901435852,1.2375977039337158,-0.16380585730075836,-0.07001545280218124,-0.21416223049163818,0.24585741758346558,-0.09389219433069229,-0.25719889998435974,-0.4191487431526184,-0.00025500645278953016,-0.3577730357646942,-0.015978828072547913,-0.4237150549888611,0.1942775398492813,-0.16811251640319824,0.14240142703056335,-0.20002040266990662,-0.2001550793647766,0.3088979721069336,-0.7401511669158936,0.16299425065517426,0.11397939920425415,0.17893873155117035,0.24232065677642822,0.09971056133508682,-0.39502906799316406,0.12116267532110214,-0.011042824946343899,0.24469362199306488,-0.20873653888702393,-0.007148809731006622,-0.7162454128265381,0.426405131816864,-0.26840582489967346,-0.15966396033763885,-0.07764622569084167,0.28564709424972534,-0.36166712641716003,0.24665844440460205,-0.29604876041412354,0.20958690345287323,-0.14552991092205048,0.0755794495344162,0.22374144196510315,0.4304612874984741,0.14638714492321014,-0.45024850964546204,-0.8272921442985535,0.37278273701667786,-0.26478439569473267,0.015137700363993645,0.18168292939662933,0.7262101173400879,-0.04203815385699272,0.2592714726924896,-0.3670506179332733,0.44363513588905334,0.8326742649078369,0.3241589069366455,0.06953821331262589,0.13145636022090912,-0.1396966427564621,0.37952762842178345,0.6159531474113464,-0.47876647114753723,0.014934401959180832,-0.1124991923570633,1.1039204597473145,-0.009514080360531807,0.2845052182674408,-0.012671117670834064,0.3337642252445221,-0.7861166000366211,-0.2105034589767456,-0.2661077678203583,-0.82730633020401,-0.1701836884021759,0.27847227454185486,-0.43817347288131714,-0.1959577351808548,-0.5560781359672546,0.10455883294343948,-0.6486730575561523,-0.04776427522301674,-0.3714351952075958,0.0640038549900055,0.19601130485534668,1.0723069906234741,-0.41670092940330505,0.38255175948143005,-0.06253384053707123,0.3529069423675537,0.3790163993835449,-0.634824812412262,-0.43043723702430725,-0.08757008612155914,0.11699877679347992,0.11330068111419678,-0.7063823938369751,0.4331285059452057,-0.6248608231544495,-0.7426748871803284,0.04108329117298126,0.5205710530281067,0.07972124963998795,0.2643291652202606,-0.3885476887226105,0.1763981133699417,-0.4452294707298279,0.08302874118089676,-0.19104550778865814,-0.328290730714798,0.7632297277450562,-0.17695756256580353,0.2712042033672333,0.41779452562332153,0.28798434138298035,0.08925579488277435,0.7922901511192322,-0.23670588433742523,-0.1173878088593483,0.21466097235679626,0.745064377784729,-0.40539586544036865,-0.4739763140678406,-0.005476430058479309,-0.10630937665700912,0.16804686188697815,-0.016316236928105354,0.10390961915254593,0.22999797761440277,-0.6113564372062683,0.47639116644859314,0.2529226541519165,0.6127052903175354,-0.4208444058895111,-0.47770509123802185,0.5382205247879028,0.5387600660324097,0.2768181562423706,0.8013907670974731,-0.7623398303985596,0.140955850481987,0.5047479271888733,-0.10558900237083435,0.1798401176929474,-0.4576456844806671,-0.3516646921634674,-0.2516983151435852,-0.338580846786499,-0.34662988781929016,0.14876575767993927,-0.40069663524627686,-0.2136474996805191,-0.2699335515499115,-0.6870470643043518,0.35036513209342957,-0.25295084714889526,0.17899157106876373,0.46332409977912903,-0.04814023897051811,-0.40862980484962463,0.28382647037506104,0.4274974465370178,0.014759486541152,-0.20644982159137726,0.6160008907318115,0.2956143021583557,-0.6391340494155884,0.025988157838582993,-0.24936489760875702,-0.031101776286959648,0.295104444026947,0.32834938168525696,0.5829817056655884,0.03820003941655159,0.11925292015075684,0.05686046928167343,-0.25973549485206604,0.09625346213579178,-0.46624913811683655,0.5344931483268738,-0.08103430271148682,-0.07343779504299164,0.4011276662349701,0.38668397068977356,-0.36280474066734314,0.09368490427732468,-0.5942530035972595,0.6599256992340088,0.140797421336174,0.3994891345500946,0.010544959455728531,0.038502562791109085,-0.7305673360824585,-0.23931634426116943,0.3942803740501404,0.24083779752254486,-0.91331946849823,0.3303147554397583,-0.5750309824943542,0.446918249130249,-0.003643287578597665,0.46153172850608826,0.1941455751657486,0.18727591633796692,0.07922808825969696,-0.40446773171424866,-0.17400972545146942,0.08298651874065399,0.24118345975875854,-0.40215054154396057,0.43755435943603516,-0.1633693128824234,0.1601913571357727,0.26249387860298157,-0.30753353238105774,-0.3398967683315277,0.06620538979768753,-0.5348802208900452,-0.5473753213882446,0.2858165204524994,-0.6364031434059143,0.2963956892490387,-0.560455858707428,-0.1365298479795456,0.36818772554397583,0.5366150140762329,-0.5786550641059875,-0.2681419551372528,-0.07594992220401764,0.0227213017642498,-0.8837101459503174,0.16985014081001282,0.17413997650146484,0.18691888451576233,0.3537091612815857,0.08042600750923157,0.15749907493591309,0.12366296350955963,-0.00791044719517231,0.02917187102138996,0.16044877469539642,-0.6323545575141907,0.09727976471185684,-0.016285793855786324,-0.3154313266277313,-0.6698797941207886,-0.02439729869365692,0.04540668800473213,0.6690595746040344,-0.8735414147377014,0.49879002571105957,-0.06005074083805084,0.10976562649011612,-0.38314422965049744,-0.5614818334579468,-0.09046914428472519,0.3228147029876709,-0.16161295771598816,-0.21443787217140198,0.009116487577557564,-0.09787092357873917,-0.6001797318458557,-0.3602840304374695,-0.23864325881004333,-0.21721620857715607,0.16444532573223114,0.011209147050976753,0.08414272218942642,0.15899346768856049,-0.31536686420440674,0.17098940908908844,-0.2915669083595276,-0.6549867391586304,0.39064428210258484,0.0826827809214592,-0.29906266927719116,0.5236557722091675,0.10210861265659332,0.2858465909957886,0.6723448634147644,0.1199316680431366,0.16333742439746857,0.3765227794647217,0.07208582013845444,0.4950859546661377,-0.9330463409423828,0.7118653059005737,-1.2287322282791138,-0.2619374692440033,0.13025571405887604,-0.3694366216659546,0.01820298656821251,0.17470771074295044,-0.17885157465934753,0.17320097982883453,-0.324818879365921,-0.2710420489311218,0.3832532465457916,0.2972792685031891,-0.11621049046516418,-0.10658510774374008,-0.4187692701816559,0.1015542596578598,-0.05026994273066521,-0.6008544564247131,0.5274206399917603,-0.035408180207014084,-0.42724040150642395,0.3572099506855011,-0.25976598262786865,-0.012364699505269527,-0.3494337499141693,-0.4153900146484375,0.2565053403377533,-0.6108902096748352,-0.6034401655197144,-0.2372223138809204,0.7783373594284058,0.5759181976318359,0.12221521139144897,0.5000311136245728,0.29727697372436523,-0.520922839641571,-0.340742826461792,-0.14078059792518616,0.03485666960477829,0.6220650672912598,-0.2496577650308609,0.4888325035572052,-0.0067444415763020515,0.33832550048828125,0.35115110874176025,0.03822503983974457,-0.09077894687652588,-0.5424297451972961,-0.5696907639503479,0.5588957071304321,0.495015025138855,-0.12656909227371216,-0.28260132670402527,0.7110263705253601,-0.10826318711042404,-0.5041092038154602,-0.0048659141175448895,0.380233496427536,-0.20457816123962402,0.47913601994514465,0.4824272692203522,0.139789879322052,0.6130598187446594,0.49537333846092224,0.1779867708683014,0.2764505445957184,0.14242935180664062,-0.5045210123062134,-0.36968284845352173,-0.2715336084365845,0.5943625569343567,-0.8250526189804077,0.3451716899871826,0.3916977047920227,-0.6134189367294312,-0.26573124527931213,0.5706031322479248,-0.012897820211946964,-0.25835487246513367,-0.12989255785942078,-0.01131058856844902,-0.36653539538383484,0.22007189691066742,0.06111321970820427,-0.20997275412082672,-0.023812642320990562,-0.1485031247138977,-0.391549676656723,0.26460981369018555,0.7196676135063171,-0.5761328935623169,-0.10211630165576935,0.6088950037956238,-0.4510173499584198,0.15115946531295776,0.11929387599229813,0.31140509247779846,-0.3665056824684143,-0.13124647736549377,0.1110871285200119,-0.25261586904525757,0.4167693257331848,-0.13211818039417267,-0.004166684113442898,0.11607873439788818,-0.3697739839553833,0.36171212792396545,-0.37319567799568176,-0.5437946319580078,-0.19951729476451874,0.004912002012133598,0.2841856777667999,0.8380606770515442,0.5424925684928894,0.08905373513698578,0.17551787197589874,-0.4779699742794037,-0.11896317452192307,0.8451857566833496,-0.4790138900279999,0.2747359275817871,-0.0013095467584207654,0.8887584209442139,0.4592428207397461,0.20094016194343567,-0.14171114563941956,0.4080299735069275,0.7299988865852356,-0.06084997579455376,-0.5426448583602905,0.3148929178714752,-0.1277533322572708,0.11734465509653091,0.2146795094013214,-0.2560581862926483,0.2006603330373764,0.7247458100318909,-0.06699130684137344,-0.29850104451179504,-0.5724368095397949,0.3935181796550751,-0.42772817611694336,-0.4342764914035797,-0.20982323586940765,0.702937662601471,-0.05225478485226631,0.5407903790473938,-0.4805610477924347,-0.14516158401966095,-0.27693766355514526,0.008110547438263893,0.5298824310302734,-0.16216230392456055
http://dbpedia.org/resource/Steve_Jobs,-0.40241071581840515,-0.10511758923530579,0.23955771327018738,0.2755609452724457,-0.12097831070423126,0.07519737631082535,-0.3365449607372284,-0.27871233224868774,0.3221690356731415,0.2677331566810608,0.7544059157371521,0.05090896785259247,0.35144707560539246,-0.22555838525295258,0.21583178639411926,0.245973601937294,0.2061379998922348,-0.2543160617351532,0.0895218476653099,0.07915743440389633,0.24548260867595673,-0.33598756790161133,-0.22901251912117004,-0.4628767967224121,0.0804218277335167,-0.49467572569847107,0.2263108342885971,-0.2556488513946533,-0.09759204834699631,0.10506702214479446,0.06324928998947144,-0.3358265459537506,0.3815976083278656,-0.008700861595571041,-0.42533716559410095,-0.28661730885505676,-0.06825150549411774,0.5712093710899353,0.23831279575824738,0.5552771687507629,-0.343386709690094,0.2263723611831665,0.18165919184684753,0.1346713751554489,0.19306908547878265,0.4558791518211365,-0.41844871640205383,0.6984690427780151,-0.048497963696718216,-0.22084146738052368,-0.29128405451774597,-0.1896955370903015,0.136566162109375,-0.525191068649292,-0.6205527186393738,0.04306682199239731,-0.0032262401655316353,-0.33617737889289856,-0.15704260766506195,0.0003581743221729994,-0.3014819920063019,-0.35332027077674866,-0.05055982246994972,0.13878317177295685,-0.4446796178817749,0.3605358600616455,0.23179858922958374,0.10294050723314285,-0.6197099685668945,-0.13592886924743652,0.08377043902873993,-0.35520002245903015,0.055841054767370224,0.43364736437797546,-0.017147036269307137,-0.09903095662593842,-0.053592048585414886,-0.37834545969963074,-0.48945870995521545,0.1627926230430603,0.4107215106487274,-0.1361202597618103,-0.17699627578258514,0.3770509660243988,0.10253582149744034,-0.4908120036125183,0.6596291065216064,-0.07582839578390121,-0.12202958017587662,-0.11249783635139465,0.6387144327163696,-0.2257365882396698,0.19514788687229156,-0.1581992655992508,0.5940068960189819,-0.39237281680107117,-0.2412956804037094,-0.27729132771492004,0.4154267907142639,-0.3826582431793213,-0.035615041851997375,-0.43170225620269775,0.28755152225494385,0.2949460446834564,0.3296571373939514,0.11497713625431061,-0.026827992871403694,-0.41800656914711,-0.1567200869321823,-0.02628973126411438,0.24671980738639832,-0.09888872504234314,-0.24229486286640167,0.13816042244434357,0.8897011280059814,0.18593110144138336,0.5491653084754944,-0.13197073340415955,0.5674830675125122,0.013782702386379242,-0.2598143517971039,0.3416706919670105,0.3511849045753479,-0.2737385034561157,-0.3435211777687073,0.18067575991153717,-0.2282792031764984,0.2111833691596985,0.2630567252635956,-0.18850865960121155,-0.8324353694915771,-0.039274681359529495,-0.6379640102386475,-0.3259076476097107,-0.4766630232334137,0.47863996028900146,-0.6136042475700378,0.3219696581363678,-0.12808121740818024,0.417837530374527,-0.21113702654838562,0.20148009061813354,0.20688380300998688,-0.09060148894786835,0.8691061735153198,0.1764935702085495,-0.2040441483259201,0.4216683804988861,-0.05172649770975113,-0.3026636242866516,0.04342216998338699,0.030414877459406853,-0.7904317378997803,-0.18914741277694702,0.011453467421233654,0.3445108234882355,-0.17753633856773376,-0.26286810636520386,0.11328665912151337,-0.5939913392066956,0.3084574043750763,-0.46299323439598083,0.43664973974227905,0.27107828855514526,-0.14392195641994476,0.21607889235019684,-0.2407187968492508,-0.04405893757939339,-0.8360140323638916,0.2822856903076172,0.5212928652763367,-0.2418545037508011,0.06252638250589371,-0.8882051706314087,0.40119194984436035,0.27268633246421814,-0.3875580430030823,0.17397218942642212,-0.20835347473621368,0.12082308530807495,-0.35310760140419006,-2.6919453375739977e-05,0.01904328353703022,0.14401410520076752,-0.7142919898033142,-0.16903100907802582,-0.02261059731245041,-0.0651782900094986,0.09297113120555878,-0.04657668620347977,0.12318872660398483,-0.4150618016719818,0.5403502583503723,-0.15294604003429413,-0.409883588552475,0.13251204788684845,-0.2515984773635864,-0.030867939814925194,0.23471571505069733,-0.438127338886261,0.212428018450737,0.2966667711734772,-0.23802760243415833,0.11372123658657074,-0.05107269808650017,-0.1485803872346878,-0.20257246494293213,-0.2062351107597351,0.2077762335538864,-0.3145913779735565,0.21330618858337402,0.18878762423992157,-0.038991399109363556,-0.5286372900009155,-0.1733788102865219,0.5998348593711853,-0.12481307238340378,0.4844525158405304,0.14316846430301666,-0.16866004467010498,0.2053072303533554,-0.36729443073272705,0.10355426371097565,-0.5564467310905457,0.34808334708213806,0.41515782475471497,-0.6786553859710693,-0.2789475917816162,0.1942680925130844,0.8908051252365112,0.6343863606452942,-0.02488637901842594,-0.0053734066896140575,-0.09536227583885193,-0.30068135261535645,0.2918073534965515,0.6361698508262634,-0.15975122153759003,0.398518443107605,0.34658095240592957,-0.08668134361505508,-0.7564237117767334,-0.4710964858531952,0.20128554105758667,-0.20416156947612762,-0.21476945281028748,-0.9196187257766724,0.1575470119714737,-0.497239887714386,0.5806356072425842,0.22640222311019897,0.20576100051403046,-0.27780503034591675,0.5284497141838074,0.054970674216747284,0.729223370552063,0.24129222333431244,-0.3103347718715668,0.3400859832763672,0.4256022274494171,-0.6122205853462219,0.7627494931221008,-0.06664004921913147,0.4254497289657593,-0.027005720883607864,0.09131631255149841,0.3630765974521637,-0.2674647569656372,0.46729978919029236,-0.572600245475769,0.5087294578552246,-0.027828674763441086,0.596697986125946,-0.30508866906166077,-0.3868788182735443,-0.1023755595088005,-0.282296359539032,-0.45970770716667175,0.34131452441215515,0.08258403837680817,-0.17019246518611908,-0.14300256967544556,-0.06986024975776672,-0.18781229853630066,0.34288474917411804,0.11460904777050018,-0.13737566769123077,0.23072214424610138,0.2289818376302719,-0.2694857120513916,0.3847487270832062,0.021046025678515434,-0.31174394488334656,0.23332788050174713,0.17902934551239014,-0.20532970130443573,-0.13436466455459595,0.41718029975891113,-0.015602707862854004,-0.03986305743455887,0.379909873008728,-0.37167584896087646,-0.19716395437717438,0.13575901091098785,0.4816014766693115,-0.8780414462089539,0.2677467167377472,-0.30441969633102417,-0.13016194105148315,-0.5295308232307434,0.01470914762467146,0.05125498026609421,-0.08795284479856491,0.2125721573829651,0.8104706406593323,-0.20382963120937347,0.2562117874622345,-0.003170429030433297,0.19170717895030975,-0.06643461436033249,-0.5084154009819031,-0.10889574140310287,-0.6278951168060303,0.277827650308609,-0.07441957294940948,0.15880829095840454,0.39012113213539124,0.20133377611637115,0.3722362518310547,0.16427813470363617,0.0024719496723264456,-0.29875126481056213,-0.03499729186296463,0.18198715150356293,-0.2419496327638626,-0.11731408536434174,0.05659130588173866,0.27229949831962585,-0.07552173733711243,0.43778195977211,0.5102870464324951,0.30132901668548584,0.1105121448636055,0.21374309062957764,0.2701900005340576,-0.9783312678337097,-0.11722446978092194,-0.46072661876678467,-0.21238815784454346,-0.5693130493164062,0.2562086284160614,-0.6144697070121765,-0.062132105231285095,-0.5566830635070801,-0.23204222321510315,0.13197915256023407,-0.0520797073841095,0.357656866312027,0.18425193428993225,0.32285594940185547,0.4815513789653778,-0.6023318767547607,-0.07235713303089142,0.17455410957336426,0.24992682039737701,-0.012764006853103638,-0.256203293800354,-0.3570236265659332,0.061749089509248734,-0.43624234199523926,-0.40299853682518005,0.24160048365592957,-0.08608479052782059,-0.1487024426460266,-0.0523131899535656,-0.21786288917064667,-0.06137724220752716,0.9775331616401672,-0.0008686179062351584,-0.37741050124168396,0.4108504056930542,0.16392649710178375,-0.0880851000547409,-0.29254403710365295,0.32092055678367615,0.053600482642650604,0.2778530716896057,-0.41782909631729126,0.25720885396003723,-0.06412668526172638,0.3432973623275757,0.1454259306192398,0.22555133700370789,-0.01399734616279602,-0.08232087641954422,-0.5548667907714844,0.06400378048419952,0.8389807939529419,-0.4009334146976471,-0.15150484442710876,0.6352477073669434,-0.515225350856781,0.33171674609184265,0.38388311862945557,0.3363085389137268,-0.150374174118042,0.09871222823858261,0.07770389318466187,0.7271061539649963,-0.001293448149226606,0.16930155456066132,-0.07181164622306824,0.11130168288946152,0.2574188709259033,-0.22865983843803406,-0.34068045020103455,0.7109471559524536,-0.5991144180297852,-0.0591246634721756,0.21645000576972961,-0.037899769842624664,0.2575562298297882,-0.44381803274154663,0.39344626665115356,0.3014872670173645,-0.16331373155117035,0.12896724045276642,0.19494324922561646,-0.49315914511680603,0.25179436802864075,0.3113105595111847,-0.3693588674068451,-0.19399066269397736,0.20612485706806183,0.19822201132774353,0.0677654892206192,0.3385394811630249,-0.31905752420425415,0.16297639906406403,0.47430551052093506,0.2082570344209671,-0.33617570996284485,0.3188805878162384,-0.2513861656188965,0.11862944066524506,0.04777536168694496,0.1649060696363449,-0.4443311095237732,-0.30066633224487305,0.26269280910491943,0.23015081882476807,0.3646143972873688,-0.8304606676101685,0.6039361357688904,-0.13382506370544434,0.0070821186527609825,-0.19032324850559235,0.2706930637359619,0.675341010093689,0.8246843814849854,-0.08641183376312256,-0.26625582575798035,0.15100106596946716,0.5764514207839966,0.204054057598114,-0.3115297853946686,-0.2305067926645279,0.5320736765861511,0.09114689379930496,0.15971609950065613,0.20512139797210693,0.2122194617986679,-0.36326083540916443,0.11995697766542435,-0.2712831497192383,-0.15540021657943726,-0.1983536332845688,0.47462934255599976,0.11380670964717865,0.028225574642419815,0.14174067974090576,-0.16574859619140625,-0.17438918352127075,-0.14553302526474,0.3227851688861847,-0.5900439023971558,-0.04659578204154968,0.3337692320346832,-0.685459554195404,0.0814872533082962,-0.78452068567276,-0.2619604766368866,0.3597998321056366,-0.09310892969369888,-0.5329133868217468,-0.5240673422813416,0.6131535768508911,0.09928039461374283,-0.26363837718963623,-0.13501502573490143
http://dbpedia.org/resource/Steve_Wozniak,-0.6803169250488281,0.3776024878025055,-0.143565371632576,-0.03663938492536545,-0.09671842306852341,0.15399299561977386,0.1589241623878479,-0.20538422465324402,0.3880547881126404,0.28722408413887024,0.6084949374198914,0.30500367283821106,0.35444918274879456,-0.2269832193851471,0.15417109429836273,-0.4288938641548157,-0.16841959953308105,0.20117822289466858,-0.5111376643180847,0.24237468838691711,-0.18725919723510742,-0.6273508667945862,-0.2605394721031189,-0.0685080960392952,0.1514514833688736,0.13140252232551575,0.022052893415093422,0.40618544816970825,-0.044131673872470856,0.12007289379835129,0.597538411617279,-0.20460602641105652,0.09382239729166031,0.5639420747756958,-0.35417041182518005,-0.2880723476409912,0.016800669953227043,0.3230140507221222,1.0656487941741943,0.5222760438919067,-0.28959253430366516,0.2880461513996124,-0.051491085439920425,-0.19736245274543762,0.23505817353725433,-0.2375234216451645,-0.13998879492282867,-0.12382597476243973,0.30056536197662354,0.03222469240427017,-0.2056381106376648,-0.5183356404304504,-0.017419971525669098,-0.10012193024158478,-0.38993752002716064,0.3351823091506958,0.33249250054359436,-0.11040696501731873,0.4695555567741394,-0.13050484657287598,0.2611880302429199,-0.19504684209823608,-0.21692001819610596,-0.4083715081214905,0.34456104040145874,0.043746769428253174,-0.1423371434211731,0.4185417592525482,-0.14696891605854034,-0.0624970979988575,-0.27398452162742615,0.2128794938325882,-0.24733757972717285,0.13573868572711945,-0.06184299290180206,-0.023045143112540245,-0.2020615041255951,-0.5367543697357178,0.1212674155831337,0.09357398748397827,0.303754061460495,0.08508165925741196,0.20174162089824677,0.04960139840841293,-0.14277969300746918,-0.17397278547286987,-0.25815707445144653,0.2163967341184616,-0.38741472363471985,0.13944007456302643,-0.1536891758441925,-0.7774823307991028,0.4305203855037689,0.31030240654945374,-0.09387318044900894,0.35649409890174866,0.1620449274778366,-0.664200484752655,-0.07877498865127563,-0.3993280827999115,-0.03425634652376175,0.7340611815452576,0.20962685346603394,0.34104642271995544,0.22737188637256622,-0.20942440629005432,0.39995285868644714,-0.43917155265808105,-0.05853017419576645,0.22595533728599548,0.27588897943496704,-0.09963291138410568,-0.40510860085487366,0.05368462949991226,-0.46514010429382324,-0.028577860444784164,-0.09791266173124313,0.17102722823619843,-0.057531435042619705,-0.20635946094989777,-0.2870761752128601,0.3143619894981384,0.2165331393480301,0.19960948824882507,0.38977596163749695,0.6818780899047852,0.18853344023227692,0.10563462227582932,-0.25471940636634827,-0.32826730608940125,-0.06579802930355072,0.2069271057844162,0.5042782425880432,-0.3339831829071045,0.1597609966993332,-0.20931249856948853,-0.22650502622127533,0.003847388317808509,0.27698537707328796,0.3242122530937195,-0.6639062166213989,-0.4237622022628784,-0.3407753109931946,-0.018559256568551064,0.74766606092453,0.4983433187007904,-0.30623871088027954,0.04777076095342636,0.05739974230527878,0.07420659810304642,-0.0026074210181832314,0.3615770936012268,0.016341719776391983,-0.2756373882293701,-0.01472938247025013,-0.1279723346233368,-0.16080813109874725,0.3317053020000458,0.5071162581443787,-0.9852349758148193,0.4969131052494049,-0.46497079730033875,-0.26112082600593567,-0.1789095103740692,-0.2340506613254547,0.0010738688288256526,-0.2565753757953644,-0.6204257607460022,0.05335157364606857,-0.24572862684726715,0.29649630188941956,0.018650639802217484,-0.13546910881996155,0.12252923101186752,0.6168847680091858,0.10440094769001007,0.1741282194852829,-0.13848815858364105,0.07065781205892563,0.041921768337488174,-0.14604128897190094,-0.2782914340496063,0.10370688140392303,-0.04556562751531601,0.1360909789800644,-0.22142770886421204,0.16341789066791534,0.260246217250824,0.33046481013298035,0.16157129406929016,0.12310197204351425,-0.3716558814048767,-0.38919517397880554,0.2867346704006195,-0.47691377997398376,0.3021206557750702,-0.3094604015350342,0.08231225609779358,0.12970779836177826,-0.33778032660484314,0.22946791350841522,-0.15967966616153717,-0.28801780939102173,0.06311219930648804,0.0361194908618927,-0.263910710811615,0.1236209124326706,-0.5171459317207336,0.015942592173814774,0.2161845713853836,-0.12796078622341156,-0.728996753692627,0.10793301463127136,-0.5103817582130432,-0.22253665328025818,0.009048226289451122,0.6245331168174744,0.24699507653713226,0.23472929000854492,-0.3567838668823242,0.41520851850509644,0.10603827238082886,0.27313390374183655,0.47430819272994995,-0.3336196541786194,0.5378577709197998,-0.10371751338243484,0.022185921669006348,-0.06532534956932068,0.5403536558151245,0.25031712651252747,0.36790671944618225,-0.03947271779179573,0.3892941474914551,-0.37680497765541077,-0.6311569809913635,-0.08134482055902481,-0.0795581117272377,-0.2660027742385864,0.22044968605041504,0.041132669895887375,-0.6155132055282593,-0.4030753970146179,0.10011343657970428,0.465128093957901,-0.10447956621646881,-0.18912966549396515,0.4475252628326416,-0.18810172379016876,0.13309624791145325,0.09761431813240051,0.3338371813297272,-0.2723619341850281,-0.21675574779510498,0.39822646975517273,0.57497239112854,0.09496691077947617,0.32654812932014465,-0.11603867262601852,0.3999660015106201,0.06278036534786224,0.5806105732917786,0.5138502717018127,0.5163689255714417,-0.5943734645843506,0.05501263588666916,0.03419353440403938,-0.05943082273006439,-0.2897542417049408,0.029002176597714424,0.24054409563541412,-0.5668466687202454,0.29032260179519653,0.0058793132193386555,-0.10327531397342682,-0.09434705227613449,-0.2447529286146164,0.435880571603775,-0.023613961413502693,-0.06724868714809418,0.2824329137802124,-0.08493974804878235,-0.8496952056884766,0.20288556814193726,0.1330728381872177,0.44668468832969666,0.19646769762039185,-0.04226066917181015,-0.07298365980386734,-0.2288416475057602,-0.14823824167251587,0.2614664137363434,0.43633392453193665,-0.05363970249891281,-0.4384676218032837,0.19228553771972656,-0.2612040638923645,-0.04711269214749336,-0.03462981432676315,0.17240974307060242,0.3360427916049957,-0.8165932297706604,-0.749910831451416,0.13799349963665009,0.4417036473751068,-0.38371041417121887,0.07063692808151245,0.2269551157951355,-0.22993838787078857,0.12761938571929932,0.25028976798057556,0.2754557132720947,-0.3465248644351959,-0.09658920019865036,-0.28356775641441345,-0.313974529504776,-0.08394297957420349,0.3088953197002411,-0.07607115060091019,-0.43509331345558167,0.26099956035614014,-0.302379310131073,-0.7367308735847473,0.3728175163269043,-0.14978624880313873,-0.40811604261398315,-0.5684078335762024,-0.24928826093673706,-0.003498553531244397,-0.4275353252887726,-0.57005774974823,0.02211902290582657,0.1809997707605362,0.07307448238134384,-0.02544480189681053,0.4076649248600006,0.21616072952747345,0.473974347114563,0.039591915905475616,-0.01481456309556961,0.13765586912631989,0.13089723885059357,0.2688114643096924,0.42660078406333923,0.1919863373041153,-0.37475788593292236,-0.47067952156066895,-0.5056202411651611,-0.05948898196220398,-0.06361448764801025,0.2487683892250061,-0.3706105351448059,0.16942986845970154,-0.5820051431655884,-0.0038939747028052807,-0.053500354290008545,-0.1950725018978119,0.5552505850791931,0.33845973014831543,0.45771780610084534,-0.28140363097190857,-0.08974535763263702,-0.006072374992072582,-0.046163834631443024,0.18822263181209564,-0.01001440268009901,0.09449366480112076,0.2709619998931885,-0.10116912424564362,-0.3552209734916687,-0.28048768639564514,-0.41875696182250977,0.12297190725803375,0.4395064413547516,-0.07904145121574402,0.3529911935329437,-0.17163591086864471,0.6956049799919128,0.30834296345710754,0.049888625741004944,0.0178805124014616,-0.15101753175258636,-0.018859170377254486,-0.13387268781661987,0.21842846274375916,-0.0825084000825882,0.24197040498256683,-0.12799225747585297,-0.0008473896305076778,-0.3639455735683441,0.24012009799480438,0.060510214418172836,0.481704443693161,-0.5131880640983582,0.19644789397716522,-0.027824129909276962,0.1338016390800476,0.46024060249328613,-0.7414129972457886,-0.0042105563916265965,0.20332913100719452,-0.13731205463409424,0.10172972083091736,-0.6376354694366455,0.1896587312221527,-0.34063318371772766,0.10406745225191116,0.8781635165214539,0.0724964588880539,0.4410356879234314,0.3216686546802521,-0.329496294260025,-0.3729146718978882,0.40083837509155273,0.3910442292690277,0.1067759171128273,0.2913380265235901,-0.07017474621534348,-0.23908469080924988,0.4491939842700958,0.13178208470344543,-0.2982605993747711,-0.5816382169723511,0.6125928163528442,0.04229651018977165,-0.7455245852470398,-0.17621411383152008,-0.3110769987106323,0.06425104290246964,0.41085758805274963,0.1553441733121872,0.20351633429527283,0.1514420509338379,0.06800951063632965,-0.18651770055294037,-0.1732630431652069,0.2390793412923813,-0.3292264938354492,-0.09938706457614899,0.5607385039329529,-0.4754367172718048,-0.38083747029304504,-0.0996156856417656,0.15396833419799805,0.4812959134578705,-0.16577884554862976,-0.05554327741265297,-0.21269963681697845,0.033878520131111145,-0.3868078887462616,0.04001905024051666,-0.08485408127307892,-0.17982488870620728,0.2094288319349289,0.1752743273973465,0.4109678864479065,-0.4340812861919403,-0.19209681451320648,0.19280703365802765,0.617455780506134,-0.4002684950828552,0.035209931433200836,0.38785308599472046,-0.17857769131660461,0.04032888263463974,-0.41665226221084595,-0.3615379333496094,0.3016214966773987,-0.2566124200820923,0.3304210305213928,0.44438251852989197,0.5125927329063416,-0.2254878133535385,0.7466763854026794,-0.039091628044843674,0.13785983622074127,-0.34329551458358765,0.10897238552570343,-0.6830301880836487,0.15022294223308563,0.2320656031370163,-0.0658668801188469,-0.3714566230773926,-0.21937258541584015,-0.3493109941482544,-0.444446861743927,-0.5241084098815918,0.04540695622563362,-0.038681115955114365,-0.2408086061477661,-0.15950998663902283,0.009216848760843277,0.5308901071548462,0.38600683212280273,0.04728764295578003,-0.3701333701610565,-0.03251611441373825,0.17977334558963776,0.2185625284910202,-0.10003448277711868
http://dbpedia.org/resource/Jonathan_Ive,0.20860955119132996,0.25698739290237427,-0.03531240299344063,0.24749407172203064,0.19639238715171814,-0.2728898227214813,0.18056295812129974,-0.09508822113275528,0.4738062918186188,-0.28433194756507874,0.47416770458221436,0.3203350603580475,0.7104175686836243,-0.27762919664382935,-0.07638005167245865,0.37868359684944153,-0.09722664952278137,-0.17884434759616852,-0.34731796383857727,0.3764062225818634,0.4699128270149231,-0.17205075919628143,0.2283632606267929,-0.20724929869174957,0.19544366002082825,-0.2265121042728424,-0.05172296240925789,0.2526197135448456,0.34455162286758423,-0.06038298085331917,-0.3368056118488312,-0.44238966703414917,-0.06428655982017517,0.1328800767660141,-0.07818244397640228,-0.30332496762275696,0.005704318173229694,0.5663105249404907,0.05493798851966858,0.33669719099998474,-0.5373179316520691,0.6650159358978271,-0.15235842764377594,0.022670602425932884,-0.06543423235416412,0.06866730004549026,-0.14713378250598907,-0.1638786941766739,0.49451079964637756,-0.04522507265210152,-0.05424956604838371,-0.6079434752464294,0.21237680315971375,-0.25122711062431335,-0.5245832204818726,0.4855898916721344,-0.2065540999174118,-0.244461789727211,-0.2089935839176178,0.6941738128662109,-0.0569172129034996,-0.3011153042316437,-0.09131909161806107,-0.0014074917417019606,-0.2687915563583374,0.03514678031206131,-0.3848031461238861,-0.08306914567947388,-0.3964241147041321,0.101139597594738,0.19604259729385376,0.03968685492873192,-0.012372666038572788,0.21567927300930023,-0.16801224648952484,-0.2565127909183502,0.09479738771915436,-0.4974270761013031,0.3190290331840515,0.44668248295783997,0.07358269393444061,0.2306285947561264,-0.020100221037864685,-0.3147071599960327,-0.13495464622974396,0.08902141451835632,-0.10517648607492447,-0.3136235773563385,-0.1545860767364502,-0.22016431391239166,0.012061609886586666,-0.37085896730422974,0.16998304426670074,0.4649132192134857,0.13532181084156036,-0.10422161221504211,0.6374264359474182,-0.13574360311031342,0.09556444734334946,-0.35515686869621277,0.0849800705909729,0.3985069692134857,0.1057610958814621,-0.040894314646720886,-0.05633321404457092,-0.6062954068183899,0.06079128012061119,0.042581964284181595,0.2768571376800537,-0.012388674542307854,0.31283459067344666,-0.12965364754199982,0.16747191548347473,-0.2949310541152954,-0.19364595413208008,0.6186473965644836,0.1475023776292801,0.3366273045539856,0.3374839723110199,0.004630852025002241,0.05289682745933533,0.9331369400024414,0.0357930064201355,-0.051396746188402176,0.11011044681072235,0.8840336203575134,0.2817975878715515,-0.08527368307113647,-0.1583816260099411,-0.32956281304359436,-0.838251531124115,-0.01279479544609785,-0.35961464047431946,-0.4395241141319275,0.285087525844574,0.14191856980323792,-0.20410200953483582,-0.16378268599510193,0.3997828960418701,0.0700971931219101,-0.6834225654602051,0.0901813954114914,-0.10408032685518265,0.010875727981328964,0.27239835262298584,0.2481907308101654,-0.034940022975206375,0.24350088834762573,0.036586664617061615,0.8121370077133179,-0.03468840941786766,-0.2885420024394989,-0.8762244582176208,-0.6651496887207031,0.4808046221733093,0.4375157654285431,-0.2206030786037445,0.2676022946834564,-0.1299029439687729,-0.7653416991233826,-0.03146792948246002,-0.20762063562870026,-0.41191548109054565,-0.06039398908615112,0.026503585278987885,0.34659361839294434,0.23628605902194977,-0.06373860687017441,-0.043839238584041595,-0.1567407250404358,0.10636242479085922,-0.08669237047433853,0.5317147970199585,-0.051102183759212494,0.2151651680469513,-0.0027016878593713045,0.18671001493930817,-0.5088810920715332,-0.15594664216041565,-0.25958138704299927,-0.031334683299064636,-0.11800586432218552,-0.029530320316553116,-0.5008028149604797,-0.18154412508010864,-0.07764860987663269,-0.34746959805488586,-0.1040225476026535,-0.168985515832901,-0.0672975480556488,0.14533352851867676,-0.28105050325393677,0.40769466757774353,-0.2935134768486023,-0.2594902217388153,0.29012757539749146,-0.14443479478359222,0.23834507167339325,0.6042335629463196,-0.4124883711338043,0.5238334536552429,0.6126927733421326,-0.07561594992876053,0.20963959395885468,-0.09772799164056778,-0.1834394633769989,-0.12988853454589844,-0.39923590421676636,-0.22609341144561768,-0.32685476541519165,-0.03180769458413124,-0.17588801681995392,0.1337091624736786,-0.24677199125289917,0.1753019094467163,0.014040813781321049,0.1757093071937561,0.43407806754112244,0.11397577822208405,-0.030565163120627403,0.18066424131393433,0.2794959843158722,-0.21600942313671112,0.7318513989448547,-0.10414917021989822,0.7079895734786987,-0.5396720767021179,0.2055756002664566,0.142594113945961,0.33606627583503723,0.009674523957073689,0.2701244354248047,0.053256116807460785,-0.18386416137218475,-0.5512826442718506,0.1289021223783493,-0.005912045482546091,-0.20288732647895813,-0.2831876575946808,0.16903723776340485,0.15184077620506287,-0.3464510440826416,0.1144089624285698,0.054054055362939835,0.22524817287921906,-0.2091813087463379,-0.535140872001648,0.563744306564331,0.5924562215805054,0.734221339225769,0.5686410665512085,0.3485916554927826,-0.8043181300163269,0.1507577896118164,0.33674904704093933,0.21239866316318512,-0.0047966549172997475,-0.04425439238548279,0.0623629130423069,0.4731350243091583,-0.08372367173433304,1.0927932262420654,-0.1852358728647232,0.24568577110767365,-0.04249582812190056,-0.1030564084649086,0.06512384861707687,-0.17292073369026184,0.013316668570041656,-0.2173721343278885,0.3610377609729767,0.18029357492923737,0.29740041494369507,0.19997426867485046,-0.35092413425445557,0.2259482443332672,0.301245778799057,-0.18839974701404572,0.0686819776892662,-0.06563815474510193,-0.16182419657707214,0.39411917328834534,-0.41692525148391724,-0.37559354305267334,0.537652850151062,0.14501389861106873,0.12004260718822479,0.24633145332336426,0.13413265347480774,-0.12122855335474014,-0.10209009796380997,0.12326204776763916,0.24941039085388184,0.23508688807487488,0.304328054189682,0.062400106340646744,0.4225272834300995,-0.2653120160102844,0.2754274308681488,0.2769887149333954,0.3441943824291229,-0.08593344688415527,-0.09017044305801392,0.24486537277698517,0.017984487116336823,-0.3295365273952484,0.2705618143081665,-0.059496331959962845,0.6255563497543335,-0.32140740752220154,-0.16582968831062317,0.2613881528377533,-0.35132184624671936,-0.351639062166214,-0.35564514994621277,-0.39581483602523804,0.4156772494316101,0.005255260970443487,0.18147653341293335,-0.0662941113114357,-0.12322524935007095,-0.41677355766296387,-0.2962722182273865,-0.1744181513786316,0.006879463791847229,0.1760505586862564,-0.03614696115255356,-0.1204589381814003,-0.07052953541278839,-0.13843083381652832,0.004406000021845102,-0.10457099974155426,-0.0866054818034172,0.29068225622177124,-0.032376859337091446,0.02379537932574749,0.1387985497713089,-0.1427573412656784,0.34806638956069946,0.7401374578475952,0.06935412436723709,0.2630939781665802,-0.027224993333220482,-0.26424330472946167,0.3017409145832062,-0.1806069165468216,0.39897802472114563,-0.3654535114765167,0.07019162178039551,0.4890108108520508,-0.13462020456790924,-0.2331043928861618,0.6137979030609131,-0.538928210735321,-0.21867333352565765,-0.4678223729133606,-0.17194631695747375,0.24010604619979858,0.16436932981014252,-0.03828548640012741,-0.19578124582767487,-0.3310364782810211,0.22582189738750458,-0.16112683713436127,-0.28177109360694885,0.5137953758239746,0.05851136893033981,-0.26399704813957214,-0.14680340886116028,-0.4006311595439911,0.1641884297132492,-0.06172744557261467,0.04721355810761452,-0.16287223994731903,-0.09392643719911575,-0.22840097546577454,-0.12740768492221832,0.4235386848449707,0.5373336672782898,-0.06116870790719986,0.1095893383026123,0.0975399985909462,-0.4455180764198303,0.003826185129582882,0.18146543204784393,-0.14274919033050537,0.18802446126937866,-0.2488008290529251,-0.24095278978347778,-0.039442069828510284,0.25244665145874023,0.22614970803260803,0.5679818987846375,-0.05721166729927063,-0.25780537724494934,-0.4471912682056427,0.3013293743133545,0.6084487438201904,0.11257421970367432,0.3606318235397339,0.5501106381416321,-0.5903216004371643,-0.01674058847129345,-0.07821894437074661,0.20323696732521057,-0.23792530596256256,0.29607659578323364,0.5440548062324524,0.308888703584671,1.0244523286819458,0.21459434926509857,0.4574277997016907,0.16442401707172394,0.20842377841472626,-0.0039836992509663105,-0.014278024435043335,-0.011590716429054737,-0.24359966814517975,-0.5501835942268372,-0.1078214943408966,0.23845890164375305,-0.2387325018644333,-0.21150769293308258,1.1539182662963867,0.16078422963619232,-0.2267405390739441,0.1733117252588272,-0.3210548460483551,-0.49709197878837585,0.12318217754364014,0.08833800256252289,0.04305656626820564,0.5458040833473206,-0.04666048288345337,-0.2983299791812897,-0.23286323249340057,0.3426600396633148,-0.040036752820014954,0.037889547646045685,0.4517104923725128,0.07688009738922119,0.2163124978542328,-0.5595325231552124,0.1751827895641327,0.05955145135521889,-0.24913179874420166,-0.15829063951969147,-0.07787138968706131,0.29207247495651245,-0.11385175585746765,-0.013002459891140461,0.09285692125558853,0.278291255235672,-0.18509425222873688,-0.05629473924636841,-0.011045431718230247,-0.17882348597049713,-0.19899055361747742,0.11671284586191177,0.7292652130126953,-0.06599628180265427,0.3283451795578003,-0.09191302210092545,-0.604270339012146,-0.33391162753105164,-0.45229169726371765,0.13267147541046143,-0.10842175036668777,0.11677474528551102,0.11339584738016129,-0.2395036667585373,0.0698297843337059,-0.4616941809654236,0.14411994814872742,0.3319922089576721,-0.036211103200912476,-0.5277920365333557,0.5552307963371277,-0.3924667239189148,0.16245228052139282,-0.014522763900458813,-0.6743263602256775,-0.037529293447732925,-0.2518461346626282,-0.006394115276634693,-0.44005873799324036,-0.7874370813369751,-0.14377421140670776,-0.5268008708953857,-0.3352874219417572,-0.3431415259838104,0.46196597814559937,0.42297253012657166,-0.09106850624084473,0.058482784777879715,-0.25625646114349365,0.08134667575359344,-0.1818746030330658,0.4323562681674957,-0.1645122915506363
http://dbpedia.org/resource/Mac_Pro,0.6007992625236511,0.22153326869010925,0.003456634934991598,-0.5463915467262268,0.0976366326212883,-0.30011987686157227,-0.13176268339157104,-0.32830342650413513,-0.4049048125743866,-0.06924811005592346,0.23278853297233582,-0.5973331928253174,0.6910282969474792,-0.3031364977359772,0.016767404973506927,0.06519699841737747,-0.13862472772598267,-0.21866582334041595,0.20921823382377625,-0.48348820209503174,0.4601140022277832,-0.38589927554130554,0.14985206723213196,0.2336743324995041,-0.1407347023487091,-0.2749084532260895,0.014886315912008286,0.0077590495347976685,-0.05855856463313103,-0.39233869314193726,0.5415293574333191,-0.030756963416934013,0.434145450592041,0.6134395003318787,-0.23370109498500824,-0.17924390733242035,-0.3679797351360321,0.27107444405555725,0.23427577316761017,0.07927168905735016,-0.10991335660219193,-0.37373051047325134,-0.004881206899881363,0.2812032401561737,-0.1930459886789322,0.02512085624039173,-0.18420125544071198,0.03840326517820358,0.09895312786102295,0.24182790517807007,0.14745251834392548,-0.0966816395521164,0.33647093176841736,-0.17491845786571503,0.3603716194629669,-0.16614845395088196,0.24741630256175995,0.11345820128917694,-0.21970993280410767,0.37792396545410156,-0.20567874610424042,-0.1904144138097763,-0.14810709655284882,0.3313937187194824,-0.14752888679504395,-0.10801737010478973,-0.194461852312088,-0.17184989154338837,-0.47132644057273865,-0.11033207178115845,-0.10833299160003662,-0.03614615648984909,0.009232553653419018,-0.04551367834210396,0.29871469736099243,-0.49811577796936035,-0.7427409887313843,0.36994192004203796,0.13510166108608246,-0.30627068877220154,0.20902426540851593,-0.25414326786994934,-0.2788822650909424,-0.38718822598457336,0.04030991345643997,0.0873812884092331,0.1975650191307068,-0.4034087657928467,-0.23123933374881744,-0.18846872448921204,-0.034461118280887604,0.049850963056087494,-0.46266916394233704,-0.3345794379711151,-0.08237110078334808,-0.12071101367473602,0.3670884370803833,-0.3494936525821686,-0.07970268279314041,0.2580873966217041,0.06363226473331451,0.3738803565502167,0.4554246664047241,0.13914194703102112,0.11339782178401947,0.36083245277404785,0.4442675709724426,-0.26908445358276367,-0.5040389895439148,-0.05816039443016052,0.2824034094810486,0.23404164612293243,-0.25669851899147034,-0.4581977427005768,0.35228022933006287,0.22047986090183258,0.049121107906103134,0.020511936396360397,-0.2629651427268982,-0.0687822550535202,-0.17875872552394867,0.37527093291282654,-0.08165407180786133,-0.48724672198295593,0.18118035793304443,0.700628936290741,-0.20952849090099335,0.15597178041934967,-0.32429951429367065,-0.29717981815338135,-0.8275945782661438,0.2801109254360199,0.030946506187319756,0.09375014901161194,0.1963425725698471,-0.05391499772667885,-0.006480042822659016,0.5466514229774475,0.35602328181266785,-0.3105925917625427,-0.06484117358922958,0.30257025361061096,0.015776365995407104,-0.39765575528144836,0.27266955375671387,0.018055299296975136,-0.3025309145450592,0.40722590684890747,0.09175705909729004,-0.33867377042770386,-0.1547500640153885,0.4204334318637848,-0.5383932590484619,-0.28101828694343567,0.1814710646867752,0.05399562790989876,-0.11645985394716263,-0.47643718123435974,-0.020083777606487274,-0.18023209273815155,0.10953082889318466,-0.0001775350101524964,0.2615389823913574,-0.07980256527662277,0.03792211785912514,0.17991001904010773,0.04382327198982239,-0.016746332868933678,0.019775625318288803,0.186832994222641,0.07658291608095169,-0.31057029962539673,-0.03339302912354469,0.23772567510604858,0.10697709023952484,-0.4719223082065582,0.3343932330608368,0.21329626441001892,-0.8567526340484619,0.3562159538269043,-0.11010067164897919,0.009467853233218193,-0.3839113116264343,-0.2555984854698181,-0.5510187149047852,-0.2042100727558136,0.05092230811715126,-0.37379205226898193,0.5933955907821655,0.10088057070970535,-0.13189974427223206,-0.030449213460087776,0.03970150277018547,0.13770250976085663,-0.45765334367752075,-0.32936298847198486,-0.011980801820755005,0.05198441073298454,-0.25354304909706116,-0.18105310201644897,-0.02509481832385063,0.38296228647232056,0.25569289922714233,-0.17942337691783905,0.0689762756228447,-0.2139601856470108,0.05265814810991287,-0.06292262673377991,-0.317518413066864,0.1791880577802658,-0.0488840751349926,-0.4304772913455963,0.3090713918209076,-0.7165025472640991,-0.12812034785747528,0.6058884263038635,-0.06476233154535294,-0.27767762541770935,0.2788454592227936,-0.07918079197406769,-0.28371354937553406,-0.4403613209724426,0.524120032787323,-0.25837796926498413,0.38238802552223206,-0.08997043967247009,-0.4179559648036957,0.2062564194202423,-0.3412202000617981,-0.4024883806705475,0.5663588047027588,-0.4292636513710022,-0.4957702159881592,0.7496216297149658,-0.07255813479423523,0.03078579530119896,0.5110281705856323,-0.05267445743083954,-0.011330009438097477,-0.1892099380493164,0.13074509799480438,0.24966692924499512,-0.07220010459423065,0.6733890175819397,0.5357506275177002,-0.14929690957069397,-0.5811533331871033,0.13271887600421906,-0.4808698892593384,-0.1577722132205963,0.335036963224411,-0.16158020496368408,-0.6720115542411804,0.04516642168164253,0.22727161645889282,-0.19075052440166473,0.32331472635269165,0.34850335121154785,-0.3655833303928375,0.18423745036125183,-0.2156090885400772,0.7986215353012085,-0.2199215292930603,-0.19258816540241241,0.020434502512216568,0.08766808360815048,0.06833285093307495,0.3899492621421814,0.21936964988708496,0.15077632665634155,-0.08219914138317108,-0.24747730791568756,0.13796520233154297,-0.4277401864528656,-0.4825427234172821,-0.4094763696193695,-0.5411547422409058,-0.5819069147109985,-0.12698781490325928,-0.004967669025063515,-0.35267797112464905,0.10453447699546814,-0.6133323907852173,-0.05849264934659004,-0.16056524217128754,-0.3934458792209625,-0.6353633403778076,-0.0794740617275238,0.019594190642237663,-0.0846175104379654,-0.2797130048274994,0.3342554271221161,0.13981124758720398,-0.209879070520401,-0.37332993745803833,-0.22002749145030975,0.24374248087406158,0.22996839880943298,-0.27322253584861755,-0.2947850823402405,0.2972584664821625,0.048409800976514816,-0.010511808097362518,-0.30376067757606506,-0.2810398042201996,-0.14839692413806915,-0.40791958570480347,0.05550212413072586,0.0899454802274704,0.09736169129610062,0.4485268294811249,0.566089928150177,0.28530117869377136,0.41958677768707275,-0.15947960317134857,-0.14296606183052063,0.0400625579059124,-0.026597576215863228,0.246828094124794,-0.2368282675743103,-0.4527338743209839,-0.1376369297504425,-0.4862847328186035,0.09312307834625244,0.05057411640882492,0.03177187219262123,0.03140109404921532,-0.04152456298470497,-0.05205732583999634,-0.28463634848594666,-0.2285497486591339,0.5270547866821289,0.501640796661377,0.0024506833869963884,-0.28951144218444824,0.11249126493930817,-0.10366220027208328,0.6133719086647034,-0.009837542660534382,0.23072127997875214,0.13963550329208374,-0.14972490072250366,0.21650566160678864,0.862544059753418,-0.17683573067188263,-0.3851168155670166,-0.001177996746264398,0.009814372286200523,-0.6065186858177185,0.07192102074623108,-0.13989244401454926,-0.006595014128834009,0.24040937423706055,-0.2706480324268341,0.24544301629066467,-0.48158761858940125,-0.29682889580726624,0.02196637913584709,0.17196185886859894,-0.2632412910461426,0.285605788230896,0.18267680704593658,-0.05678567290306091,0.26524481177330017,-0.30958977341651917,0.6614569425582886,0.03270580619573593,-0.2067764699459076,0.16806814074516296,-0.4218328595161438,-0.046023428440093994,0.16268326342105865,-0.20269924402236938,-0.15440788865089417,0.40550506114959717,0.30349835753440857,0.18854576349258423,0.03480876237154007,0.10677249729633331,0.13084428012371063,0.426517128944397,-0.25395384430885315,0.07921332865953445,-0.009952899068593979,-0.24237318336963654,-0.37258246541023254,0.28397998213768005,0.042768627405166626,0.5583246946334839,-0.06631393730640411,0.801310122013092,-0.16974277794361115,0.282322496175766,-0.017292099073529243,0.1247260645031929,-0.10736715793609619,0.24305160343647003,-0.14191754162311554,-0.23483164608478546,-0.19772937893867493,0.13226835429668427,-0.5465326905250549,0.14332397282123566,0.3172001242637634,-0.00324589223600924,-0.004001143854111433,0.4325690269470215,-0.11379081755876541,0.09564686566591263,-0.17670802772045135,0.5004900693893433,-0.05389774218201637,0.35076001286506653,-0.47691720724105835,-0.1820344179868698,-0.23502352833747864,0.3448418378829956,-0.08604945987462997,0.08868204057216644,0.14291296899318695,-0.23196187615394592,0.20686696469783783,-0.1731150597333908,0.626127302646637,-0.2586880028247833,-0.1999066025018692,-0.2678688168525696,0.19711314141750336,-0.21274793148040771,-0.11351984739303589,0.040753766894340515,-0.21126008033752441,0.016567561775445938,-0.019758131355047226,0.021434586495161057,-0.06504541635513306,0.44026806950569153,-0.0437297523021698,1.813642847992014e-05,0.19931218028068542,0.1920057237148285,-0.13896752893924713,0.2756726145744324,0.4260985553264618,-0.11080567538738251,0.19577094912528992,-0.029736410826444626,0.12216399610042572,-0.052916307002305984,-0.5159812569618225,0.1012864038348198,0.255448579788208,-0.10199116170406342,0.23773391544818878,-0.12281051278114319,-0.10203050076961517,-0.20795513689517975,-0.09963325411081314,-0.25342392921447754,0.5129488706588745,-0.059000901877880096,0.22812196612358093,-0.3006271421909332,-0.06772137433290482,-0.10984707623720169,-0.1969955414533615,-0.4945310950279236,0.21890877187252045,-0.04673227295279503,0.5107421278953552,-0.316226601600647,0.08158042281866074,-0.2475745975971222,-0.18133778870105743,-0.10364126414060593,0.384634792804718,-0.27807068824768066,0.4244736433029175,0.14369703829288483,0.2918756306171417,-0.30443665385246277,-0.42743268609046936,0.29932326078414917,-0.2305496633052826,-0.3952309787273407,-0.1543707251548767,-0.42420363426208496,0.25625455379486084,-0.3916337192058563,-0.14254216849803925,-0.3536418378353119,0.16509394347667694,0.024183709174394608,0.07313216477632523,0.3336014449596405,-0.5832887887954712,0.5183984041213989,0.22580400109291077,-0.22873331606388092,0.0595085509121418
http://dbpedia.org/resource/Mike_Markkula,0.03729378059506416,-0.25726595520973206,-0.1438329666852951,-0.12797321379184723,0.08154924213886261,-0.028945110738277435,0.25460943579673767,-0.22476890683174133,0.004446906037628651,0.1248842254281044,0.5569984316825867,-0.1830904334783554,0.13623075187206268,0.15647976100444794,-0.18143396079540253,0.4112819731235504,0.1534995287656784,0.3670002222061157,-0.03348538652062416,-0.006699323188513517,-0.07350099831819534,0.04647792875766754,0.316586434841156,-0.14490918815135956,0.24878570437431335,-0.12962032854557037,0.2513660788536072,-0.20121626555919647,-0.08827520906925201,0.18513117730617523,0.4383186101913452,-0.22876431047916412,0.6025639772415161,-0.03241213783621788,0.1842208355665207,0.373563677072525,-0.20453913509845734,0.10148130357265472,0.018418878316879272,0.4982769787311554,-0.20448176562786102,-0.01919221319258213,-0.02785343863070011,0.13073265552520752,0.034010618925094604,-0.029533356428146362,0.12985700368881226,0.16796502470970154,-0.23283374309539795,0.11063728481531143,0.2610081136226654,0.3303717076778412,0.24771349132061005,-0.3095078766345978,-0.342869371175766,-0.20605438947677612,-0.2161647230386734,0.14232084155082703,-0.12318342924118042,0.602891743183136,0.010906288400292397,0.12466417253017426,0.043104588985443115,-0.26555001735687256,0.2838989794254303,-0.10177626460790634,-0.08287599682807922,0.37581866979599,-0.19961407780647278,-0.3293377459049225,-0.4413768947124481,0.11199876666069031,-0.29757627844810486,0.5163345336914062,0.2971647381782532,-0.36728155612945557,0.4208698868751526,0.5035589933395386,0.3963702321052551,0.17720094323158264,0.17632202804088593,0.24976781010627747,0.1724751591682434,0.3570447564125061,0.08282110840082169,-0.1532871127128601,0.15964697301387787,-0.16209135949611664,-0.08105345815420151,0.14572688937187195,-0.1477346420288086,-0.26397040486335754,0.07886573672294617,0.10079175978899002,0.028003087267279625,-0.3419555127620697,0.14630745351314545,-0.1943710893392563,-0.20132984220981598,-0.23322449624538422,0.0027719687204807997,0.25538596510887146,-0.27258172631263733,0.03967447578907013,0.3799284100532532,0.13688300549983978,-0.047674160450696945,-0.13315808773040771,-0.4460009038448334,-0.3435244560241699,0.2821267545223236,-0.05194057896733284,-0.2248571813106537,-0.3330800533294678,0.07392122596502304,0.16794241964817047,0.06269586086273193,-0.36716699600219727,0.11039462685585022,0.09581740945577621,0.4128611087799072,0.5960233807563782,-0.06783369928598404,-0.28983911871910095,-0.6258597373962402,0.3717012405395508,-0.2136639505624771,0.15024060010910034,-0.26586735248565674,-0.07757169008255005,0.2249324768781662,0.13331499695777893,-0.26104044914245605,0.08238860964775085,0.014725585468113422,0.21381378173828125,-0.03909866139292717,0.14781425893306732,0.03782003000378609,0.2142985612154007,0.12230178713798523,0.19912005960941315,-0.05424242839217186,0.2065538763999939,0.10819696635007858,0.21799969673156738,-0.13406379520893097,0.3921933174133301,-0.025772197172045708,-0.16870775818824768,-0.01849113218486309,-0.17135827243328094,-0.07104337960481644,0.05961502715945244,0.28251489996910095,-0.002508400473743677,-0.11692113429307938,0.027692025527358055,-0.25083932280540466,0.0631728246808052,0.18084369599819183,-0.34693893790245056,-0.005201537627726793,0.3116365969181061,0.1303531527519226,0.10983401536941528,0.3384350836277008,0.24508921802043915,-0.0639360174536705,-0.18549837172031403,-0.03595879673957825,-0.5594651103019714,0.0529550164937973,-0.2059561014175415,-0.16239489614963531,-0.22765998542308807,0.26246508955955505,0.4857296645641327,-0.05945350602269173,-0.2876175045967102,-0.1334904134273529,-0.02651934139430523,-0.36454376578330994,0.2979393005371094,0.08572180569171906,-0.4967810809612274,-0.03878103196620941,-0.2845709025859833,-0.041431304067373276,-0.007312177214771509,0.4463980495929718,0.09385658800601959,-0.22591239213943481,0.12498577684164047,0.22776015102863312,0.030932670459151268,0.01228166650980711,-0.10201264172792435,0.20952966809272766,-0.04020346701145172,0.23024877905845642,0.08806048333644867,0.09919708222150803,0.024366315454244614,-0.12283767014741898,-0.2288520783185959,-0.2406838834285736,0.38877347111701965,-0.06882535666227341,-0.25996723771095276,-0.4444073438644409,-0.37766921520233154,-0.10359067469835281,0.017513440921902657,-0.13372473418712616,0.031153468415141106,0.11373088508844376,-0.30300602316856384,0.1409112811088562,0.14212040603160858,-0.17081108689308167,-0.049701087176799774,0.4008883535861969,-0.2819472849369049,-0.0496460497379303,-0.08056782186031342,-0.28959909081459045,0.10402991622686386,0.06465087085962296,0.23916953802108765,0.031049467623233795,0.024953622370958328,-0.037644095718860626,-0.1708582639694214,0.1925593465566635,-0.03490810468792915,0.14402952790260315,0.07582779228687286,-0.11507733911275864,0.18143193423748016,0.4966583251953125,-0.03604613617062569,-0.3410465717315674,0.297146201133728,0.04243282601237297,0.1681361347436905,-0.08862666040658951,0.11976868659257889,-0.16433702409267426,0.47405263781547546,-0.02858716994524002,-0.05967191979289055,-0.2615077793598175,-0.34300974011421204,0.14285150170326233,0.03467217832803726,-0.15152668952941895,-0.08111798018217087,-0.01421414129436016,-0.053799692541360855,-0.06454859673976898,0.10099528729915619,0.05195194110274315,0.10232546180486679,-0.11736349016427994,0.14944209158420563,0.24881471693515778,-0.22061389684677124,-0.12831823527812958,0.01053765881806612,0.36892998218536377,-0.2722760736942291,0.11415380239486694,-0.2664340138435364,-0.13397304713726044,0.06471994519233704,-0.1097586378455162,-0.13710756599903107,0.1599826067686081,-0.26552921533584595,-0.018522432073950768,0.048300646245479584,-0.2667306661605835,-0.25868549942970276,0.37137019634246826,0.11286476999521255,0.07372774183750153,0.17988909780979156,0.0860016718506813,-0.6276168823242188,-0.44097405672073364,0.18566380441188812,0.059663351625204086,0.21034719049930573,-0.13937094807624817,-0.05156683549284935,0.3527514636516571,0.3190120458602905,0.1369370073080063,0.17166690528392792,0.13617123663425446,-0.03610294312238693,0.034143708646297455,-0.11229714006185532,0.1702520251274109,0.12296292930841446,0.2810126841068268,-0.15593089163303375,0.06405606865882874,-0.08985794335603714,0.28018292784690857,0.15869437158107758,0.04147229343652725,0.013836595229804516,0.24326929450035095,-0.18825945258140564,-0.3128907382488251,0.20054352283477783,-0.1536063849925995,-0.34331896901130676,-0.16950777173042297,-0.039664376527071,-0.09505168348550797,0.030477317050099373,0.04254303127527237,0.11996035277843475,-0.41714632511138916,0.005089321173727512,-0.059006620198488235,0.06417570263147354,-0.34598806500434875,0.2378682643175125,-0.00673137279227376,-0.17763324081897736,0.1785595715045929,-0.0003638816997408867,-0.14947281777858734,0.13374561071395874,-0.0773872509598732,0.13280993700027466,0.07362721860408783,0.10179218649864197,0.7635501027107239,0.5864231586456299,0.2624746561050415,-0.6278719305992126,0.11399185657501221,-0.2853245735168457,0.17473864555358887,0.006130903493613005,-0.15894365310668945,-0.016143113374710083,0.0587007999420166,0.2089373916387558,0.15479733049869537,-0.1866508275270462,0.07445026934146881,0.368533730506897,0.06238407641649246,0.5263146758079529,0.12397707253694534,-0.11722733080387115,0.13563698530197144,0.6120760440826416,-0.2981928288936615,-0.087872713804245,-0.18727895617485046,0.007847615517675877,0.26326191425323486,-0.24400876462459564,0.10002698749303818,0.24260257184505463,-0.020007098093628883,0.10810635983943939,0.060977403074502945,0.05011804401874542,-0.02402540296316147,0.12473935633897781,0.16748349368572235,-0.17816902697086334,0.22994811832904816,0.6150254607200623,-0.11874525249004364,-0.048980098217725754,-0.26253771781921387,-0.09852088242769241,0.05533147603273392,0.19539892673492432,0.16619737446308136,0.4353567957878113,0.2611427307128906,-0.22589851915836334,0.4687792658805847,-0.07409043610095978,-0.3601888120174408,0.28162163496017456,-0.06575794517993927,0.12244665622711182,0.33013293147087097,0.01488201692700386,0.16699455678462982,0.10872111469507217,-0.13581137359142303,0.014820928685367107,0.02186247706413269,0.14632348716259003,0.14661841094493866,0.302689790725708,0.04311620816588402,0.11822817474603653,-0.043827515095472336,-0.3019014000892639,-0.05146683380007744,-0.07015753537416458,-0.035891104489564896,-0.3260958790779114,0.09886499494314194,-0.0396498367190361,-0.04449818655848503,-0.4388652443885803,0.2518463432788849,-0.4737781584262848,-0.422769159078598,0.060110464692115784,0.24609538912773132,-0.3560447692871094,0.3706215023994446,0.5179283022880554,-0.21161019802093506,-0.027156060561537743,-0.13300979137420654,-0.36767876148223877,-0.15142521262168884,0.10164095461368561,0.12552675604820251,-0.2347414195537567,0.05722702294588089,-0.06577683985233307,-0.12386739253997803,0.0398334376513958,0.06823885440826416,0.11396194994449615,-0.20539793372154236,0.3797890841960907,-0.07157651335000992,-0.05309734493494034,0.1369655430316925,0.05917928367853165,0.3676791787147522,-0.13783128559589386,0.03698629140853882,0.21898481249809265,0.05771782249212265,0.03822201117873192,0.04368196055293083,-0.02764027938246727,0.19543901085853577,0.3416854441165924,0.014426610432565212,0.14119990170001984,0.3165298402309418,-0.13099411129951477,-0.10225681960582733,-0.138080433011055,-0.4080529510974884,-0.31984591484069824,-0.197305828332901,0.12327580153942108,-0.3002685308456421,0.539316713809967,0.2815209925174713,0.3340378403663635,-0.2994345724582672,0.21377509832382202,0.11849767714738846,-0.14976201951503754,0.05938922241330147,0.502642035484314,0.11067484319210052,-0.21718284487724304,-0.02647218480706215,-0.15992037951946259,-0.08702829480171204,0.14142917096614838,0.2670167088508606,-0.22196531295776367,-0.2852959930896759,0.1030215248465538,0.05091638118028641,-0.051712341606616974,0.24609871208667755,0.3196689188480377,0.08091672509908676,0.07126183807849884,0.16056238114833832,-0.2628432810306549,-0.2522311806678772,0.1717241257429123,-0.22001975774765015,-0.48425552248954773
http://dbpedia.org/resource/Infinite_Loop_(street),-0.3250318169593811,0.26943543553352356,-0.12834973633289337,-0.1156981810927391,0.15708965063095093,0.039743341505527496,0.15532279014587402,-0.1933896839618683,-0.1792975515127182,-0.48830723762512207,0.33258727192878723,0.027171438559889793,-0.037215456366539,-0.3729906678199768,-0.1735728532075882,-0.3054558336734772,0.3402971029281616,0.2410079538822174,0.023644477128982544,-0.28265950083732605,0.17824754118919373,-0.39438125491142273,0.05552538484334946,-0.3987325131893158,0.062458112835884094,-0.28505775332450867,-0.09597241133451462,-0.013733305968344212,0.1763404756784439,0.13751168549060822,-0.1788034588098526,-0.20052944123744965,-0.04434097930788994,0.5230544209480286,0.07326242327690125,0.12874843180179596,0.07946938276290894,-0.1355246603488922,-0.045652929693460464,0.2746519148349762,-0.2327064573764801,-0.10385964065790176,-0.20037347078323364,-0.3209654688835144,0.14307820796966553,-0.6843318939208984,0.05487308278679848,-0.27125754952430725,0.39982131123542786,-0.2508693337440491,0.16167382895946503,0.010695863515138626,0.09703835099935532,0.01018440444022417,-0.46835893392562866,-0.6543561816215515,0.3238255977630615,-0.15824656188488007,-0.3854377269744873,-0.12017462402582169,0.15023711323738098,-0.20214663445949554,-0.31742948293685913,0.5994054079055786,0.2646716833114624,-0.07316497713327408,-0.14482909440994263,-0.056219831109046936,-0.040307044982910156,-0.0031721454579383135,-0.6732763051986694,-0.19978231191635132,-0.17990761995315552,0.29397961497306824,-0.030970465391874313,-0.12411428242921829,-0.05658691003918648,-0.2277413010597229,-0.28760671615600586,0.05869660526514053,-0.4651072025299072,-0.5226513147354126,0.11311481893062592,-0.02083025872707367,0.7292718291282654,0.05635994300246239,0.0061687808483839035,0.3385502099990845,-0.3170362114906311,-0.07804892212152481,-0.1789681315422058,-0.08244530856609344,-0.3501914441585541,0.0039049868937581778,0.0048727914690971375,-0.03671605885028839,-0.00869730394333601,0.007938752882182598,0.18616774678230286,0.013486911542713642,0.21034710109233856,0.307547003030777,-0.1953205168247223,0.34393298625946045,-0.4876599609851837,-0.039440691471099854,-0.2963125705718994,-0.5550785064697266,0.33265408873558044,0.1438431441783905,0.2971709966659546,0.41567185521125793,0.04506184905767441,-0.19964484870433807,0.09662207216024399,0.24965788424015045,0.040327928960323334,0.09654147922992706,0.013719183392822742,-0.3267786502838135,0.28613314032554626,0.2097862958908081,-0.0885050967335701,-0.39907386898994446,-0.14733470976352692,0.061027850955724716,0.13400685787200928,0.12099813669919968,0.1848866492509842,0.2168511301279068,-0.310849666595459,0.2656264007091522,-0.3863725960254669,-0.0042466046288609505,0.11965929716825485,0.06282971054315567,-0.3007360100746155,-0.03130769357085228,0.07124946266412735,-0.0692552849650383,0.08745060116052628,0.31892549991607666,-0.19171084463596344,-0.27484676241874695,-0.3773133158683777,-0.029029248282313347,-0.32660382986068726,-0.060985077172517776,-0.4286016523838043,-0.38925671577453613,0.13528457283973694,0.08969014137983322,-0.22128532826900482,-0.321368008852005,-0.05795938894152641,-0.1973782777786255,0.2225387543439865,0.43779051303863525,-0.1982409507036209,-0.5425849556922913,0.2903285026550293,-0.5080721974372864,-0.2033684253692627,0.018266666680574417,-0.2012241631746292,0.24289284646511078,-0.34101054072380066,-0.10552316159009933,0.21316127479076385,-0.09933428466320038,-0.3333567678928375,-0.27503570914268494,-0.18012481927871704,-0.22928321361541748,-0.18067139387130737,-0.6377760767936707,0.3288540542125702,0.1567646712064743,-0.19334696233272552,0.622926652431488,0.29087933897972107,0.26222556829452515,0.10276111215353012,-0.22952577471733093,-0.21848468482494354,-0.10007341206073761,0.43749502301216125,-0.05599798262119293,0.061218950897455215,0.2349494993686676,-0.07592888921499252,-0.06471581012010574,-0.18492405116558075,-0.012547075748443604,0.09878557175397873,-0.33129000663757324,-0.3881441354751587,0.49176159501075745,-0.1589391976594925,-0.14490444958209991,-0.29661300778388977,-0.18142297863960266,-0.06245637685060501,-0.15277954936027527,-0.46293872594833374,0.04757456108927727,-0.3523121476173401,-0.43017813563346863,0.10042321681976318,0.22904622554779053,-0.5072395205497742,-0.3916912376880646,-0.10937169939279556,0.5501242280006409,-0.27855148911476135,0.1444256454706192,-0.2717967629432678,0.4875321686267853,0.6342453360557556,0.2182801514863968,0.014821840450167656,-0.5484221577644348,0.14179758727550507,-0.13593770563602448,0.047952909022569656,-0.04915556311607361,-0.14324483275413513,0.4419337809085846,0.22760994732379913,0.21681730449199677,0.2085171639919281,-0.5710641741752625,0.09912635385990143,-0.11612994968891144,-0.10300387442111969,0.24685193598270416,0.5195885896682739,-0.09795475751161575,0.15735551714897156,0.3069606125354767,-0.11375514417886734,-0.13207189738750458,-0.11638880521059036,0.3378611207008362,0.04531143978238106,0.1886739432811737,-0.4019160866737366,0.2870776653289795,-0.05223407223820686,-0.04696477949619293,-0.16961072385311127,0.06125238165259361,-0.234697163105011,0.15132325887680054,0.8635889291763306,-0.33714044094085693,0.18622489273548126,0.21227151155471802,0.1709207147359848,0.4936259686946869,-0.3365706205368042,0.6336410641670227,0.07438294589519501,0.25389009714126587,-0.22572700679302216,-0.003397595603018999,0.26477566361427307,-0.302839994430542,-0.2103559523820877,0.05493893101811409,-0.12180392444133759,0.01583484187722206,-0.28882989287376404,-0.1604650616645813,-0.24017781019210815,-0.14944322407245636,-0.22386036813259125,-0.15673570334911346,0.03697730600833893,0.1900903880596161,-0.43091312050819397,-0.15425285696983337,-0.07692475616931915,-0.0803782120347023,0.08130430430173874,0.30951496958732605,-0.604816734790802,0.6039593815803528,-0.28204238414764404,0.1276746541261673,-0.2889522314071655,-0.019813615828752518,0.18169671297073364,0.18110917508602142,-0.13018640875816345,0.13196690380573273,0.02117333561182022,0.1792392134666443,0.12836016714572906,-0.04629494249820709,0.2905963361263275,-0.06635376811027527,-0.18984004855155945,0.24852481484413147,-0.03917863965034485,-0.07676117867231369,0.06303118169307709,-0.23617206513881683,0.002115652896463871,0.012682291679084301,0.2545056939125061,-0.18374265730381012,0.2959599494934082,-0.028723400086164474,-0.1147690936923027,0.13559575378894806,0.6245666146278381,-0.3183691203594208,0.08361928910017014,-0.6587532758712769,-0.5320945382118225,-0.23039962351322174,-0.18635337054729462,0.09703514724969864,0.009094122797250748,-0.3387782871723175,0.1369943767786026,0.2613827884197235,0.016420161351561546,0.07090075314044952,-0.03792090713977814,-0.009104235097765923,0.5573784112930298,0.3235046863555908,0.1426813304424286,-0.13251273334026337,0.395350843667984,0.10208666324615479,-0.06309264153242111,0.3493485152721405,-0.22553451359272003,0.5529014468193054,0.15659897029399872,0.37298059463500977,0.15437546372413635,-0.04167286306619644,0.00879631657153368,-0.6802365183830261,0.2690715193748474,-0.0656222477555275,-0.2318914234638214,-0.5362533330917358,0.5602654814720154,-0.08125849813222885,0.1565895825624466,-0.46140894293785095,-0.21670588850975037,0.33462873101234436,0.28068816661834717,-0.21173180639743805,0.015341278165578842,-0.19574415683746338,-0.28179967403411865,-0.04737222194671631,0.02655787020921707,0.15589383244514465,-0.13364902138710022,-0.3996385931968689,0.40278515219688416,-0.047740694135427475,-0.38494905829429626,-0.06159963831305504,-0.07524270564317703,-0.4686984121799469,0.025664901360869408,0.15544047951698303,0.2862541079521179,0.7808059453964233,-0.11555091291666031,-0.2877804636955261,-0.03872819244861603,0.20592769980430603,-0.029344119131565094,0.08673541992902756,0.015327890403568745,-0.2332327663898468,-0.4430675208568573,-0.030432431027293205,0.03592352941632271,-0.2732342481613159,0.3718888759613037,-0.5933322906494141,-0.12921299040317535,0.3666270673274994,0.2516164183616638,0.152010977268219,-0.011969978921115398,0.048749785870313644,0.11929138749837875,0.4313609004020691,0.2997685670852661,-0.4632855951786041,0.06811657547950745,0.02405508980154991,0.4343654215335846,-0.07579179853200912,0.5458915829658508,0.22791185975074768,-0.17362339794635773,0.2953355610370636,0.40404871106147766,-0.004689098335802555,0.3824831247329712,-0.030933255329728127,-0.33104458451271057,-0.046846214681863785,0.24048331379890442,0.21842902898788452,-0.03931059688329697,-0.45638948678970337,0.24779555201530457,-0.041215334087610245,-0.009205229580402374,0.16325341165065765,0.3546386957168579,0.03076832741498947,-0.2806604504585266,0.37362995743751526,-0.6539061665534973,-0.06435428559780121,0.1426013708114624,-0.06551653146743774,0.033204883337020874,-0.006820806302130222,0.10634248703718185,0.1664196401834488,0.12927933037281036,0.2108955830335617,0.1671227216720581,0.011297730728983879,0.10914713889360428,0.20244373381137848,0.27965453267097473,-0.029454929754137993,0.20376521348953247,0.18700848519802094,-0.22126999497413635,0.04635125398635864,0.172645702958107,-0.2229665070772171,0.2795410454273224,0.10381140559911728,0.005237062461674213,0.17871053516864777,-0.34118106961250305,-0.1184936985373497,0.10546082258224487,-0.10092412680387497,0.3112899363040924,0.395420104265213,0.1731155812740326,-0.40880295634269714,-0.23174411058425903,-0.015257139690220356,-0.004413306247442961,0.2337455004453659,0.08042140305042267,-0.23566491901874542,0.22036214172840118,0.2248634248971939,-0.2627261281013489,-0.21868494153022766,0.2205028235912323,0.18793123960494995,-0.28932979702949524,-0.342384397983551,0.11953263729810715,0.11987011879682541,-0.06018800660967827,0.13927847146987915,0.3023761808872223,-0.0637592300772667,0.342022180557251,0.10350438952445984,0.32835853099823,-0.21494866907596588,-0.28610819578170776,0.07564034312963486,-0.20864754915237427,-0.06733065843582153,-0.21423251926898956,-0.30649054050445557,-0.022123437374830246,0.1514928787946701,-0.4140184223651886,0.14457526803016663,0.07471426576375961,-0.11411191523075104,-0.15182560682296753,0.2543855607509613
http://dbpedia.org/resource/Silicon_Valley,-0.13755615055561066,-0.32185685634613037,0.19018550217151642,0.02208249643445015,0.03309604525566101,-0.1362413465976715,0.20216189324855804,-0.35103484988212585,0.23066303133964539,-0.3102172315120697,0.5271589159965515,0.32320326566696167,0.17865581810474396,0.1125037893652916,-0.06798727065324783,0.4055638015270233,0.20824480056762695,0.5826176404953003,-0.1689111888408661,-0.6714594960212708,-0.42611125111579895,0.1424216628074646,0.25808700919151306,0.3716701865196228,-0.1293584704399109,0.23441264033317566,-0.24803003668785095,-0.39201560616493225,0.19938702881336212,0.07117956876754761,-0.10709956288337708,0.21223151683807373,-0.2305968552827835,0.3911479413509369,-0.5774781107902527,0.20506598055362701,0.0579209141433239,0.5454759001731873,-0.03354642540216446,0.05625344067811966,0.6469776630401611,-0.16530318558216095,-0.05957482382655144,0.3076438307762146,0.2953167259693146,-0.06687763333320618,0.023847315460443497,0.3398636281490326,0.2326224446296692,0.006933028344064951,-0.4692312479019165,-0.5281004905700684,-0.06369971483945847,-0.07427360117435455,-0.12717534601688385,-0.12767662107944489,0.7060914635658264,-0.0025223158299922943,-0.30481669306755066,-0.08581118285655975,-0.5281409025192261,-0.010091668926179409,-0.29147133231163025,-0.3013494312763214,0.10067712515592575,0.2528303861618042,0.20242752134799957,-0.07179424166679382,-0.14765110611915588,0.6058384776115417,-1.0650289058685303,0.20728354156017303,-0.30999454855918884,0.40502437949180603,-0.14435453712940216,-0.7891602516174316,-0.12233112752437592,-0.2080090343952179,-0.4690144658088684,-0.09608490765094757,0.6348227858543396,0.1511603742837906,0.2756454348564148,0.09651070833206177,0.21463420987129211,0.21795879304409027,0.4876497685909271,-0.3424829840660095,-0.12233433127403259,-0.2645314335823059,0.19640272855758667,-0.20002490282058716,-0.16215962171554565,0.25415319204330444,-0.5543016791343689,-0.593201220035553,-0.05644487589597702,-0.32790520787239075,0.15134334564208984,0.5201432108879089,-0.05526937544345856,0.19465863704681396,0.08550169318914413,-0.03293687477707863,0.10829785466194153,0.854727566242218,0.17766863107681274,-0.35680681467056274,-0.6556435823440552,-0.06556754559278488,0.3195827901363373,-0.46022602915763855,-0.22070220112800598,0.16749489307403564,0.5803196430206299,0.5276473164558411,-0.21512678265571594,-0.109420545399189,0.26452770829200745,0.3744339048862457,0.08380113542079926,0.1516532450914383,0.18648967146873474,0.43022897839546204,-0.2645241618156433,0.6629320979118347,-0.23567719757556915,-0.14922751486301422,-0.4572899341583252,-0.5057302713394165,-0.5578048825263977,-0.30557897686958313,-0.2958599030971527,-0.3194330632686615,0.42089053988456726,-0.20541901886463165,-0.14207342267036438,-0.46455591917037964,-0.13213466107845306,0.21440479159355164,0.31421980261802673,0.6262930631637573,-0.20951113104820251,-0.22657045722007751,0.34647685289382935,0.705024003982544,-0.18479424715042114,0.646013081073761,0.023169169202446938,-0.6196565628051758,-0.3081410229206085,-0.5272657871246338,0.05989888682961464,0.4552037715911865,-0.2255166918039322,0.03206498175859451,0.41169947385787964,0.5688190460205078,-0.13823696970939636,-0.24725346267223358,0.22070597112178802,0.402408629655838,-0.27924296259880066,0.4007430672645569,-0.12721382081508636,0.22319072484970093,-0.1833067685365677,0.32699981331825256,0.011346414685249329,-0.27148550748825073,0.6044425368309021,-0.5356239676475525,-0.22108562290668488,-0.2113649547100067,-0.09224716573953629,-0.1772410273551941,0.22308112680912018,-0.14645400643348694,0.06237693130970001,-0.0959734320640564,0.30302101373672485,0.36145639419555664,-0.7919933795928955,-0.039634160697460175,-0.2947239577770233,-0.18469451367855072,0.23463821411132812,-0.148776575922966,-0.003823795821517706,-0.514346182346344,-0.3706434965133667,0.01956639252603054,0.10589741915464401,0.15437591075897217,-0.3513628840446472,-0.49819445610046387,-0.5400291085243225,0.14420869946479797,0.8392056226730347,-0.5354363322257996,-0.056625496596097946,0.1548067033290863,-0.057260990142822266,-0.6490092873573303,0.03381454199552536,0.13483408093452454,0.14063452184200287,0.4012087285518646,-0.2976481020450592,0.1448991894721985,0.14436669647693634,-0.2010246217250824,-0.3551826775074005,-0.1020577922463417,-0.784628689289093,0.27750054001808167,0.41952794790267944,0.014651455916464329,-0.3669152855873108,-0.23522929847240448,0.17690062522888184,0.4106731414794922,0.0072381943464279175,-0.18767087161540985,0.06908243894577026,-0.10261762142181396,0.139715313911438,-0.22229152917861938,-0.04822681099176407,0.5283459424972534,1.090097427368164,0.524906575679779,-0.05399191007018089,-0.13876307010650635,0.788476288318634,-0.26621365547180176,0.31386831402778625,-0.27025237679481506,0.07492252439260483,-0.011243076995015144,0.03467504307627678,-0.25596028566360474,-0.4189595878124237,0.21997544169425964,-0.30862730741500854,0.07725146412849426,-0.9477276802062988,0.35872700810432434,0.19749212265014648,0.36460018157958984,-0.6683183312416077,0.18190248310565948,0.22672191262245178,-0.03256402909755707,0.17568586766719818,0.15377317368984222,-0.03217215836048126,0.3784092962741852,0.24007810652256012,0.6371132731437683,-0.4401944577693939,0.4174095690250397,0.19515804946422577,0.21666724979877472,0.6211016774177551,-0.3604569733142853,0.11834839731454849,0.1164194792509079,0.027835560962557793,-0.0873626247048378,-0.2509610950946808,-0.9081091284751892,0.7746751308441162,0.17590588331222534,-0.1900416910648346,-0.16862614452838898,-0.2662733197212219,-0.354645311832428,0.04329270124435425,0.20279249548912048,0.053502343595027924,-0.6949801445007324,-0.23769830167293549,0.6941514015197754,0.00725110387429595,-0.1911083608865738,-0.44454899430274963,0.0005771106225438416,-0.3507337272167206,0.09270545095205307,-0.12834396958351135,-0.010769874788820744,-0.23789751529693604,0.3630034029483795,-0.4496907591819763,0.02545933425426483,0.1724269837141037,0.23650327324867249,-0.13027511537075043,-0.20383517444133759,0.7309760451316833,-0.2679353952407837,-0.2234971821308136,0.11107616871595383,-0.40474867820739746,-0.5535252690315247,0.2886921167373657,0.5841888785362244,-0.33851709961891174,0.349282443523407,-0.15220345556735992,-0.10874871164560318,-0.46628615260124207,-0.05555802211165428,0.28687289357185364,0.08658488839864731,-0.041303787380456924,0.02054278552532196,-0.6584830284118652,-0.1769898533821106,0.09131037443876266,-0.1358703374862671,-0.14331983029842377,-0.17561253905296326,0.3398984968662262,0.18712227046489716,0.02164933830499649,-0.048681072890758514,0.21157193183898926,0.33532804250717163,-0.17329846322536469,0.19431868195533752,0.3632073700428009,-0.33451712131500244,-0.5183957815170288,0.6308660507202148,0.5839459300041199,0.5539137721061707,-0.12415691465139389,0.3905879557132721,0.007666510064154863,0.3490845859050751,0.18946002423763275,0.3761114180088043,0.3367668688297272,-0.17890805006027222,-0.08248607069253922,-0.3443499803543091,0.00023335873265750706,-0.003861951408907771,0.19225376844406128,0.08009027689695358,0.017989318817853928,0.3030576705932617,0.6117255687713623,0.471903920173645,-0.32421717047691345,0.7435494661331177,0.6241171360015869,-0.14965099096298218,0.2712685465812683,0.3195039927959442,-0.15428738296031952,0.2818875014781952,-0.10001016408205032,0.08656065911054611,-0.16663077473640442,-0.18510673940181732,0.3470953106880188,-0.26789283752441406,-0.5453589558601379,-0.10181371867656708,-0.04190373420715332,0.2878813147544861,-0.0128623116761446,-0.1503627747297287,0.17518889904022217,0.1580279916524887,0.2347278743982315,0.6782920360565186,-0.48107850551605225,0.4282050132751465,0.6181976199150085,0.24787072837352753,-0.2768475115299225,-0.1932726949453354,0.032920435070991516,-0.14209461212158203,0.22130313515663147,-0.4081774950027466,0.7321865558624268,-0.45891815423965454,0.15043477714061737,0.2860861122608185,-0.347339928150177,-0.26082643866539,0.08199425041675568,-0.35569867491722107,-0.0170455239713192,0.1287221610546112,-0.12807713449001312,-0.17296838760375977,-0.06949136406183243,-0.5473299026489258,0.1976965069770813,0.14836326241493225,0.02502211555838585,0.034857477992773056,-0.34521588683128357,0.4754115641117096,0.6107124090194702,0.17128297686576843,0.4707889258861542,-0.40361103415489197,0.2347562313079834,-0.5318240523338318,0.003881849581375718,-0.04660222306847572,-0.012921232730150223,0.08067522943019867,0.09478741139173508,-0.048804156482219696,-0.17941440641880035,0.3978962004184723,-0.18113189935684204,-0.16163663566112518,-0.48502135276794434,0.08544281125068665,-0.16255290806293488,-0.19169747829437256,0.21414247155189514,0.23825819790363312,-0.27067863941192627,-0.06687645614147186,0.09670375287532806,-0.36079421639442444,0.48699936270713806,0.027295926585793495,0.42305484414100647,0.3299955427646637,0.052516765892505646,-0.03432972729206085,-0.41697022318840027,0.06726929545402527,-0.16738997399806976,-0.45110559463500977,0.4592832028865814,0.6062990427017212,0.11532215029001236,-0.08444929867982864,0.05582384392619133,0.8623462319374084,-0.42993250489234924,0.11855271458625793,-0.3531181216239929,0.3194160461425781,-0.2920967936515808,-0.03693707659840584,-0.06888801604509354,0.03648050129413605,-0.4584476351737976,0.1268131136894226,-0.14162981510162354,0.36437156796455383,-0.2735174000263214,-0.2873131036758423,-0.6710231304168701,0.006235042586922646,0.17357532680034637,0.5465500354766846,-0.11386433243751526,0.7107296586036682,-0.18871352076530457,-0.3588052988052368,-0.22355876863002777,-0.029957899823784828,0.15274883806705475,0.42346587777137756,-0.35193130373954773,0.3625468909740448,0.18948501348495483,-0.21193023025989532,-0.1821412444114685,0.5440332889556885,-0.04847674071788788,0.025472279638051987,-0.7094699740409851,0.1621219515800476,-0.11563227325677872,-0.17460313439369202,0.0454331673681736,-0.014122335240244865,0.16204780340194702,0.09543260186910629,-0.2943878173828125,0.16951119899749756,0.4983333349227905,-0.13526810705661774,0.6103532910346985,0.37411564588546753
http://dbpedia.org/resource/NeXT,-0.16385680437088013,0.3552250266075134,-0.2952093183994293,-0.16959317028522491,-0.23060443997383118,0.4434828460216522,0.11916317790746689,-0.1463458091020584,0.17653685808181763,-0.3135497272014618,0.4416206181049347,0.5917860865592957,0.6782013177871704,-0.07268825173377991,-0.006631572265177965,0.05811987444758415,0.03069322742521763,0.45475268363952637,-0.14570847153663635,-0.5905048847198486,-0.10033508390188217,-0.47295424342155457,-0.40732094645500183,0.4619567096233368,0.405056893825531,-0.3697117865085602,0.32955828309059143,-0.08574655652046204,0.40333014726638794,-0.12170310318470001,-0.048216331750154495,-0.40938058495521545,0.0103983199223876,0.8073588013648987,0.08453067392110825,-0.20563280582427979,-0.07122509926557541,0.534873902797699,-0.20648007094860077,0.8126301765441895,0.17928218841552734,0.05865180492401123,-0.1333898901939392,0.2862185835838318,-0.5239677429199219,0.39752262830734253,0.3779813051223755,0.09604566544294357,-0.4425814747810364,0.5623721480369568,-0.18479318916797638,-0.1436741203069687,-0.3546534776687622,-0.6677775979042053,-0.8560843467712402,-0.27948305010795593,-0.487440824508667,-0.29415956139564514,-0.23731881380081177,0.24173587560653687,0.0521937720477581,0.12246101349592209,-0.8193240761756897,0.06061650067567825,-0.3240501284599304,0.0204097218811512,0.20924200117588043,0.2870312035083771,-0.7554088234901428,0.20241542160511017,-0.13614587485790253,-0.361787348985672,0.07908149808645248,-0.38235363364219666,-0.5948098301887512,-0.4735809564590454,0.00876195915043354,0.026556145399808884,0.5239798426628113,0.5642149448394775,-0.0525619201362133,0.03780883923172951,0.144540473818779,0.5525174736976624,-0.1295296996831894,-0.33461663126945496,-0.019371328875422478,0.21385778486728668,0.010094230063259602,-0.5104085803031921,0.4987572729587555,0.027703743427991867,0.6981586813926697,0.2738858461380005,0.03467106074094772,-0.2412196546792984,0.11127661913633347,-0.38271671533584595,-0.09429208934307098,-0.20140019059181213,0.6035601496696472,0.10096166282892227,0.37644079327583313,0.12374100089073181,0.40538766980171204,0.08086457848548889,-0.1884477287530899,-0.2969757914543152,-0.17353633046150208,0.14293275773525238,-0.2652466297149658,0.24374070763587952,0.43857771158218384,-0.3014758229255676,-0.1216028556227684,0.05957721546292305,0.47054654359817505,4.24973841290921e-05,0.18003472685813904,-0.019208302721381187,-0.005995387211441994,0.10001931339502335,0.2123108059167862,-0.20636269450187683,-0.056773919612169266,0.5361275672912598,-0.01594284363090992,-0.017899349331855774,-0.15398475527763367,0.1947779506444931,-0.3520981967449188,0.17563632130622864,-0.6757974624633789,-0.09039472788572311,0.482681542634964,-0.4230130612850189,-0.2748991847038269,0.4452280104160309,0.2320718616247177,0.3172355890274048,-0.5512227416038513,-0.3757767677307129,-0.09506645053625107,-0.30881091952323914,0.30179011821746826,0.22907759249210358,-0.10914392024278641,0.23003925383090973,0.1033998429775238,0.2559446692466736,0.3158702850341797,-0.047194954007864,-0.8036897778511047,-0.1256464570760727,0.2593158483505249,0.17294670641422272,-0.3370790183544159,-0.047998521476984024,-0.7713051438331604,-0.30672726035118103,0.36250850558280945,-0.5735598206520081,-0.06785689294338226,0.13089539110660553,-0.24357707798480988,-0.0023152942303568125,0.16961106657981873,0.2285701185464859,-0.6791762113571167,-0.2612350285053253,-0.06515539437532425,-0.1836652010679245,0.33573099970817566,-0.09901194274425507,0.0008664416382089257,-0.08690150082111359,-0.0961032286286354,-0.004812336526811123,0.025557558983564377,0.5262919664382935,-0.03551057353615761,0.33081957697868347,-0.08234839141368866,-0.08002152293920517,0.3293074667453766,-0.0454513356089592,-0.5202870965003967,-0.1692724972963333,0.85488361120224,0.520368218421936,0.01776685193181038,-0.3559243381023407,0.18724758923053741,-0.6120585799217224,0.3466021418571472,-0.10926181077957153,-0.22102142870426178,-0.40495505928993225,-0.06347326189279556,-0.2942132353782654,0.2797947824001312,-0.32177117466926575,0.1729402244091034,0.7372443079948425,0.23015595972537994,-0.32118791341781616,0.03164748102426529,0.13350403308868408,-0.23864921927452087,-0.1402946263551712,0.13731276988983154,-0.0480557382106781,0.13331779837608337,0.13372008502483368,-0.3820033073425293,0.404836505651474,-0.08024773746728897,0.3569926619529724,-0.018142983317375183,-0.3865155577659607,-0.18684253096580505,-0.13321450352668762,0.7090944051742554,0.2806096076965332,-0.16798539459705353,0.4615638256072998,-0.30823779106140137,0.0905841588973999,-0.32751864194869995,0.20506255328655243,0.6362695097923279,0.024972330778837204,0.13956359028816223,0.02144399657845497,0.3096805512905121,-0.1473810076713562,0.4608325958251953,-0.09075883030891418,-0.24626301229000092,0.05357347056269646,-0.4427263140678406,0.09921865165233612,-0.6734986901283264,0.3420136272907257,-0.08107507973909378,0.24630892276763916,-0.6150873303413391,0.17711730301380157,-0.39235514402389526,0.21271532773971558,0.09757030010223389,0.2855603098869324,-1.1103966236114502,-0.4868221879005432,-0.04480648785829544,0.37422674894332886,-0.10108941793441772,-0.18150122463703156,0.2374439686536789,-0.10071604698896408,-0.18861885368824005,0.5486238598823547,-0.19305022060871124,0.08236026018857956,-0.30617615580558777,-0.49641153216362,0.6427673101425171,0.18711523711681366,0.5181162357330322,0.17536741495132446,0.3330831229686737,-0.6109217405319214,0.2791573703289032,-0.04901232197880745,-0.06125389039516449,-0.4215890169143677,-0.4187847971916199,-0.12989899516105652,-0.035238731652498245,-0.07045475393533707,0.021423017606139183,-0.41426652669906616,-0.0037904251366853714,0.1246270015835762,0.16445061564445496,0.6181714534759521,-0.2647303640842438,0.19316034018993378,0.10572848469018936,0.24817293882369995,0.15677931904792786,0.6547988057136536,0.15797743201255798,0.3443142771720886,-0.4391953945159912,-0.0766395702958107,-0.3739919066429138,0.07530615478754044,0.29406678676605225,0.08232846856117249,0.734340250492096,-0.1620950549840927,-0.39309030771255493,0.3070858120918274,0.24861396849155426,-0.26114827394485474,0.27261635661125183,0.07862084358930588,0.29563578963279724,0.18693463504314423,0.11788041144609451,0.35505232214927673,-0.6345735192298889,0.6322617530822754,0.6875020861625671,-0.627884566783905,0.08791797608137131,0.3007964491844177,0.4416857659816742,0.29831743240356445,-0.23399627208709717,-0.02819412760436535,-0.1710135042667389,-0.039378419518470764,0.17195871472358704,0.35520389676094055,0.02061913162469864,-0.14723928272724152,0.4799755811691284,0.26788926124572754,-0.010573972947895527,0.3145512640476227,0.31718021631240845,-0.39001893997192383,0.13341167569160461,0.07145607471466064,0.2565276324748993,0.6315961480140686,0.35499656200408936,0.23987221717834473,0.4885741174221039,-0.045522529631853104,0.6211737394332886,0.41021350026130676,0.05783306434750557,-0.9210991859436035,0.09568692743778229,-0.6454004645347595,-0.26392388343811035,0.34106558561325073,-0.11289855092763901,-0.2063942402601242,0.19268961250782013,-0.18775096535682678,-0.017995718866586685,0.03925732895731926,0.35707226395606995,0.44772642850875854,-0.06911221146583557,0.2091119885444641,0.42953598499298096,-0.477373331785202,0.07185760140419006,0.37788861989974976,0.11349312216043472,-0.10549625009298325,0.2243851274251938,-0.2573023736476898,-0.19944483041763306,-0.10244006663560867,0.08103200048208237,0.18016624450683594,-0.06347190588712692,-0.4558049142360687,0.3231445550918579,-0.06468955427408218,-0.2908053398132324,0.8252230882644653,-0.05909177288413048,-0.5090250968933105,0.017354818060994148,-0.1975822150707245,-0.44556111097335815,-0.45345792174339294,-0.3066488802433014,0.14106903970241547,-8.580198482377455e-05,-0.2516186535358429,0.34336718916893005,-0.02849479205906391,-0.2054315060377121,0.15085743367671967,0.2358589470386505,-0.3832647502422333,-0.16264380514621735,-0.4511088728904724,-0.3641621470451355,0.17267552018165588,0.31781795620918274,-0.4425796568393707,0.0917988121509552,0.3153335750102997,-0.29617932438850403,-0.1652410924434662,0.508908212184906,0.696239709854126,0.46743860840797424,-0.1353757232427597,0.2697259485721588,-0.10141037404537201,0.594026505947113,-0.046884890645742416,0.7023505568504333,0.5325794219970703,-0.2945854961872101,0.0033495540264993906,0.3956740200519562,-0.04148891940712929,-0.15507934987545013,-0.14013537764549255,0.3660067617893219,-0.1743304580450058,-0.6294953227043152,0.7494720220565796,-0.12680748105049133,0.24251876771450043,-0.038995418697595596,-0.37418949604034424,-0.7240166664123535,0.30419784784317017,0.341404527425766,-0.32171592116355896,0.016007237136363983,-0.2337009161710739,-0.18271802365779877,0.29923707246780396,0.43358075618743896,-0.3180171549320221,-0.123495914041996,-0.233430415391922,-0.3607984185218811,-0.3065813481807709,-0.11742091178894043,-0.15759871900081635,0.26900461316108704,-0.2726229131221771,-0.42992645502090454,0.4146748483181,0.06948114931583405,-0.36039334535598755,0.14438940584659576,0.2168765515089035,-0.10699395835399628,0.6952620148658752,-0.01496086735278368,0.45801782608032227,-0.48211947083473206,0.25024744868278503,0.6989927291870117,0.3756338357925415,0.016649745404720306,-0.4546606242656708,0.6638906598091125,0.032848332077264786,-0.20494912564754486,0.15954092144966125,0.09149736166000366,-0.22274813055992126,-0.19053784012794495,0.051811762154102325,-0.3254263997077942,0.3855554461479187,0.24937759339809418,0.11801669746637344,-0.4004479944705963,-0.20669710636138916,-0.2120278924703598,1.044500708580017,-0.17171281576156616,0.13577227294445038,0.12841783463954926,-0.09443734586238861,0.06678442656993866,0.013590028509497643,0.16243012249469757,-0.33905211091041565,-0.9969435930252075,0.07864928990602493,-0.47898736596107483,-0.5693386197090149,-0.7388349175453186,-0.014532912522554398,0.8833701610565186,0.47937828302383423,-0.5987670421600342,0.19230635464191437,0.6527078747749329,0.33246737718582153,0.17068283259868622,0.06962759047746658
