http://dbpedia.org/resource/Apple_Inc.,-0.421708345413208,0.6903473734855652,-0.10373010486364365,0.33838868141174316,0.47357070446014404,-0.6316239833831787,-0.8092387914657593,-0.46825844049453735,1.1590009927749634,-0.359552800655365,0.5584321618080139,-0.170927494764328,0.049480076879262924,0.40337392687797546,0.013358689844608307,-0.31495970487594604,-0.48515766859054565,0.1566871702671051,0.2808217406272888,0.21221090853214264,-0.5014597773551941,0.29891908168792725,-0.20988628268241882,-0.02913603186607361,-0.023558974266052246,0.18733155727386475,-0.24218584597110748,0.0567324198782444,0.7065973281860352,0.425783634185791,0.43845316767692566,-0.01761818304657936,-0.28366249799728394,0.509087860584259,0.3193376064300537,-0.43561628460884094,-0.8283936381340027,0.2643536329269409,0.39716005325317383,-0.025416014716029167,-0.04327313229441643,-0.27795347571372986,0.031199986115098,-0.08677997440099716,0.06534631550312042,0.3303335905075073,-0.5165694355964661,0.5166952013969421,0.2864246964454651,-0.39957496523857117,0.19195996224880219,-0.3847680985927582,0.19301484525203705,-0.26313772797584534,0.21199451386928558,0.14554260671138763,-0.6274486780166626,-0.09539581090211868,-0.24873387813568115,-0.0564362108707428,0.5309394598007202,0.08662030100822449,-0.12479318678379059,0.06378736346960068,0.37925389409065247,0.7095922827720642,-0.14574897289276123,0.045875657349824905,-0.14900675415992737,-0.6278377175331116,0.416036456823349,-0.5091323852539062,0.1509382724761963,0.2795350253582001,-0.29168596863746643,-0.004661804996430874,0.4271109402179718,-0.9771952033042908,0.1467258185148239,0.6625239253044128,0.5126495361328125,0.16020521521568298,-0.3316584825515747,-0.3925507366657257,-0.12954027950763702,0.8190047144889832,-0.11181037127971649,0.16018430888652802,0.38746076822280884,-0.387512743473053,0.7401456832885742,0.10390269756317139,-0.40936440229415894,-0.25435346364974976,0.6721454858779907,-0.2520780563354492,-0.5357764363288879,0.38748255372047424,0.15579065680503845,-0.10589329153299332,0.4527325928211212,-0.14114996790885925,0.059386562556028366,-0.13138209283351898,-0.2899667024612427,0.01854146458208561,-0.5504814386367798,-0.11644437909126282,-0.7007958292961121,0.4949268400669098,0.0615508109331131,0.26216384768486023,0.4524706304073334,0.5553803443908691,-0.44564181566238403,-0.6511707901954651,0.06345327943563461,-0.06106061115860939,0.44517508149147034,0.11298370361328125,-0.6066546440124512,-0.2420470416545868,-0.16724933683872223,-0.23548898100852966,0.2413553148508072,-0.03356349468231201,0.44685372710227966,-0.27980804443359375,0.14016522467136383,0.33050549030303955,-0.7081783413887024,-0.7838481664657593,0.045549847185611725,-0.24270406365394592,-0.05355580523610115,0.06012420356273651,-0.5589913129806519,0.11941315233707428,0.2530862092971802,0.37018176913261414,0.2861652672290802,-0.05270614102482796,0.4200480580329895,0.31434816122055054,0.20130383968353271,-0.25144854187965393,-0.01085682027041912,0.39706629514694214,-0.03838043287396431,0.7095896601676941,-0.1821139007806778,-0.16247162222862244,0.3852536082267761,0.26741549372673035,0.638831615447998,-0.07827269285917282,-0.42612460255622864,-0.2684749960899353,-0.23849397897720337,-0.32129132747650146,0.20733512938022614,0.3618732988834381,-0.14859701693058014,-0.3632832169532776,-0.06853733211755753,-0.35679903626441956,0.40866541862487793,0.30000871419906616,-0.13741177320480347,0.13305705785751343,-0.3999834954738617,-0.34571605920791626,0.6906525492668152,-0.18217629194259644,0.04091331362724304,0.5328271985054016,0.04176659509539604,-0.3872167468070984,0.8781083226203918,-0.2088973969221115,0.5435810685157776,-0.5029596090316772,-0.045813437551259995,0.04212253540754318,-0.12062686681747437,-0.04288400709629059,0.021398212760686874,0.9264674782752991,0.023065198212862015,0.22887323796749115,0.9204397201538086,0.0779658854007721,-0.7131525874137878,0.5208658576011658,0.023628614842891693,-0.33500587940216064,0.6804727911949158,0.09157082438468933,0.7025361061096191,-0.023308686912059784,0.1111144870519638,-0.398142009973526,-0.35243311524391174,0.12697498500347137,0.19705331325531006,-0.020238250494003296,-0.18169300258159637,0.1993313580751419,-0.004612369928508997,0.08740192651748657,-0.8523772954940796,-0.30019786953926086,0.07870106399059296,0.5601221919059753,0.5490958094596863,-0.4661191999912262,-0.1896413117647171,0.7288395762443542,0.19034354388713837,0.15878234803676605,-0.29371657967567444,0.06041450798511505,-0.7305306792259216,0.28103843331336975,-0.2681078612804413,0.9784919023513794,-0.286040335893631,-0.6308108568191528,0.1339379996061325,-0.26488402485847473,0.06353538483381271,0.3077024519443512,0.5557957887649536,-1.1553531885147095,-0.0574447326362133,-0.5128889083862305,0.20580071210861206,0.6361719965934753,-0.39693179726600647,0.30002647638320923,-0.1743994504213333,-0.021075831726193428,0.1669783592224121,0.34389564394950867,-0.14547908306121826,0.030636442825198174,0.23303237557411194,-0.14343683421611786,-0.0693160817027092,-0.11936729401350021,-0.9466364979743958,-0.4276832640171051,-0.060868386179208755,-0.0397007130086422,0.13193364441394806,-0.39846566319465637,0.1458158940076828,-0.5790495276451111,0.11321853846311569,0.4120171368122101,-0.6271731853485107,0.07705270498991013,-0.32403305172920227,-0.07629406452178955,-0.028080062940716743,0.1752653419971466,1.4414476156234741,-0.3458805978298187,-0.47358208894729614,0.18438640236854553,0.01525324396789074,-0.37959158420562744,0.340853214263916,0.2773053050041199,0.17946067452430725,-0.12915469706058502,-0.19511407613754272,-0.2103945016860962,-0.08389614522457123,-0.16634684801101685,-0.04873146489262581,0.23879766464233398,-0.6960497498512268,-0.31179943680763245,0.17313045263290405,-0.22443673014640808,0.18694666028022766,-0.4700745940208435,-0.015122497454285622,0.8581776022911072,-0.004083807114511728,-0.08236358314752579,0.4946278929710388,-0.3150300979614258,0.29677897691726685,0.10531947016716003,0.8139734864234924,1.2118287086486816,-0.41962042450904846,0.6778849363327026,0.07633444666862488,-0.5351751446723938,0.0935206338763237,-0.048324450850486755,0.17837466299533844,0.11448843032121658,-0.18048623204231262,-0.393144816160202,-0.4698849618434906,0.0859421044588089,-0.6284849643707275,-0.14700956642627716,-0.02614426054060459,-0.30578872561454773,-0.1954481601715088,-0.1837579309940338,0.053545769304037094,-0.01071292906999588,-0.1395048052072525,0.1350545585155487,0.19726766645908356,0.13514074683189392,0.44523492455482483,0.012442994862794876,-0.36163488030433655,-0.2623037099838257,0.11972455680370331,0.344108909368515,-0.41085031628608704,0.18707166612148285,0.18613865971565247,-0.6926333904266357,-0.5558192133903503,0.7278921008110046,0.9363210201263428,-0.598787248134613,0.16902996599674225,-0.8581342101097107,0.7234448790550232,0.08313807100057602,-0.4742787778377533,-0.047748591750860214,-0.03303355351090431,-0.11812227219343185,0.4774259626865387,0.16130080819129944,0.6595700979232788,-0.6027786135673523,0.28247445821762085,0.20136906206607819,-0.528058648109436,-0.0240708626806736,0.15749840438365936,0.3420847952365875,-0.19692254066467285,0.5214135050773621,-0.14864793419837952,-0.32194679975509644,-0.3808516561985016,-0.08924048393964767,-0.3688262403011322,1.171406626701355,-0.053182169795036316,-0.6219238042831421,-0.06159645691514015,0.04284112527966499,-0.16711975634098053,-0.025016481056809425,-0.08076963573694229,-0.3784484565258026,0.4780900180339813,-0.12675432860851288,0.12276820093393326,0.14377959072589874,-0.08866558969020844,0.041206780821084976,-0.3471670150756836,0.4218851327896118,0.2991785705089569,-0.24711309373378754,0.036474280059337616,-0.33669164776802063,-0.31218937039375305,-0.1935381144285202,0.6486561894416809,0.17915038764476776,0.28430330753326416,-0.3013313412666321,0.8135405778884888,0.3713664412498474,-0.3634738624095917,-0.29116401076316833,-0.20476621389389038,0.206453338265419,-0.39999592304229736,0.28152963519096375,-0.5235495567321777,-0.13293921947479248,0.1087307333946228,-0.44847121834754944,0.021600721403956413,0.04423366114497185,0.32720452547073364,-0.5286994576454163,0.49963298439979553,0.42655834555625916,-0.03493272885680199,-0.13586294651031494,0.4881693124771118,0.4352976083755493,-0.5200804471969604,0.34060946106910706,-0.06836811453104019,0.07981429994106293,0.3551562428474426,0.4320588707923889,-0.10733862221240997,0.13768446445465088,-0.09130937606096268,0.2557384669780731,-0.333848237991333,-0.6991073489189148,-0.3288309574127197,-0.3699510991573334,0.029847001656889915,0.41760963201522827,-0.5202239155769348,0.13869234919548035,-0.05708831921219826,0.6018227338790894,0.05206887051463127,0.13373325765132904,0.07553094625473022,0.40327271819114685,5.043900273449253e-06,0.11654011905193329,0.30057570338249207,-0.1755005270242691,-0.5813376307487488,-0.29472213983535767,0.16737006604671478,-0.6295152306556702,-0.4534331262111664,-0.23082119226455688,-0.2389855980873108,-0.20592226088047028,0.5825377106666565,-0.15809601545333862,0.5253320336341858,0.9323533773422241,-0.4278915524482727,-0.43363747000694275,-0.33792710304260254,0.8351749777793884,-0.5102636218070984,-0.05492014065384865,0.359133780002594,-0.4483521580696106,-0.01634008251130581,0.017516683787107468,-0.270169734954834,-0.20769375562667847,0.5019229650497437,-0.09021630138158798,0.5811852812767029,-0.34867700934410095,-0.14580507576465607,0.3668968081474304,0.6362202167510986,-0.4342193007469177,0.04206959903240204,-0.10989568382501602,-0.1988236904144287,-0.5089141130447388,0.9986147880554199,-0.2770180106163025,0.2410319298505783,-0.2040652483701706,0.969963788986206,-0.3119993507862091,0.4038071930408478,0.15244542062282562,0.18674418330192566,0.5710950493812561,-0.12521472573280334,-0.326839804649353,-0.10280978679656982,-0.023299790918827057,-0.8247199654579163,-0.4687548279762268,-0.4541677236557007,0.12331787496805191,0.01863965205848217,-0.8085290193557739,-0.19447460770606995,0.147945836186409,-0.48225533962249756,-0.9259806871414185,0.5175755023956299,0.8002674579620361
http://dbpedia.org/resource/Steve_Jobs,-0.33239996433258057,0.17403800785541534,0.09520973265171051,0.2258835881948471,0.11385592818260193,0.22539404034614563,-0.12628059089183807,-0.04793211817741394,0.32945069670677185,0.12729045748710632,0.35680675506591797,-0.11729615181684494,-0.025216685608029366,0.49909666180610657,1.0260792970657349,-0.360207200050354,-0.30817434191703796,-0.7467493414878845,-0.36832135915756226,0.4678080677986145,-0.5908346176147461,-1.1202878952026367,-0.5413993000984192,0.00036673570866696537,-0.017870556563138962,-0.02245485596358776,0.33932429552078247,0.37387195229530334,0.9698646664619446,-0.19553078711032867,-0.8200574517250061,0.30465030670166016,-0.27227726578712463,-0.6262951493263245,-0.26130545139312744,-0.43605294823646545,-0.2580799162387848,0.19858525693416595,-0.13649475574493408,0.045323651283979416,0.1110823005437851,0.10135439038276672,0.3010174632072449,-0.15659533441066742,0.19671986997127533,0.8087974786758423,-0.5187363624572754,0.3850880265235901,-0.1862373799085617,-0.7469244003295898,-0.101884625852108,0.5243275165557861,-0.38390815258026123,-0.04189359024167061,-0.1521122306585312,0.16215117275714874,-0.37757769227027893,-0.3821607530117035,-0.17248137295246124,0.0679941475391388,0.31254062056541443,0.23110586404800415,-0.18512898683547974,-0.1484495848417282,0.09814062714576721,0.40998178720474243,0.32156306505203247,-0.039033759385347366,-0.2142559438943863,-0.36890700459480286,0.8440346121788025,-0.5852831602096558,0.4685395658016205,0.2309400737285614,-0.16580474376678467,0.7735078930854797,0.022256851196289062,-0.990532636642456,-1.0347814559936523,-0.2991114854812622,-0.16443467140197754,-0.14397625625133514,-0.06795696169137955,0.5066527128219604,-0.2009372115135193,0.5965899229049683,0.5842235088348389,-0.34458911418914795,0.4888072609901428,-0.21051906049251556,0.5073118209838867,0.03371075540781021,0.29597723484039307,0.08678214251995087,-0.272029846906662,-0.20173226296901703,-0.9246069192886353,-0.039322786033153534,0.616802990436554,-0.375039279460907,0.4982442855834961,-0.4302280843257904,0.2933940887451172,-0.14559638500213623,0.4445606768131256,-0.3873043358325958,0.07685621082782745,0.47908222675323486,-0.10010866075754166,0.39378592371940613,0.14709851145744324,-0.3229577839374542,-0.04445004090666771,-0.10578224062919617,0.4724826216697693,0.07001566141843796,0.7438139915466309,-0.40257585048675537,0.46403786540031433,-0.046462155878543854,-1.1769922971725464,-0.1604917347431183,0.43091443181037903,-0.6417600512504578,0.982217013835907,-0.8448479175567627,0.807266891002655,0.3145536482334137,0.5443596243858337,-0.18327771127223969,-0.28447237610816956,-0.8891507983207703,-0.6738676428794861,-0.6912295818328857,-0.5020559430122375,-0.25921177864074707,0.19798769056797028,0.1892639696598053,-0.4292895793914795,0.39871054887771606,-0.26337987184524536,-0.7297650575637817,-0.1588444858789444,0.05265962332487106,0.3189254403114319,0.30679911375045776,0.4928250014781952,-0.18386229872703552,-0.10487505793571472,-0.23643545806407928,-0.11658548563718796,0.05991508811712265,-0.1066812053322792,0.46016186475753784,0.6332007646560669,0.14135223627090454,-0.41061535477638245,0.6002464890480042,-0.06718038022518158,-0.8176673650741577,-0.7373393177986145,-0.22698798775672913,0.36701756715774536,0.17218542098999023,-0.03083365224301815,-0.555130660533905,-0.595680832862854,-0.197789266705513,-0.36455318331718445,0.164048969745636,1.0381872653961182,0.4207807183265686,-0.07232367992401123,-1.5316073894500732,0.7096853256225586,0.34778839349746704,0.12196698039770126,-0.18298503756523132,-0.136188343167305,1.022552251815796,-0.06794565171003342,0.22487777471542358,0.3186453878879547,0.01610570400953293,-0.4453306794166565,-0.18769234418869019,-0.3304992616176605,0.3591444492340088,-0.0014989497140049934,0.17845518887043,-0.07636736333370209,-0.038885656744241714,0.2261246144771576,0.16761143505573273,0.14318262040615082,-0.5661687850952148,0.6981287598609924,-0.15641570091247559,-0.031174764037132263,-0.042857296764850616,0.11109418421983719,-0.03397032245993614,-0.6038109660148621,0.6566603779792786,0.9053101539611816,0.2743512988090515,0.13465718924999237,0.15395799279212952,0.20727762579917908,-0.6761201024055481,0.3114027976989746,0.9449775218963623,-0.21595536172389984,-0.5158115029335022,-0.6804288029670715,0.8070471286773682,-0.28801578283309937,0.48799893260002136,0.38568857312202454,-0.21888776123523712,-0.17451706528663635,-0.6241049766540527,-0.29501715302467346,-0.6848349571228027,0.36438873410224915,0.4007963240146637,-0.1699545681476593,-1.3294178247451782,0.23245371878147125,0.5633805394172668,0.4550941586494446,1.2719074487686157,0.21390312910079956,0.1668270230293274,-0.2221873551607132,0.040448036044836044,0.008808793500065804,-0.41498374938964844,0.7361873984336853,0.01632409729063511,-0.26822441816329956,-0.738905131816864,0.1703169345855713,-0.9619868397712708,-0.9117289781570435,0.5559757351875305,-0.5876970887184143,-0.8207893967628479,-0.34522077441215515,0.56351637840271,-0.2994566559791565,-0.27158063650131226,-0.036265820264816284,0.5216283798217773,0.2558225989341736,-0.05115785822272301,0.18952561914920807,-0.7191917896270752,0.21058721840381622,0.5625371336936951,-0.3937443792819977,-0.15672016143798828,0.8574216365814209,0.5782830119132996,0.30695241689682007,0.16461783647537231,0.8696843981742859,-0.6333543062210083,0.5918065905570984,-0.3273560702800751,0.5302715301513672,0.15529437363147736,0.40160903334617615,0.1315438449382782,-0.44572651386260986,-0.5098166465759277,0.1279086321592331,0.3044041395187378,0.20005463063716888,-0.02661437913775444,0.1251312792301178,0.468134343624115,-0.5540897250175476,-0.015460276044905186,-0.2633117139339447,-0.17692187428474426,0.6921854019165039,0.33716702461242676,0.5247010588645935,-0.47479453682899475,0.5798774361610413,0.110042043030262,-0.05895860493183136,0.10244312137365341,-0.16992315649986267,-0.16608208417892456,0.03519163280725479,0.14853866398334503,-0.5299751162528992,0.5527777075767517,-0.16865135729312897,-0.3947535753250122,-0.17627228796482086,-0.03142528980970383,0.7795622944831848,-0.3157728612422943,-0.31069809198379517,-0.13818161189556122,-0.5710347294807434,-0.9572073817253113,-0.7606779336929321,-0.003456738078966737,-0.7443397045135498,-0.9386628270149231,0.42229214310646057,-0.17556072771549225,-0.19910360872745514,0.5582501292228699,0.28093421459198,0.16871100664138794,0.012917689979076385,0.17950570583343506,0.07068860530853271,0.21856346726417542,-0.28731462359428406,0.4303576946258545,0.6541128158569336,0.30602002143859863,0.06585706025362015,0.7506577372550964,-0.25269758701324463,-1.2104506492614746,-0.685720682144165,-0.19891372323036194,1.0380152463912964,-1.028429388999939,-0.4755515158176422,-0.004746345337480307,-0.05052078887820244,-0.3898111581802368,0.9516030550003052,0.10710974037647247,-0.42995181679725647,-0.9926823973655701,-0.21889173984527588,0.10453373193740845,-0.5134430527687073,-0.06511019915342331,0.013578590005636215,-0.696587324142456,0.482870489358902,-0.41274410486221313,-0.17133663594722748,-0.4523327052593231,-0.6383646726608276,0.9930481910705566,0.7701101303100586,-0.2637968957424164,-0.6696901917457581,-0.017672622576355934,-0.15484628081321716,0.22175978124141693,0.5571155548095703,-0.9970700144767761,0.5563592314720154,0.5172246098518372,0.15589067339897156,0.2987256944179535,-0.5950389504432678,0.8266007304191589,-0.5194188356399536,-0.18383407592773438,0.36478307843208313,0.15679249167442322,0.21219854056835175,-1.3245216608047485,-0.22428178787231445,0.802985668182373,-0.12151484191417694,-0.27551233768463135,-0.11366122215986252,-0.06433553993701935,0.05272421985864639,-0.11672551184892654,0.3940669000148773,0.7789347171783447,0.6778482794761658,-0.23170222342014313,0.718112587928772,-0.13843375444412231,-0.9452833533287048,-0.0667882040143013,-0.733325183391571,0.16050612926483154,-0.19504709541797638,-0.12872149050235748,-0.6101542711257935,-0.06002848967909813,-0.6370171308517456,-0.9493507742881775,0.0015291695017367601,-0.22519168257713318,-0.5876922607421875,0.700637936592102,0.7748242616653442,-0.051605623215436935,-0.39046424627304077,0.04725401848554611,0.3904722034931183,0.1527998149394989,-0.4645482897758484,0.521354615688324,-0.1553485095500946,0.8417785167694092,-0.4052979648113251,0.33712461590766907,0.866446316242218,-1.2042255401611328,0.09032578021287918,0.13539911806583405,-0.24806708097457886,-0.15342117846012115,-0.2137499451637268,-0.2948164641857147,0.2693808972835541,0.19015856087207794,-0.4516414403915405,-0.2544558346271515,-0.05019296705722809,0.19725480675697327,0.48691481351852417,-0.6512619256973267,-0.5352388620376587,0.70435631275177,0.23917031288146973,0.04679563269019127,0.24546539783477783,-1.4904747009277344,0.08282674103975296,-0.002859539818018675,0.08327633887529373,-0.45045843720436096,0.25845441222190857,-0.5768704414367676,-0.10831066966056824,0.4151764512062073,0.3287588655948639,-1.165539026260376,-0.027550335973501205,0.7151995897293091,-0.5123441815376282,0.35548385977745056,-0.9778879284858704,0.39733871817588806,-0.6980276703834534,0.3947683274745941,0.593061625957489,0.4685444235801697,0.01526888832449913,-0.23410509526729584,0.4663456976413727,0.36541059613227844,0.2926953136920929,0.43491581082344055,0.5731521248817444,0.1576077789068222,0.5347026586532593,0.49408718943595886,0.07385566830635071,-1.171725869178772,0.036707326769828796,-0.10714571177959442,-0.0828896015882492,-0.8826392292976379,-0.4774778187274933,-0.1694861799478531,-0.02290697582066059,-0.4366881251335144,-0.01604071818292141,0.6964712142944336,0.2721675634384155,-0.25679144263267517,0.20503690838813782,-0.21078437566757202,0.1763608157634735,-0.33129552006721497,-0.7418473362922668,-0.12503965198993683,-1.029055118560791,-0.004223003517836332,-0.28206726908683777,-0.3574058413505554,-0.29961708188056946,-0.3955356180667877,-0.7008910775184631,-0.20513270795345306,-0.10696490108966827,-0.20322975516319275,-0.663085401058197,-0.6313868761062622
http://dbpedia.org/resource/Steve_Wozniak,-0.7913450002670288,0.5607986450195312,-0.34679490327835083,0.1814330518245697,0.32363027334213257,-0.2107125222682953,0.26652270555496216,0.05357208102941513,0.5069295763969421,-0.10372929275035858,0.7681840658187866,0.016047919169068336,-0.3044683337211609,-0.2617572247982025,0.09863109141588211,-1.0607656240463257,-0.21137061715126038,-0.030611367896199226,-0.020002417266368866,0.37542039155960083,-0.5667600631713867,-0.4579673707485199,-0.7096490859985352,-0.20754815638065338,0.3609147071838379,0.5972341895103455,-0.4101911783218384,0.36714714765548706,0.05609891563653946,-0.20078249275684357,0.8295851349830627,0.3948238492012024,-0.23589956760406494,0.9466646313667297,-0.581372857093811,-0.27102360129356384,-0.659265398979187,0.3688378632068634,1.0212758779525757,-0.027056533843278885,0.45989900827407837,-0.1379391849040985,0.17516516149044037,-0.42039671540260315,-0.21804362535476685,0.09624021500349045,-0.5030341744422913,-0.030689893290400505,0.4683995842933655,-0.15981808304786682,0.028793320059776306,-0.4691021740436554,0.628154456615448,0.05645377188920975,-0.09125693887472153,0.4882681965827942,-0.26606082916259766,-0.006732814945280552,0.5575941801071167,0.21851846575737,0.39385849237442017,-0.07531633973121643,0.06485386937856674,-0.5607444643974304,0.9292029738426208,0.01907174102962017,-0.003838747041299939,0.8778677582740784,0.6774082183837891,-0.37848806381225586,0.12183414399623871,-0.592216432094574,-0.2833026945590973,0.1941562294960022,-0.2601110637187958,0.16560900211334229,-0.08554714918136597,-0.5340648293495178,-0.5499779582023621,-0.03678182512521744,0.15358379483222961,0.8188411593437195,-0.048192013055086136,0.17597317695617676,0.22517555952072144,0.43757760524749756,-0.16621319949626923,-0.04776382818818092,0.5631967186927795,0.5459287762641907,-0.19001689553260803,-0.1911284327507019,-0.09304582327604294,-0.24779774248600006,0.2980174124240875,0.34071412682533264,-0.4435129165649414,0.10941720008850098,0.1618950068950653,-0.5232123136520386,-0.06736716628074646,0.3340933620929718,0.20612864196300507,0.3709460198879242,-0.10413485765457153,-0.18176661431789398,0.0353466235101223,0.5480402112007141,-0.8652550578117371,-0.004706652835011482,-0.4335588216781616,-0.06933619827032089,-0.3521398603916168,1.1137332916259766,-0.24467632174491882,-0.776090145111084,-0.43721964955329895,-0.20224149525165558,0.42752858996391296,-0.3863831162452698,-0.3324543237686157,-0.38416528701782227,-0.16355949640274048,-0.0630420371890068,0.4134702682495117,-0.17778778076171875,0.8224286437034607,0.44973304867744446,0.11970404535531998,0.07186339795589447,-0.3012249171733856,-0.31007957458496094,0.2730995714664459,0.05075473710894585,0.19720470905303955,-0.24499140679836273,-0.12189006805419922,0.6325523257255554,0.7682234644889832,0.010894968174397945,0.19724076986312866,0.0424569696187973,0.015303600579500198,0.2273024469614029,0.26950111985206604,-0.13849742710590363,-0.32054403424263,-0.061739373952150345,-0.1912194937467575,0.4421890079975128,0.45315104722976685,0.48358702659606934,0.9337949156761169,0.10093414038419724,0.21623079478740692,-0.9039884805679321,-0.12225666642189026,0.19024576246738434,0.10727639496326447,0.13006271421909332,-0.3109184503555298,-0.18683741986751556,0.17403273284435272,-0.09407485276460648,0.0957665666937828,-0.6649013757705688,-0.20027561485767365,-0.8568320870399475,-0.1860540509223938,0.0016443022759631276,0.2204066514968872,-0.13955610990524292,0.298643559217453,-0.5195045471191406,0.45942774415016174,0.5919089317321777,0.4010125696659088,0.14773908257484436,0.7945393919944763,0.32367759943008423,0.11374930292367935,0.05388271436095238,0.07864567637443542,-0.15125806629657745,0.6131048202514648,-0.355138897895813,-0.14331720769405365,1.4031540155410767,0.45754170417785645,-0.3519190847873688,0.19889798760414124,0.09679432213306427,-1.2625616788864136,0.3160078227519989,-0.014718360267579556,0.141201451420784,0.039635542780160904,0.36322033405303955,0.006672944873571396,-0.13809095323085785,0.32243385910987854,-0.33967941999435425,-0.041542261838912964,0.45147833228111267,-0.315250039100647,0.1819610446691513,-0.2363625168800354,0.36732006072998047,0.5678623914718628,0.3746771812438965,0.05622373893857002,0.09852652251720428,-0.0903884693980217,-0.28851592540740967,-0.12034577131271362,-0.6380289793014526,-0.1923919916152954,0.9475751519203186,0.8197389841079712,-0.27082306146621704,-0.007324565667659044,0.05210505425930023,-0.5274596810340881,0.09736749529838562,-0.1859533041715622,0.8769306540489197,0.11367832869291306,-0.3862353265285492,-0.5213683247566223,-0.11200544238090515,-0.3014066517353058,0.623444676399231,-0.35355257987976074,-0.06618166714906693,0.03422543406486511,-0.07746779918670654,-0.4217660427093506,-0.4180651307106018,-0.4017207622528076,-0.5042760968208313,0.11081688106060028,-0.35928982496261597,0.04061119258403778,-0.6639125347137451,-0.33379828929901123,0.16658368706703186,0.13603664934635162,-0.0745660662651062,-0.09508863091468811,0.200251504778862,-0.473374605178833,-0.4991583526134491,0.6704015731811523,0.03149360790848732,-0.1628035455942154,-0.03332560881972313,0.4402609169483185,-0.2074350118637085,0.0006482083117589355,0.5116328001022339,0.5025985240936279,-0.19888345897197723,-0.25073012709617615,0.1693909764289856,0.2290697991847992,-0.1252550631761551,0.6215009093284607,-0.5137999653816223,-0.4163289964199066,0.0017435390036553144,0.5488609075546265,-0.4463931918144226,0.2644139528274536,0.8516010046005249,0.6823477149009705,-0.5349352359771729,-0.12197615951299667,0.09545761346817017,0.2387309968471527,-0.008328474126756191,0.2748449146747589,-0.48922067880630493,-0.7548050284385681,0.5860198140144348,-0.29561829566955566,-0.04102453961968422,0.5662482380867004,0.08533835411071777,0.6441844701766968,0.4228776693344116,0.11534500867128372,-0.031085239723324776,-0.14895664155483246,-0.11016830801963806,-0.5739620923995972,0.3013182282447815,-0.08578646183013916,0.3702470064163208,0.17440731823444366,0.33222997188568115,-0.24362210929393768,-1.1018917560577393,-0.006876721046864986,-0.0826893299818039,0.5640895962715149,0.5818729400634766,-0.34726497530937195,-0.3537856638431549,-0.13037505745887756,0.1882084161043167,-0.38919055461883545,-0.09379452466964722,-0.2026672661304474,-0.13848601281642914,-0.2529822289943695,-0.5178971290588379,-0.11231346428394318,0.06854195147752762,-0.03599570319056511,-0.1427392214536667,0.21748119592666626,0.18387378752231598,-0.5437134504318237,0.36216849088668823,-0.09206075221300125,0.3156144618988037,0.20632587373256683,-0.28947317600250244,-0.3759593367576599,-0.313694030046463,-0.18678879737854004,-0.6686943173408508,-0.2468983680009842,-0.4518086910247803,1.016218900680542,-0.25849461555480957,0.36275726556777954,0.14987964928150177,0.33665090799331665,-0.42304033041000366,-0.24657250940799713,-0.05702729523181915,-0.014887506142258644,-0.3903215527534485,-0.06832266598939896,0.8773001432418823,-0.03970344364643097,0.1567429155111313,0.321228563785553,0.27522239089012146,-0.19920054078102112,-0.5342682003974915,0.4990730583667755,-0.03909247741103172,0.18318185210227966,0.3491967022418976,0.01606491021811962,0.10185462981462479,-0.39848482608795166,-0.011860258877277374,-1.1485676765441895,1.0245918035507202,-0.22406260669231415,-0.825370192527771,0.37126389145851135,-0.37129971385002136,-0.33175966143608093,0.16320659220218658,-0.6466087698936462,-0.21905305981636047,0.09902869164943695,-0.33955803513526917,-0.18982025980949402,0.5860714912414551,-0.08886261284351349,-0.33305901288986206,-0.09981490671634674,0.6345430612564087,0.015487065538764,0.06915850937366486,-0.883951723575592,-0.3049144744873047,0.11826051771640778,-0.24173936247825623,0.33274999260902405,0.3168124258518219,0.6013343334197998,-0.04838705062866211,0.29537951946258545,-0.260044664144516,-0.2311994433403015,-0.5574498772621155,-0.21416789293289185,0.1598256528377533,0.0031354804523289204,0.8871846199035645,-0.3590362071990967,-0.8426929712295532,-0.6740690469741821,-0.6100464463233948,-0.6152769923210144,0.06039745360612869,0.08063027262687683,-0.6058567762374878,0.6694809794425964,0.32247456908226013,-0.27045851945877075,0.48298802971839905,0.4908702075481415,0.5586606860160828,-0.1636929214000702,0.011144393123686314,-0.3043684959411621,1.317688226699829,1.1882047653198242,0.8945594429969788,-0.16256341338157654,0.03249680623412132,-0.33710217475891113,0.06786955147981644,-0.7491137385368347,-0.1644359529018402,-0.4075911045074463,-0.31880876421928406,0.22540335357189178,-0.3072338402271271,-0.0752316564321518,0.3542967736721039,0.34076330065727234,0.8460672497749329,0.3006138801574707,1.0594755411148071,-0.2827502489089966,0.5285387635231018,-0.5393380522727966,-0.26583635807037354,0.024230346083641052,-0.5512670874595642,-0.5820859670639038,0.10985364764928818,0.3284260034561157,-1.0246704816818237,-0.46868759393692017,0.3694104552268982,0.33431243896484375,0.010372116230428219,0.5483616590499878,-0.7353053092956543,0.08620107918977737,0.5573052763938904,-0.4498555660247803,-0.3834802806377411,0.11064279824495316,0.7184823751449585,0.1796448528766632,0.21654771268367767,-0.10241325199604034,-0.33191215991973877,0.3353325426578522,-0.1250508725643158,0.3834439516067505,0.5577223300933838,0.8143156170845032,-0.18896298110485077,0.41028478741645813,-0.08886882662773132,0.7240990996360779,-0.13975396752357483,-0.18623459339141846,-0.614518404006958,0.24893014132976532,-0.23249293863773346,-0.60053551197052,0.38285645842552185,0.4985653758049011,-0.24815432727336884,-0.23716366291046143,-0.1575332134962082,-0.38684388995170593,-0.13752515614032745,-0.13492825627326965,0.17562858760356903,0.0786566510796547,-0.11014963686466217,-0.10295050591230392,-0.6395625472068787,0.2999538779258728,-0.4250629246234894,-0.37784069776535034,0.25662821531295776,0.011678164824843407,-0.020609118044376373,-0.290981650352478,-0.43785595893859863,-0.13166791200637817,0.017975961789488792,-0.21890655159950256,-0.3393838405609131,0.18291398882865906,0.3655564785003662
http://dbpedia.org/resource/Jonathan_Ive,-1.1317282915115356,0.296304315328598,-0.45086508989334106,0.9642613530158997,-0.019491974264383316,-0.8377170562744141,-0.22072072327136993,0.046306755393743515,0.6469047665596008,-0.4939891993999481,0.5024036169052124,0.4472356140613556,-0.09922286123037338,0.21651031076908112,0.5181669592857361,-0.49665138125419617,-0.8235781192779541,0.08034645020961761,-0.23313724994659424,-0.061457742005586624,-0.2769726514816284,-0.27720245718955994,0.044045958667993546,0.3648233711719513,0.15963713824748993,0.3184961974620819,-0.35633915662765503,0.20115870237350464,0.3495651185512543,-0.03967083990573883,-0.16092322766780853,-0.052138280123472214,-0.4682244658470154,-0.33182522654533386,-0.11789557337760925,0.06690472364425659,0.03597760573029518,-0.3297511339187622,0.17901724576950073,0.10179420560598373,-0.10723188519477844,-0.3311793804168701,0.038823992013931274,-0.1292630285024643,-0.07628846168518066,0.25233450531959534,-0.3893483579158783,0.21222196519374847,0.21082715690135956,-0.3176933825016022,0.022268638014793396,-0.46943968534469604,0.5448321104049683,0.04886843264102936,-0.3493354022502899,0.6013049483299255,-0.5611450672149658,-0.2449149489402771,-0.07409517467021942,0.6685147285461426,0.7685940265655518,-0.13437528908252716,-0.27836930751800537,-0.2935066223144531,0.07083623111248016,0.1298370659351349,-0.5562040209770203,0.33263638615608215,0.22494487464427948,-0.3536963164806366,0.654651939868927,-0.9016600847244263,0.5570766925811768,-0.1703183352947235,-0.36278197169303894,0.20677374303340912,-0.09771112352609634,-0.7394484877586365,0.5014514923095703,-0.01473650150001049,0.01269577257335186,0.029136840254068375,-0.17144450545310974,-0.12380824983119965,0.2892771363258362,0.8392754197120667,0.19975683093070984,-0.5801783800125122,0.14995498955249786,-0.5304741263389587,0.3446430563926697,-0.7178024649620056,0.41760724782943726,-0.3431307077407837,0.7064058780670166,0.012487928383052349,-0.26567405462265015,0.7899737358093262,0.10160870850086212,-0.1251353770494461,0.2584173381328583,0.06356814503669739,-0.5529047250747681,-0.0288411695510149,-0.6067193746566772,-0.14007456600666046,-0.2506357431411743,0.18665000796318054,-0.15312601625919342,0.1929309070110321,-0.13447682559490204,0.07598334550857544,0.44932496547698975,0.2733529210090637,-0.6062220931053162,0.25694072246551514,0.38370251655578613,-0.30665647983551025,0.017367985099554062,0.3703066110610962,-0.5359421372413635,-0.2777015268802643,-0.3599094748497009,0.05716370791196823,0.47844505310058594,0.11880569905042648,0.4719032943248749,0.23322276771068573,0.40794840455055237,0.7725300192832947,-0.8400115370750427,-0.36449339985847473,0.007759782951325178,-0.1833261400461197,0.3169197738170624,0.6632944941520691,-0.6170331239700317,-0.11145851016044617,0.6847817301750183,0.32499223947525024,0.35069727897644043,0.4188641905784607,-0.08543506264686584,0.42929527163505554,-0.3890117108821869,-0.026813384145498276,0.28689950704574585,-0.21601055562496185,-0.3040147125720978,0.736484169960022,-0.3947070240974426,-0.2724856436252594,0.20300760865211487,0.24170657992362976,0.28440678119659424,-0.45033878087997437,0.2765708267688751,-0.01605837233364582,0.2813763916492462,0.2426522821187973,-0.20467503368854523,0.5398337244987488,0.2842833995819092,-0.21515342593193054,0.17819097638130188,-0.2845444977283478,0.21861958503723145,0.17303812503814697,-0.11259569972753525,-0.4391239583492279,-0.07896135002374649,-0.24227017164230347,0.5724694132804871,-0.9874828457832336,0.0010486774845048785,0.177176371216774,0.2217833399772644,-0.9495199918746948,0.7352869510650635,-0.2134745568037033,0.4041157066822052,-0.0017041312530636787,0.1706913411617279,-0.8438071608543396,0.26082783937454224,0.4815394878387451,-0.46982908248901367,0.9885281920433044,0.2930148243904114,-0.10373342037200928,0.44823431968688965,-0.1118614599108696,0.054820407181978226,-0.1161508858203888,-0.2793339192867279,-0.0029808313120156527,0.28972283005714417,-0.16313445568084717,0.5233938694000244,0.48540839552879333,0.3466312885284424,-0.1419493854045868,-0.6286603212356567,0.02576141245663166,0.3203096091747284,-0.008714175783097744,-0.27522894740104675,0.019704483449459076,-0.1829453855752945,0.09861624985933304,-0.08601317554712296,0.27242547273635864,0.30078890919685364,0.09268871694803238,-0.14788056910037994,-0.5426313281059265,-0.44999876618385315,0.3854157626628876,-0.07041315734386444,-0.20201534032821655,0.10935511440038681,0.16719356179237366,-1.009429693222046,0.5234289169311523,-0.10639018565416336,1.0278222560882568,0.7785423398017883,-0.16565610468387604,-0.42129191756248474,-0.10677378624677658,-0.07266410440206528,-0.032036229968070984,0.5879234671592712,-0.1047285944223404,0.21592070162296295,-0.17863625288009644,0.09220387786626816,-0.08383847773075104,0.1362941563129425,0.009086020290851593,-0.3157067596912384,-0.6659837365150452,0.2418382167816162,0.03835761547088623,-0.20573323965072632,-0.3978220820426941,0.15982820093631744,0.04144493490457535,0.616895854473114,0.01405452098697424,-0.5581082105636597,-0.23255124688148499,0.2686649262905121,-0.035349808633327484,0.5672249794006348,0.7031490802764893,0.15978655219078064,0.3235546052455902,0.3516257107257843,0.11241684854030609,-0.36703380942344666,-0.47703078389167786,-0.07188448309898376,0.18037690222263336,-0.015476331114768982,0.05803302675485611,0.4001963436603546,-0.35703665018081665,-0.06968945264816284,-0.2418576180934906,-0.20725789666175842,-0.06854177266359329,0.5145850777626038,0.6104048490524292,-0.29066920280456543,0.05906309559941292,0.5705387592315674,-0.36631330847740173,-0.1529979556798935,-0.2760413587093353,0.3636678159236908,0.5268769860267639,-0.262801855802536,-0.3978007137775421,-0.05070878192782402,0.3325594663619995,0.5722625851631165,-0.08337457478046417,0.5185787081718445,0.3256091773509979,0.17679738998413086,-0.2835002839565277,-0.13412810862064362,0.2580440640449524,-0.09876692295074463,-0.07600830495357513,0.3006044626235962,0.13633374869823456,-0.20526550710201263,-0.4829629063606262,-0.07002006471157074,-0.5489722490310669,0.06729242205619812,0.3329066336154938,0.23800361156463623,0.5711567401885986,-0.37130287289619446,-0.22082088887691498,-0.2650293707847595,-0.10093887895345688,-0.7535938620567322,0.28165295720100403,-0.625356137752533,-0.241874098777771,0.04399288445711136,-0.27337485551834106,0.7864770889282227,0.16275113821029663,-0.39488354325294495,-0.08020462095737457,-0.17894694209098816,-0.34464094042778015,-0.0875432938337326,0.4534235894680023,-0.2572956085205078,-0.12548863887786865,0.14885582029819489,0.4176933169364929,-0.020265081897377968,-0.10756570100784302,0.5722192525863647,-0.8014137744903564,-0.6142333149909973,0.21979038417339325,0.6327030062675476,-0.7866352796554565,-0.46235042810440063,-0.6765763163566589,-0.19714687764644623,0.14836488664150238,-0.35687267780303955,-0.4448474049568176,-0.571571409702301,-0.6202027797698975,-0.1863574981689453,0.5452082753181458,0.8946777582168579,-0.09446150809526443,0.1710139811038971,0.39423665404319763,-0.45960506796836853,-0.06406287848949432,0.52180415391922,-0.5708310008049011,0.586526095867157,0.5229430198669434,-0.13809403777122498,-0.19292360544204712,-0.3060705363750458,-0.4044094979763031,-0.501819372177124,0.41235417127609253,-0.21068236231803894,-0.6983950734138489,-0.05301923304796219,0.2815084159374237,-0.47605210542678833,0.0917453020811081,-0.6420718431472778,0.6073054075241089,0.3642742931842804,-0.2567623555660248,-0.07597135007381439,0.4500206708908081,-0.09094195812940598,0.0024321519304066896,-0.2479652762413025,-0.17486566305160522,0.18579138815402985,-0.19414106011390686,-0.23198281228542328,-0.3358907401561737,-0.14161203801631927,-0.11054021120071411,0.481751024723053,0.007760409265756607,0.10382981598377228,-0.022547274827957153,0.2551485300064087,0.31870609521865845,-0.6992400288581848,0.43862688541412354,-0.46036359667778015,0.20421931147575378,0.48565274477005005,0.12266594171524048,-0.5432645082473755,-0.04879213869571686,-0.13607452809810638,-0.6548658013343811,-0.45246055722236633,0.00501348776742816,0.10541337728500366,-0.4552413821220398,0.7544229626655579,0.1308823674917221,0.0069144307635724545,0.2344316840171814,0.41129270195961,0.5532494783401489,-0.7800005078315735,0.3511722981929779,-0.41350439190864563,0.7000070214271545,-0.18921303749084473,-0.2053350806236267,-0.04799593240022659,-0.5874314904212952,-0.5220403075218201,0.13265225291252136,0.15830951929092407,-0.7281649708747864,0.009038729593157768,0.6327036023139954,0.1173718273639679,0.3211787939071655,-0.24636314809322357,0.06976024061441422,0.34648987650871277,0.5500384569168091,0.07913456112146378,0.8557918667793274,-0.3047603964805603,0.23271287977695465,0.02073068544268608,-0.32514241337776184,0.15343594551086426,0.1265435367822647,-0.19891470670700073,-0.19547733664512634,0.02086903341114521,-1.0888117551803589,-0.4110866189002991,0.0677780881524086,0.2825012803077698,0.3164709210395813,0.10883211344480515,-0.281936913728714,0.5194751024246216,0.26548826694488525,-0.3615715503692627,-0.2758251130580902,-0.00030338866054080427,0.13408289849758148,-0.18108625710010529,-0.2122012823820114,-0.07867924869060516,-0.6968898773193359,-0.7256903052330017,-0.03744300827383995,0.6567283868789673,0.23482808470726013,-0.10482077300548553,-0.24697281420230865,0.3990877866744995,-0.16225703060626984,0.49921903014183044,0.251958429813385,1.0234971046447754,-0.406639039516449,-0.13518184423446655,-0.42223167419433594,-1.1246683597564697,-0.6405926942825317,0.3861370086669922,-0.47486984729766846,-0.49955734610557556,-0.35180729627609253,0.5043697357177734,0.5340433120727539,0.25446197390556335,-0.5190474390983582,0.344549298286438,-0.5488389134407043,-0.3444501459598541,-0.2850094437599182,0.37203526496887207,0.1483757495880127,-0.11004294455051422,-0.48833346366882324,-0.4008783996105194,0.14127510786056519,0.07573874294757843,-0.6154197454452515,-0.46065473556518555,0.20980039238929749,-0.21958492696285248,-0.8270450234413147,0.42851585149765015,0.5573538541793823
http://dbpedia.org/resource/Mac_Pro,0.3420460820198059,-0.08171570301055908,0.030395153909921646,-0.149051696062088,0.19104105234146118,-0.20890551805496216,0.042320024222135544,0.2235652655363083,-0.42080044746398926,-0.16724692285060883,-0.15599459409713745,-0.3278163969516754,0.5269580483436584,0.11756409704685211,0.07511116564273834,-0.3209298551082611,-0.3286336362361908,-0.5631353855133057,0.23003606498241425,-0.5425883531570435,-0.27793407440185547,-0.744699239730835,0.3775594234466553,0.1853104680776596,0.024861512705683708,0.5598400831222534,0.2511826753616333,0.5216631889343262,0.39615464210510254,-0.6571024060249329,-0.08809535205364227,-0.13828900456428528,0.08039385080337524,0.04745858535170555,-0.6609529256820679,-0.26714494824409485,-0.1921461671590805,-0.31678521633148193,-0.6305802464485168,-0.15183541178703308,0.25860050320625305,-0.17500343918800354,0.5745026469230652,-0.2030634582042694,-0.019239529967308044,-0.058664169162511826,-0.3465762138366699,0.03575186803936958,-0.3048751950263977,-0.47811058163642883,0.3548978865146637,0.12061867117881775,-0.08689538389444351,0.1808408796787262,0.5412363409996033,-0.04296593368053436,0.009543231688439846,-0.656620442867279,-0.007602923084050417,0.4949662983417511,0.09684818983078003,0.9998732805252075,-0.18298523128032684,0.1520613431930542,-0.10308685153722763,0.09121575951576233,0.3808005452156067,0.21014972031116486,0.4023313522338867,0.19204379618167877,0.6350647211074829,-0.6027347445487976,0.10057326406240463,-0.42684805393218994,0.3521733582019806,0.7442002296447754,-0.5127460360527039,-0.12764251232147217,-0.4348999559879303,0.2607719898223877,0.0008530045161023736,0.1064004972577095,-0.3395287096500397,0.008595610037446022,-0.5622203350067139,0.019211826846003532,0.5984941720962524,-0.9427335858345032,0.49131906032562256,-0.09694153070449829,0.2081422358751297,0.3828619718551636,-0.44451963901519775,-0.3496917188167572,0.0361061617732048,0.5020825266838074,-0.5553533434867859,0.40791043639183044,0.4113565683364868,-0.1598159521818161,0.23215258121490479,-0.20534834265708923,-0.16154786944389343,-0.06579127162694931,-0.5973509550094604,-0.20680566132068634,0.32359686493873596,0.1754377782344818,0.1302446573972702,-0.21612130105495453,0.23572403192520142,-0.08580217510461807,-0.37614724040031433,-0.29657936096191406,0.14923548698425293,-0.44260838627815247,0.22666163742542267,-0.5846343636512756,0.09299051761627197,-0.034493833780288696,-0.4275456666946411,-0.5880986452102661,-0.3856135904788971,-0.32666003704071045,0.3805443346500397,-0.24783870577812195,0.45290547609329224,0.4380163252353668,-0.23183020949363708,0.13765498995780945,-0.6477430462837219,-0.30995795130729675,-0.03874504938721657,-0.06266998499631882,0.1857289969921112,-0.5930904746055603,-0.32445329427719116,0.6590675711631775,0.1795007437467575,0.26300981640815735,-0.02015700936317444,0.08689442276954651,0.5060286521911621,-0.3441247045993805,-0.3520306348800659,0.21106302738189697,0.045649439096450806,0.18723629415035248,0.1497986912727356,0.40152543783187866,-0.5194997787475586,0.3291623592376709,-0.2345300018787384,0.6338956952095032,0.5610569715499878,-0.2524040639400482,-0.1749434620141983,-0.19458909332752228,-0.013349365442991257,0.36958521604537964,-0.05253111571073532,0.4350813627243042,0.2923413813114166,-0.11495321989059448,-0.08386772871017456,-0.7179315090179443,0.5496458411216736,-0.02849145233631134,0.19441348314285278,0.19282133877277374,-0.15525928139686584,0.02301807515323162,0.1879349797964096,-0.2254674881696701,-0.21769855916500092,-0.2555142939090729,0.49400225281715393,-0.13587746024131775,-0.1264895647764206,0.3251701891422272,-0.10967610776424408,0.27662530541419983,-0.18718671798706055,-0.5960164070129395,0.18786191940307617,-0.10975486040115356,-0.5072708129882812,0.3357561528682709,0.15936313569545746,0.014048541896045208,-0.12757515907287598,0.4109559655189514,0.026893729344010353,-0.09882746636867523,-0.3685277998447418,0.047218695282936096,0.4567580223083496,-0.029560325667262077,0.10621225833892822,0.018617955967783928,0.2569708228111267,0.08367878198623657,-0.13415487110614777,0.021425917744636536,-0.035612598061561584,0.05555694177746773,0.39030778408050537,0.34549373388290405,0.6386875510215759,-0.1636362373828888,0.2796758711338043,0.45777103304862976,-0.10859952867031097,-0.10105716437101364,0.26184284687042236,0.26294317841529846,0.08909352868795395,-0.7030732035636902,-0.18810582160949707,-0.1269405037164688,0.11812315136194229,-0.06429433822631836,-0.049556419253349304,-0.18050779402256012,0.6428493857383728,0.18678773939609528,0.2999207079410553,-0.11564934253692627,-0.3043053448200226,-0.4664219617843628,-0.021675171330571175,0.08808248490095139,-0.44390371441841125,1.2158777713775635,0.17431549727916718,0.2810182273387909,-0.1682719886302948,-0.30527856945991516,0.22696122527122498,0.14471733570098877,0.32640740275382996,0.04752460867166519,0.3042164146900177,-0.36383476853370667,-0.43995267152786255,-0.21987716853618622,0.2780244052410126,-0.42151153087615967,-0.12472597509622574,-0.3789985775947571,0.22163821756839752,-0.4622676372528076,0.24399086833000183,-0.38051703572273254,-0.08636631071567535,-0.7549273371696472,0.2637936770915985,0.26022273302078247,-0.02814893051981926,-0.11552388966083527,0.0245974063873291,-0.33825284242630005,-0.29990851879119873,-0.6396872997283936,-0.08912462741136551,-0.08896949142217636,0.2234874665737152,0.20395103096961975,0.07543633878231049,0.4553567171096802,-0.3214282989501953,0.4612273871898651,0.30058082938194275,-0.12226980179548264,-0.3654758632183075,-0.013932950794696808,-0.1416274905204773,0.2686406672000885,-0.5460695624351501,-0.515855073928833,0.27122971415519714,0.2943192422389984,-0.2866889536380768,-0.2147216647863388,-0.21929337084293365,-0.1213742196559906,0.29504019021987915,-0.09512585401535034,0.2095378190279007,0.3872717320919037,-0.06710708886384964,-0.49549612402915955,0.40511617064476013,0.24256360530853271,-0.22437730431556702,-0.043384961783885956,-0.1300676017999649,0.2508784532546997,-0.694153904914856,-0.6675085425376892,-0.20114737749099731,-0.13582009077072144,0.17083227634429932,-0.23268403112888336,-0.34094640612602234,0.06217671185731888,-0.31786879897117615,0.10974623262882233,0.21461108326911926,0.10294488072395325,-0.17291724681854248,0.09062937647104263,-0.32300642132759094,0.0728604644536972,0.18740013241767883,-0.041875649243593216,-0.2908798158168793,0.268426775932312,-0.23396450281143188,0.0030476185493171215,0.5773833394050598,-0.16159522533416748,-0.3059220016002655,0.30235397815704346,-0.15770401060581207,-0.06934969872236252,0.030825436115264893,-0.3063717186450958,-0.4674476087093353,-0.15838345885276794,-0.2314130663871765,0.37823623418807983,-0.44300493597984314,-0.35388314723968506,0.5617998242378235,-0.6981019377708435,-0.7637856006622314,-0.03282773867249489,0.04290436953306198,-0.18819834291934967,0.3452959954738617,-0.04996006190776825,-0.8361880779266357,-0.4889983534812927,-0.22463394701480865,0.31321966648101807,0.05616161227226257,0.5948649048805237,-0.6453503966331482,0.2824156880378723,0.07362089306116104,0.3581390082836151,-0.16847053170204163,-0.041708797216415405,0.15755805373191833,0.19499726593494415,0.383868932723999,-0.7148775458335876,-0.4987088739871979,-0.486713707447052,-0.39038509130477905,0.9480896592140198,0.0027717018965631723,-0.6511271595954895,-0.5390560030937195,0.8947213292121887,0.05425574257969856,0.12099984288215637,-0.799830973148346,-0.14617054164409637,0.1309087723493576,-0.14305441081523895,0.17155466973781586,0.7057819962501526,-0.01687529869377613,-0.3083723485469818,0.3909890353679657,-0.27514469623565674,0.03711486980319023,0.5231074094772339,-0.4977511167526245,-0.5619998574256897,0.1380539983510971,0.21032047271728516,0.012860569171607494,0.2831137180328369,0.2616201341152191,0.47784554958343506,0.24052341282367706,-0.12023977190256119,0.049135785549879074,-0.179303377866745,-0.4035840630531311,-0.11940550804138184,0.22119656205177307,-0.025863919407129288,0.34585949778556824,-0.9787957072257996,-0.1447608768939972,-0.8077475428581238,-0.42153769731521606,0.23068642616271973,-0.006055532488971949,0.39628902077674866,0.391817182302475,-0.37997761368751526,0.1073187068104744,-0.9234758615493774,-0.07828030735254288,-0.35168221592903137,-0.1998518705368042,0.44331246614456177,0.42527705430984497,0.7808533310890198,-0.09482791274785995,-0.608145534992218,0.5085556507110596,-0.4433891773223877,-0.13907738029956818,0.5721840262413025,-0.42654237151145935,0.3320825397968292,0.2067950814962387,0.15623566508293152,-0.2540428638458252,0.37771832942962646,0.054921187460422516,0.45890823006629944,0.3180338442325592,0.1009758859872818,-0.30287671089172363,0.6667677760124207,-0.402699738740921,0.13591352105140686,-0.4864656329154968,-0.32211819291114807,0.1762499213218689,-0.3268037736415863,-0.3866589069366455,-0.4129612147808075,-0.07715221494436264,-0.1580611616373062,-0.3258804976940155,-0.2342616468667984,-0.21511852741241455,0.4603610634803772,0.24656803905963898,0.12120930105447769,0.17354942858219147,-0.38449403643608093,-0.23532702028751373,-0.05556562542915344,0.03370768949389458,-0.07400301098823547,-0.1499219685792923,-0.1781144142150879,0.008365051820874214,0.29076921939849854,-0.6964784264564514,-0.16276919841766357,0.606772243976593,0.6066856980323792,-0.41842320561408997,-0.5311433672904968,0.3797009587287903,-0.02660154551267624,0.03780728578567505,0.0961538553237915,0.25703105330467224,-0.5497344136238098,-0.5680031180381775,-0.3418896496295929,-0.6539114117622375,-0.35372933745384216,-0.5599758625030518,0.29691368341445923,-0.19117383658885956,-0.678134560585022,-0.15024572610855103,0.18593987822532654,-0.36803364753723145,0.08916109055280685,0.36320486664772034,-0.18551810085773468,-0.13722172379493713,0.4468419551849365,-0.132475808262825,0.15320953726768494,-0.12957695126533508,-0.23270487785339355,0.03490033745765686,0.0015149087412282825,0.0424681231379509,-0.09393972158432007,-0.17306892573833466,-0.5568667054176331,-0.038459137082099915,-0.051641810685396194,-0.08799359947443008,0.6724034547805786
http://dbpedia.org/resource/Mike_Markkula,-0.029989726841449738,-0.34484922885894775,-0.18008993566036224,-0.10794845223426819,0.13739824295043945,0.15157805383205414,-0.2511632442474365,0.07428061217069626,-0.09301349520683289,-0.027358848601579666,-0.19823774695396423,-0.024299483746290207,0.2878596782684326,0.17806892096996307,-0.11533202230930328,0.06055627763271332,0.03825880214571953,-0.14786623418331146,0.13489721715450287,-0.029323473572731018,-0.4663984179496765,-0.3157879114151001,0.20302040874958038,-0.16079062223434448,0.20791102945804596,-0.18229053914546967,0.7469679117202759,-0.18633484840393066,0.6079903841018677,-0.20680347084999084,-0.10440417379140854,0.40019387006759644,0.1482134908437729,-0.05728943273425102,-0.48203474283218384,-0.07958246767520905,-0.11928149312734604,-0.9437630772590637,-0.0013895949814468622,0.3479781746864319,0.10331972688436508,0.2774752378463745,0.11979187279939651,-0.16770650446414948,-0.23652176558971405,0.305164635181427,-0.07820922881364822,-0.023190848529338837,0.2189481407403946,-0.8187400102615356,0.46491101384162903,0.6503570079803467,0.12506361305713654,0.1439109444618225,0.25244906544685364,-0.07769235223531723,-0.3712975084781647,-0.24102190136909485,0.28032538294792175,0.6511891484260559,-0.15522032976150513,1.0784835815429688,-0.4688878357410431,-0.31318995356559753,-0.1269187480211258,-0.12105561047792435,0.2596842348575592,0.4846215546131134,0.2496989220380783,-0.44684723019599915,0.7056324481964111,0.12646053731441498,-0.08818357437849045,0.3651571273803711,0.33812856674194336,0.7477598786354065,-0.07247161865234375,-0.13732442259788513,0.25363612174987793,0.5361553430557251,-0.30476146936416626,0.5671427249908447,0.14347562193870544,0.028253719210624695,0.24164427816867828,-0.12352778762578964,0.2903517782688141,-0.6695842146873474,0.33423230051994324,0.07531662285327911,-0.2215639054775238,0.12074152380228043,-0.10918961465358734,0.16831716895103455,0.44209232926368713,0.20530086755752563,-0.6386731266975403,0.2558572292327881,0.362671822309494,-0.3462686240673065,-0.14130666851997375,-0.23478537797927856,-0.3112068772315979,-0.6601660847663879,-0.3560201823711395,0.22071227431297302,0.24657247960567474,0.3613857924938202,-0.09876026958227158,-0.13750505447387695,0.20094315707683563,0.37300437688827515,-0.04770737513899803,0.07860733568668365,0.019861117005348206,-0.21593071520328522,0.41964665055274963,-0.8369622826576233,0.026652587577700615,-0.1598907858133316,-0.09463116526603699,-0.5741525888442993,-0.23072242736816406,0.02272779494524002,-0.4100736379623413,-0.254380464553833,0.3980134129524231,0.42942267656326294,-0.4950369596481323,0.12757188081741333,0.8736913204193115,-0.259099543094635,0.054440274834632874,-0.1408414989709854,0.014684825204312801,-0.03712772950530052,0.577407717704773,0.29123684763908386,0.20000211894512177,-0.09758125990629196,0.010716352611780167,0.4235866963863373,0.11257772892713547,0.5356392860412598,-0.22140540182590485,0.07644114643335342,0.30287954211235046,0.16035109758377075,0.3774872124195099,0.3943649232387543,-0.4136119484901428,-0.04720078408718109,0.09279633313417435,0.0586012601852417,0.7991837859153748,-0.6897649765014648,-0.5635613799095154,0.23012126982212067,0.2628529965877533,0.2623637318611145,0.14203183352947235,-0.16560758650302887,-0.11814896762371063,0.30870452523231506,0.545358419418335,-0.21405652165412903,0.48638176918029785,0.4892110526561737,0.10453330725431442,-0.06011262163519859,0.11551599204540253,0.12405946105718613,0.43151578307151794,-0.9261205196380615,-0.3234715461730957,-0.20033572614192963,0.40252259373664856,-0.44199812412261963,0.40209078788757324,-0.40146124362945557,0.14022965729236603,0.2648601830005646,-0.4495484232902527,0.2453952133655548,0.6022007465362549,-0.059245601296424866,-0.9392990469932556,0.09443268924951553,-0.4385582208633423,0.04712199792265892,0.049033720046281815,0.11338470876216888,-0.11019614338874817,-0.2808803617954254,0.544662356376648,0.09157108515501022,0.3998908996582031,-0.11735755950212479,-0.06510991603136063,0.1972755342721939,0.30693450570106506,-0.5336464047431946,-0.2751197814941406,-0.2333396077156067,0.16134898364543915,-0.30247899889945984,-0.02450435981154442,-0.15430699288845062,-0.026363208889961243,-0.4321008622646332,0.26018863916397095,0.2580973505973816,-0.24383945763111115,0.39221516251564026,0.2015693187713623,-0.26919588446617126,0.13671717047691345,-0.23736891150474548,-0.11196144670248032,-0.01697637140750885,-0.26808616518974304,0.23606476187705994,-0.25949057936668396,-0.4350733458995819,0.004290715325623751,-0.022601455450057983,0.4163040816783905,-0.4469947814941406,-0.23370428383350372,-0.06674715131521225,-0.38934004306793213,0.6410307884216309,-0.1619769185781479,-0.013436214998364449,0.40829625725746155,0.42401957511901855,0.0693196952342987,-0.06437789648771286,0.2249072790145874,0.17719128727912903,0.6107454299926758,-0.02952597476541996,0.20508940517902374,-0.2711385488510132,-0.5025541186332703,0.46341603994369507,0.43045496940612793,-0.381081223487854,0.06527908891439438,0.5900607705116272,-0.09495292603969574,-0.38298702239990234,0.46559029817581177,0.036692287772893906,-0.24085156619548798,-0.21157144010066986,-0.18726585805416107,0.1121215671300888,0.08244279772043228,-0.5022122263908386,0.09167296439409256,-0.8110531568527222,0.08204931765794754,-0.30755144357681274,-0.1503128707408905,0.3462924659252167,0.5499653220176697,-0.2642386257648468,0.6565496325492859,0.1880244016647339,-0.005039233714342117,0.1903357207775116,0.518705427646637,-0.018813295289874077,-0.04791433364152908,-0.07885103672742844,0.3269336521625519,0.13923245668411255,0.3020700514316559,-0.011560110375285149,0.24877843260765076,0.266426682472229,-0.22160634398460388,-0.13691487908363342,-0.14902518689632416,-0.07590058445930481,0.8773319721221924,0.31061312556266785,0.2342187762260437,-0.699730634689331,0.2775215208530426,0.025221940129995346,0.10603632032871246,0.32845020294189453,0.04906637966632843,-0.02085964009165764,0.047393761575222015,-0.05561671406030655,-0.3270876705646515,-0.18036817014217377,-0.38052496314048767,-0.3376755118370056,0.04401782527565956,-0.3970273733139038,0.14738643169403076,0.024484464898705482,0.17737454175949097,0.2495470941066742,0.22129157185554504,0.05825255811214447,-0.12597890198230743,0.32159286737442017,-0.08487842977046967,-0.0012105791829526424,0.41158702969551086,-0.4757741689682007,0.016992786899209023,0.16900242865085602,-0.37758782505989075,-0.015101533383131027,-0.01362241618335247,0.17726637423038483,0.5315245389938354,-0.3911503553390503,-0.16388987004756927,0.03737916052341461,-0.2160819172859192,-0.4338001012802124,-0.2433602511882782,0.04321865737438202,-0.11823446303606033,-0.3051731288433075,-0.5392353534698486,-0.33685922622680664,1.0516096353530884,-0.016471434384584427,-0.5603040456771851,-0.3370168209075928,-0.3257937431335449,0.11319956928491592,-0.13914015889167786,0.12137603014707565,-0.1812984198331833,-0.08434876054525375,-0.30706265568733215,0.424272745847702,0.3076997995376587,0.08267039805650711,0.5049418807029724,-0.4807265102863312,-0.7195937037467957,0.7172579169273376,-0.3873201310634613,0.13788841664791107,0.1964450180530548,0.4247082471847534,0.2578578591346741,-0.32986170053482056,-0.44456544518470764,-0.12191455066204071,-0.46261584758758545,0.10337202996015549,0.7632642388343811,-0.5670568943023682,-0.4784294366836548,-0.04076048359274864,-0.4120829105377197,0.056979212909936905,-0.2503221333026886,0.17122837901115417,-0.11909317970275879,-0.008134955540299416,0.017159678041934967,0.30995893478393555,-0.4768393635749817,-0.4273757338523865,-0.1483047902584076,-0.3416503667831421,-0.19587230682373047,-0.006043159868568182,-0.2502013146877289,0.36725813150405884,-0.12269561737775803,0.4698795974254608,-0.12241851538419724,0.5534113645553589,-0.15190204977989197,0.57618647813797,0.5127660632133484,0.7546005249023438,-0.25518834590911865,-0.3369971215724945,0.0008420300437137485,-0.09245824813842773,-0.37871038913726807,0.7282628417015076,-0.21165169775485992,-0.21245865523815155,0.2828075587749481,-0.12428070604801178,0.015779191628098488,0.8066245913505554,0.08171363919973373,-0.0308329239487648,0.4731997549533844,0.05303514376282692,-0.15903159976005554,-0.409684419631958,-0.5272586941719055,-0.26758599281311035,-0.21909421682357788,0.20258134603500366,0.06177796423435211,0.5340951681137085,0.10734172910451889,-0.616239070892334,0.1867467314004898,-0.2837766110897064,-0.22510531544685364,-0.027123210951685905,0.10950931161642075,0.02433963678777218,-0.1697787195444107,-0.49007272720336914,0.43077313899993896,-0.08030565083026886,0.4084186553955078,0.40581488609313965,0.942803680896759,0.07959317415952682,0.033240288496017456,0.2738924026489258,-0.26076948642730713,0.8190358281135559,0.09148203581571579,-0.774764358997345,-0.4839640259742737,-0.7659839987754822,-0.3879821002483368,-0.6170088052749634,-0.5889890193939209,0.12375278025865555,-0.5851027369499207,0.13249783217906952,0.25961726903915405,0.03892217576503754,0.10689477622509003,-0.025243278592824936,0.6143264174461365,0.049893464893102646,-0.3817976117134094,0.07263971120119095,0.024707326665520668,0.24598880112171173,0.2686309218406677,-0.07796686142683029,-0.03140445798635483,0.2890855669975281,-0.35388943552970886,-0.4831055998802185,0.9825373888015747,0.25230419635772705,-0.21425360441207886,-0.5876563191413879,-0.022203778848052025,-0.42372745275497437,0.03773381561040878,-0.009031150490045547,-0.013175169937312603,0.19997332990169525,-0.29996225237846375,0.016135044395923615,-0.2809910178184509,0.029748953878879547,-0.2069663405418396,-0.10715371370315552,-0.3793223798274994,-0.1542082279920578,-0.09327381104230881,0.3251632750034332,-0.168020099401474,-0.05072977766394615,-0.04553592577576637,-0.22572468221187592,0.29525384306907654,0.16299229860305786,-0.013892129063606262,-0.1435190886259079,0.20826567709445953,0.19718500971794128,0.15097957849502563,0.005796720739454031,-0.025367077440023422,0.541297197341919,0.2889702022075653,-0.25257015228271484,-0.09956084191799164,-0.25972387194633484,-0.32060253620147705,-0.11183936893939972
http://dbpedia.org/resource/Infinite_Loop_(street),-0.1966724693775177,0.14958620071411133,-0.17452558875083923,-0.12304516136646271,0.016982171684503555,0.10015981644392014,0.23913690447807312,0.20638196170330048,-0.026057932525873184,-0.3882857859134674,0.3057539165019989,-0.513066291809082,0.23259912431240082,0.011925766244530678,0.2894468307495117,-0.7503908276557922,0.11610129475593567,0.549015998840332,-0.14248515665531158,-0.40702393651008606,-0.3233528137207031,-0.5447872281074524,0.08050720393657684,-0.10833971947431564,0.05475575476884842,0.40078115463256836,0.16378803551197052,0.2558663785457611,0.6326824426651001,-0.016426192596554756,-0.8555451035499573,0.4378104507923126,-0.15090346336364746,-0.18714718520641327,-0.016745764762163162,-0.3428574502468109,-0.22868511080741882,-0.6773496270179749,-0.22216133773326874,-0.07386837154626846,0.13009074330329895,0.038878582417964935,0.13386885821819305,-0.5674221515655518,-0.3684663772583008,-0.2825327217578888,-0.29917120933532715,-0.4782037138938904,0.13599525392055511,-0.06696509569883347,0.5291599631309509,0.2271551638841629,-0.12422239035367966,0.09906087815761566,0.15066340565681458,0.10386094450950623,0.059133388102054596,-0.6937045454978943,0.249517023563385,0.1479061394929886,0.4199616312980652,0.40219175815582275,0.15731117129325867,0.2951290011405945,-0.22601674497127533,0.4442980885505676,0.027315879240632057,0.38084161281585693,0.34627899527549744,-0.3350306749343872,0.12584379315376282,-0.10069770365953445,0.24573387205600739,0.12542007863521576,0.02304418943822384,0.34714582562446594,-0.10189792513847351,-0.42396995425224304,-0.2856975793838501,-0.09067841619253159,-0.5505473017692566,-0.10026175528764725,-0.1311277151107788,0.37450891733169556,0.17210669815540314,0.1739204078912735,0.1433430016040802,0.04104890674352646,0.5064975619316101,-0.1477545201778412,0.07411167025566101,0.07299063354730606,-0.5449936985969543,0.15784324705600739,0.14471520483493805,0.13300564885139465,-0.15302912890911102,0.22926944494247437,0.40427958965301514,0.09660141170024872,0.4589456617832184,-0.358225017786026,-0.4156056046485901,-0.16010132431983948,-0.8631575107574463,0.3536219000816345,-0.018764926120638847,-0.3203319311141968,-0.06830304861068726,0.09418071061372757,-0.3576009273529053,0.4294854402542114,-0.1999732255935669,-0.15824197232723236,-0.5898470282554626,-0.09788654744625092,0.493528813123703,-0.3502187132835388,-0.2159728854894638,-0.26225554943084717,-0.5619907379150391,-0.46394938230514526,-0.040788497775793076,-0.552311897277832,0.10414940863847733,-0.32669898867607117,0.7181708216667175,0.058101676404476166,0.23484072089195251,0.36933577060699463,-0.04911191388964653,-0.9450505971908569,-0.1516716331243515,0.07966729253530502,0.16741135716438293,0.049912579357624054,-0.10804910212755203,-0.1794186681509018,-0.3165912628173828,0.5994085669517517,-0.13175535202026367,0.6034026145935059,-0.24710895121097565,-0.4002239406108856,-0.4945348799228668,-0.19534558057785034,-0.44845789670944214,-0.31252771615982056,-0.01097043789923191,0.3033519983291626,0.22227445244789124,-0.11756489425897598,0.38782355189323425,0.00857559870928526,0.26159387826919556,-0.6286733150482178,0.2480616420507431,0.47448086738586426,-0.4019331634044647,-0.12270259857177734,-0.5412267446517944,0.29917284846305847,-0.5378139615058899,0.04758589714765549,-0.09799406677484512,-0.06851006299257278,0.1212935596704483,0.3673683702945709,0.31129276752471924,0.2914971709251404,-0.5843311548233032,-0.037797149270772934,0.28280746936798096,-0.33542728424072266,-0.057370081543922424,0.2352534681558609,0.5286654233932495,-0.09121610224246979,0.14887341856956482,1.0336475372314453,-0.017168544232845306,0.05348252132534981,-0.10721364617347717,-0.5833098888397217,0.6259859800338745,0.4232253432273865,-0.21189694106578827,0.860566258430481,-0.32166287302970886,0.31531471014022827,-0.3187393248081207,0.15280185639858246,-0.5929890275001526,-0.39193785190582275,-0.3014012575149536,0.46315237879753113,-0.10431656986474991,0.06425631791353226,-0.5258326530456543,-0.4170484244823456,0.05318377539515495,-0.2987684905529022,0.1368425339460373,-0.311659574508667,-0.709995448589325,-0.06610260158777237,-0.03828723356127739,-0.08333906531333923,0.327501118183136,-0.48202088475227356,0.024406788870692253,0.41981127858161926,-0.005861751269549131,0.5229244232177734,0.04914392903447151,0.030647512525320053,-0.33325856924057007,0.3893043100833893,0.19610223174095154,-0.15769264101982117,0.2361597716808319,-0.01845499686896801,-0.5390166640281677,-0.2959774434566498,1.132320523262024,0.4703538417816162,0.1427125185728073,-0.07121575623750687,-0.08884931355714798,0.06462164223194122,0.11407779157161713,-0.21237921714782715,0.47968438267707825,0.18566280603408813,-0.3412254750728607,0.35146328806877136,-0.19418832659721375,-0.009543848223984241,-0.0389544852077961,0.36798566579818726,0.14948514103889465,-0.5657968521118164,0.05509835481643677,-0.23371225595474243,-0.48029521107673645,0.31765100359916687,-0.07691247016191483,0.04719546064734459,0.4301978349685669,-0.4551210403442383,-0.4573773741722107,-0.4521317183971405,0.18955038487911224,-0.14202076196670532,-0.05674666538834572,-0.6201711297035217,-0.6268977522850037,0.26380783319473267,0.44518256187438965,0.4080298840999603,-0.012745639309287071,-0.06564245373010635,0.2908270061016083,0.009812844917178154,0.853418231010437,-0.017584694549441338,0.06265547126531601,-0.06306546926498413,0.013245100155472755,0.02930072881281376,-0.39134475588798523,0.3643281161785126,0.34662455320358276,-0.4658326804637909,-0.011141658760607243,-0.058319006115198135,0.24160291254520416,-0.2073289155960083,-0.12616460025310516,-0.22451280057430267,-0.09166350960731506,-0.011075510643422604,-0.00544346310198307,0.01348789781332016,0.27352017164230347,0.6429470181465149,0.4222296476364136,0.39449283480644226,0.2616066336631775,0.13925014436244965,-0.1923806220293045,-0.17095211148262024,0.32755807042121887,-0.7862645983695984,0.23950183391571045,0.003587186336517334,-0.18024349212646484,0.041532449424266815,-0.3165046274662018,-0.3425518572330475,0.22215837240219116,-0.39174437522888184,0.20860382914543152,-0.06787718832492828,0.06905892491340637,0.3334885835647583,0.22912654280662537,0.022497722879052162,0.47786587476730347,-0.5863243937492371,0.0027883066795766354,0.0409616120159626,-0.07986786216497421,-0.5713297724723816,-0.12213899195194244,0.19285158812999725,-0.12444795668125153,-0.28933578729629517,0.5754664540290833,-0.30929169058799744,0.2594045102596283,-0.16044382750988007,-0.16934740543365479,0.20933520793914795,-0.11004652827978134,-0.2677176892757416,0.04478878155350685,-0.16114218533039093,-0.5046803951263428,-0.1983685940504074,-0.22092537581920624,-0.17589302361011505,-0.7290228605270386,-0.10983707755804062,0.302295058965683,-0.9521802067756653,-0.33450639247894287,-0.4132697582244873,-0.26110073924064636,0.07770893722772598,-0.6288473606109619,0.3611816465854645,-0.7615252733230591,-0.5430800318717957,0.23176904022693634,0.5930745601654053,0.062252968549728394,0.21403199434280396,0.20271654427051544,0.3879300355911255,-0.24776430428028107,0.2880704402923584,0.4229736030101776,-0.3754168748855591,0.26830780506134033,0.4302141070365906,0.1324480026960373,-0.43794354796409607,0.4428091049194336,-0.3244229555130005,-0.7190774083137512,0.49269917607307434,-0.3317294418811798,-0.8227413892745972,-0.25593101978302,0.1526317298412323,-0.5498732924461365,0.19614490866661072,-0.32149532437324524,0.6027531623840332,0.3652339577674866,-0.2001880407333374,0.2058611661195755,-0.3463272452354431,-0.3826776444911957,-0.31201985478401184,0.15003123879432678,0.18115361034870148,-0.33362820744514465,-0.1991874873638153,-0.09049346297979355,-0.14596062898635864,0.2650730311870575,0.13669298589229584,0.4649975597858429,0.288774698972702,0.3129996955394745,0.19943246245384216,0.08769626915454865,0.052217088639736176,-0.40569406747817993,-0.6245937943458557,-0.28566649556159973,0.4550435245037079,0.10339320451021194,0.2074097990989685,-0.29728227853775024,-0.6498939990997314,-0.09824096411466599,-0.1276569962501526,-0.06087665632367134,0.40045443177223206,0.03705833852291107,-0.46383193135261536,0.9901673197746277,-0.031612493097782135,0.053713805973529816,-0.2069990038871765,-0.210938960313797,0.4892532527446747,-0.6877037286758423,-0.2516830563545227,0.30452150106430054,0.6274093389511108,-0.11824608594179153,0.020021922886371613,0.03060269169509411,0.1323326826095581,0.1314535290002823,0.4824630618095398,0.031807877123355865,-0.3592056930065155,0.06848400086164474,-0.24150972068309784,0.3607115149497986,0.005488747265189886,0.1274198442697525,0.04433392733335495,0.5216576457023621,0.31854984164237976,0.07551515847444534,0.5898910164833069,0.07875513285398483,0.6338773369789124,0.0752444788813591,-0.29303422570228577,-0.12488687038421631,-0.03380924463272095,0.13255411386489868,-0.11871922761201859,0.31756165623664856,-0.2786722779273987,-0.4231032133102417,0.21293841302394867,-0.49703723192214966,0.5571964383125305,-0.11112265288829803,0.23038065433502197,0.12205785512924194,0.1775699257850647,0.1386142373085022,-0.3607170283794403,0.2374308556318283,-0.2868272066116333,-0.8408278822898865,0.07764766365289688,0.7769927382469177,0.02254592813551426,-0.025843564420938492,-0.3731144070625305,0.7406843900680542,0.25301069021224976,-0.09835450351238251,-0.7546771764755249,0.25090673565864563,0.05113287270069122,-0.11801034957170486,0.0848124772310257,0.07632827013731003,-0.3411681652069092,-0.26132285594940186,-0.16307607293128967,0.1403006762266159,-0.31377485394477844,-0.5026442408561707,0.2247833013534546,0.15516367554664612,-0.2712482810020447,0.600525438785553,0.2073315531015396,0.11122950911521912,0.23791220784187317,0.3124288022518158,0.11419964581727982,0.43583983182907104,-0.005390934646129608,0.404070109128952,-0.03306565806269646,-0.07069452852010727,0.0144710848107934,0.2554270923137665,-0.34384405612945557,-0.03853701427578926,-0.20243076980113983,-0.1528572142124176,-0.1145443543791771,0.17000119388103485,-0.08458788692951202,-0.017445925623178482,0.5809850096702576
http://dbpedia.org/resource/Silicon_Valley,-0.13830119371414185,0.3605668544769287,0.03803667053580284,0.44160324335098267,0.5895799398422241,-0.041884638369083405,-0.016619937494397163,0.02890581078827381,0.44141191244125366,-0.6870911121368408,0.12360905110836029,-0.10154270380735397,0.09139037132263184,0.5663300156593323,-0.08041313290596008,-0.3422106206417084,0.29510289430618286,0.18186908960342407,0.25075235962867737,-0.19482535123825073,-0.6119224429130554,-0.3468503952026367,0.13202771544456482,0.2124229371547699,-0.35905781388282776,0.6290378570556641,-0.3322947025299072,-0.05066410079598427,0.2634078562259674,0.24100232124328613,0.24389664828777313,0.5229730606079102,-0.1945142298936844,0.223075270652771,-0.2343262881040573,0.1940641850233078,-0.14297042787075043,0.2657117247581482,0.3237139880657196,-0.12436110526323318,0.9497323036193848,-0.41166412830352783,0.18379820883274078,0.026833703741431236,-0.3967268764972687,0.6018216609954834,-0.5126515030860901,0.39245906472206116,-0.04057635739445686,-0.11277797073125839,0.0016240425175055861,-0.3232497572898865,-0.456208735704422,-0.11747070401906967,0.1591150015592575,0.3466532528400421,0.4816318154335022,0.2449609786272049,-0.2801937162876129,-0.0679507702589035,-0.29007628560066223,0.3557671010494232,-0.4468282461166382,-0.14822804927825928,0.13169366121292114,0.4123416841030121,0.2848857045173645,0.5240503549575806,0.2413168102502823,-0.008747313171625137,-0.1781092882156372,-0.2551448941230774,0.08230610936880112,0.32225698232650757,-0.381666362285614,-0.037750933319330215,0.7298220992088318,-0.5744228959083557,-0.46116751432418823,-0.12092715501785278,0.07964041829109192,0.02621925249695778,0.3985986113548279,-0.19402314722537994,0.08542294055223465,0.22771047055721283,0.05792860686779022,0.15807633101940155,0.5944824814796448,-0.20259012281894684,0.5235229134559631,0.26208755373954773,-0.5735095739364624,0.20560766756534576,-0.4810742437839508,0.022437622770667076,-0.2655304968357086,0.3305845558643341,0.443075954914093,0.4182194769382477,0.3295592963695526,-0.5340895652770996,0.07377824932336807,0.21492280066013336,0.16209425032138824,1.1046842336654663,0.36767297983169556,-0.1563604176044464,0.16709698736667633,-0.09511838853359222,-0.11443004012107849,-0.2191973179578781,-0.259030818939209,0.047859739512205124,-0.10364093631505966,-0.5403634309768677,-0.3962180018424988,-0.2122531533241272,0.39789336919784546,0.5445961356163025,-0.34983834624290466,-0.2825806736946106,-0.3496914505958557,0.02017827332019806,0.43730613589286804,-0.3254616856575012,0.5381131768226624,-0.13617683947086334,0.12043510377407074,-0.09051414579153061,-0.10971008986234665,-0.5460399985313416,-0.01780170574784279,-0.31371545791625977,0.15753568708896637,-0.4041309058666229,-0.10873281210660934,-0.16633181273937225,-0.1063290685415268,0.4237828254699707,-0.08546796441078186,0.26348498463630676,0.23795942962169647,0.5179994702339172,0.006860127206891775,-0.08194631338119507,-0.4289998710155487,0.43065619468688965,0.6255375146865845,0.060053110122680664,-0.22008100152015686,-0.004857073072344065,0.45948851108551025,1.0459076166152954,0.17191144824028015,0.07796413451433182,-0.12780733406543732,-0.29858526587486267,0.14788684248924255,0.16216431558132172,0.07749349623918533,0.21010704338550568,0.014383298344910145,-0.36620718240737915,-0.3007872402667999,-0.03140457347035408,0.7389931082725525,0.41514864563941956,0.5197479128837585,-0.17623008787631989,0.004033351317048073,-0.3350038528442383,0.4307402968406677,-0.19443371891975403,-0.011110060848295689,0.21806728839874268,0.5654180645942688,-0.08652935177087784,0.5397674441337585,0.017650894820690155,0.3373907804489136,0.2726318836212158,-0.8119754791259766,0.003706851741299033,0.3105391561985016,-0.20523913204669952,0.26037076115608215,0.4410025179386139,-0.2570926249027252,0.02809598110616207,0.02773118019104004,0.3872721195220947,-0.3803198039531708,0.19481050968170166,0.20064158737659454,-0.2737341523170471,0.3501756191253662,-0.17448194324970245,0.7911391854286194,-0.25200748443603516,-0.30757787823677063,-0.7932916283607483,0.16098730266094208,0.18964911997318268,-0.043272390961647034,0.1803809404373169,-0.118528813123703,0.3216952979564667,0.4297114312648773,-0.09154704213142395,-0.08196164667606354,0.14407001435756683,-0.051453523337841034,0.24721410870552063,0.04426916316151619,0.20637936890125275,0.07292044162750244,-0.1486307978630066,-0.10613340139389038,-0.3677600920200348,-0.2372128963470459,0.382400244474411,-0.746316134929657,0.17782919108867645,-0.07313272356987,0.5325804352760315,0.2911466360092163,-0.6827802658081055,-0.0532207190990448,0.11927174776792526,0.14511840045452118,0.18198809027671814,-0.057165633887052536,-0.3413030803203583,0.3331802487373352,-0.46586498618125916,-0.2990458905696869,-0.03286081179976463,0.04556623846292496,-0.09690763801336288,-0.03142634034156799,-0.06635737419128418,0.16513770818710327,0.10616107285022736,-0.2725856602191925,0.06682976335287094,-0.6340450644493103,-0.3680596351623535,0.49352726340293884,-0.13461770117282867,-1.269417405128479,-0.1631624698638916,0.26278117299079895,0.2836630940437317,0.12485300004482269,-0.24619288742542267,0.16000774502754211,-0.3626960813999176,0.3934069275856018,0.8390230536460876,-0.22985482215881348,-0.44565752148628235,-0.046048954129219055,0.15485414862632751,0.3625281751155853,-0.17742778360843658,0.3829536437988281,-0.5792730450630188,-0.26297521591186523,-0.0346236377954483,-0.2436220794916153,-0.5291122794151306,0.2518201172351837,0.24603742361068726,0.03523818776011467,-0.058379340916872025,0.20160667598247528,-0.10147126764059067,0.2144136279821396,-0.006649233866482973,0.19621585309505463,0.06305872648954391,-0.3035465478897095,0.12112656235694885,-0.39072802662849426,-0.15254391729831696,-0.25816577672958374,0.03933339938521385,0.0746876448392868,0.5522038340568542,0.1423288732767105,-0.030285894870758057,0.0443531796336174,0.036688294261693954,-0.0959848016500473,-0.3347795605659485,0.8531002402305603,1.009830117225647,-0.4986611008644104,0.22496768832206726,0.49477171897888184,-0.1252119094133377,-0.07717572897672653,-0.16895617544651031,0.4137602746486664,0.38235771656036377,0.13937675952911377,0.3682643473148346,-0.6878515481948853,0.06338007748126984,-0.21761935949325562,-0.051676783710718155,-0.327203631401062,-0.1767309606075287,-0.2215469777584076,0.14082661271095276,-0.10647470504045486,0.06105852127075195,0.12385176122188568,-0.2587275505065918,0.6956397294998169,0.305835485458374,0.15882927179336548,-0.30973103642463684,0.3131132125854492,0.4514378607273102,0.03109448403120041,-0.3696889877319336,-0.17615388333797455,0.3295716643333435,-0.21694724261760712,-0.04967794567346573,-0.41548246145248413,-0.2004452347755432,0.5318865776062012,0.14751996099948883,0.4118523895740509,-0.2716904878616333,0.5548319220542908,0.08345101773738861,-0.3239278793334961,0.1686776578426361,-0.3746793866157532,-0.20285066962242126,0.3649526536464691,0.5842668414115906,0.2352723330259323,0.12359913438558578,0.3610280454158783,-0.2681289613246918,0.21715004742145538,-0.2072649598121643,0.10952533036470413,-0.0829644501209259,0.5226131677627563,0.5025675892829895,0.02983451820909977,0.3535579442977905,0.04652007669210434,0.17717407643795013,-0.1778605431318283,1.3248525857925415,-0.29247918725013733,-0.2366849035024643,0.13547638058662415,-0.23945175111293793,0.10352495312690735,-0.266094833612442,-0.16932837665081024,-0.36740779876708984,-0.25911280512809753,0.05809176340699196,-0.02299024537205696,0.5609818696975708,-0.742423415184021,-0.21002456545829773,0.6313286423683167,0.15874752402305603,-0.21117527782917023,0.43480995297431946,-0.3463466763496399,-0.08652833104133606,0.6464311480522156,0.21637368202209473,0.26925915479660034,-0.04817721247673035,0.3516343832015991,0.0062182266265153885,0.46667903661727905,0.26552778482437134,0.02615978941321373,-0.08116856962442398,-0.08830104023218155,-0.04319994896650314,-0.7920542359352112,0.32535290718078613,-0.3396213948726654,-0.4906039237976074,-0.383544921875,-0.28113123774528503,-0.2683807909488678,-0.12863673269748688,-0.34657129645347595,0.07012365758419037,0.029157686978578568,0.263785719871521,-0.32860368490219116,-0.1675068438053131,-0.36611491441726685,0.23279476165771484,-0.2827622890472412,0.4180549681186676,0.46670734882354736,-0.5067632794380188,0.3967052698135376,0.13140061497688293,-0.07678317278623581,-0.18963566422462463,0.15740332007408142,0.021780328825116158,-0.10375353693962097,0.02639412321150303,0.17585048079490662,-0.589908242225647,-0.301705539226532,0.35842522978782654,-0.8538780212402344,0.4182604253292084,0.31632882356643677,-0.07482543587684631,0.2631671726703644,0.8747381567955017,-0.4860609471797943,0.424752801656723,-0.0792476087808609,-0.12411487847566605,0.33206889033317566,-0.11429225653409958,-0.20214739441871643,-0.13105745613574982,-0.19023582339286804,-0.45170873403549194,-0.603401780128479,-0.03908176347613335,-0.24973858892917633,-0.451177179813385,0.8425649404525757,-0.04065701365470886,-0.016512691974639893,0.9959128499031067,0.017352627590298653,-0.21495620906352997,-0.17975258827209473,0.21377398073673248,-0.17236563563346863,0.08019791543483734,0.04357421398162842,-0.3656681776046753,-0.16371534764766693,-0.3641186058521271,0.07589245587587357,0.35994184017181396,0.263970285654068,0.2164420485496521,0.1020863875746727,-0.09077085554599762,-0.07411342859268188,-0.19646182656288147,0.48884066939353943,0.09347210079431534,-0.05109212175011635,0.4228282570838928,-0.1077476441860199,-0.3283160626888275,-0.019743071869015694,-0.32503974437713623,0.09658994525671005,-0.09769332408905029,0.40335848927497864,0.023747364059090614,0.20671041309833527,-0.26345473527908325,0.378159761428833,0.6798943877220154,-0.1931830644607544,0.21354152262210846,0.20418843626976013,-0.15523004531860352,-0.4244450330734253,0.16190244257450104,0.1544332206249237,-0.17762944102287292,-0.13256658613681793,-0.26869630813598633,-0.273055762052536,0.4500808119773865,0.15325066447257996,-0.1430734097957611,0.6228564381599426,0.8740656971931458
http://dbpedia.org/resource/NeXT,-0.6558344960212708,0.8553323149681091,-0.933591902256012,0.6633424758911133,-0.4140095114707947,0.027542410418391228,-0.5065299272537231,0.08570697903633118,0.5416242480278015,-0.41697177290916443,0.4558335244655609,0.6455471515655518,0.31715622544288635,-0.18855604529380798,0.25292229652404785,-0.3924499452114105,0.4532179832458496,0.8905178904533386,0.14883959293365479,-0.06827150285243988,0.27730804681777954,-1.5705214738845825,-0.4726271331310272,0.613317608833313,0.3863661587238312,0.4072488844394684,1.1599373817443848,-0.39641091227531433,0.5601018667221069,-0.15349172055721283,-0.19098086655139923,0.10266279429197311,0.47624385356903076,0.8298552632331848,-0.5471664071083069,-0.23756754398345947,-0.34720221161842346,0.2438477724790573,0.9569329619407654,0.7966358661651611,0.16758239269256592,-0.1941850781440735,-0.04830586910247803,0.47003763914108276,-0.4330655038356781,0.9965004324913025,-0.8362637758255005,0.3873095214366913,-0.17632398009300232,-0.49569445848464966,0.5765365362167358,0.5534481406211853,-0.03705010563135147,-0.7622161507606506,-0.7067612409591675,-0.7257007360458374,-0.8937877416610718,-1.1103967428207397,-0.1399390697479248,-0.7224658131599426,0.2095101773738861,1.4142823219299316,-0.8359537124633789,-0.050970979034900665,0.030671915039420128,0.17277105152606964,0.4354912340641022,0.6116410493850708,-0.5400159358978271,-0.5992927551269531,0.843410849571228,-0.42506977915763855,0.6788324117660522,-0.9352248311042786,-1.0860004425048828,0.30692797899246216,0.06665921211242676,-0.44038426876068115,0.1702055186033249,-0.25387680530548096,-0.9445238709449768,-0.5353368520736694,-0.06136471778154373,1.1275221109390259,0.34214460849761963,0.24044789373874664,-0.1053646132349968,0.6791898012161255,0.8220351934432983,-0.4456382393836975,1.1052786111831665,-0.20629796385765076,0.3812958300113678,0.11987606436014175,0.22655215859413147,-0.20263414084911346,-0.7992950677871704,-0.22494389116764069,-0.10227452963590622,-0.43237990140914917,0.6136519312858582,0.04238671436905861,-0.12162560969591141,-0.3169674575328827,0.2753223478794098,-0.24392150342464447,-0.5464218854904175,0.2018941342830658,-0.3409207761287689,-0.4291520416736603,-1.0684266090393066,0.23315531015396118,0.5897448062896729,-0.02546302042901516,0.06368859112262726,-0.3243168890476227,0.421274334192276,-0.37966376543045044,0.019209934398531914,0.3491223454475403,-0.6747047305107117,-0.805789053440094,0.28906577825546265,-0.5106602311134338,0.7342289090156555,-0.3644625246524811,0.7199661135673523,-0.1496564745903015,0.4590663015842438,0.4114779233932495,-0.24527212977409363,-1.1836185455322266,-0.41175180673599243,0.1257634311914444,0.3851615786552429,-0.8386133909225464,0.015947671607136726,1.46320378780365,-0.04370874911546707,-0.30734696984291077,-0.6104868054389954,-0.009257501922547817,-0.2548617720603943,0.36860135197639465,-0.2511902451515198,-0.0823252871632576,0.2995772063732147,0.23126734793186188,0.37228530645370483,0.8477050065994263,0.6367124319076538,-0.5127392411231995,0.15581806004047394,1.056130051612854,1.0535858869552612,0.2502279579639435,-0.7189184427261353,0.40681716799736023,-1.4906851053237915,0.23250432312488556,-0.158365398645401,-1.5395514965057373,-0.6335396766662598,-0.46297696232795715,-0.614008367061615,-0.08925824612379074,1.0803418159484863,-0.22526007890701294,-0.16407510638237,-1.1375916004180908,-0.5945912599563599,-0.08899251371622086,1.091800332069397,-0.970320463180542,0.5370900630950928,1.0764161348342896,0.1726950854063034,-0.5663886666297913,0.987053394317627,0.3746662437915802,-0.1053750216960907,-0.19481314718723297,0.5600171685218811,0.21692980825901031,0.5529749989509583,-0.22329184412956238,-1.6954129934310913,1.1557732820510864,0.41367289423942566,0.5389090180397034,-0.2682148814201355,0.1969546675682068,-0.32619595527648926,-0.6043492555618286,0.5346986651420593,0.0355212427675724,0.3648892939090729,0.07777658104896545,0.029452629387378693,0.27803194522857666,0.4194790720939636,-0.9197105169296265,0.6673043370246887,0.42825567722320557,0.4929141104221344,-0.5639448165893555,0.30498212575912476,0.4387704133987427,0.18174505233764648,0.10377269983291626,0.29668551683425903,0.9452488422393799,-0.19792331755161285,0.24244998395442963,0.11352680623531342,0.7457363605499268,-0.5340697169303894,1.339381217956543,0.4924558997154236,-0.33863791823387146,-0.9216523766517639,0.16004161536693573,0.45239755511283875,0.2833419442176819,-0.08034613728523254,0.35995614528656006,0.04664168506860733,-0.7539795637130737,-1.186492681503296,0.19232819974422455,0.33530500531196594,0.7884070873260498,0.025909176096320152,-0.2214047908782959,0.6199836134910583,0.13676173985004425,0.09355690330266953,-0.28109100461006165,0.26679474115371704,0.10521741211414337,0.2567167580127716,-0.09053754061460495,0.7489646673202515,0.12380445003509521,-0.2668183743953705,0.07395294308662415,0.07760938256978989,-1.1757084131240845,-0.0050546471029520035,-0.6998891234397888,-0.45132043957710266,0.24235861003398895,0.049453817307949066,0.07713431864976883,-0.08233018219470978,-0.1443527340888977,0.014058643952012062,-0.7390890121459961,-0.4301324486732483,0.5045831203460693,-0.7508002519607544,0.1224377453327179,-0.5080037713050842,0.22251535952091217,-0.24962866306304932,-0.1591425985097885,0.9051110148429871,-0.4687126874923706,0.2786144018173218,0.1754775494337082,0.32292166352272034,-0.07633789628744125,-0.11826576292514801,0.5087316632270813,0.6311042308807373,-0.2856936752796173,-0.04116029664874077,0.2646254003047943,0.23105572164058685,-0.47576940059661865,0.46354231238365173,-0.19434140622615814,0.11168837547302246,0.12072610855102539,-0.6414865851402283,0.17243848741054535,0.7471343874931335,0.1228618174791336,0.3271147608757019,0.7712987065315247,0.3629828095436096,0.3751743733882904,0.6623019576072693,0.1091260313987732,-0.7421102523803711,-0.3288087248802185,-0.1502067744731903,0.687892735004425,0.05445738509297371,0.46502891182899475,0.4798485338687897,-1.1045783758163452,-0.7202187180519104,-0.08268045634031296,0.6054928302764893,-0.18606005609035492,-0.5683847665786743,-0.33389559388160706,-0.16947384178638458,0.2042452096939087,-0.5653558969497681,0.721290647983551,-0.5282778739929199,0.37318143248558044,0.4491320848464966,-0.8431123495101929,-0.09632609784603119,0.6655179858207703,0.6545655131340027,0.06733991950750351,0.08352968096733093,-0.08600423485040665,-0.18837498128414154,0.04407493770122528,0.330343633890152,-0.26312023401260376,1.172753095626831,-0.491597443819046,0.6350718140602112,1.0273393392562866,0.1611412763595581,-0.697574257850647,-0.8777691125869751,-0.40730974078178406,0.7339210510253906,-0.6235885620117188,-0.2873999774456024,-0.4662554860115051,1.197377324104309,0.07019607722759247,-0.21061080694198608,0.16869425773620605,-0.19005611538887024,-0.2634901702404022,-0.08653257042169571,0.8365736603736877,1.3242779970169067,-0.4787586033344269,-0.4694879353046417,-0.07660747319459915,0.052188921719789505,0.3667045831680298,-0.12780088186264038,0.4405673146247864,-0.2822851240634918,1.1158065795898438,0.6512484550476074,-0.9806329607963562,0.2744239568710327,0.014321881346404552,0.38869020342826843,0.6061615943908691,-0.026734568178653717,-0.19712910056114197,0.11178441345691681,-0.7498476505279541,-0.3339011073112488,0.028457026928663254,-1.352921724319458,0.50139981508255,-0.09649639576673508,-0.47670358419418335,-0.2456735074520111,-0.39623522758483887,0.4123799800872803,-0.841625452041626,0.33265435695648193,0.7439063191413879,-0.3747554123401642,0.44678163528442383,-0.13608139753341675,-1.164839267730713,0.12687841057777405,-0.15428133308887482,-0.19530914723873138,1.0344659090042114,0.8211084008216858,0.4232652485370636,0.5847212672233582,0.10952789336442947,-1.4891953468322754,0.30296316742897034,-0.09263017773628235,0.2978253662586212,-0.430575430393219,0.5275137424468994,-0.8023380041122437,-0.7690120935440063,-0.1874372512102127,-0.9579581618309021,-0.6203336715698242,0.8997117280960083,-0.9284980297088623,0.15267497301101685,1.4811737537384033,0.6786538362503052,-0.08850397169589996,-0.9642742872238159,0.16068996489048004,0.27241143584251404,-0.8451091051101685,0.6774985194206238,1.159440279006958,0.802223801612854,0.7942256331443787,0.4473535120487213,0.9416700601577759,-0.10105188935995102,0.48881295323371887,0.05935584008693695,-0.14794932305812836,-0.16249048709869385,-0.2518466114997864,0.027001820504665375,0.07503556460142136,0.7029088139533997,-0.6457087397575378,-0.4222683012485504,-0.42052263021469116,0.26929932832717896,-0.08638423681259155,0.2915724813938141,-0.7733339667320251,-0.13059911131858826,-0.27928614616394043,-0.03458758443593979,0.3066028654575348,-0.4468192160129547,0.013532068580389023,-0.6041739583015442,0.3394663333892822,-0.11314724385738373,-0.97111576795578,-0.05168653279542923,-0.42580103874206543,-0.8222384452819824,0.27489548921585083,0.30331239104270935,-0.3351356089115143,0.3034299612045288,-0.26800423860549927,-0.4060494303703308,0.14064829051494598,1.0565612316131592,-0.5349411964416504,0.39015889167785645,0.13171814382076263,-0.6552284359931946,0.6430821418762207,-0.11982977390289307,0.6043785810470581,0.06133875250816345,0.04187260568141937,-0.20001810789108276,-0.5919581055641174,0.19016475975513458,0.8597477078437805,0.10631043463945389,-0.15632978081703186,-0.3916115164756775,-0.5829771161079407,-0.19564570486545563,0.31088218092918396,0.16300560534000397,-0.44537603855133057,-0.1177825927734375,-0.18611028790473938,0.531722903251648,0.28956806659698486,0.3672558069229126,0.16777394711971283,0.6592237949371338,-0.19951632618904114,0.5703300833702087,-0.10281024128198624,-0.4675625264644623,-0.16665352880954742,0.24495944380760193,-0.20902813971042633,-0.5560113191604614,-0.6451184749603271,-0.5924313068389893,0.3431835472583771,-0.23217247426509857,-0.2989799380302429,0.6934623718261719,0.34877392649650574,-0.4132145047187805,0.20964325964450836,0.2831500768661499
