http://dbpedia.org/resource/Apple_Inc.,-0.9197300672531128,0.7229751944541931,0.1396356076002121,0.20222996175289154,0.6748549342155457,0.5603415966033936,-0.4628615081310272,-0.9606418609619141,0.9957534670829773,0.28229817748069763,0.12467918545007706,-0.2702997922897339,-0.5143205523490906,0.11366717517375946,-0.013207981362938881,-0.5926616787910461,0.6010458469390869,0.30247294902801514,-0.9111943244934082,-0.3214288353919983,0.3627505600452423,-0.8428614735603333,-0.4874156713485718,-0.5288669466972351,0.2558566629886627,-0.31609219312667847,0.3507094979286194,0.6021642088890076,-0.15664587914943695,0.5552938580513,0.7627597451210022,-0.5159687995910645,-0.6556752920150757,0.9406971335411072,1.0355714559555054,-0.4369880259037018,-0.11327242106199265,0.17920053005218506,0.0972546935081482,-0.023260576650500298,-0.37174394726753235,0.4240202009677887,-0.35716041922569275,0.9856058359146118,-0.2076554149389267,-0.8595343828201294,-0.6269727945327759,-0.016657542437314987,0.12462498247623444,0.47523772716522217,-0.554465651512146,0.051926493644714355,0.22235725820064545,-0.013346577994525433,-0.18936417996883392,-0.2824133634567261,0.28356391191482544,0.5161134600639343,-0.3936460018157959,0.1442655324935913,0.22049739956855774,-0.374956339597702,-0.7090431451797485,-0.002883663633838296,0.5311129093170166,-0.44719570875167847,-0.14579685032367706,-0.8529280424118042,0.42563584446907043,-0.9456135034561157,-0.1839234083890915,0.3127014636993408,-0.5901668667793274,0.5044502019882202,0.7353280186653137,-0.29317209124565125,0.7426096796989441,-0.9714226722717285,-0.09504188597202301,0.2942567467689514,0.5603132247924805,0.11421152204275131,-0.3657739460468292,-0.6998184323310852,0.17698079347610474,0.059401579201221466,-0.48409783840179443,-0.5134446024894714,0.290839821100235,-0.392701119184494,0.09996586292982101,-1.19364595413208,-0.8910958170890808,-0.5335742831230164,-0.30875980854034424,0.17790113389492035,-0.5639915466308594,-1.1685361862182617,0.5042417049407959,1.291196584701538,-1.1116043329238892,0.2809637784957886,0.14720147848129272,0.2851864695549011,-0.16759982705116272,-0.6854267120361328,-0.1505172997713089,0.5455526113510132,-0.3721117079257965,-0.06080641597509384,-0.05492019280791283,-0.20140811800956726,0.7431172132492065,-0.41789478063583374,-0.15880897641181946,-1.043491005897522,-0.6430858969688416,0.19363394379615784,0.16251172125339508,-0.536017894744873,0.6262056231498718,-0.14331641793251038,0.004428016021847725,-0.361829549074173,-0.09372584521770477,-1.0463194847106934,-0.22269447147846222,0.3101058602333069,0.054070599377155304,0.8879959583282471,-0.5126602053642273,-0.24218639731407166,-0.3143928647041321,0.23535500466823578,-0.39302361011505127,-0.2509090006351471,-0.6293481588363647,-0.23257781565189362,0.24213746190071106,0.36894693970680237,-0.3764452636241913,0.34318113327026367,-0.03319413214921951,0.7977592349052429,1.054754376411438,-0.50765061378479,-0.10427559912204742,-0.3143548369407654,-0.5998885035514832,0.9666197896003723,0.08305686712265015,0.09135288745164871,0.5105513334274292,-0.14644713699817657,-0.05147411301732063,0.3576463460922241,-0.6799997687339783,0.10366679728031158,-0.2661503851413727,0.298262357711792,0.003965102601796389,0.26406973600387573,0.25884443521499634,0.14934328198432922,-1.3894034624099731,-0.2323349416255951,0.5463449358940125,-0.9995027184486389,-0.5157881379127502,0.4161551296710968,-0.07797662913799286,-0.7603594660758972,0.5597541332244873,0.933452844619751,0.14336669445037842,-0.1960906982421875,0.752234935760498,-0.6745747327804565,0.030417513102293015,-1.0354517698287964,-0.5100665092468262,-0.16840027272701263,-0.6222038269042969,0.08571826666593552,-0.678193211555481,0.1309395283460617,0.19147250056266785,-0.6411547064781189,0.5077968239784241,-0.7549120783805847,-0.1823538839817047,-0.17326316237449646,-0.32159313559532166,0.5046645998954773,-0.10659348964691162,0.1428445428609848,0.2847649157047272,-0.11793202906847,0.28361380100250244,0.9811949133872986
http://dbpedia.org/resource/Steve_Jobs,0.4949203431606293,0.3084469139575958,-0.4778863191604614,-0.7782376408576965,0.40702322125434875,-0.9665283560752869,-0.6872891187667847,-0.8344781398773193,-0.025822492316365242,1.5545490980148315,-0.16802072525024414,0.6117688417434692,-1.4025847911834717,0.8604801893234253,-0.1574426293373108,-0.018475592136383057,-0.9259883761405945,-0.11126388609409332,0.6191564798355103,0.6250181794166565,0.7773774266242981,-1.0411767959594727,-1.3208057880401611,0.12071343511343002,0.03004455380141735,0.15786437690258026,1.7025086879730225,0.30562624335289,0.5872870087623596,-0.8797727823257446,0.047518353909254074,-0.3867032825946808,0.21832683682441711,1.0200889110565186,0.5554699897766113,-0.2560904622077942,-0.46923694014549255,0.13171736896038055,0.6590866446495056,-1.1965988874435425,0.328556627035141,-0.1539183259010315,0.1730090081691742,0.9155322313308716,-0.07799319922924042,-0.9901625514030457,-0.47320693731307983,0.258201539516449,-0.38800960779190063,0.3690571188926697,-0.3918510377407074,-0.45345667004585266,-0.7257962226867676,-0.8399810194969177,0.25536397099494934,-0.34762752056121826,0.07686816155910492,-0.6478940844535828,-0.5786638855934143,0.47661375999450684,0.7538731098175049,0.07578655332326889,-0.5787370204925537,-0.1150149554014206,0.5836988091468811,-0.5005010962486267,-0.17257440090179443,-0.24392780661582947,0.4230431914329529,-1.1593017578125,-0.11861123144626617,0.5985337495803833,0.49634355306625366,-0.1051708534359932,0.580599308013916,-0.06869816035032272,0.6172406077384949,-1.0539039373397827,0.10507263988256454,1.3772441148757935,-0.07193971425294876,0.36603641510009766,-0.14935307204723358,0.012384203262627125,-0.2275361716747284,-1.6000124216079712,0.2794840931892395,-1.1762758493423462,0.9274692535400391,-0.6239959597587585,-0.008149889297783375,-0.4692622125148773,-0.8714645504951477,0.22983215749263763,-0.8484394550323486,0.47268447279930115,-1.1656414270401,-0.640189528465271,-0.6073197722434998,1.877457857131958,-0.19941259920597076,0.17325477302074432,0.9482724070549011,-0.46211570501327515,-0.4618631899356842,-0.9547214508056641,0.12465078383684158,1.0714703798294067,-0.35130932927131653,-1.1614283323287964,-0.19837436079978943,-0.1629537045955658,0.18547722697257996,-0.202114075422287,-0.6322205662727356,-0.5147861838340759,-0.33176976442337036,-0.1338280290365219,-0.6966999173164368,0.07182248681783676,0.4546974301338196,0.2768681049346924,-0.11243929713964462,0.21680192649364471,-0.042709700763225555,0.6515610814094543,0.7131872773170471,0.22309841215610504,0.45302388072013855,-0.0969020426273346,-0.5087605118751526,-0.16784681379795074,0.5793806910514832,0.6218821406364441,-0.5885084271430969,-0.255891889333725,-0.27077212929725647,0.43278685212135315,0.2657163441181183,-0.576680600643158,-0.7311965823173523,1.7071285247802734,-1.065631628036499,0.21723705530166626,0.12355261296033859,-0.33787083625793457,0.6640595197677612,-0.4250885844230652,0.7083112597465515,0.9229586720466614,-0.7914583086967468,1.3218566179275513,-0.23574841022491455,0.1826440989971161,0.42114004492759705,-0.19052515923976898,-0.12819698452949524,0.4843510091304779,0.5198960900306702,-0.478918194770813,0.35412248969078064,1.1904709339141846,0.615736186504364,0.12140113115310669,-1.0896786451339722,-0.8725690245628357,0.3369486331939697,-0.11729004979133606,-0.6744639873504639,-1.3703153133392334,-0.2133016586303711,-0.9993878602981567,0.23093479871749878,0.6351212859153748,1.1985251903533936,-0.7879869937896729,0.1936904340982437,-1.752234697341919,0.050501834601163864,-0.8079468607902527,-1.3935484886169434,-0.10062049329280853,0.21195584535598755,0.6980754733085632,-0.916586697101593,-0.6009842157363892,-0.5021275877952576,-0.8481324911117554,0.407794326543808,-0.3900001645088196,-0.8999375104904175,-0.10451154410839081,0.41306039690971375,0.18249815702438354,-1.0868467092514038,-0.00306285684928298,-0.02814827673137188,0.859967827796936,-0.6615565419197083,2.163200855255127
http://dbpedia.org/resource/Steve_Wozniak,0.26533761620521545,0.8238633275032043,-0.5334551930427551,0.1805109679698944,0.4095902442932129,-0.4399174153804779,-0.8271836638450623,-1.529796838760376,1.0080170631408691,-0.0052279457449913025,0.1313927322626114,-0.2781732976436615,0.4132509231567383,0.4072284400463104,-0.07199016958475113,-0.5771749019622803,0.9563849568367004,1.0361106395721436,-0.17330136895179749,-0.039120882749557495,0.11009133607149124,-0.4205756187438965,-0.605262279510498,-0.9768000841140747,0.1925887167453766,-0.21496711671352386,0.3356695771217346,0.2653838098049164,-0.22411464154720306,-0.46975067257881165,0.31912630796432495,-0.2476292997598648,-0.210292249917984,1.122829794883728,0.7163860201835632,-0.6292096972465515,0.13254643976688385,0.15343919396400452,0.45416444540023804,0.4823148846626282,0.06557764112949371,0.4940395951271057,0.0719839558005333,1.4397879838943481,-0.38317349553108215,-0.6340149641036987,-0.05608280375599861,-0.11256714910268784,-0.31782424449920654,0.7881613969802856,-0.9227838516235352,0.07536646723747253,0.4391368329524994,-0.3775634169578552,0.638979434967041,0.6589381098747253,0.2052391618490219,-0.4300369620323181,0.20841701328754425,0.5437759757041931,0.16488824784755707,-1.024310827255249,-0.3405797481536865,-0.39591526985168457,0.9833476543426514,-0.7706623673439026,0.9532098174095154,-1.1193044185638428,1.0317095518112183,-0.8369832038879395,0.09885947406291962,0.4592255651950836,-0.12534205615520477,0.46759650111198425,0.8741468191146851,0.4188992381095886,0.060602810233831406,-0.6296792030334473,-0.4472943842411041,-0.5518696308135986,0.5332207083702087,0.06257539987564087,0.08538011461496353,0.3556760847568512,0.018409227952361107,0.15739573538303375,-0.4853021204471588,0.12913095951080322,0.27643120288848877,-0.5082414746284485,-0.45724594593048096,-1.0552259683609009,-0.043142084032297134,-0.18161934614181519,0.3939724862575531,0.4863065481185913,-0.7227644920349121,-1.296122670173645,0.39301350712776184,0.0941062942147255,-0.481139212846756,-0.2143249809741974,0.10944981873035431,-0.25380897521972656,0.3365846872329712,-1.3802354335784912,0.0027329865843057632,-0.17756743729114532,-0.07117953896522522,-0.010734538547694683,-0.8413803577423096,0.4747107923030853,0.441658079624176,-0.1704561859369278,-0.016152366995811462,-0.8365539908409119,-0.010168901644647121,-0.20843948423862457,0.5760368704795837,-1.020474910736084,0.09285441040992737,-0.079897940158844,0.09886030852794647,-0.976196825504303,0.00945050735026598,-0.6954695582389832,0.25816524028778076,0.46252554655075073,0.17709915339946747,0.6340373158454895,-0.5180613994598389,-0.4865441620349884,-0.5493302941322327,-0.40661194920539856,-0.31440529227256775,-0.9719108939170837,-0.745839536190033,0.03657215088605881,0.5399429798126221,1.0664143562316895,0.43813779950141907,0.4494819939136505,-0.31518101692199707,0.4391613006591797,0.3464389145374298,0.08451620489358902,0.6484761238098145,-0.5212838649749756,0.69862300157547,0.28236356377601624,-0.5030941367149353,0.33809590339660645,0.16104796528816223,-0.44411084055900574,-0.2895158529281616,-0.18533024191856384,-0.2550920844078064,0.9302176237106323,-0.2713438868522644,0.24741783738136292,-0.12627992033958435,0.2262151688337326,-0.31176650524139404,-0.453045517206192,-0.9875231385231018,-0.4364190995693207,1.0539461374282837,-1.0445107221603394,-0.34837955236434937,-0.4946523606777191,0.0727829784154892,-1.0347479581832886,0.8633901476860046,0.7529438138008118,-0.048418134450912476,1.1550768613815308,1.156747817993164,-1.6054526567459106,0.41822826862335205,-0.2300765961408615,-0.19735223054885864,0.4393504559993744,-0.7241373062133789,-0.015425442717969418,-0.5040751695632935,-0.9151813387870789,-0.8288682699203491,-1.2243281602859497,0.4206016957759857,-0.6613914966583252,-0.7080925107002258,-0.15956711769104004,-0.16024154424667358,0.05469903722405434,-0.3819890320301056,0.04176599904894829,-0.1731061488389969,-0.027974821627140045,0.24614182114601135,1.7710877656936646
http://dbpedia.org/resource/Jonathan_Ive,-0.8666958808898926,0.6736723184585571,0.15595528483390808,-0.7606732249259949,0.19163012504577637,0.6304277777671814,0.28343769907951355,-0.7906032204627991,-0.2738192081451416,0.6879167556762695,-0.6561435461044312,-0.20622581243515015,-0.5754068493843079,0.15587492287158966,0.20145933330059052,-0.11850795894861221,0.021593287587165833,0.28094029426574707,-0.3878895938396454,-0.14591842889785767,0.6032394766807556,-0.9589901566505432,-0.3242690861225128,-0.23041443526744843,0.4429537057876587,-0.3707982897758484,1.4103721380233765,0.6200026273727417,0.4561103582382202,-0.4759689271450043,0.2715098261833191,-0.235817089676857,-0.17740261554718018,0.7204466462135315,0.6716052293777466,-0.24396005272865295,0.04063168913125992,-0.2125057429075241,0.1362786889076233,-0.2869808077812195,-0.2691822350025177,0.3676895201206207,0.28753846883773804,0.81679767370224,-0.21895019710063934,-0.3770468533039093,-0.2087131291627884,-0.22738035023212433,0.3038753867149353,0.8421434164047241,-0.5836230516433716,0.295987069606781,0.36921316385269165,-0.7451981902122498,0.16511139273643494,0.29684707522392273,-0.36156803369522095,0.22263659536838531,-0.08498647809028625,0.7395821213722229,0.10462705045938492,1.0831478834152222,-0.9942135810852051,-0.26600340008735657,0.6299964189529419,-0.6500791907310486,0.3692241907119751,-0.22937077283859253,0.8272237181663513,-0.5019849538803101,-0.13158126175403595,-0.28905361890792847,-0.2584584951400757,0.5935962200164795,0.15687720477581024,0.41188332438468933,-0.01405524741858244,-0.7804991602897644,-0.1411963850259781,-0.27005037665367126,0.5018696784973145,0.21101003885269165,-0.19473733007907867,-0.3678957223892212,0.44086575508117676,0.15344080328941345,0.10590369999408722,-0.5453783869743347,0.4098875820636749,-0.2519918978214264,0.43744298815727234,-1.239008903503418,-0.5767502188682556,-0.13241742551326752,-0.20350907742977142,-0.06360973417758942,-0.9797293543815613,-0.41287168860435486,0.2917812764644623,0.4421268403530121,-0.6776750087738037,0.3664593994617462,-0.010308329947292805,-0.3804304897785187,0.19496898353099823,-0.6455114483833313,-0.3381531834602356,0.8949505686759949,-0.10149680823087692,-0.4453996419906616,0.4080504775047302,0.3163570761680603,0.7751059532165527,-0.20284996926784515,-0.2891027629375458,-0.607882559299469,0.08659421652555466,-0.024550454691052437,-0.04807743430137634,-0.27692338824272156,-0.05570082738995552,-0.9374743700027466,-0.125941663980484,-0.7664481997489929,0.1412878930568695,-0.5524768233299255,-0.2445831000804901,0.2723058760166168,-0.4813981056213379,0.7725735306739807,0.1407759040594101,-0.6742534041404724,-0.5857738256454468,-0.098870649933815,-0.506648063659668,0.19528557360172272,-0.7024728059768677,-0.351161390542984,0.8681917786598206,0.9278616905212402,-0.12896427512168884,0.36320993304252625,-0.05262497439980507,-0.07993447780609131,0.8270899057388306,-0.5993671417236328,0.43965691328048706,-0.12092266976833344,-0.45467913150787354,0.5187816619873047,-0.44130346179008484,0.437246173620224,0.19983801245689392,0.1401478350162506,-0.46227362751960754,0.19164720177650452,-0.45509466528892517,0.8991495370864868,-0.3392753005027771,0.6196457743644714,-0.6683555245399475,0.3888012766838074,0.357744038105011,-0.09708652645349503,-1.0048344135284424,-0.651239275932312,0.37516266107559204,-0.5485607981681824,-0.2962249517440796,-0.12802085280418396,-0.40769538283348083,0.09090295433998108,0.45375487208366394,0.30013957619667053,0.1782098263502121,-0.19665905833244324,1.0158891677856445,-1.115073800086975,-0.12967081367969513,-0.37702542543411255,-0.017978109419345856,-0.11303389072418213,-0.6706483960151672,-0.14079174399375916,0.24470765888690948,0.1299630105495453,-0.8270348906517029,-0.7968660593032837,0.006527363788336515,-0.6493080854415894,-0.5812737941741943,-0.4432696998119354,-0.7816221714019775,-0.0781741589307785,-0.09143601357936859,-0.5440322160720825,0.16412244737148285,0.23695901036262512,0.07673753798007965,1.1985423564910889
http://dbpedia.org/resource/Mac_Pro,-0.1351696401834488,-0.7798839211463928,0.24942754209041595,-0.877914309501648,-0.45035576820373535,0.4626655876636505,0.1759909689426422,-0.1840061992406845,-0.5613396763801575,-0.01051370333880186,-0.4270162880420685,0.1534028798341751,-0.09180106222629547,-0.3611207902431488,-0.07980352640151978,-1.0777955055236816,-0.23785163462162018,-0.22279611229896545,-0.11752434819936752,-0.9727392196655273,0.2030852884054184,-0.7747936844825745,0.30614277720451355,-0.11023024469614029,-1.311927318572998,0.1795089691877365,0.5399019718170166,0.488869309425354,0.3857746720314026,-0.15174323320388794,-1.0100630521774292,0.5925437211990356,0.10365582257509232,0.06109749525785446,-0.13550573587417603,-0.1831895411014557,-0.4641156494617462,-1.0878301858901978,-0.23030537366867065,-0.17443613708019257,0.2230757176876068,0.1829247623682022,-0.1741662323474884,-0.49629753828048706,-0.028466742485761642,-0.5895739793777466,0.3485293984413147,-0.6300034523010254,0.4288090467453003,-0.3171394169330597,-0.37205150723457336,0.3242136538028717,0.20409823954105377,-0.8105934858322144,-0.1652795523405075,0.14500728249549866,-0.07934057712554932,-0.49321645498275757,-0.6586849689483643,0.7881041169166565,-0.08843994140625,0.6695650219917297,-0.3241799473762512,0.3433037996292114,0.37987643480300903,0.5157752633094788,0.41342294216156006,-0.7588590979576111,1.5215585231781006,-0.47215449810028076,-0.14071936905384064,-0.019050542265176773,0.22940610349178314,0.1674627661705017,-0.09554161131381989,0.7178835272789001,-0.7609615325927734,-0.7390403747558594,-0.4625118672847748,0.9463809132575989,-0.24680107831954956,0.9617599844932556,-0.8386752605438232,0.11480966955423355,-0.6389920711517334,-0.48104819655418396,0.023470057174563408,-0.9113861918449402,0.04683269187808037,-0.023972805589437485,0.07485789805650711,-0.044833093881607056,-0.323494017124176,-0.3697133958339691,-0.2585282623767853,0.5689404606819153,-0.6828887462615967,-1.0024921894073486,0.2865443229675293,0.7892338037490845,0.3886699378490448,-0.17457005381584167,-0.5068662762641907,-0.05726800858974457,0.6761859655380249,-0.5322736501693726,-0.5092055797576904,0.7778978943824768,0.5645983815193176,-0.8463205695152283,0.6432503461837769,0.14055128395557404,0.06553023308515549,-0.6784120798110962,-0.7259924411773682,-0.5012239217758179,0.783452033996582,-0.6201106905937195,-0.01846971921622753,0.11648440361022949,-0.03129618242383003,-0.7025986909866333,-0.5932637453079224,0.016353294253349304,1.1592803001403809,-0.15220867097377777,0.8964498043060303,0.25283730030059814,0.13280388712882996,0.25749433040618896,-0.018924519419670105,-0.08541658520698547,-0.065666563808918,-0.08850489556789398,0.042613811790943146,-0.30993279814720154,-0.3393400311470032,0.10016065835952759,0.3425895869731903,0.6989087462425232,-0.934005856513977,0.6817134618759155,-0.6994414329528809,-0.24021577835083008,0.11019743233919144,0.28614887595176697,0.05208001285791397,-0.41282889246940613,-0.27018141746520996,0.8054275512695312,-0.11459609866142273,1.203726053237915,0.8310791850090027,1.0668596029281616,-0.30504003167152405,-0.46848851442337036,-0.17190945148468018,1.019343614578247,0.10542208701372147,-0.11748255044221878,-0.5484429001808167,0.10473011434078217,-0.1980474442243576,0.13052397966384888,-0.08896181732416153,-0.7988141775131226,1.0337598323822021,0.3771539032459259,0.8445616960525513,-0.4143344461917877,-0.04469393193721771,0.20794756710529327,0.010660141706466675,-1.103744387626648,-0.47101855278015137,-0.7455628514289856,0.41021937131881714,-1.1796491146087646,0.28445494174957275,-0.8614405989646912,0.6584592461585999,0.19434170424938202,-0.12467768788337708,0.6683849096298218,1.1685206890106201,0.3410200774669647,-0.9099106788635254,0.818203866481781,-0.7489239573478699,-0.11437489837408066,-1.5311459302902222,0.25487494468688965,0.2283981293439865,-0.4330204427242279,-0.48779043555259705,0.11882273107767105,0.27015092968940735,-0.677724301815033,-0.7949953079223633,0.3956747055053711
http://dbpedia.org/resource/Mike_Markkula,-0.03152702748775482,-0.3658335506916046,-0.3641446530818939,-0.5415520668029785,-0.8297460079193115,0.45500531792640686,-0.6253304481506348,-0.6005065441131592,-0.0027821799740195274,0.6841626167297363,-0.33062198758125305,-0.3047693371772766,0.8600170612335205,0.12640376389026642,-0.07122118771076202,0.8211702108383179,0.6284761428833008,0.04784107953310013,-0.7515372633934021,-0.1248558908700943,0.6197370290756226,-0.9202579259872437,-0.07372241467237473,-0.7194669842720032,-0.3201781213283539,-0.159837543964386,0.07255909591913223,0.5428143739700317,0.02014222927391529,-0.1836674064397812,-0.0035660541616380215,-0.40065687894821167,-0.5672914385795593,0.3666086792945862,-0.36840301752090454,-0.4086686670780182,0.7022297382354736,-1.3014979362487793,-0.805057942867279,-0.563930869102478,0.907961368560791,-0.065529465675354,0.356625497341156,0.025773411616683006,-0.8943134546279907,-0.9156603217124939,0.19851097464561462,-0.7042165398597717,-0.2862928509712219,0.1392926573753357,0.19639664888381958,-0.471518874168396,0.10871157050132751,-0.020327122882008553,0.14108404517173767,0.16721020638942719,-0.035633303225040436,-0.7005009651184082,0.6201858520507812,0.5257794857025146,0.38794806599617004,0.32386940717697144,0.5834575295448303,0.2614237368106842,0.4756048321723938,0.5970895290374756,0.35332468152046204,-0.42701274156570435,1.2138327360153198,-0.29732492566108704,0.8093401789665222,0.3037120997905731,0.50515216588974,0.5036703944206238,0.3835951089859009,0.4617108106613159,0.07537536323070526,-0.9031227231025696,0.5499783158302307,0.3446336090564728,0.04222945496439934,0.10123836994171143,0.19997718930244446,0.6095269918441772,-0.275926798582077,-1.1138359308242798,0.07874192297458649,-0.014885173179209232,-0.0584254264831543,-0.2812831997871399,-0.4154089391231537,-0.459234356880188,-0.13212592899799347,0.3688337802886963,0.26821625232696533,0.39283522963523865,-0.9173917174339294,-0.18335552513599396,-0.5224115252494812,0.4581746459007263,-0.4976426362991333,-0.42812013626098633,0.24107374250888824,-0.7989162802696228,0.2121073603630066,-0.1254250705242157,0.062074460089206696,0.6667001843452454,0.812523603439331,-0.28630855679512024,-0.33664876222610474,-0.26005610823631287,-0.03169579431414604,0.1908114105463028,0.06725876778364182,-0.7378507256507874,0.27643734216690063,-0.37428179383277893,-0.013441098853945732,0.3255262076854706,-0.427959144115448,-0.13896483182907104,0.6978917121887207,-0.3143748641014099,-0.07563099265098572,-0.3090936243534088,0.4385576844215393,0.6467550992965698,0.38526585698127747,0.7929443717002869,0.6186214685440063,-0.487987756729126,-0.1126968190073967,0.29959338903427124,0.01767815835773945,-0.06376071274280548,0.19165118038654327,-0.4838879108428955,-0.1948682814836502,-0.4134643077850342,-0.027971267700195312,0.42807307839393616,-0.2792040705680847,0.4057016968727112,0.43956002593040466,0.9487651586532593,-0.26483315229415894,0.15820452570915222,-0.01671692356467247,1.2158197164535522,-0.29183220863342285,0.5528805255889893,0.3654630780220032,0.5237328410148621,0.1799258142709732,-0.8457536697387695,-0.5915176868438721,-0.2866203784942627,-0.10907739400863647,0.11693199723958969,-0.7480496764183044,0.32974913716316223,-0.04106258973479271,0.8111569285392761,0.8973767161369324,0.10763315856456757,0.44296976923942566,-0.5116768479347229,0.7664483189582825,0.030581502243876457,-0.10404767841100693,-0.2928963601589203,-0.3128461241722107,-0.3864539861679077,0.5477842688560486,-0.7075902819633484,0.04055541381239891,-0.7685359716415405,0.06487799435853958,-0.8927748203277588,-0.1335800439119339,0.03515501692891121,-0.48784586787223816,0.05413059517741203,0.8269923329353333,0.2205275148153305,-0.14792558550834656,0.6220272183418274,-0.07414373755455017,-0.5283554792404175,-1.213529348373413,0.05251206085085869,0.16037948429584503,0.48328864574432373,-0.7770922183990479,0.1719609946012497,0.20365478098392487,-0.5329790711402893,-0.4377557039260864,0.6988900303840637
http://dbpedia.org/resource/Infinite_Loop_(street),-0.40897539258003235,-0.1600002646446228,-0.08362961560487747,-0.5471698045730591,-0.25754988193511963,-0.5618568658828735,-0.5564368367195129,-1.0640432834625244,-0.566459059715271,0.2156970500946045,-0.6494875550270081,0.8725927472114563,-0.6009381413459778,-0.026201575994491577,0.023222070187330246,-0.7688789963722229,0.5320850014686584,0.17178110778331757,-0.3216075599193573,-0.7753601670265198,-0.34774258732795715,-0.9344896674156189,0.20482966303825378,-0.45612266659736633,-0.20197544991970062,0.42604008316993713,0.41576606035232544,0.766756534576416,0.03708212450146675,-0.061335962265729904,-0.4419180452823639,-0.14069093763828278,0.2543907165527344,0.3095075786113739,-0.32037353515625,-0.17106233537197113,-0.750615656375885,-0.7492135763168335,-0.09329847991466522,0.1638074815273285,0.4280976951122284,0.0203162282705307,0.4454136788845062,0.2825869917869568,-0.10621953010559082,-0.7888556122779846,-0.5689544081687927,-0.24058395624160767,-0.2761956751346588,-0.06886190921068192,-0.682874321937561,-0.19666138291358948,0.2417939007282257,-0.12285622954368591,0.5443295836448669,-0.29138311743736267,-0.20620156824588776,0.31954219937324524,0.5332598090171814,0.34551501274108887,0.08448167145252228,1.0544949769973755,-0.5926880240440369,0.482563316822052,0.11658425629138947,-0.03397369384765625,0.446268767118454,-0.5311591625213623,0.6709147095680237,-0.034366387873888016,-0.2293192595243454,0.006047021131962538,-0.0077524385415017605,0.05744553357362747,0.39390045404434204,0.7008509039878845,0.13559989631175995,-0.5025630593299866,-0.2583405077457428,0.8879672288894653,0.0009595954907126725,0.5249122381210327,-0.18956373631954193,0.35577768087387085,-0.49036988615989685,-1.3465806245803833,-0.23279866576194763,-0.8709683418273926,0.20684239268302917,-1.0068165063858032,-0.7632544040679932,-1.0088862180709839,0.1252308487892151,-0.07438863813877106,-0.2425098419189453,0.907771646976471,-0.6566577553749084,-0.3866865336894989,0.29668372869491577,0.19957320392131805,0.03719006106257439,0.38624298572540283,0.2737947404384613,-0.4205611050128937,0.019684476777911186,-0.35695141553878784,0.3512915372848511,1.3140565156936646,0.03432215377688408,0.2125944197177887,-0.6097458600997925,0.1712983399629593,0.4357174038887024,0.17572329938411713,-1.0205837488174438,0.09557775408029556,0.37040388584136963,-0.14837157726287842,0.6497305035591125,-0.44118332862854004,0.43862199783325195,-0.9337742924690247,0.4353160560131073,-0.24826282262802124,0.5203317403793335,-0.3210512399673462,0.2660425007343292,0.948820173740387,-0.11662895977497101,0.42967689037323,0.5092325210571289,-0.6972963213920593,-0.36563482880592346,-0.16512948274612427,-0.16045142710208893,0.11716915667057037,0.16603632271289825,-0.1349404752254486,0.32936012744903564,0.2666616439819336,0.3371259570121765,0.3636513352394104,0.19035640358924866,0.022694436833262444,0.07160209864377975,0.2840708792209625,0.19795049726963043,-0.6973661184310913,-0.07250560075044632,0.6967366337776184,0.14161036908626556,0.41380101442337036,1.0263844728469849,0.23967412114143372,0.08509541302919388,-0.43755853176116943,0.0373571515083313,0.31110644340515137,-0.17973896861076355,0.044393911957740784,0.23683325946331024,0.25119397044181824,0.1616290807723999,-0.1400623619556427,-0.14886295795440674,0.3000067472457886,0.18516544997692108,-0.5987684726715088,0.2922256886959076,-0.2462172955274582,-0.075802281498909,-0.9483590722084045,0.20606936514377594,0.7602789998054504,0.019720522686839104,-0.2498408854007721,1.0555493831634521,0.14825519919395447,0.1915597766637802,0.08190961182117462,-0.4768825173377991,0.6626298427581787,-0.9294139742851257,-0.38879865407943726,1.6128259897232056,0.14815378189086914,-0.4335596561431885,-0.28620073199272156,-0.24050335586071014,-0.030011119320988655,-1.0237970352172852,1.016682744026184,0.3174417018890381,-0.6202490329742432,-0.13600106537342072,0.7100346684455872,-0.07778862863779068,-0.1102970764040947,0.21339038014411926,1.2494350671768188
http://dbpedia.org/resource/Silicon_Valley,-0.39950209856033325,0.4021366238594055,-0.902088463306427,-0.12800449132919312,0.327572762966156,-0.7378131747245789,-0.534740149974823,-1.244149923324585,0.515238881111145,0.12546668946743011,-0.45005545020103455,0.3733753263950348,-0.06864118576049805,-0.29390254616737366,-0.3836740255355835,-0.28428560495376587,0.4569304585456848,0.23161238431930542,-0.5491018295288086,-0.5911990404129028,0.510657787322998,-0.6125466823577881,0.07733242213726044,-0.5015676617622375,0.6843141317367554,-0.5089002847671509,0.20068474113941193,-0.0922020822763443,0.04463771730661392,0.44572871923446655,0.24378421902656555,0.12162410467863083,-0.10222365707159042,1.025654911994934,0.5259295105934143,0.3593880534172058,-0.29304561018943787,-0.5695814490318298,-0.48519232869148254,-0.08194106072187424,0.19776253402233124,0.2091665267944336,-0.22637119889259338,0.9356107711791992,-0.2581516206264496,-0.1813170313835144,0.47872990369796753,-0.06878924369812012,-0.47670915722846985,0.14157263934612274,-1.0915555953979492,0.11759508401155472,0.22601567208766937,0.2802285850048065,-0.029395774006843567,0.5321237444877625,0.25663015246391296,0.04920628294348717,-0.7782301306724548,0.7962908744812012,0.24793082475662231,-0.01853901334106922,-0.5793979167938232,0.006415096577256918,0.07198899239301682,-0.3690081834793091,-0.18203537166118622,-0.26255300641059875,1.342363953590393,-0.865346372127533,-0.2843538820743561,-0.2674461007118225,-0.046248722821474075,0.30876851081848145,0.45416828989982605,-0.278382271528244,0.17889957129955292,-1.0644879341125488,-0.6605727672576904,0.594362199306488,0.25791701674461365,-0.40589001774787903,0.22296984493732452,-0.5648050308227539,-0.2622397243976593,-0.19204412400722504,0.038034919649362564,-0.3249964714050293,-0.3072078824043274,0.13849841058254242,-0.029292521998286247,-0.07576309144496918,-0.8283859491348267,-0.353905588388443,-0.5326709747314453,-0.21928443014621735,-0.3735111355781555,-1.128884196281433,0.008198214694857597,1.1810728311538696,0.14662551879882812,0.6901898980140686,0.3072338402271271,-0.2136530876159668,0.5511104464530945,-0.38354554772377014,0.8541796207427979,0.5324721336364746,0.12746983766555786,-0.22771210968494415,-0.7190842032432556,-0.05939408764243126,0.682971715927124,-0.4997975826263428,-0.47425010800361633,-0.12912024557590485,-0.14794553816318512,-0.35992568731307983,0.027600718662142754,-0.5838121175765991,0.1369905024766922,0.33149147033691406,-0.45718562602996826,-0.43767431378364563,-0.14903603494167328,-0.05140795558691025,0.3366313576698303,0.6381819248199463,0.7471975684165955,0.254584938287735,-0.2121322602033615,0.0014182396698743105,-0.2075485736131668,0.0019875713624060154,0.6611946225166321,-0.6610292792320251,0.15798179805278778,0.06833922117948532,0.05448075383901596,-0.21943584084510803,0.1919899880886078,-0.17140169441699982,-0.05269724875688553,0.2729843258857727,0.1033921018242836,-0.04425390809774399,0.0671764388680458,0.001151622156612575,-0.3743414282798767,0.4142073392868042,0.3288067579269409,0.06417728215456009,0.4207315742969513,0.049330927431583405,-0.3462789058685303,-0.04592715948820114,0.27495333552360535,0.497785359621048,-0.2252027839422226,-0.7562596797943115,0.4603089988231659,0.014086215756833553,0.42140305042266846,-0.45083680748939514,0.07995808124542236,-0.008024895563721657,0.5800151824951172,-0.9401320815086365,0.35796841979026794,-0.39140191674232483,0.11029509454965591,0.29295483231544495,0.014094141311943531,0.011972754262387753,0.2707454562187195,-0.33407461643218994,0.6230587363243103,-0.45688876509666443,-0.053166139870882034,-0.6196476221084595,-0.6807747483253479,0.13049356639385223,-0.5768834948539734,-0.34005388617515564,-0.05951504409313202,-0.07109639048576355,0.00716770626604557,-0.6575709581375122,0.8238885998725891,-0.2065691202878952,-0.5807235240936279,-0.08199146389961243,-0.39349180459976196,0.08193892985582352,-0.2020864486694336,0.1520543247461319,0.42072850465774536,0.2536989748477936,0.20906251668930054,0.9397596120834351
http://dbpedia.org/resource/NeXT,-0.158938929438591,0.37549465894699097,-0.9770011901855469,0.2510869801044464,0.10278686881065369,-0.5439862012863159,-0.4105151891708374,-1.821409821510315,0.24701383709907532,1.3953334093093872,-0.2666052579879761,1.4190772771835327,-0.8142502307891846,0.045656491070985794,0.1934126615524292,-0.24563159048557281,0.7333959937095642,0.7017876505851746,-0.15760460495948792,-0.615359902381897,0.991757333278656,-1.0908005237579346,-0.4899839162826538,-0.9014830589294434,-0.020516306161880493,0.5202479362487793,0.5006493926048279,0.07120470702648163,-0.7063817381858826,-0.44292086362838745,0.17354488372802734,0.08756307512521744,0.21150003373622894,0.8217976093292236,0.5743175745010376,0.3394691050052643,-0.3286062180995941,0.2293325662612915,-0.5445929765701294,0.3953291177749634,1.0665851831436157,-0.053707368671894073,1.2430635690689087,1.6896823644638062,-1.1985417604446411,-0.5751065015792847,-0.33448803424835205,0.1081671491265297,-1.0242477655410767,0.5956265926361084,-0.6008334755897522,0.10204008966684341,0.28658461570739746,-1.1472680568695068,-0.5477210879325867,-0.30083703994750977,0.7257210612297058,0.5495371222496033,-0.917072057723999,-0.5134242177009583,-0.46063846349716187,-0.13242514431476593,-0.4128974378108978,0.5433164238929749,-0.12703363597393036,-0.709381103515625,0.051293257623910904,-1.311967372894287,2.141148805618286,-1.2224369049072266,-0.4597359895706177,0.379287987947464,-0.45796874165534973,-0.4309597611427307,-0.20291253924369812,-0.39607474207878113,0.8277564644813538,-0.873385488986969,0.025985123589634895,0.5677294731140137,0.1836094707250595,-0.41290467977523804,-0.12480173259973526,-0.7013970017433167,0.5861942768096924,-0.603752076625824,-1.0013688802719116,-0.5995767116546631,0.1736801415681839,0.14096789062023163,0.37940678000450134,-1.613865613937378,-0.5324957966804504,-0.6488496661186218,-0.528142511844635,0.5732095837593079,-0.9701464772224426,-1.476241946220398,-0.15874288976192474,1.0129759311676025,-0.764864981174469,-0.13449303805828094,0.10730008035898209,-0.03375213220715523,-0.7538818717002869,-0.5191532373428345,-0.037638548761606216,0.8354992866516113,0.12885139882564545,-1.0628606081008911,-1.2711875438690186,0.5062322616577148,0.8940964937210083,-0.5935543775558472,0.5499865412712097,-1.5383057594299316,-0.8413648009300232,0.1946578025817871,-0.6669049263000488,-0.5714964270591736,1.0994296073913574,-0.4506714940071106,0.24607419967651367,-0.6474657654762268,0.7065512537956238,-0.8801707029342651,-0.33819425106048584,1.081059217453003,-0.3076910674571991,1.2787489891052246,0.3794479966163635,-1.61527419090271,-0.633505642414093,-0.1439724862575531,0.6505734920501709,-0.2500968873500824,-0.866058886051178,-0.34808096289634705,0.3717953860759735,0.4468640387058258,-1.443946361541748,1.6250444650650024,0.29033029079437256,0.5675514936447144,0.3172462582588196,-0.4358085095882416,0.023000335320830345,-0.7025437355041504,-0.6739432215690613,1.1608890295028687,-0.8290054202079773,1.1696512699127197,0.9333867430686951,-0.4297374486923218,-1.0030533075332642,0.3895235061645508,-0.7349046468734741,-1.2567720413208008,1.1698555946350098,0.1431073695421219,-0.3616476058959961,-0.11667492985725403,-0.00622659083455801,-0.16092264652252197,-0.7958905696868896,-0.11790566146373749,1.091552972793579,-0.66558438539505,-0.41459211707115173,-0.5155791640281677,0.034373197704553604,-1.0740725994110107,-0.45635712146759033,0.565499484539032,-0.7753344774246216,0.3527336120605469,1.4119410514831543,-1.2858643531799316,0.059051092714071274,-0.6135269999504089,-0.5817073583602905,-0.6625535488128662,0.5851619243621826,0.165486142039299,-0.3007175922393799,-0.7879893779754639,0.9490466117858887,-0.25269752740859985,0.5117713809013367,-0.5152783393859863,-0.5352014899253845,-0.0368267260491848,0.13194163143634796,0.5319153070449829,-1.0921581983566284,0.4926087558269501,-0.5726866722106934,0.9366205334663391,-0.19306331872940063,0.9131589531898499
http://dbpedia.org/resource/Safari_(web_browser),-0.2300233691930771,-0.6297011971473694,-0.26200398802757263,-0.945002019405365,-0.5288739204406738,0.3785618245601654,0.04924732446670532,0.305691123008728,-0.5151606798171997,0.04122231900691986,-0.3395259976387024,-0.058562021702528,-0.18309195339679718,-0.10349039733409882,-0.05933574587106705,-0.2991211712360382,0.015091327019035816,0.10372625291347504,0.19920271635055542,-0.19464461505413055,0.20994432270526886,-0.5555712580680847,-0.025713099166750908,0.11415941268205643,-0.23897594213485718,-0.017150407657027245,0.6724075675010681,0.2626305818557739,0.37381500005722046,-0.4522114396095276,-0.2562754154205322,-0.139170840382576,0.15798786282539368,0.04918249323964119,-0.4732833802700043,0.22192782163619995,0.0871281698346138,-0.7793294787406921,-0.17328324913978577,-0.08211125433444977,0.2543987035751343,-0.02331751026213169,0.32262444496154785,-0.07798125594854355,-0.00837785191833973,-0.24016866087913513,-0.19717192649841309,-0.2800707221031189,0.08155950158834457,-0.16366231441497803,-0.1517191231250763,0.29140064120292664,0.19410185515880585,0.1888248771429062,0.1299697756767273,0.35193294286727905,-0.39717260003089905,-0.5581002831459045,-0.21569451689720154,0.37254244089126587,0.05641608685255051,0.5553310513496399,-0.35973578691482544,-0.026871483772993088,-0.08987099677324295,0.09374812245368958,0.5202018022537231,0.007779847364872694,1.022146463394165,-0.0022080426570028067,0.21958662569522858,-0.1499713808298111,0.10526774823665619,0.07514653354883194,0.20865276455879211,0.4811725616455078,-0.13917982578277588,-0.49130940437316895,-0.09565306454896927,0.07605887204408646,-0.08905813097953796,0.2521815001964569,-0.25751131772994995,0.0877365991473198,-0.15048062801361084,-0.39479196071624756,0.09790384769439697,-0.632466197013855,-0.08551836013793945,-0.02997998706996441,0.04761572182178497,-0.3077913820743561,0.20548714697360992,0.13813486695289612,0.0015991042600944638,0.30583590269088745,-0.5307778716087341,0.07705775648355484,0.10680495202541351,-0.058861542493104935,0.20053263008594513,-0.3932129740715027,-0.22629298269748688,-0.359807550907135,0.04555290564894676,-0.21052013337612152,-0.06575271487236023,0.6288406252861023,0.17853328585624695,-0.17777493596076965,0.20084097981452942,-0.12921534478664398,0.14442700147628784,0.11689485609531403,-0.5359378457069397,0.030390605330467224,0.37532469630241394,-0.5468946695327759,-0.2256462574005127,-0.08723413199186325,-0.3786832094192505,-0.391277551651001,-0.2284945398569107,0.008915076032280922,0.34121665358543396,-0.2535809576511383,0.17011764645576477,0.4357530474662781,0.19272924959659576,0.05260442942380905,0.14830997586250305,-0.31341245770454407,-0.06119856983423233,-0.336910605430603,-0.18544499576091766,-0.22618404030799866,0.01679033227264881,-0.23859275877475739,0.006355663761496544,0.031396765261888504,-0.08610885590314865,0.2247660905122757,-0.3243786692619324,-0.14192582666873932,-0.25691092014312744,0.43688449263572693,0.11082025617361069,-0.3467043936252594,-0.11018434911966324,0.7223037481307983,-0.4601147770881653,0.4220506250858307,0.42158541083335876,0.13660091161727905,0.11697354167699814,-0.4309046268463135,-0.02036382257938385,0.23241126537322998,0.4064287841320038,0.06935205310583115,-0.3935062289237976,0.28878915309906006,0.17586396634578705,0.20809485018253326,0.17263466119766235,-0.3663471043109894,0.1922895759344101,0.04076629504561424,0.6416096687316895,0.026512669399380684,0.1174282431602478,-0.17187157273292542,0.08496014028787613,-0.3336687982082367,0.05764740705490112,-0.24582932889461517,0.5264182090759277,-0.6667185425758362,0.07832285016775131,-0.21703065931797028,0.2872207760810852,0.13433733582496643,-0.2628873884677887,0.047696009278297424,0.5082680583000183,-0.011700629256665707,-0.5344759225845337,-0.0020433436147868633,-0.3563021719455719,0.048484236001968384,-0.7306987643241882,0.1448955535888672,0.41894349455833435,-0.28392595052719116,-0.11885049194097519,0.5087050795555115,0.016619643196463585,-0.3837801218032837,-0.5805850625038147,0.3346084952354431
http://dbpedia.org/resource/FileMaker_Inc.,-0.44435030221939087,1.2337982654571533,0.09788354486227036,-0.368287056684494,-0.468994140625,0.33692699670791626,-0.5911367535591125,-0.208484947681427,0.9704611897468567,1.1359179019927979,0.08936894685029984,0.1556609570980072,-0.9677091836929321,-0.5358823537826538,0.41803157329559326,-0.6900894641876221,0.7769062519073486,0.5446147918701172,-0.6175380945205688,-0.13290265202522278,0.6760042309761047,-0.8050424456596375,-0.98129802942276,-0.06711622327566147,0.4263237714767456,-0.30883243680000305,0.7223543524742126,0.5171060562133789,-0.6620237231254578,-0.4660753309726715,0.7283397316932678,-0.5528582334518433,0.3031214773654938,0.8595679402351379,0.6303725242614746,-0.06696908921003342,-0.6177332401275635,0.08721192926168442,-0.03690163418650627,-0.42256051301956177,0.6410450339317322,-0.010765005834400654,-0.7539226412773132,1.0255759954452515,0.07710254937410355,-0.5016930103302002,-0.7748337388038635,-0.12741275131702423,-0.1938827633857727,1.3332847356796265,-0.5943390130996704,0.3234420418739319,0.7531286478042603,0.19356109201908112,-1.0617780685424805,0.20191960036754608,-0.39244601130485535,-0.36040323972702026,-0.06560513377189636,0.24094383418560028,0.02949047088623047,0.37798425555229187,-0.25257202982902527,-0.8407719135284424,0.513414740562439,-0.18217194080352783,-0.03887716308236122,-1.434581995010376,1.3888040781021118,-0.7644467949867249,0.6898149251937866,-0.7742282152175903,-0.3448009490966797,0.10668536275625229,0.058773744851350784,-0.8433195948600769,0.07733112573623657,-0.7778922319412231,-0.08583266288042068,1.0646979808807373,0.18662863969802856,-0.12192181497812271,-0.7105315327644348,-0.6139987707138062,-0.2221226543188095,-0.5874637961387634,-0.0713910162448883,-0.0480571947991848,0.739763617515564,-0.8357858061790466,1.0106077194213867,-1.0108282566070557,-1.093056321144104,-0.5369057059288025,-0.5948843955993652,0.009913848713040352,-0.7615969181060791,-1.2295494079589844,0.28066399693489075,0.8276336193084717,-0.5317347049713135,-0.49392759799957275,-0.199865460395813,0.41996288299560547,0.05641065165400505,-1.2563776969909668,-0.28858819603919983,1.1603221893310547,-0.11887498199939728,-0.40522104501724243,-0.3680512607097626,-0.10658180713653564,0.3812498450279236,0.4910452961921692,-1.161916971206665,-0.7228622436523438,-0.42268937826156616,-0.3758767545223236,0.4751749634742737,0.8826370239257812,0.42934757471084595,-0.19461676478385925,-0.13688711822032928,-0.19390086829662323,-0.13373412191867828,-1.0193874835968018,1.0118446350097656,0.9778922200202942,0.5648012757301331,0.31613650918006897,-0.4173829257488251,-0.10104610025882721,-0.7244535088539124,-0.025074949488043785,0.0402342714369297,-0.2062397301197052,-0.030856458470225334,-0.280866414308548,-0.538541316986084,0.9354588389396667,-0.05139222741127014,1.2283114194869995,0.2179298996925354,0.7547157406806946,0.15288850665092468,-0.7215501070022583,1.1790173053741455,-0.602412760257721,-0.06960573047399521,1.5153707265853882,-0.021147897467017174,0.060895636677742004,0.28846144676208496,-0.39568963646888733,-0.09265420585870743,0.6076059341430664,-0.5471128225326538,0.4626849293708801,0.6158145666122437,0.021643219515681267,-0.10008352249860764,0.400796115398407,0.32175227999687195,0.265352725982666,-0.15714168548583984,0.12456798553466797,1.089721918106079,-0.9524070620536804,-0.19866660237312317,0.5273615717887878,0.07512558996677399,-0.24711424112319946,0.5540480613708496,0.8206989765167236,0.2367447167634964,-0.1951456218957901,0.4806671738624573,-0.9908722639083862,0.026944225654006004,-1.2010817527770996,-0.9367080926895142,-0.08913161605596542,-0.4177018105983734,0.4182438254356384,0.26283347606658936,-0.51006680727005,-0.5824787020683289,-0.995750904083252,-0.29520395398139954,-0.21568553149700165,-0.8016546368598938,0.3537200689315796,0.12032969295978546,0.3015168309211731,0.6236820220947266,0.06221136078238487,0.4918060600757599,0.013618245720863342,0.15087853372097015,1.1967891454696655
http://dbpedia.org/resource/Guy_Kawasaki,-1.3470619916915894,-0.4458062946796417,-0.6595229506492615,0.04055407643318176,-0.8985382318496704,0.08336205780506134,-0.2467273324728012,-0.3416820168495178,0.5412410497665405,0.21394024789333344,-0.00014260671741794795,-0.27648159861564636,-0.5704143047332764,0.26545169949531555,-0.21107454597949982,-0.11404162645339966,-0.18236303329467773,1.0144743919372559,-0.7252560257911682,-0.1796043962240219,-0.02463742345571518,-1.4408111572265625,0.28291070461273193,-0.08163760602474213,0.38053619861602783,-0.9885554313659668,1.0111961364746094,-0.4929441809654236,0.08152676373720169,-1.234645128250122,0.3973424732685089,-0.6805432438850403,0.37827715277671814,0.2997918128967285,0.6801433563232422,-0.6927306056022644,0.483725368976593,-0.7365453243255615,-0.5094492435455322,0.9768350124359131,-0.4469876289367676,-0.6341844201087952,-0.017035821452736855,1.0166370868682861,0.1808089166879654,-0.4154846668243408,-0.1785680055618286,-1.2791805267333984,-0.4373657703399658,0.2573263645172119,-1.3260098695755005,0.727260172367096,0.7491117715835571,-0.2858726382255554,-0.42399612069129944,-0.5739647746086121,-0.17668738961219788,-0.5571842789649963,0.2301027774810791,-0.20302714407444,0.9182653427124023,-0.41521820425987244,-0.8369966149330139,-0.04754489287734032,0.6273404359817505,-0.6398591995239258,-0.9303144812583923,-0.283260315656662,1.394089698791504,-0.18690858781337738,0.05271561071276665,0.38700810074806213,0.12432201206684113,-0.3881853222846985,0.058788735419511795,-0.4004662334918976,-0.30602318048477173,-1.1129629611968994,0.6445882320404053,0.44802772998809814,0.3522801995277405,0.6680653691291809,-0.05888829007744789,-0.12349382042884827,-0.1541251689195633,-0.5180330276489258,-1.027756690979004,-0.12699979543685913,-0.7690929770469666,-0.3514880836009979,-0.5176293253898621,-1.3202931880950928,-0.436698317527771,0.5001804828643799,-0.26780834794044495,0.6338023543357849,-0.7328459620475769,-0.8004630208015442,-0.08851195126771927,0.8408293724060059,0.9560614228248596,0.6250880360603333,-0.6591910123825073,-0.12958674132823944,-0.25843775272369385,-1.3714607954025269,-0.1523849219083786,-0.09662815183401108,-0.28435811400413513,-0.9081903696060181,-0.5648075342178345,-0.27920129895210266,1.1901025772094727,-0.40435779094696045,-0.5191929340362549,-0.19671332836151123,0.25110700726509094,-0.24173091351985931,0.22208024561405182,-0.17991696298122406,-0.09733125567436218,0.7262544631958008,0.2508321702480316,-0.3088300824165344,0.26603519916534424,-1.012831449508667,0.03187665715813637,0.8024783134460449,0.5581684112548828,0.15802641212940216,-0.3699949383735657,-0.5483680367469788,-0.9214801788330078,-0.44662266969680786,-0.4265250265598297,-0.8183663487434387,0.09606962651014328,-0.716831386089325,0.6514965891838074,0.06795725226402283,0.7847999334335327,0.5264648795127869,-0.01801207847893238,-0.22068804502487183,-0.39465710520744324,-0.3127845525741577,-0.09808539599180222,-0.5713912844657898,0.9342875480651855,1.2107163667678833,0.11055425554513931,0.3638036847114563,-0.3381556272506714,-0.1542869657278061,-0.14237232506275177,-0.4289940595626831,-0.27803835272789,0.4730807840824127,-0.3811787962913513,0.578271746635437,0.49337396025657654,1.7014875411987305,-0.18716618418693542,-0.12623941898345947,-0.10055506229400635,-0.6547756791114807,-0.657508373260498,-0.45768389105796814,-0.5291036367416382,-0.8152182698249817,-0.05696118623018265,0.3398464024066925,0.14297254383563995,-0.6200104355812073,0.28846344351768494,-0.13337580859661102,0.9197365045547485,-0.7581557631492615,0.42611271142959595,0.34086549282073975,0.43707340955734253,-0.4521788954734802,-0.6766810417175293,0.4519869089126587,0.3365110456943512,0.27075690031051636,-0.6814427971839905,-0.948884904384613,-0.645363450050354,-0.514719545841217,-0.8641088008880615,0.03649483993649483,-0.1186833381652832,-0.5793899297714233,-1.404076099395752,0.3420204520225525,0.5875993967056274,-0.18664753437042236,-0.5058833956718445,1.8052717447280884
http://dbpedia.org/resource/Microsoft,-0.4335092008113861,0.2375239133834839,-0.13712480664253235,-0.22035521268844604,0.7919214367866516,-0.06238005310297012,-0.37244221568107605,-0.8014568090438843,0.2060626596212387,-0.0026930179446935654,0.2752131521701813,0.7646055221557617,-0.48507753014564514,0.20102627575397491,0.2979457974433899,-0.5602954626083374,0.017819024622440338,0.35775962471961975,-0.36072635650634766,-0.3235522508621216,0.7332252860069275,0.1166437640786171,-0.42048555612564087,-0.23579847812652588,0.4526697099208832,-0.03244602680206299,0.18078717589378357,0.25849172472953796,-0.29419994354248047,0.6241082549095154,1.028991937637329,-0.024776460602879524,0.48521584272384644,0.6669621467590332,0.8477926850318909,0.06870626658201218,0.09811798483133316,0.2480178326368332,0.48641613125801086,0.6568485498428345,-0.22366714477539062,0.2067253589630127,-0.38810163736343384,0.5218311548233032,-0.5003119111061096,-0.21765634417533875,-0.12410613149404526,-0.007063127588480711,-0.41978296637535095,0.5590174794197083,-0.07465795427560806,-0.1296180635690689,0.31646397709846497,-0.723823606967926,0.22968171536922455,-0.3160077929496765,-0.18205122649669647,0.23713532090187073,-0.4241441488265991,0.46656566858291626,0.21576017141342163,-0.44590845704078674,-0.2564138174057007,0.22124238312244415,0.2897913157939911,-0.29055508971214294,-0.2867356240749359,-0.5686687231063843,-0.1296216994524002,-0.812144935131073,-0.08675651252269745,-0.3543027937412262,-0.7348175048828125,0.7711589336395264,0.5809715390205383,-0.3771810233592987,0.4918741285800934,-0.6326637268066406,-0.6830382943153381,0.4071078598499298,0.8227577805519104,-0.02606417052447796,0.20134836435317993,-0.47582918405532837,0.34849241375923157,-0.24388644099235535,-0.031366147100925446,0.12087340652942657,0.48857176303863525,-0.4898250699043274,-0.01666336879134178,-0.6522610187530518,-0.5396357178688049,-0.3687985837459564,0.2061651200056076,-0.0443841852247715,-0.27218207716941833,-0.7461615800857544,-0.30139070749282837,0.5018647313117981,-0.3111187219619751,-0.21574527025222778,0.4770717918872833,-0.015621837228536606,-0.7341262102127075,-0.16489705443382263,-0.24854499101638794,0.34873154759407043,-0.17087990045547485,0.3179166615009308,-0.2831321358680725,0.4094363749027252,0.2948814928531647,-0.3412463068962097,-0.12522242963314056,0.06684104353189468,-0.3357260525226593,0.6251204609870911,0.20763595402240753,-0.06904656440019608,0.2506614327430725,0.2753918766975403,-0.37911757826805115,-0.33371561765670776,-0.24600322544574738,-0.4811897873878479,-0.6125175952911377,0.19741995632648468,-0.3144192397594452,0.37567245960235596,-0.2387678027153015,-0.23766981065273285,-0.283093124628067,0.2089376300573349,-0.08111567795276642,-0.3185974359512329,-0.7269527912139893,-0.030771590769290924,-0.1258731484413147,0.5020284652709961,-0.187946617603302,0.16292941570281982,-0.32155531644821167,0.3256431818008423,-0.10830237716436386,-0.5000619292259216,0.4944864809513092,-0.17000257968902588,-0.5479338765144348,-0.26284584403038025,0.24980418384075165,0.14727051556110382,-0.003763174870982766,0.06063032150268555,-0.3039967715740204,0.26521533727645874,-0.36985257267951965,-0.18581388890743256,-0.19455815851688385,0.0957106351852417,0.4904049336910248,0.42029115557670593,0.057049114257097244,-0.18254218995571136,-0.42613285779953003,0.047866906970739365,0.31467053294181824,-0.31786468625068665,-0.2042197585105896,0.18698838353157043,0.6266223788261414,-0.8508102893829346,0.026624832302331924,0.45280593633651733,0.3402847349643707,0.012236589565873146,0.40977656841278076,0.07965246587991714,-0.34722185134887695,-0.11193836480379105,-0.020412208512425423,-0.19366224110126495,0.3270679712295532,0.23809479176998138,-0.4040386378765106,-0.23739628493785858,0.3734171688556671,-0.5193778276443481,0.6160506010055542,-0.11048213392496109,-0.07711390405893326,0.6363359093666077,-0.3857158124446869,0.34275296330451965,-0.434512197971344,0.19764477014541626,0.05478198081254959,-0.1324300765991211,0.618752121925354,0.16137729585170746
http://dbpedia.org/resource/Ridley_Scott,0.0025188103318214417,-0.08757419139146805,-0.254816472530365,-0.3992864787578583,-0.21938757598400116,-0.45639270544052124,-0.30441781878471375,-0.8325537443161011,-1.0906085968017578,0.24791282415390015,-0.4164549708366394,-0.40133434534072876,0.03311234712600708,-0.220900759100914,0.2923027575016022,-0.27054932713508606,-0.36463722586631775,0.2661396265029907,-0.15548105537891388,-0.8421578407287598,-1.0001654624938965,-0.7238269448280334,-0.23581233620643616,-0.5712464451789856,-0.13242420554161072,-0.286154180765152,0.8449550867080688,0.05459833890199661,0.6438236236572266,-0.2340991497039795,-0.38806092739105225,0.132303386926651,-0.31289592385292053,-0.20410072803497314,-0.8685171008110046,0.27055180072784424,0.21576710045337677,-1.0641820430755615,-0.41067782044410706,0.35746029019355774,0.7176312804222107,1.2770767211914062,1.043881893157959,0.5420128107070923,-0.07558416575193405,-0.8924794793128967,-0.15245091915130615,-0.3486011028289795,0.07049140334129333,-0.6025828719139099,-1.2575972080230713,0.16740645468235016,0.1628035455942154,-0.30723893642425537,0.34455573558807373,0.02537933737039566,0.051750022917985916,-0.47746485471725464,0.6334567666053772,0.501338541507721,0.1613147258758545,1.2256001234054565,-0.23514863848686218,0.3432035744190216,0.44006529450416565,-0.5665625333786011,0.5904983878135681,-0.6421113014221191,1.6528946161270142,0.3709279000759125,0.23273061215877533,0.2601766586303711,-0.11761227995157242,0.04270237311720848,-0.009749363176524639,1.0033767223358154,-0.7945038676261902,-0.926457405090332,0.003214864758774638,0.3748170733451843,0.051428843289613724,-0.3891431987285614,-0.29263484477996826,-0.06328785419464111,-0.12304907292127609,-0.4789614975452423,-0.03110336698591709,-0.6016155481338501,0.0476548932492733,0.00848791841417551,0.2361866682767868,-0.6169418692588806,0.9709715843200684,0.378569632768631,-0.2801399827003479,0.23812434077262878,-0.5453423857688904,0.4749034345149994,-0.40842145681381226,-0.2470797449350357,-0.10244560986757278,-0.6477869749069214,-0.9330962896347046,0.7032634019851685,0.19114729762077332,-0.8331353664398193,0.21912209689617157,0.5964229106903076,-0.010331747122108936,-0.4193762242794037,0.008282400667667389,-0.2522963285446167,0.6556919813156128,0.33912670612335205,-0.14545929431915283,-0.5909672975540161,0.48920780420303345,-1.0636006593704224,-0.015821116045117378,-0.16169671714305878,-0.4365997910499573,-0.03073844313621521,-0.09776348620653152,-0.5618219375610352,0.7823885083198547,-0.37776878476142883,0.5283077955245972,-0.13756252825260162,0.09751249849796295,0.037846919149160385,0.048328038305044174,-0.3222152888774872,-0.2763359546661377,-0.8803224563598633,-0.42326006293296814,-0.2542605698108673,-0.2665238678455353,-0.9888694286346436,-0.03357398137450218,0.3543888330459595,-0.39858320355415344,0.04538055509328842,-0.21374881267547607,-0.09889912605285645,-0.23857510089874268,-0.9229962825775146,0.39973482489585876,-0.5770754814147949,-0.7968254685401917,0.3653499186038971,-0.19129188358783722,-0.014376730658113956,0.31247779726982117,0.3369075059890747,-0.11324616521596909,-0.7766907811164856,0.07436264306306839,0.34065791964530945,-0.40990006923675537,0.5460755228996277,-0.5380855202674866,0.3607959747314453,-0.4048309326171875,-0.01625972054898739,-0.9971904754638672,0.28999048471450806,0.3332117199897766,0.1642979383468628,0.45222485065460205,-0.28090742230415344,-0.5214958786964417,0.264295369386673,0.23338286578655243,-0.1612873375415802,0.3764789402484894,-0.2616814076900482,0.69757080078125,-0.668769896030426,-0.45211297273635864,-1.0530877113342285,-0.05267834663391113,0.20881538093090057,0.07840460538864136,-0.8050316572189331,0.34564393758773804,-0.8658671975135803,-0.7669717073440552,-0.6823386549949646,-0.3123417794704437,-0.8343334197998047,-0.9303814172744751,-0.37640926241874695,0.7827032208442688,-0.5029340386390686,0.1175440102815628,0.08185544610023499,-0.20282049477100372,-0.8781212568283081,-1.1353753805160522,0.5782495141029358
http://dbpedia.org/resource/Isaac_Newton,0.2767575979232788,-0.7422121167182922,0.3737345039844513,-0.8145145177841187,-0.020208466798067093,0.4154949486255646,-0.3203798234462738,0.16879604756832123,-1.4647340774536133,0.6084416508674622,0.6345903277397156,-0.1699531525373459,-0.3776286244392395,-0.2541339695453644,0.02151324972510338,-0.76561439037323,-0.6235892176628113,0.5229440927505493,0.4360632002353668,0.2695365846157074,0.8045982122421265,-1.2925716638565063,-0.27524545788764954,-0.9724129438400269,-0.0642099678516388,-0.6757779121398926,0.4602901041507721,0.5817282199859619,-0.33531513810157776,-0.8144238591194153,-0.8730995655059814,-1.1600511074066162,0.8510625958442688,1.33661949634552,-0.4704491198062897,0.10847955197095871,0.7394713759422302,-0.4319201111793518,-0.4932106137275696,0.1608942449092865,0.7302233576774597,0.633705735206604,0.45235055685043335,-0.32247063517570496,0.057257696986198425,-1.0850199460983276,0.2971673309803009,-0.6312964558601379,0.1888946294784546,0.018896788358688354,-0.0877898782491684,1.0113154649734497,0.21705152094364166,-0.5968208909034729,0.5018819570541382,-0.2618859112262726,-1.1499277353286743,-1.5334956645965576,0.0884595438838005,0.24757494032382965,-0.3768322765827179,1.0717535018920898,-1.3689175844192505,0.2457948476076126,0.6412714123725891,0.1271338164806366,1.129065752029419,-0.8595477938652039,0.9323511719703674,-0.7049811482429504,0.9785448908805847,0.10894686728715897,0.7222622632980347,0.03948986530303955,0.9484195113182068,0.15899237990379333,-0.19595278799533844,-1.0620924234390259,0.1822151094675064,0.375547856092453,0.7835713624954224,0.019096070900559425,-0.5287643074989319,-0.8681782484054565,-0.19638223946094513,-0.5736905932426453,0.6651510000228882,-0.42605921626091003,-0.12463226914405823,-0.8720978498458862,0.24703794717788696,-0.35091790556907654,-0.10371901094913483,0.21800681948661804,-0.5156521201133728,-0.9187809228897095,-0.7883512377738953,0.044985659420490265,0.33296385407447815,-0.5278277397155762,-0.25161561369895935,-0.18493744730949402,-0.17704707384109497,-0.28305214643478394,0.02426316775381565,-0.230201855301857,0.6507726311683655,0.4673153758049011,-0.18010206520557404,-0.46918585896492004,0.2853628695011139,0.18044991791248322,-0.08822235465049744,-0.47922274470329285,-0.9280385375022888,0.11676283925771713,-0.0988752692937851,-0.8119735717773438,-0.1924257129430771,0.02556932345032692,0.49532371759414673,-0.4881006181240082,-0.9253033995628357,-0.24829967319965363,0.5894773602485657,-0.44103506207466125,0.19392263889312744,0.46980199217796326,0.488133043050766,1.430038332939148,0.3539377748966217,-0.8331977725028992,-0.4746200144290924,-1.56803297996521,-0.18065616488456726,-0.6360082626342773,-0.19776542484760284,0.01626332476735115,0.8389520645141602,-0.8861375451087952,-0.4870092272758484,-0.19933101534843445,-0.5017354488372803,-1.05935800075531,-0.8055508732795715,0.4125353991985321,-0.28005528450012207,-1.1247931718826294,0.8511747717857361,1.1974841356277466,0.992613673210144,0.8715277910232544,-0.5306850075721741,0.4611385464668274,0.5319241881370544,-0.17265348136425018,0.4090757369995117,0.7251790761947632,-0.4413200616836548,0.5939794182777405,-1.1243106126785278,0.3139606714248657,-0.5453963279724121,-0.34522566199302673,-0.5964314341545105,-0.4212169349193573,-0.5311306715011597,0.8457054495811462,1.5546815395355225,0.16550931334495544,-0.9159049987792969,0.5737935304641724,0.15432968735694885,0.6149442195892334,1.1330242156982422,-0.748462438583374,0.6627991795539856,-0.016932319849729538,-0.001326279016211629,-0.10008527338504791,-0.9534284472465515,-0.28469812870025635,-0.6217924952507019,-0.3521951735019684,-0.41149240732192993,0.3389286696910858,-1.3168015480041504,-0.9296512603759766,0.5251377820968628,0.13699771463871002,-0.17780932784080505,-0.10576549172401428,-0.3212401568889618,-0.7309492826461792,-0.5130113959312439,0.7595240473747253,-1.1066786050796509,-0.026628587394952774,-1.6002322435379028,1.1170690059661865
http://dbpedia.org/resource/Alan_Turing,0.5562779307365417,0.8864155411720276,-0.6991584897041321,-0.12396738678216934,0.4823017120361328,-0.8311461806297302,0.03985114023089409,-0.4223553240299225,-0.5399050712585449,0.8419246673583984,1.5460209846496582,-0.7720741033554077,0.02445502206683159,-0.32018375396728516,1.5628315210342407,-0.6448010802268982,-0.9149653911590576,0.24125343561172485,-0.47512826323509216,0.11515713483095169,0.7781105041503906,-1.162095069885254,0.3621959090232849,-0.800036609172821,-0.9376780390739441,0.0013343961909413338,0.1095755398273468,0.07740912586450577,0.8326227068901062,-0.8027384877204895,-0.871193528175354,-0.453690767288208,0.8317474722862244,0.9705609679222107,0.5631992220878601,0.1521633267402649,0.06440111994743347,-0.12377224862575531,0.11721058934926987,-0.07381334155797958,-0.15202616155147552,0.3534530699253082,-0.5289837121963501,-0.11643745750188828,-0.6327806115150452,-0.5184065103530884,-0.34770387411117554,0.5592260360717773,-0.9996703863143921,-0.5206826329231262,-0.2521919310092926,0.5995451807975769,0.9933855533599854,-0.2947434186935425,0.18532395362854004,-0.5845982432365417,-0.007265919353812933,-0.8728300333023071,-0.18726010620594025,1.2292194366455078,-0.32448139786720276,0.5557502508163452,-0.353436678647995,1.2106066942214966,0.783417284488678,-0.2220473438501358,1.010424256324768,-0.3566053807735443,-0.025736363604664803,-0.43117326498031616,0.3124024569988251,0.5235827565193176,-0.9264222383499146,0.8623283505439758,0.5469385385513306,0.3351941704750061,0.05759929493069649,-0.8056593537330627,-0.2536894679069519,0.8488919734954834,0.3247954547405243,0.2398204207420349,-1.27362060546875,-0.38238459825515747,0.6560876965522766,-1.0780850648880005,0.7079562544822693,-0.2505689263343811,-0.030381660908460617,-0.8409591317176819,0.3685590624809265,-0.871665358543396,-0.35393837094306946,0.4414946436882019,-0.7010868787765503,0.6802443265914917,-0.87492835521698,0.10320959240198135,-0.39920130372047424,0.05124558135867119,-1.419227123260498,0.16393636167049408,-0.2170199751853943,0.22722485661506653,0.13516952097415924,-0.4204811453819275,-0.012684786692261696,0.8381782174110413,0.24696722626686096,-0.3036321997642517,0.15819211304187775,-0.8914706707000732,-0.20568913221359253,0.4220636188983917,-1.0627626180648804,0.0895242914557457,0.0945475846529007,0.015848007053136826,-0.3951050639152527,-0.3701092004776001,0.1783553957939148,-0.584724485874176,0.07518019527196884,-0.2934951186180115,-0.943864643573761,-1.3140521049499512,0.6329448223114014,-0.29269498586654663,0.2425408959388733,0.11669568717479706,-0.8519499897956848,-0.4029979407787323,0.39043477177619934,0.2749548852443695,-1.1193238496780396,-0.3775574564933777,-0.4436706006526947,-0.0475471206009388,1.2743631601333618,0.14168012142181396,-0.10165386646986008,-0.14028321206569672,0.42598241567611694,0.4113965630531311,0.29469579458236694,-1.0388219356536865,0.003025381825864315,-1.1141856908798218,-0.2850326895713806,1.251787781715393,0.7186322808265686,0.19784314930438995,-0.418703556060791,0.6622290015220642,0.21349909901618958,0.17918352782726288,-0.16669391095638275,1.253527283668518,-1.0527592897415161,-0.03452282026410103,-0.16791819036006927,0.7798476219177246,0.43133553862571716,-0.5341405868530273,0.44967201352119446,-0.09947895258665085,0.4924241304397583,-0.06094589829444885,0.47486793994903564,0.015478961169719696,-0.34321725368499756,1.018894076347351,-0.4456179738044739,0.24192258715629578,0.42410725355148315,-0.8788254261016846,0.9739519357681274,-1.427226185798645,-0.33508193492889404,-0.3845391869544983,-0.4288186728954315,-0.20349232852458954,-1.0108845233917236,-0.4972042739391327,0.8970503211021423,0.14724339544773102,-0.22897879779338837,-1.0617846250534058,-0.1539987474679947,0.6033714413642883,-0.8958293199539185,0.20194584131240845,0.15444138646125793,-1.111357569694519,-0.9741977453231812,0.960070013999939,0.18822763860225677,-0.5698049664497375,-0.7039088010787964,0.3440121114253998
http://dbpedia.org/resource/United_States_Environmental_Protection_Agency,-0.12775780260562897,0.09510841220617294,-0.784334659576416,-0.8435173034667969,0.06691259145736694,-0.5353915691375732,-0.4604712426662445,-0.9387180805206299,-0.06299468874931335,0.5215147137641907,0.5388323664665222,-0.9249916076660156,-0.9806134104728699,-0.14837700128555298,-0.28973260521888733,-0.16214749217033386,0.19070082902908325,-0.055160053074359894,-0.05257076025009155,-0.24667946994304657,1.0448014736175537,0.052575331181287766,0.2810010015964508,0.5009968876838684,0.3607860207557678,-0.5190107822418213,0.4369816780090332,-0.7556838393211365,-1.5286885499954224,-0.35857734084129333,0.21480825543403625,0.02121133543550968,0.4225565493106842,0.509856104850769,1.4241676330566406,-0.21219828724861145,0.13274423778057098,0.03397504240274429,0.9625716805458069,0.5710346698760986,-0.5931161046028137,-0.11397308111190796,-0.5798935890197754,0.32010549306869507,-0.9565151333808899,-0.34497278928756714,-0.4519590139389038,-1.7508128881454468,-0.1256452351808548,0.030501803383231163,0.6678141355514526,0.9483855962753296,-0.3417366147041321,0.14238958060741425,0.3152981996536255,-1.0790060758590698,0.37286919355392456,0.33694517612457275,-0.594379723072052,-0.9640045166015625,-0.05259165167808533,-0.8258122205734253,0.14021281898021698,1.089741826057434,1.0226073265075684,-1.2436168193817139,0.030427584424614906,-0.8764475584030151,1.5835505723953247,-0.09800663590431213,0.3023412227630615,1.3282830715179443,-0.7171573638916016,1.9232441186904907,-0.37716880440711975,-0.296074241399765,-0.152670755982399,-1.2267727851867676,-0.7896374464035034,-0.11866255104541779,-0.36878523230552673,-0.14058531820774078,0.33505234122276306,-0.5252551436424255,0.512639582157135,-0.8066116571426392,-0.24522720277309418,-0.14473402500152588,-0.18410438299179077,-0.14357607066631317,-0.8904820084571838,-0.5603040456771851,1.2946434020996094,-0.5480502843856812,-0.4591841995716095,1.3233072757720947,-1.0100810527801514,-0.2589977979660034,0.2513091564178467,1.2564996480941772,-0.5143159627914429,0.3709597587585449,0.10658936947584152,-0.9978026747703552,-0.44451698660850525,-0.6780211329460144,-1.3541383743286133,1.3398828506469727,-0.18106350302696228,-1.224024772644043,0.11838112771511078,-0.6778039336204529,0.8175318241119385,0.35847657918930054,-1.3356587886810303,-0.14167900383472443,0.23691222071647644,-0.056221771985292435,0.5736215710639954,-0.06160963699221611,0.0489966906607151,1.156874418258667,-0.7436157464981079,-0.25019803643226624,-0.17894688248634338,-1.004272699356079,-0.04624558985233307,-0.1903897374868393,0.8465378880500793,0.7247090935707092,0.6150778532028198,-0.3686430752277374,-0.521552324295044,0.23118239641189575,-0.07213858515024185,-0.3383137881755829,-0.8805902004241943,0.12423526495695114,-0.701068103313446,0.21962140500545502,-0.47918152809143066,0.11968205869197845,-0.5551999807357788,1.1823760271072388,0.3376111388206482,-0.9192588925361633,0.209438756108284,0.0020801429636776447,-0.16942083835601807,1.4090135097503662,-0.48108798265457153,0.6597561836242676,0.263993501663208,0.6830158233642578,-0.8074185252189636,0.17167727649211884,-0.5281861424446106,0.43438076972961426,-0.5050579905509949,-0.5927868485450745,0.18393227458000183,0.3619091212749481,0.714755654335022,0.1842818409204483,-0.6710054874420166,-0.6282339692115784,0.6554465293884277,0.015705261379480362,-0.3200649619102478,-0.06823813915252686,0.18653760850429535,-0.46232131123542786,-0.6441222429275513,0.02445880137383938,-0.16446749866008759,-1.0060745477676392,1.5316143035888672,-1.0026496648788452,-0.5567225813865662,-0.8764930963516235,-0.33471277356147766,-0.26126381754875183,-0.7266268134117126,-0.09147753566503525,0.27164557576179504,0.05539807304739952,-0.2848471403121948,-0.9750251770019531,0.1499137282371521,0.26892778277397156,-0.608320415019989,0.13698270916938782,-0.6596623063087463,0.9991238713264465,-0.4889580309391022,0.2124827355146408,-0.07719705253839493,-0.13658306002616882,-0.09154844284057617,1.2504892349243164
http://dbpedia.org/resource/Greenpeace,0.20345158874988556,-1.0470398664474487,-0.627612829208374,0.13617229461669922,0.8978040218353271,-0.10511182248592377,-0.3750188648700714,-0.7037713527679443,0.18923325836658478,-0.10631527751684189,0.5710601210594177,-0.12440779060125351,0.5339308977127075,-0.6100320219993591,-0.2261228710412979,-1.5668387413024902,-1.0270246267318726,-0.07671289891004562,-0.49881041049957275,0.28748172521591187,1.1823142766952515,-2.107942819595337,-0.1843281388282776,-1.339216709136963,-1.2117352485656738,-0.48590436577796936,0.8895106911659241,0.584546685218811,-0.25661760568618774,-0.7496649622917175,-0.10176923871040344,-0.28346380591392517,0.6563862562179565,0.2586612105369568,0.15649689733982086,-0.10239358246326447,-0.35162168741226196,-0.908547043800354,-0.31947776675224304,1.1987687349319458,-1.3115408420562744,-0.5114074349403381,1.6579118967056274,0.06314943730831146,-0.15072692930698395,-0.987647533416748,-0.1881079524755478,-1.1349221467971802,-0.22865456342697144,0.01742117665708065,0.19036699831485748,-0.20776143670082092,-0.712770402431488,1.123937726020813,-0.3342899680137634,0.22698910534381866,-1.0258708000183105,-1.0260639190673828,0.2579030394554138,1.2979196310043335,-0.09460046887397766,0.625505268573761,-0.6933208703994751,-0.6510022878646851,-0.316171258687973,-0.8273513913154602,0.1341460794210434,-1.453749418258667,2.321436643600464,0.20115581154823303,-0.5431274175643921,0.8029488921165466,-0.08059889078140259,0.977681577205658,-0.038183704018592834,0.5880382657051086,-0.1212364211678505,-0.02947569452226162,-0.8600085377693176,0.7763221263885498,0.45152026414871216,0.7987771034240723,0.1484641432762146,0.3833855092525482,1.2204861640930176,-0.7828548550605774,-0.8980907797813416,-0.7118566632270813,0.11835696548223495,-0.007704250048846006,-0.6860285401344299,-0.1587395817041397,-0.9170355796813965,-0.5469117164611816,-0.4895106852054596,0.03283039480447769,-0.35096216201782227,-0.43101629614830017,0.6205957531929016,1.2979445457458496,0.8055879473686218,-1.1540778875350952,0.17497023940086365,-0.635640561580658,-0.5385916233062744,-0.5928530693054199,0.049742866307497025,0.7479654550552368,-0.4579853415489197,-0.7806267738342285,0.4713534116744995,-0.9474250078201294,1.3308953046798706,0.07261475175619125,-0.28891825675964355,-0.25178471207618713,-0.05933380126953125,0.1705757975578308,0.2775729298591614,0.6157875657081604,-0.7318603992462158,0.4595242142677307,-0.7410476803779602,-0.37075287103652954,0.17915767431259155,-0.6236830949783325,0.7403826117515564,0.43793898820877075,0.6051415205001831,0.3518972098827362,-0.37616926431655884,-1.0622447729110718,-0.35474154353141785,-0.4643760323524475,0.07052385061979294,0.866499125957489,-1.7136671543121338,1.8153687715530396,-1.2183247804641724,-0.8098905682563782,-0.7210276126861572,-0.013987432233989239,-0.6544439792633057,0.3782541751861572,0.015158445574343204,0.49309587478637695,-0.023110855370759964,0.306339293718338,0.01645771600306034,-0.19444596767425537,0.33102893829345703,1.0094990730285645,-0.7165580987930298,1.435848355293274,0.3825295567512512,0.8157285451889038,-0.2548030912876129,0.45030131936073303,-0.5421954989433289,0.5228716731071472,-0.3621460497379303,0.6774039268493652,-0.19148290157318115,-0.03594308719038963,-0.09569118171930313,0.24830283224582672,0.19857503473758698,0.4994039535522461,0.48371538519859314,0.3575217127799988,0.03678376227617264,-0.6123762726783752,-0.6961643695831299,-1.2066031694412231,0.43972259759902954,-0.2340751737356186,0.4120667576789856,-0.755391538143158,0.048355717211961746,0.2920631766319275,-0.045663051307201385,1.4345377683639526,-0.8901766538619995,0.41495460271835327,0.6325057148933411,1.1014810800552368,-0.3817393481731415,-0.5760028958320618,-0.09413103014230728,-0.4974048435688019,-0.9244380593299866,0.2801644504070282,0.3827524483203888,-0.054849930107593536,0.5106287002563477,1.0476434230804443,0.7590226531028748,0.2842380702495575,-2.1274774074554443,1.1434687376022339
http://dbpedia.org/resource/Ginza,0.060646358877420425,-0.848955512046814,-0.8447363972663879,-0.8626876473426819,-0.27494749426841736,-0.07620318233966827,0.2721578776836395,-0.02077554166316986,0.4076235592365265,-0.037017062306404114,-0.42244264483451843,-0.17894715070724487,-0.4229260981082916,-0.4999229311943054,0.7027664184570312,-1.0063811540603638,-0.18026112020015717,0.37596064805984497,0.02250540815293789,-0.15449874103069305,-0.37450793385505676,-0.5230226516723633,-0.31922775506973267,0.07314345240592957,-0.24637752771377563,-0.38295477628707886,0.09529377520084381,0.7127230763435364,0.08189316093921661,-0.9578559398651123,-0.5245593786239624,-0.23737433552742004,-0.3104678988456726,0.2003798484802246,-0.05867886543273926,0.5366948246955872,-0.07756449282169342,-1.1545957326889038,-1.0400100946426392,0.49575480818748474,0.38978204131126404,-0.44937655329704285,0.5635506510734558,0.2741292715072632,0.28085920214653015,-0.5211117267608643,0.000637406948953867,-0.25612321496009827,0.03509899601340294,-0.13597872853279114,-0.07868006825447083,0.030436590313911438,0.06223990023136139,0.09826598316431046,-0.15163269639015198,0.19155056774616241,0.04428107663989067,-0.5648877620697021,-0.6035264134407043,0.4845051169395447,0.3551180064678192,0.41557738184928894,0.22742991149425507,0.5004664063453674,-0.06940227001905441,-0.2996688485145569,0.4125654697418213,-0.009165046736598015,0.64837646484375,-0.21538302302360535,-0.38843804597854614,0.6658196449279785,-0.24323849380016327,0.1251755952835083,0.21074220538139343,0.42587393522262573,0.26008108258247375,-0.255700945854187,-0.48701536655426025,0.28497764468193054,0.808789849281311,-0.13437120616436005,-0.24517764151096344,-0.12003104388713837,-0.4478265643119812,-0.1914425790309906,0.08809826523065567,-0.5016798973083496,0.09495225548744202,-0.09021501988172531,0.4037139117717743,-0.4621494710445404,-0.23783549666404724,-0.39536118507385254,-0.48825863003730774,0.11448708921670914,-0.8175258040428162,0.12072990089654922,0.4033077359199524,0.277686208486557,-0.17773889005184174,-0.08436756581068039,-0.2136698216199875,0.04679495468735695,-0.18546144664287567,0.19956514239311218,-0.21980556845664978,0.5101581811904907,0.3594866394996643,-0.007749889045953751,-0.06525257229804993,-0.5905361175537109,0.1363966464996338,-0.3275190591812134,-0.6208465099334717,-0.45778411626815796,0.25562378764152527,-0.6442269086837769,-0.3584590554237366,-0.24230793118476868,-0.7165044546127319,-0.337056428194046,-0.36421534419059753,0.5094755291938782,0.06171206757426262,-0.4129582941532135,1.053943157196045,0.5887903571128845,-0.032515257596969604,0.8134280443191528,0.15101952850818634,-0.40367552638053894,-0.6429337859153748,-0.5251228213310242,-0.18368078768253326,-0.3823930621147156,-0.03204672783613205,-0.47774821519851685,-0.23679949343204498,0.23175568878650665,0.18445830047130585,-0.22160400450229645,-0.08791109919548035,0.8864399790763855,-0.2695314884185791,0.37925711274147034,0.5004817843437195,-0.37388473749160767,-0.0561736635863781,0.3029821813106537,-0.5039175152778625,0.08577150106430054,0.7142110466957092,0.12020919471979141,0.18365783989429474,-0.12102598696947098,-0.2107585072517395,0.1720351278781891,-0.09218096733093262,-0.16351981461048126,-0.26884156465530396,0.47721144556999207,-0.2574782371520996,0.16169138252735138,-0.20581884682178497,0.007644847966730595,-0.009481452405452728,0.04971673712134361,0.4510255753993988,-0.014165075495839119,0.5666670203208923,0.03186824545264244,-0.4043090343475342,-0.44109663367271423,0.2896127998828888,-0.34381312131881714,0.23358719050884247,-0.5471882820129395,0.3750365078449249,-0.22853222489356995,0.07700030505657196,-0.6210204362869263,-0.26567497849464417,-0.02047070488333702,0.6630512475967407,0.45759668946266174,-0.2786109149456024,0.05690646916627884,-0.5819247961044312,0.1479402482509613,-0.09572288393974304,-0.020125016570091248,0.6108379364013672,0.20532914996147156,-0.04143104329705238,0.7199928760528564,-0.1511702537536621,-0.06689442694187164,-0.4812867045402527,0.4159639775753021
http://dbpedia.org/resource/Sears,-0.34649771451950073,-0.2781880795955658,-1.177321434020996,-0.2671118974685669,0.22970132529735565,-0.7479163408279419,-0.7833395600318909,-1.3125042915344238,1.1271642446517944,0.6311942934989929,-0.45660465955734253,0.19256189465522766,-0.5986064076423645,-0.12144153565168381,0.851018488407135,-0.7151008248329163,0.8730202913284302,0.9970737099647522,-0.1124429851770401,-0.5990318059921265,-0.18996471166610718,-0.3213908076286316,0.106025330722332,-0.12657326459884644,0.5294913053512573,0.051304902881383896,0.6023129820823669,0.6084544062614441,-0.2937541604042053,0.6040481925010681,0.8389571905136108,-0.25298526883125305,-0.14165152609348297,0.7407464385032654,-0.09209899604320526,0.3842342793941498,0.4499015212059021,0.09116439521312714,0.4111313223838806,0.5025533437728882,0.7003092765808105,-0.018905390053987503,-0.5797518491744995,0.7545590400695801,0.06872615963220596,-0.363913357257843,-0.2546493113040924,-0.6660706400871277,-0.8956632018089294,-0.3163779675960541,-0.5622321367263794,-0.023656392470002174,-0.09835910052061081,0.8536972403526306,-0.0634453222155571,0.285312682390213,0.06199290230870247,-0.6039875745773315,-0.3560131788253784,-0.16364224255084991,0.068377286195755,0.24097029864788055,0.19762080907821655,0.8506374955177307,-0.47172853350639343,-0.6326262950897217,0.5202487707138062,-0.9159260988235474,0.40897268056869507,-0.2745077908039093,0.09500686824321747,0.023720908910036087,-0.3070819079875946,0.9848312735557556,0.36908411979675293,-0.32399657368659973,-0.014345982111990452,-0.5284534692764282,-0.2650957405567169,0.4661061465740204,0.4716637134552002,0.21869653463363647,-0.5624085068702698,0.20958998799324036,-0.02076374553143978,-0.5481880903244019,-0.14043059945106506,0.5069600939750671,0.4672624468803406,-0.521479070186615,-0.293839693069458,-0.5287594199180603,0.04229867458343506,-0.47069236636161804,-0.23980368673801422,0.36308443546295166,-0.6318899989128113,-0.912208080291748,-0.1652395874261856,0.47462907433509827,-0.12913823127746582,-0.3105041980743408,0.27488014101982117,-0.277189701795578,0.5122459530830383,-0.8255030512809753,-0.8215790390968323,-0.01754062809050083,-0.4137526750564575,0.5190520882606506,-0.31113964319229126,-0.04138641059398651,0.2890450358390808,-0.21278852224349976,-0.056181684136390686,-0.43255719542503357,-0.37702399492263794,-0.4511926770210266,0.03968489542603493,-0.4419766664505005,0.019860340282320976,-0.04763716086745262,-0.22919686138629913,-0.06935925781726837,0.1184096485376358,0.1459970623254776,0.32411208748817444,-0.04018164798617363,0.045902665704488754,-0.11123242229223251,-0.06390125304460526,-0.899491012096405,-0.29989269375801086,0.0704776868224144,-0.5224599838256836,-0.6884658336639404,-0.8174235820770264,-0.1888916790485382,0.6458767652511597,-0.14876659214496613,0.1929088532924652,-0.12387791275978088,0.15535327792167664,0.33672934770584106,-0.42391839623451233,-0.46095627546310425,0.2760266959667206,0.151725172996521,-0.6084716320037842,0.3390691578388214,-0.37188056111335754,0.5532591342926025,-0.13939855992794037,-0.25075945258140564,-0.22268657386302948,-0.014894002117216587,-0.6269466876983643,0.42297741770744324,-0.07884494960308075,0.07325044274330139,0.4289536476135254,0.7949666976928711,-0.0023544656578451395,-0.06254199147224426,-0.5968393087387085,-0.30865299701690674,0.5767825245857239,-0.35380613803863525,0.016776178032159805,-0.5074676871299744,-0.5019556283950806,0.6126334071159363,0.083735391497612,-0.6641131043434143,0.12705481052398682,-1.0594850778579712,0.15321002900600433,-0.7707479000091553,-0.5425816178321838,-0.3025474548339844,-0.38901305198669434,0.3968632221221924,-0.5832989811897278,0.41679731011390686,-0.1775456666946411,-0.05391408130526543,0.4053160846233368,0.10812607407569885,-0.044865287840366364,-0.5018262267112732,-0.2750414311885834,0.19436855614185333,-0.19656413793563843,0.11766096204519272,0.09248322993516922,0.12230265885591507,0.24942563474178314,-0.4395964741706848,-0.04913849011063576,0.38789355754852295
http://dbpedia.org/resource/Ford_Motor_Company,-0.578647792339325,-0.14366629719734192,0.22890087962150574,-0.10891737788915634,0.3415584862232208,-0.289044588804245,0.22368589043617249,-0.02039148658514023,-0.09858661144971848,-0.3244296610355377,-0.22616463899612427,-0.03721677511930466,-0.6612234711647034,-1.413317084312439,0.18001317977905273,-0.6157916784286499,0.6281921863555908,-0.07791082561016083,-1.2163827419281006,-1.0454680919647217,0.5119705200195312,-0.20966912806034088,-0.21557579934597015,-0.10034098476171494,0.14465908706188202,-0.39198797941207886,0.4474501609802246,-0.5351434946060181,-0.6921025514602661,-0.29885396361351013,0.6125118732452393,0.4847249388694763,-0.22959133982658386,0.5168811678886414,0.3423401415348053,0.22832021117210388,0.3139231503009796,-0.30561983585357666,0.11443249136209488,0.5076625943183899,0.17793351411819458,0.39794740080833435,0.2912384867668152,0.39316603541374207,0.055307622998952866,-0.7273365259170532,-0.010190822184085846,-0.1322082281112671,0.2089344561100006,0.2109536975622177,-0.4749836325645447,0.05352386087179184,0.21783822774887085,-0.9223583340644836,0.1918381005525589,-0.3112858831882477,0.39926838874816895,0.04829194024205208,-0.3910108804702759,0.16050170361995697,-0.04942088574171066,-0.2462465465068817,0.2578990161418915,-0.24504593014717102,0.09431079775094986,0.06915199011564255,-0.09581571072340012,-0.9082869291305542,0.5845929384231567,-1.0175122022628784,-0.6555788516998291,0.5295442938804626,0.15346375107765198,-0.10419683903455734,0.19753696024417877,0.6245413422584534,-0.03024108335375786,-1.1733894348144531,-0.3884257674217224,0.5367490649223328,0.8047080039978027,0.3968307077884674,-1.1614129543304443,-0.3529992699623108,-0.21622085571289062,-0.34226807951927185,-0.09244343638420105,-0.5985293984413147,0.39800360798835754,-0.3372839391231537,0.008862141519784927,-0.5881216526031494,-0.5896986126899719,-0.004153628367930651,0.10666897892951965,-0.2543888986110687,-0.8680163621902466,-0.7632695436477661,0.09813521802425385,0.7647608518600464,-0.6746690273284912,0.30459317564964294,0.6123577356338501,-0.44593381881713867,-0.6090705394744873,-0.12838438153266907,-0.4173539876937866,0.20336580276489258,-0.29334670305252075,0.23166096210479736,-0.04096594825387001,0.10962139070034027,0.6042618751525879,0.09159792959690094,-0.13586239516735077,-0.030827324837446213,-0.15746799111366272,0.11450457572937012,-0.12265317142009735,-0.044589050114154816,0.448670357465744,-0.17917749285697937,-0.4492248594760895,0.21245141327381134,-0.01848093420267105,-0.13957428932189941,-0.4331229329109192,-0.04177893325686455,0.3877951502799988,0.8212476968765259,0.1815456598997116,-0.3519788682460785,-0.5182014107704163,-0.034798238426446915,0.3963342010974884,-0.22829636931419373,-0.3695715665817261,-0.45312923192977905,0.8190786838531494,0.5636757016181946,-0.054842185229063034,0.3366321325302124,-0.2893775999546051,0.07225620001554489,-0.2303592711687088,-0.45432791113853455,-0.4383811056613922,-0.0560663677752018,-0.5436954498291016,-0.33234933018684387,0.05742361769080162,0.4865381121635437,0.28186896443367004,0.571800172328949,-0.8355470895767212,0.2085917443037033,-0.5562324523925781,-0.14848975837230682,-0.6345856785774231,0.5880466103553772,-0.025218063965439796,-0.2045133411884308,0.11589977145195007,-0.10620944947004318,-0.47244295477867126,-0.8288123607635498,0.318948358297348,-0.8238520622253418,0.08382849395275116,0.524268627166748,0.18061013519763947,0.08972520381212234,0.45472452044487,0.2062174528837204,0.4283129572868347,0.56681227684021,0.8371849656105042,-0.7047308087348938,0.10137961059808731,-0.1633504331111908,-0.5640376806259155,0.17840947210788727,-0.06033046171069145,0.18210209906101227,0.5082535743713379,0.33387285470962524,0.051839448511600494,-0.34606170654296875,0.6415215730667114,-0.504439115524292,-0.11954370141029358,0.30449479818344116,-0.3765046000480652,-0.07077436149120331,-0.478769987821579,0.27377423644065857,0.4268653392791748,0.3589160144329071,-0.22102797031402588,1.2265435457229614
http://dbpedia.org/resource/Google,-0.7321000099182129,0.2653994858264923,-0.03532546013593674,-0.04893361032009125,0.1737104058265686,0.31794077157974243,0.10732346028089523,-1.2695269584655762,0.7407771944999695,0.7632971405982971,0.18257546424865723,-0.06623027473688126,-0.26221224665641785,0.13596080243587494,0.19715668261051178,-0.6467170715332031,0.9093772172927856,0.1476203054189682,-0.7788044214248657,-0.126376673579216,0.7947748303413391,-0.4574412703514099,-0.7435470223426819,-0.9550530910491943,0.44322678446769714,-0.04298282787203789,0.590251624584198,0.3363623321056366,-0.40895983576774597,0.04630229249596596,1.045343041419983,0.02742706798017025,-0.6028354167938232,1.282400131225586,0.577997088432312,-0.30292245745658875,0.16335606575012207,-0.013156060129404068,-0.3215828239917755,0.035670191049575806,0.37166526913642883,0.22232560813426971,-0.910017728805542,0.6513957977294922,-0.3485477566719055,-0.6624634861946106,-0.2660444974899292,-0.16027110815048218,-0.15154999494552612,0.3179221451282501,-0.7238455414772034,0.2328755110502243,0.4605341851711273,-0.41081565618515015,-0.30933088064193726,-0.012676360085606575,-0.07432356476783752,0.16966818273067474,-0.2991820275783539,0.1074649915099144,0.34544578194618225,-0.30208539962768555,-0.5630276203155518,0.1989244818687439,0.7888478636741638,-0.43179479241371155,-0.3591170907020569,-1.0122989416122437,0.8472483158111572,-1.145623803138733,-0.0014262719778344035,0.04110979288816452,-0.8092170357704163,0.2639816105365753,0.9286864399909973,-0.2770099937915802,0.741061806678772,-0.467293918132782,-0.19911138713359833,0.5669243335723877,0.6359643936157227,-0.24567607045173645,-0.22815527021884918,-0.8369061350822449,0.36458152532577515,-0.12456835061311722,-0.44492146372795105,-0.31468603014945984,0.12618955969810486,-0.5891006588935852,0.31695759296417236,-0.7210254073143005,-0.9075614213943481,-0.1754002869129181,-0.17353455722332,0.2635057866573334,-1.0900952816009521,-0.8967432379722595,0.4828793704509735,1.0633145570755005,-0.7731186747550964,-0.35877564549446106,0.31002140045166016,0.25463566184043884,-0.40445753931999207,-0.6011657118797302,0.2693485915660858,0.33830854296684265,-0.32255709171295166,-0.021004654467105865,-0.4389093220233917,0.14223337173461914,0.36384475231170654,-0.5085699558258057,-0.31328028440475464,-0.42787542939186096,0.33516764640808105,0.09806971251964569,0.0382075197994709,-0.8378834128379822,0.376496285200119,0.7014205455780029,-0.17986677587032318,-0.6636990308761597,-0.3769856095314026,-1.0171233415603638,-0.5437484383583069,0.33527711033821106,0.7350658774375916,0.17415952682495117,-0.5429285168647766,-0.7808430790901184,-0.4727751314640045,0.2287660837173462,-0.21035471558570862,-0.1660330891609192,-0.5722619891166687,-0.796444296836853,-0.11650221794843674,0.7119610905647278,-0.7253365516662598,0.3488754332065582,-0.42807283997535706,0.6474962830543518,0.33442068099975586,-0.19098633527755737,0.25040966272354126,0.14214491844177246,-0.49347275495529175,0.6599695682525635,0.050656501203775406,0.4708305597305298,0.022020012140274048,0.032621175050735474,-0.43324020504951477,0.0786001980304718,-0.7138479948043823,0.009500174783170223,-0.7026250958442688,0.5104431509971619,0.11366384476423264,0.27493882179260254,0.36100059747695923,0.025010261684656143,-0.930439293384552,-0.40552350878715515,-0.06532856076955795,-0.6487486362457275,-0.35393026471138,-0.05119037255644798,-0.12892568111419678,-0.22662819921970367,0.5192179679870605,0.6141605377197266,0.2547164559364319,-0.1891699731349945,0.4642246663570404,-1.5133414268493652,-0.36714762449264526,-0.6297271251678467,-0.20240242779254913,-0.48119089007377625,-0.4217475354671478,-0.27030426263809204,-0.8679131269454956,0.5830766558647156,0.2931502163410187,-0.2887449860572815,0.2089436948299408,-0.5267919898033142,0.3454047441482544,0.04458508640527725,-0.011710846796631813,0.40155136585235596,-0.3995310962200165,-0.056847888976335526,-0.07204408943653107,-0.2518084943294525,-0.11992933601140976,0.8208796977996826
http://dbpedia.org/resource/Larry_Page,-0.7301692366600037,0.010380052030086517,-0.3402273952960968,0.22719860076904297,0.07158832252025604,-0.5563220381736755,-0.2793625593185425,-0.8164433836936951,0.48344165086746216,0.5540183782577515,-0.3146669268608093,-0.38239586353302,-0.9110015034675598,-0.10852506011724472,0.3116796910762787,-0.5970106720924377,0.9856768846511841,0.7112913131713867,-0.6163888573646545,0.135148286819458,0.6632910966873169,-0.720049262046814,-0.42996957898139954,-0.8359611630439758,0.15746575593948364,-0.30352601408958435,0.5825112462043762,-0.009104004129767418,-0.2541540861129761,-0.7184916734695435,0.40452444553375244,0.46188268065452576,-0.3877718448638916,0.7295997142791748,0.9426359534263611,-0.28682103753089905,-0.2296527475118637,-0.052939414978027344,-0.3188072144985199,0.12441930174827576,-0.4040953814983368,0.28436607122421265,0.314734548330307,0.29304641485214233,0.023479660972952843,-0.3539140820503235,-0.21203891932964325,-0.254658579826355,-0.5301806926727295,0.40896838903427124,-0.46306008100509644,-0.025693347677588463,-0.1723855584859848,-0.5152168869972229,0.03249170258641243,-0.1035361960530281,0.23203657567501068,-0.36181536316871643,-0.2883976399898529,-0.20147016644477844,0.0626717135310173,0.42326483130455017,-0.5170256495475769,0.07630083709955215,0.9268674850463867,0.20202754437923431,-0.32950660586357117,-0.8888046741485596,1.0166363716125488,-0.31503593921661377,-0.27871036529541016,0.3269747197628021,-0.2740398645401001,-0.08628542721271515,0.5185083150863647,0.13647989928722382,0.6256200075149536,-0.7245540022850037,0.24253271520137787,0.2796816825866699,0.21406827867031097,0.21029037237167358,0.05699177831411362,-0.30225253105163574,0.16649729013442993,0.06505090743303299,-0.27826374769210815,-0.1289714127779007,0.21448379755020142,-0.2876596748828888,0.01690092124044895,-0.4756624400615692,-0.7998560667037964,-0.004695460665971041,-0.029212847352027893,0.09666582942008972,-0.647430419921875,-0.4389486610889435,0.4247424900531769,0.6023338437080383,-0.37294504046440125,0.06516404449939728,0.17635798454284668,0.2964654266834259,-0.45774972438812256,-0.693458080291748,-0.09764479100704193,0.20788858830928802,0.1298074871301651,-0.023304538801312447,-0.7352122068405151,0.17324431240558624,0.47403573989868164,0.4520195424556732,-0.1349521428346634,-0.27458110451698303,-0.5847247242927551,0.6306612491607666,0.3685820996761322,-0.559613049030304,0.07266078889369965,0.011205716989934444,-0.29322877526283264,-0.726456344127655,-0.26349276304244995,-0.20898929238319397,0.16604724526405334,0.3309357762336731,0.23911525309085846,0.6165045499801636,-0.3269352614879608,-0.8382476568222046,0.1721368283033371,-0.06302327662706375,0.17246928811073303,-0.19757449626922607,-0.5891684293746948,-0.08604830503463745,0.002595215104520321,0.36734360456466675,-0.5648980140686035,0.4536266028881073,0.07145298272371292,0.37069013714790344,0.22230182588100433,-0.025291644036769867,0.8098041415214539,0.05970969796180725,0.33938997983932495,0.33719339966773987,0.20436492562294006,0.3518959879875183,-0.14158980548381805,0.2797905206680298,-0.14384619891643524,-0.11979318410158157,0.09338996559381485,0.34824541211128235,-0.6520693898200989,0.034799542278051376,-0.7614448666572571,0.5387218594551086,0.4376066029071808,-0.32170531153678894,-0.5158926844596863,-0.499214231967926,0.45209380984306335,-0.10449815541505814,-0.6147165894508362,-0.24022871255874634,0.010864575393497944,-0.6867122054100037,0.4673336446285248,0.3984088599681854,0.40459421277046204,-0.15460649132728577,0.7637772560119629,-0.7786649465560913,0.0975169986486435,-0.04169110581278801,-0.25857269763946533,-0.1751045286655426,-0.3368343710899353,-0.46410509943962097,0.02504974976181984,-0.0472959503531456,-0.09733660519123077,-0.5739304423332214,0.07287778705358505,-0.2621401250362396,-0.27188026905059814,0.04945743456482887,0.008477375842630863,0.28185370564460754,-0.28682655096054077,0.02113931253552437,0.6956506371498108,-0.3367968499660492,-0.43456223607063293,0.9844424724578857
http://dbpedia.org/resource/Sergey_Brin,-0.6207368969917297,-0.2039545178413391,-0.3757227957248688,-0.02884320542216301,0.4786299467086792,-0.2086762636899948,-0.11806781589984894,-0.2702181935310364,0.47594118118286133,0.33275553584098816,0.021910935640335083,-0.22023391723632812,-0.8649084568023682,-0.36022526025772095,0.3434430658817291,-0.8462092280387878,0.3813868463039398,0.18880321085453033,-0.39610719680786133,-0.5304256677627563,-0.04422701150178909,-0.19743852317333221,-0.3975397050380707,-0.719569742679596,-0.24110983312129974,-0.15937454998493195,0.7118687033653259,-0.21751178801059723,-0.27550336718559265,-0.1711149364709854,0.17989200353622437,0.2789041996002197,-0.6989420652389526,0.9570509791374207,0.5165337324142456,0.11913067102432251,0.1736573874950409,0.08409559726715088,-0.5467722415924072,0.0547463595867157,-0.0920003354549408,0.2689206004142761,0.2448873519897461,0.05214979499578476,0.16702041029930115,-0.4311680793762207,0.007903212681412697,-0.008532539010047913,-0.5068520307540894,0.210330069065094,-0.6854403614997864,0.2422257661819458,0.03522122651338577,-0.6532006859779358,0.2705848217010498,0.18637388944625854,0.022671861574053764,-0.16655534505844116,-0.24681252241134644,0.02897021733224392,-0.12602727115154266,0.24872027337551117,-0.33303526043891907,0.1459461897611618,-0.04328795149922371,0.5948760509490967,-0.2170558124780655,-0.6998742818832397,0.4378066956996918,-0.7244887948036194,-0.2762489914894104,0.27275970578193665,-0.222026526927948,0.11166730523109436,1.13236403465271,-0.03391314670443535,0.08976409584283829,-1.0364115238189697,0.017039038240909576,0.31571686267852783,0.20709328353405,0.22599731385707855,0.05707355588674545,-0.4775365889072418,0.3022629916667938,0.05114397779107094,-0.041888948529958725,-0.5786132216453552,-0.049843188375234604,0.15165410935878754,-0.10092084109783173,-0.2032751739025116,-0.6006332635879517,0.26506444811820984,-0.01292327418923378,0.22135493159294128,-0.8425627946853638,-0.9468611478805542,0.41252800822257996,0.6450757384300232,-0.0755375549197197,0.24427784979343414,0.4727049469947815,-0.012718242593109608,-0.23530283570289612,-0.4900110065937042,-0.1507725715637207,-0.007475296035408974,0.14845474064350128,-0.47355327010154724,-0.297201931476593,-0.15825942158699036,0.3258519470691681,-0.04349247366189957,-0.17792311310768127,-0.14119496941566467,-0.7161204218864441,0.08580172806978226,0.11228231340646744,-0.13931016623973846,0.3734424412250519,0.11322730779647827,-0.04646627604961395,-0.596869945526123,-0.03641128167510033,-0.1447446346282959,-0.05410795286297798,0.19367057085037231,0.05503969267010689,0.1149933859705925,-0.28327476978302,-0.535892128944397,-0.3794630467891693,-0.13704858720302582,-0.02063983865082264,-0.12845338881015778,-0.3766765892505646,-0.13782989978790283,-0.16924352943897247,0.13800497353076935,-0.2919810116291046,0.23449113965034485,-0.15657106041908264,0.15780027210712433,0.10887866467237473,0.2593282461166382,0.17161892354488373,-0.0495355948805809,0.012971092015504837,-0.028519103303551674,0.002427309053018689,-0.10701747983694077,-0.6235821843147278,0.14318695664405823,0.08846831321716309,-0.2750520408153534,-0.22318056225776672,0.40847259759902954,-0.15651805698871613,0.029179755598306656,-0.988084614276886,0.732334315776825,0.4063531160354614,-0.10342195630073547,-0.678015947341919,0.29413706064224243,0.125046044588089,0.13118654489517212,-0.12072839587926865,0.2983226180076599,-0.10365471988916397,-0.7270800471305847,0.6091204285621643,0.13096249103546143,0.20460069179534912,-0.019211208447813988,0.1842067986726761,-0.4249208867549896,0.052305836230516434,-0.37951281666755676,-0.39585816860198975,0.13737471401691437,-0.2044743001461029,-0.19360953569412231,-0.24070380628108978,0.24317722022533417,-0.010186879895627499,-0.26718389987945557,0.1534038931131363,-0.04549660533666611,-0.34199342131614685,0.4209977388381958,0.24638894200325012,-0.2891254723072052,0.046449266374111176,0.13262467086315155,0.3888228237628937,-0.5365801453590393,-0.4051699936389923,0.5398989319801331
