http://dbpedia.org/resource/Apple_Inc.,-0.42135828733444214,0.8813953399658203,0.7070311307907104,0.38179266452789307,-0.03990893065929413,0.5643771886825562,0.39689064025878906,0.4582468569278717,-0.16051459312438965,-0.33122125267982483,-0.6241945028305054,0.40783604979515076,0.0432966910302639,0.3969029188156128,-0.5343079566955566,0.31089484691619873,0.8083486557006836,-0.9762061834335327,0.5876186490058899,0.5383071303367615,-0.12896573543548584,-0.4745161235332489,-0.3808252215385437,1.1251554489135742,-0.05983993038535118,0.8397520184516907,-0.2928819954395294,0.3160787522792816,0.6058474779129028,0.3480003774166107,0.5048942565917969,0.15666326880455017,-0.41877785325050354,-1.05417799949646,0.03895268961787224,0.20541450381278992,-0.6556584239006042,0.18243153393268585,0.1623689979314804,-0.8643974661827087,-0.8942375779151917,0.18583542108535767,-0.23674754798412323,-0.02480318583548069,0.8014993667602539,0.19293026626110077,-0.22531865537166595,0.6786391735076904,0.5647403001785278,0.6680333018302917,-0.9144592881202698,-0.4071565568447113,0.021681901067495346,0.21593284606933594,-0.4002789855003357,-0.056653279811143875,0.3476519286632538,1.0302670001983643,1.066853404045105,0.41184669733047485,0.35561737418174744,0.8970242142677307,-0.9629338383674622,-0.7434662580490112,-0.15433797240257263,0.435952752828598,-0.33772018551826477,1.0854921340942383,0.3244810700416565,-0.29743459820747375,0.3628615736961365,-0.22559413313865662,0.20872880518436432,-0.17874254286289215,0.46732041239738464,-1.0057529211044312,-0.18275123834609985,0.4287842810153961,1.3165563344955444,-0.13201823830604553,-0.2645576596260071,1.016127347946167,0.0845477283000946,0.04226568341255188,-0.038960568606853485,0.565995991230011,-0.8897089958190918,-0.5314508080482483,0.09826195240020752,0.4470577538013458,-0.43375658988952637,0.2770307660102844,-0.4813275635242462,0.41742604970932007,0.8193084001541138,-0.5122354626655579,0.1728154569864273,-0.44846415519714355,-0.8124521374702454,-0.799294650554657,-0.5301483273506165,0.9111589789390564,-0.2465486228466034,0.817243218421936,0.02933015301823616,0.27086231112480164,0.3794589340686798,0.6338405609130859,-0.41111382842063904,-0.22914132475852966,0.06137746572494507,0.06746041774749756,0.06279956549406052,-0.3429097831249237,0.081680528819561,-1.1600172519683838,-0.5609216690063477,0.25721079111099243,0.33412060141563416,-0.10970029979944229,-0.6942276358604431,-0.11543349176645279,-0.2614653408527374,0.3244537115097046,-0.7847284078598022,-0.23599675297737122,0.029980113729834557,0.020421946421265602,-0.2547122538089752,-0.41205599904060364,-0.04585634917020798,0.5942406058311462,0.6078517436981201,-0.07379067689180374,0.09618402272462845,0.6076200604438782,0.2203667014837265,-0.08740456402301788,0.7642719149589539,0.3807494044303894,-0.12646327912807465,0.3162267208099365,-0.1731615662574768,0.39447617530822754,2.0798299312591553,0.3837572932243347,-0.33384647965431213,-0.04911695420742035,-0.42133551836013794,1.1860644817352295,-0.10175205022096634,0.13083472847938538,-0.4353828430175781,-0.48371621966362,0.7583627104759216,0.6631333231925964,0.0667514055967331,0.24563315510749817,1.6735962629318237,-0.5626837015151978,-0.043446604162454605,0.25538671016693115,0.12686899304389954,0.7642385959625244,-0.6063520312309265,1.1767396926879883,0.7112427949905396,-0.6197963356971741,-0.4269152283668518,1.0655487775802612,-0.323578417301178,-0.776337206363678,1.060436725616455,1.5865329504013062,-0.3775258958339691,0.7059987187385559,-0.07154600322246552,-0.5315352082252502,-0.18723689019680023,-0.3346655070781708,0.5461134910583496,0.0353274829685688,-0.30776962637901306,0.6616820693016052,-0.29475441575050354,-0.15600866079330444,0.3910026252269745,-0.0005273655988276005,0.05494709312915802,-0.35639476776123047,0.024829713627696037,0.4241524040699005,-0.23133236169815063,-0.1564428210258484,-0.0905241146683693,-0.5313220024108887,-0.3007851541042328,0.4529878795146942,0.9464923739433289,-0.672161340713501
http://dbpedia.org/resource/Steve_Jobs,0.22404460608959198,0.18318699300289154,0.2594755291938782,0.5572359561920166,-0.16233481466770172,0.1454058289527893,-0.24426238238811493,0.28457707166671753,-0.156564399600029,0.4627680480480194,-0.14125320315361023,0.5905527472496033,-0.36778420209884644,-0.23928193747997284,-0.4647587537765503,0.34561389684677124,-0.9677057862281799,-0.7984253168106079,0.5250944495201111,0.4454512894153595,0.3517964482307434,-0.6922063827514648,-0.5998419523239136,0.7207022905349731,0.07049039006233215,0.7179240584373474,0.46608075499534607,0.43579816818237305,0.18658290803432465,-0.143596813082695,0.5682015419006348,0.3255002796649933,-0.01558778528124094,-0.07743675261735916,-0.3918798267841339,-0.03820351883769035,-0.35878127813339233,0.5105010271072388,0.5697422623634338,-0.9437797665596008,-0.11749197542667389,-0.24685628712177277,-0.4616977274417877,0.39034101366996765,0.3825036585330963,-0.14235436916351318,-0.21819303929805756,1.3196254968643188,-0.17935630679130554,0.44449567794799805,0.10881463438272476,0.028227847069501877,-0.7707023024559021,-0.2698696255683899,-0.5229700803756714,-0.36881813406944275,-0.1498292088508606,0.5274521112442017,-0.14171761274337769,-0.33561423420906067,0.8771490454673767,-0.2155546098947525,-0.7531416416168213,0.14324530959129333,0.082252636551857,0.09011221677064896,-0.2321213036775589,0.9377157092094421,-0.7777893543243408,-0.6261719465255737,0.3523072302341461,0.2835383415222168,0.08220691978931427,-1.023694396018982,0.023653747513890266,-0.4404602348804474,0.1384294331073761,0.7832107543945312,1.1053839921951294,0.3677784502506256,-0.3884577453136444,0.024696974083781242,-0.2867794930934906,-0.6709715127944946,-0.1873420774936676,-0.5261697173118591,-0.26804816722869873,-0.19656561315059662,0.32972991466522217,0.5648623704910278,-0.007879271171987057,0.3728231191635132,-0.22543896734714508,0.0828423723578453,-0.3670484125614166,0.3316083252429962,0.2850378155708313,0.10843541473150253,-0.3788098096847534,0.03144703805446625,0.17847026884555817,0.02542649209499359,0.24658134579658508,0.413213849067688,-0.40277519822120667,0.8886338472366333,0.7502553462982178,-0.22488409280776978,-0.5089878439903259,-0.12659290432929993,0.2621399164199829,-0.4647982716560364,-0.47319793701171875,-0.6517720222473145,-0.2820104956626892,-0.21150222420692444,-0.07748470455408096,-0.105788454413414,-0.6355854272842407,-0.48411616683006287,0.0807495191693306,0.373000830411911,-0.29787611961364746,0.030172351747751236,-0.9310707449913025,0.07251308858394623,0.6036236882209778,-0.7744894623756409,0.036537669599056244,-0.8924444913864136,-0.4604282081127167,0.7780331969261169,0.3736400902271271,0.44815701246261597,-1.044670820236206,-0.1237899512052536,0.44543373584747314,0.29219019412994385,0.6906822919845581,-0.31246519088745117,-0.7444249391555786,1.1343321800231934,-0.6636926531791687,-0.6814907193183899,0.1874108612537384,0.2808346450328827,0.05813125520944595,-0.3033924698829651,0.8415092825889587,-0.019540876150131226,-0.6861863732337952,0.4977395534515381,-0.4470747113227844,-0.6372817754745483,-0.4151463508605957,0.30122074484825134,0.07627234607934952,-0.5675642490386963,0.7016825675964355,-0.3385644257068634,-0.29403865337371826,-0.18342573940753937,0.6204354166984558,-0.33983102440834045,-0.5858538746833801,-0.09709801524877548,0.5530614256858826,-0.5665459632873535,-1.1708797216415405,-0.21235835552215576,-0.8635947108268738,-0.6716492176055908,0.732069194316864,0.6907049417495728,0.2172074019908905,0.017096100375056267,-0.6957069039344788,-0.32140281796455383,-0.1903458535671234,-0.23515720665454865,-0.3146290183067322,-0.6944175958633423,0.13313184678554535,0.4401869773864746,-0.6860618591308594,-0.6781860589981079,0.10127588361501694,0.37906014919281006,0.3066078722476959,0.1412983238697052,0.30580148100852966,-0.8114256858825684,-0.5421975255012512,0.48158252239227295,-0.6277974247932434,-1.0115807056427002,-0.5975000858306885,0.5947015285491943,0.5720279812812805,0.4770914912223816
http://dbpedia.org/resource/Steve_Wozniak,-0.3598027229309082,0.8885560035705566,0.47516289353370667,0.09274265170097351,0.39622873067855835,0.026474030688405037,0.10790352523326874,-0.0756034404039383,0.5359233617782593,0.047502897679805756,-0.2087973803281784,-0.7994666695594788,0.24717262387275696,0.5893548727035522,-0.5592371821403503,0.7236534953117371,0.4659815728664398,-0.04518406093120575,0.9727118611335754,0.36656248569488525,0.5883662104606628,-0.17861653864383698,-0.21456928551197052,0.43193450570106506,0.19802403450012207,0.08135855942964554,-0.3774102032184601,0.31078970432281494,0.014870035462081432,0.03586723282933235,0.1239318698644638,-0.23192842304706573,-0.34174680709838867,-0.835420548915863,-0.20637410879135132,-0.18568459153175354,-0.3499186336994171,-0.29657962918281555,0.9535869359970093,-1.1579782962799072,-0.667838454246521,0.23950207233428955,0.06457790732383728,0.4849490523338318,0.041957318782806396,1.0245901346206665,0.08404229581356049,0.8481580018997192,0.20870782434940338,0.5909607410430908,-0.8293473124504089,-0.16146694123744965,0.34596049785614014,-0.5545114874839783,0.07906297594308853,0.7358704209327698,-0.020240040495991707,0.2747465670108795,0.9452763795852661,-0.026606865227222443,0.46330726146698,-0.35578015446662903,-0.7511999011039734,-0.6356361508369446,0.5925673246383667,0.050593577325344086,-0.035904981195926666,0.23959682881832123,-0.5813048481941223,-0.21533440053462982,-0.08180752396583557,0.4670479893684387,0.08553363382816315,-0.5523378252983093,0.06583230197429657,0.58024662733078,-0.21843311190605164,0.1579727828502655,-0.3487466871738434,-0.6757357120513916,-0.04233946278691292,0.8133410215377808,0.5230318903923035,0.05571760982275009,-0.0016324396710842848,0.4448515772819519,-0.1826566606760025,-0.2928250730037689,0.1428525596857071,0.38776761293411255,-0.14072607457637787,-0.23576240241527557,-0.07801167666912079,0.021291442215442657,0.25071632862091064,-0.15892118215560913,0.12479715794324875,-0.4140358865261078,-0.5373246073722839,-1.25220787525177,0.6101266741752625,-0.38374271988868713,0.46695467829704285,0.7929036617279053,0.11317078024148941,0.4646472930908203,-0.02799377590417862,-0.1396034061908722,-0.07786393165588379,0.2141108512878418,-0.3125689923763275,0.6781860589981079,-0.15540599822998047,0.5055975914001465,0.9232940077781677,-0.04835597053170204,-0.13895593583583832,-0.6182742714881897,0.11122967302799225,-0.9691950082778931,0.1375800520181656,0.17673926055431366,0.37031838297843933,0.6546027064323425,0.05299678072333336,-0.13074851036071777,-0.08330327272415161,-0.22793284058570862,-0.2027159035205841,-0.30130890011787415,0.6986827850341797,1.0589115619659424,0.02776907943189144,0.15434613823890686,-0.0812118649482727,0.01689210720360279,-0.1821088194847107,0.38471025228500366,0.658363938331604,1.1618925333023071,0.2451871782541275,0.026273345574736595,-0.4281116724014282,0.12159088999032974,0.6389609575271606,0.44077610969543457,0.5186896920204163,0.4171223044395447,0.6969401240348816,-0.7833617925643921,0.0342562198638916,0.11707733571529388,-0.6799896955490112,-0.38015034794807434,-0.038584835827350616,-0.4585278034210205,0.2541162669658661,0.09313448518514633,0.9860848784446716,0.08260944485664368,0.49737879633903503,0.11927170306444168,-0.2358534336090088,0.16440440714359283,-0.9477582573890686,0.15785400569438934,0.7924723625183105,-0.6316182613372803,-1.273177146911621,-0.14785465598106384,0.14010463654994965,-0.250481516122818,0.8419714570045471,0.9676072001457214,-0.18892346322536469,0.9949705004692078,-0.033172834664583206,-0.6943880319595337,0.09000047296285629,-0.09034285694360733,0.3270745575428009,-0.4062996208667755,0.027532530948519707,-0.24159680306911469,-0.38162165880203247,-0.6934809684753418,-0.4426140785217285,-0.20582960546016693,0.09885870665311813,0.03443407267332077,0.7929086089134216,-0.440017431974411,-0.5359230637550354,-0.21801593899726868,0.5868628025054932,-1.6576852798461914,-0.5597211718559265,0.23841886222362518,0.026996547356247902,0.7447477579116821
http://dbpedia.org/resource/Jonathan_Ive,-0.12438961863517761,1.2056370973587036,0.7763357162475586,-0.17578820884227753,0.1124039888381958,0.24869687855243683,0.9241999983787537,0.11418238282203674,-0.5849611759185791,-0.4322260022163391,-0.8292855024337769,0.20380866527557373,-0.011067299172282219,-0.0310580525547266,-0.23809824883937836,0.5415915846824646,-0.27146729826927185,-0.583014965057373,0.3114921450614929,0.7313082218170166,0.18994370102882385,-0.017169306054711342,-0.2732555866241455,0.42127880454063416,-0.0041845086961984634,-0.28169575333595276,0.2530326247215271,0.6812081933021545,0.03667881712317467,-0.060878533869981766,0.17885775864124298,-0.06760285049676895,-0.8186080455780029,-0.5181699991226196,0.2228560596704483,0.20472055673599243,-0.34792011976242065,-0.1256001740694046,0.4755896031856537,-0.9371828436851501,-0.5209808349609375,0.24721400439739227,-0.14947794377803802,0.5365279316902161,0.14494794607162476,0.31973665952682495,-0.11672233790159225,0.77067631483078,0.4252679646015167,0.5857007503509521,-0.4147603213787079,0.08128765970468521,-0.09475275129079819,-0.7019906640052795,-0.09199738502502441,0.24461381137371063,-0.0556289479136467,0.8429931998252869,0.8231210708618164,-0.01852959580719471,0.5416161417961121,0.4388783276081085,-1.2168070077896118,-0.18829625844955444,-0.2975385785102844,-0.011172560974955559,0.09578339010477066,0.3436989486217499,-0.2948163151741028,-0.1061081737279892,0.09452827274799347,0.026540100574493408,0.12426413595676422,-0.3558914065361023,-0.2696912884712219,-0.20493893325328827,-0.5657505989074707,-0.2960958778858185,0.3068869709968567,-0.4795221984386444,-0.26634863018989563,-0.011030341498553753,-0.12112316489219666,-0.20365922152996063,0.3419073224067688,0.14908342063426971,-0.9429072737693787,-0.23340295255184174,0.10761944204568863,0.36451417207717896,0.30816957354545593,-0.20125944912433624,-0.49593842029571533,0.3311648666858673,0.06305322051048279,-0.2911888659000397,0.25737330317497253,-0.00013929228589404374,-0.7011804580688477,-0.707222580909729,-0.08607877790927887,-0.07045628875494003,0.36770936846733093,0.5834956169128418,0.19918940961360931,0.44213488698005676,0.06914421916007996,0.6036524176597595,-0.17977318167686462,0.7075008153915405,0.539495050907135,0.20181992650032043,-0.1131594106554985,-0.03120909444987774,0.11820409446954727,-0.1010340005159378,-0.28961092233657837,-0.30637264251708984,-0.05445491150021553,-0.037863899022340775,-0.19519227743148804,-0.2912193536758423,0.2332652062177658,-0.13421757519245148,-0.3370055854320526,0.13860584795475006,-0.1748128980398178,-0.06211915239691734,-0.6482115983963013,-0.2465459257364273,0.21092821657657623,0.39049196243286133,0.35429805517196655,0.051937878131866455,-0.24193371832370758,0.3049515187740326,0.4418288767337799,0.11434090882539749,0.8323203921318054,0.8285071849822998,0.0793328583240509,-0.32849788665771484,0.19678208231925964,0.033426299691200256,1.52149498462677,-0.10732552409172058,0.19971811771392822,-0.04288578778505325,-0.2311057448387146,0.7365263104438782,-0.38766396045684814,0.5213205814361572,-0.5501535534858704,-0.24419815838336945,0.2965427041053772,0.7750118970870972,0.15336765348911285,0.10356909781694412,0.9965385794639587,0.025043178349733353,-0.07121478021144867,0.08907468616962433,0.3873285949230194,0.4041516184806824,-0.7694303393363953,0.3641296923160553,-0.09564588963985443,-0.567346453666687,-1.1963404417037964,0.2605993449687958,-0.14516542851924896,0.029253225773572922,0.48275309801101685,0.6016945242881775,0.17500518262386322,0.21354910731315613,-0.2849373519420624,-0.47531405091285706,-0.5405901074409485,-0.32529860734939575,0.3371584415435791,-0.6964401006698608,0.6305981874465942,-0.0332561619579792,-0.46623146533966064,-0.7473247647285461,-0.4378030002117157,0.21587146818637848,-0.2300509810447693,-0.08343672007322311,0.6441687345504761,-0.7499869465827942,-0.5884788632392883,0.122355617582798,0.15250593423843384,-0.8588740229606628,-0.6186056733131409,0.2603722810745239,0.41775307059288025,-0.30956900119781494
http://dbpedia.org/resource/Mac_Pro,0.41942036151885986,-0.020357854664325714,0.6939091682434082,0.20576025545597076,-0.284574419260025,0.7225624918937683,0.29065218567848206,0.7575086355209351,0.07212395966053009,-0.209249809384346,0.03824311122298241,0.47496506571769714,0.019390536472201347,-0.09044085443019867,-0.7089245915412903,-0.15954707562923431,0.03803079202771187,-1.0390459299087524,0.4191579818725586,-0.44086721539497375,0.6209752559661865,0.16439130902290344,0.2552281618118286,1.1662307977676392,-0.3981932997703552,0.875991940498352,-0.09432341158390045,-0.30742186307907104,0.054004497826099396,0.8544925451278687,-0.6600516438484192,1.1179100275039673,-0.2941439747810364,-0.781196117401123,-0.035498399287462234,-0.37369710206985474,-0.5848314762115479,0.11222243309020996,0.2557676434516907,-0.42129430174827576,-0.17150506377220154,0.015251252800226212,-1.320505142211914,-0.19903495907783508,-0.9822691082954407,0.6163389682769775,0.3353050649166107,0.5443229675292969,0.9174510836601257,-0.3658403158187866,0.26739582419395447,0.1354260891675949,0.5552809238433838,-0.4835966229438782,-0.27560070157051086,-0.34488463401794434,-0.24120990931987762,0.0754440575838089,-0.14426933228969574,-0.18928998708724976,-0.301062673330307,-0.7780771851539612,-0.1471860259771347,0.09114298224449158,0.23948776721954346,0.08643906563520432,-0.7654121518135071,0.4973256289958954,-0.16583238542079926,-0.5106412172317505,-0.42361676692962646,0.14509296417236328,-0.1956799179315567,0.3067570626735687,-1.0488603115081787,0.3237948715686798,-0.005857294425368309,0.7657737731933594,0.23086240887641907,-0.07493587583303452,-1.0868302583694458,0.32139426469802856,-0.13206182420253754,0.1239110678434372,-0.7259262800216675,0.8165417313575745,-0.09934484958648682,-0.5629610419273376,-0.13278017938137054,0.23462626338005066,0.128744438290596,0.5972095131874084,0.18416671454906464,-0.2837013304233551,0.13727305829524994,-0.21494580805301666,0.8380040526390076,-0.21648262441158295,0.14898021519184113,-0.1381121128797531,0.31633615493774414,0.3421443998813629,0.3478551506996155,0.37337246537208557,0.6825075149536133,0.3559376895427704,0.5085627436637878,-0.3492884635925293,-0.23338057100772858,-0.4922782778739929,0.5151262283325195,0.4921785891056061,-0.8722307085990906,-0.8986197113990784,0.23261544108390808,-0.7641148567199707,0.0501883327960968,-0.1574423611164093,-0.5559336543083191,0.11016959697008133,-0.16553057730197906,-0.08255226910114288,-0.11262910813093185,0.07103163748979568,0.441437304019928,0.44270312786102295,-0.08994253724813461,-0.5556507110595703,-0.12490049749612808,-0.5796492695808411,-0.8114346265792847,0.6842482089996338,0.02885427325963974,0.07560127228498459,0.44775572419166565,0.07444683462381363,0.2565706968307495,0.43622052669525146,0.18801374733448029,0.4951331913471222,-0.7247437834739685,0.4035756587982178,-0.5648055672645569,-0.6897575855255127,0.6146017909049988,0.0584297776222229,-0.44414523243904114,0.2312261313199997,-0.1944926679134369,-0.1541077047586441,0.10142157226800919,0.382689893245697,0.19554658234119415,-0.0950508788228035,-0.341549813747406,0.5377660393714905,0.14256702363491058,0.3270953893661499,0.43565818667411804,-0.6399590969085693,-0.6326838135719299,-0.44325172901153564,0.08816542476415634,0.07448694854974747,0.12372352927923203,0.12485223263502121,0.8829177618026733,-0.4707082509994507,-0.5634313821792603,-0.03020181879401207,-0.30790144205093384,0.210084930062294,0.8922322988510132,-0.3996419608592987,-0.6751939058303833,-0.10130814462900162,-0.7006892561912537,0.08049893379211426,-0.08438348770141602,-0.18636244535446167,0.7560778856277466,-0.1921127289533615,-0.3007124066352844,-0.3278486728668213,-0.36112475395202637,0.04201268404722214,-0.6084281206130981,0.3739311993122101,-0.2524457573890686,0.054244473576545715,0.38295161724090576,0.33753281831741333,-0.7497814893722534,0.05992630124092102,0.01073801051825285,-0.7091796398162842,-0.18957112729549408,0.38619107007980347,0.13676054775714874,-0.6954394578933716
http://dbpedia.org/resource/Mike_Markkula,-0.3532356917858124,0.506091296672821,0.5696143507957458,0.5689650177955627,-0.28043609857559204,0.41327840089797974,-0.056067559868097305,0.7559665441513062,0.2845749258995056,-0.06368514895439148,-0.11770396679639816,-0.2990274429321289,0.7134916186332703,0.6185728311538696,-0.745983362197876,1.4163504838943481,-0.26210495829582214,-0.014793396927416325,-0.010520052164793015,0.37039652466773987,-0.22275885939598083,0.23360712826251984,0.02769751101732254,0.23213356733322144,0.27016666531562805,0.07235158234834671,-0.6312059164047241,0.27323639392852783,-0.3847545087337494,0.47272852063179016,0.22403958439826965,-0.22112834453582764,-0.5921392440795898,-0.04670051485300064,-0.5531233549118042,-0.4437587559223175,0.1332540661096573,-0.1282196044921875,0.20352023839950562,-0.16387470066547394,-0.03621511533856392,0.4022272527217865,-0.21594710648059845,0.0015143521595746279,-0.17169608175754547,0.0004928844864480197,0.38472825288772583,0.3264751732349396,-0.373197078704834,-0.010520161129534245,0.7662226557731628,0.17846566438674927,-0.03302731737494469,0.1435534507036209,-0.4387889504432678,-0.32906702160835266,0.034670256078243256,0.5619674324989319,0.3459226191043854,-0.058857861906290054,0.2750888764858246,0.20353586971759796,0.014195303432643414,-0.23285402357578278,-0.3952385485172272,0.48282474279403687,-0.5054445862770081,0.5332024693489075,0.13528738915920258,-0.37721434235572815,0.42400839924812317,-0.05241739749908447,0.20958355069160461,0.1868664026260376,0.07927032560110092,-0.07262475043535233,-0.41567233204841614,0.3084549307823181,0.5823644399642944,-0.10023888200521469,-0.35535097122192383,0.05716342851519585,0.22754859924316406,-0.023943929001688957,0.19311274588108063,0.7115541100502014,-0.24535058438777924,0.18819208443164825,0.016833476722240448,-0.003732086857780814,-0.16313780844211578,0.4012080729007721,-0.28411832451820374,0.06285197287797928,0.30942124128341675,0.034218836575746536,0.4271251857280731,0.24942634999752045,-0.11357096582651138,-0.48203983902931213,0.30022305250167847,0.25422513484954834,0.2625803053379059,0.009155512787401676,0.047937922179698944,0.4708523452281952,0.5745519399642944,-0.22488164901733398,0.33634135127067566,0.5665242671966553,-0.2721487879753113,0.25651535391807556,-0.7423296570777893,-0.32773786783218384,0.7197286486625671,-0.3694111108779907,-0.6488350629806519,0.09122710675001144,0.01187558751553297,0.2257433831691742,-0.3350544571876526,-0.16183775663375854,0.5722821950912476,0.1303129643201828,-0.3338102102279663,0.038128167390823364,-0.3670157194137573,0.2712406516075134,-0.36470887064933777,0.3074656128883362,-0.24920201301574707,0.1455724537372589,0.14267101883888245,-0.026727022603154182,0.31655353307724,0.1962057501077652,0.27269247174263,-0.12313462793827057,-0.4281407296657562,-0.38975629210472107,0.12058917433023453,0.20643438398838043,0.028307246044278145,0.4915236532688141,0.35477977991104126,0.4919024705886841,-0.21087579429149628,0.23015989363193512,0.1492200642824173,0.10692676156759262,-0.16693177819252014,-0.36052435636520386,-0.11187317967414856,-0.5341425538063049,-0.06119030714035034,0.007803093176335096,-0.10724867880344391,-0.4214460849761963,-0.11311818659305573,-0.23920421302318573,-0.22997567057609558,-0.2988208532333374,0.0303345900028944,0.5401212573051453,0.2517709732055664,0.43734899163246155,0.5127378106117249,-0.25016769766807556,-0.05720958858728409,-0.1834777295589447,-0.6179174184799194,-0.17882844805717468,-0.03967878594994545,0.5738176107406616,-0.27014482021331787,0.30619168281555176,-0.3010241687297821,0.40253397822380066,0.023576300591230392,-0.1055031418800354,0.14451605081558228,-0.915172278881073,0.026868363842368126,0.09569437056779861,0.06282295286655426,0.6852190494537354,0.025668343529105186,0.48372355103492737,-0.36645621061325073,-0.25843551754951477,-0.2981010973453522,-0.10154794156551361,-0.10569985210895538,0.6455759406089783,0.11201664805412292,-0.4727516174316406,0.13470131158828735,-0.20947256684303284,0.6136705875396729,0.09864930063486099
http://dbpedia.org/resource/Infinite_Loop_(street),0.09171529114246368,0.38217872381210327,0.054296571761369705,0.3172532021999359,0.050168249756097794,-0.14940154552459717,0.5377274751663208,-0.21146754920482635,-0.3143531084060669,-0.3384014964103699,-0.5431552529335022,0.5671783685684204,-0.05100506544113159,0.23115217685699463,0.13568563759326935,-0.051997631788253784,-0.16018334031105042,-0.43795862793922424,0.3155767321586609,0.12486922740936279,0.10438641160726547,-0.3174283802509308,0.07639608532190323,0.8231621384620667,0.26638540625572205,0.3983679413795471,-0.3716450035572052,0.4754013121128082,-0.6090936660766602,0.9486141204833984,-0.007239538244903088,0.1645406186580658,0.17903220653533936,-0.3431362509727478,-0.4135470688343048,-0.34658870100975037,-0.16502726078033447,0.7187204957008362,-0.3115890920162201,-0.48670250177383423,-0.10212186723947525,-0.3186301589012146,-0.18737687170505524,-0.0727475956082344,0.0746019259095192,0.06964962929487228,-0.5367609262466431,0.5403545498847961,0.8751357197761536,-0.21022829413414001,0.3091900646686554,0.2918636202812195,-0.06927911192178726,0.20024575293064117,0.08114255964756012,0.13740341365337372,-0.21614879369735718,0.7941393852233887,-0.1788378357887268,-0.5146092772483826,0.5909152626991272,0.06774751842021942,0.3774571716785431,0.5408695340156555,-0.18872317671775818,0.5833244323730469,-0.26697590947151184,0.3981958329677582,-0.9610438942909241,-0.12655174732208252,-0.26279956102371216,-0.15731355547904968,-0.3393179476261139,0.2735816240310669,-0.3105061650276184,0.20015358924865723,-0.4262373447418213,0.9475981593132019,0.3964385390281677,0.5901588201522827,-0.30538347363471985,0.39449256658554077,0.1792239546775818,-0.23037168383598328,-0.833727240562439,0.017633305862545967,-0.06292808055877686,-0.20464228093624115,0.2438802421092987,0.6572537422180176,-0.07809317857027054,-0.2388550043106079,0.267012357711792,-0.19279475510120392,0.1880558729171753,0.20544999837875366,0.6585379838943481,0.3666757345199585,-0.09096576273441315,-0.3834722638130188,-0.2095465511083603,0.20320194959640503,0.28947463631629944,0.4482668340206146,0.021273473277688026,0.286284863948822,0.321550190448761,0.0375000461935997,-0.2987913191318512,-0.7345661520957947,-0.36795955896377563,0.17407667636871338,-0.3776901960372925,-0.11202909052371979,0.1694079339504242,0.22254198789596558,-0.1009146198630333,-0.15142403542995453,0.47348740696907043,-0.6720186471939087,0.09551936388015747,-0.4306304454803467,0.1047220379114151,-0.36530160903930664,-0.2871418297290802,-0.42896321415901184,-0.32172125577926636,0.145380437374115,-0.6729627847671509,-0.07086396962404251,0.22052890062332153,0.14112120866775513,-0.16798092424869537,-0.18360291421413422,0.09251526743173599,0.8068429231643677,0.22033296525478363,0.6628333330154419,0.004499261267483234,0.28541556000709534,-0.1248820349574089,0.7072382569313049,-0.15914620459079742,-0.16462816298007965,0.3398742973804474,-0.035414159297943115,0.1812385767698288,0.10494137555360794,-0.011019284836947918,0.09930305927991867,0.23734577000141144,-0.44241541624069214,-0.007010382134467363,-0.41736477613449097,-0.5143731832504272,0.10058849304914474,0.20059679448604584,-0.5377786755561829,0.10343620926141739,-0.2748253345489502,0.6160067319869995,-0.3418973386287689,0.4315309524536133,-0.2882128059864044,0.2318134903907776,0.9200310707092285,0.41502535343170166,-0.5094271898269653,-0.5722633004188538,0.5653074979782104,-0.46187880635261536,-0.35773953795433044,0.9364235401153564,0.9466085433959961,-0.2254289984703064,0.41510576009750366,0.213624507188797,0.4620800018310547,0.18996936082839966,0.5817235708236694,0.27375853061676025,0.09848098456859589,0.15853218734264374,0.13051041960716248,-0.09560714662075043,-0.23203086853027344,0.3575449287891388,-0.17931143939495087,0.20754481852054596,0.06259777396917343,-0.05953788757324219,0.5023008584976196,-0.6761940717697144,-0.08724290877580643,0.44517022371292114,-0.11540316790342331,-0.09466240555047989,-0.4704465866088867,0.6012254953384399,0.222255676984787
http://dbpedia.org/resource/Silicon_Valley,-0.0689239650964737,-0.19332239031791687,0.22415466606616974,0.8717602491378784,-0.15618550777435303,-0.11240847408771515,0.2625967860221863,-0.3368079662322998,-0.27815693616867065,-0.27392303943634033,-0.8780037760734558,0.8452275991439819,0.09855944663286209,0.08017358183860779,-1.5197691917419434,0.5327065587043762,0.2640995681285858,0.12509189546108246,-0.1367383897304535,0.5614728927612305,0.5731984972953796,-0.1237860694527626,0.14505544304847717,0.5971577167510986,-0.1911558210849762,-0.5141628384590149,-0.34126076102256775,-0.5240384936332703,0.05446196347475052,0.5328410863876343,0.5827208161354065,-0.20393194258213043,-0.4238773584365845,-0.2642362713813782,0.4429573714733124,0.2552167475223541,-0.7818095684051514,0.2136593461036682,-0.2334814816713333,-0.873812198638916,-0.14711767435073853,-0.0556088425219059,-0.5347015857696533,0.581292450428009,-0.40425240993499756,0.6699966192245483,0.5200091600418091,0.08407396823167801,0.4273523986339569,0.02173318713903427,-0.2968330979347229,-0.2700088322162628,0.2623412013053894,0.31796178221702576,0.07726313918828964,0.6859108209609985,-0.2682332992553711,0.7500693798065186,-0.03412683308124542,0.28612369298934937,0.38331642746925354,0.2844330072402954,-0.951269268989563,-0.2530823051929474,-0.11110039055347443,-0.07259945571422577,-0.844375729560852,1.2324776649475098,0.3978141248226166,-0.12108074873685837,-0.36560797691345215,-0.2921300530433655,0.31055647134780884,-0.7574154734611511,0.036327894777059555,-0.2802267372608185,-0.02075134590268135,-0.12343330681324005,0.029613042250275612,0.5653098225593567,0.11964481323957443,-0.1710793524980545,0.051690276712179184,0.1724342256784439,0.1527082920074463,1.1097211837768555,-0.16313041746616364,-0.9883206486701965,-0.5264496803283691,0.4229529798030853,-0.13906024396419525,0.6901798248291016,-0.36686909198760986,-0.4710555970668793,-0.41164225339889526,-0.4151063859462738,0.6199549436569214,-0.48231226205825806,0.8205977082252502,-0.29324451088905334,0.22641626000404358,1.095191240310669,-0.19620881974697113,0.8602632880210876,0.9383434653282166,0.616374671459198,1.730351209640503,0.20088845491409302,-0.38927197456359863,0.057645533233881,-0.3640272915363312,-0.1644246131181717,0.23309767246246338,-0.8091455101966858,0.9125738739967346,0.755465567111969,-0.3678366243839264,-0.6500760316848755,-0.2591574788093567,-0.4822630286216736,-0.16899651288986206,0.14399661123752594,0.109937384724617,0.07873524725437164,-0.012591062113642693,0.004346625413745642,0.4674498438835144,0.3150036036968231,0.27717605233192444,-0.6593573689460754,-0.041606880724430084,1.09980309009552,0.2613039016723633,0.35996508598327637,0.04401512071490288,0.042210884392261505,0.25164657831192017,0.3935239315032959,0.14519865810871124,-0.522395133972168,0.28365734219551086,-0.30486243963241577,-0.3085271120071411,-0.10055501759052277,-0.06237507611513138,0.5623815059661865,0.17826999723911285,0.13340070843696594,0.14629288017749786,-0.2464269995689392,-0.05547090619802475,-0.35177162289619446,-0.3438740074634552,-0.10418771952390671,-0.07080993801355362,-0.24872525036334991,0.774556577205658,-0.4988236427307129,0.4954049587249756,-1.182909607887268,0.5869063138961792,-0.09683699905872345,-0.10262902826070786,-0.41303345561027527,0.6950913071632385,0.5548795461654663,0.42209962010383606,-0.7959874272346497,0.1405940055847168,0.4275353252887726,-0.2379404455423355,-0.3460567891597748,0.3164122700691223,0.4016132950782776,0.23686961829662323,-0.05127742886543274,0.6311014890670776,0.2557680904865265,-0.5684900879859924,-0.35480996966362,-0.3256480097770691,0.11908261477947235,-0.559251070022583,-0.44918614625930786,0.4271465241909027,0.032437924295663834,0.03833358734846115,0.12947729229927063,1.074305772781372,-0.16337953507900238,-0.11605720967054367,0.17620766162872314,-0.6852273344993591,-0.29350870847702026,0.3366771936416626,-0.9658113121986389,0.12519657611846924,0.5416420102119446,0.5298332571983337,-0.09502201527357101
http://dbpedia.org/resource/NeXT,-0.3915386199951172,0.39962804317474365,0.6479038596153259,0.5635663866996765,0.088978111743927,0.19848167896270752,0.7831847667694092,0.18079596757888794,-0.38158321380615234,0.2610752582550049,-0.3716748058795929,0.8385565876960754,-0.1126759946346283,0.22505484521389008,-0.5153085589408875,0.8063762784004211,0.07528333365917206,-0.262369304895401,0.20031185448169708,0.020491011440753937,0.056408919394016266,0.2302888035774231,-0.28702637553215027,0.9709502458572388,-0.3459922969341278,0.722404956817627,0.17102840542793274,0.1803085207939148,-0.3367869555950165,-0.22581063210964203,0.979935348033905,0.24203215539455414,-0.08299298584461212,-0.623895525932312,-0.32496652007102966,0.18468579649925232,-0.770587146282196,-0.1557290107011795,0.4856862723827362,-0.42589959502220154,0.27286675572395325,-0.2326834499835968,0.2132161557674408,0.5643621683120728,-0.443094402551651,0.06266382336616516,-0.3881641626358032,0.6413672566413879,-0.33619484305381775,1.0632034540176392,-0.16811548173427582,-0.2551949620246887,-0.1272500455379486,-0.8693433403968811,0.1281212419271469,-0.23643024265766144,-0.07055361568927765,0.645042896270752,-0.044179853051900864,0.005716839339584112,0.371650367975235,-0.3319932520389557,-0.3760938048362732,0.03832261636853218,-0.7147403359413147,0.210675910115242,-0.7975422143936157,0.49631959199905396,-0.11370167136192322,-0.5029312968254089,-0.06880226731300354,0.35694923996925354,-0.8123189806938171,-1.1386339664459229,-0.09460247308015823,-0.5049116015434265,0.013825396075844765,0.2864682674407959,0.6381511092185974,-0.16614994406700134,-0.3300255239009857,0.21430836617946625,-0.11961865425109863,-0.25269821286201477,0.4232541620731354,0.5200105905532837,-0.4785116910934448,-0.6700904965400696,0.2236563116312027,0.6216104626655579,-0.027923274785280228,0.6696730256080627,-0.29368385672569275,-0.23920968174934387,-0.059728749096393585,0.5232417583465576,0.059901267290115356,0.33941924571990967,-0.7062462568283081,-0.8886585831642151,0.09333635866641998,-0.01179681345820427,0.11929848790168762,0.34636637568473816,0.4949003756046295,0.8785526156425476,0.6675172448158264,0.23018872737884521,-0.01639650948345661,-0.9561459422111511,-0.05751466006040573,-0.11866682767868042,-0.4362535774707794,-0.5516584515571594,0.6339064836502075,-0.9266956448554993,-0.748933732509613,-0.15822263062000275,-0.5417324900627136,-0.9218229055404663,0.5812718868255615,-0.06492000818252563,0.2572054862976074,0.3114139139652252,-0.12472213804721832,-0.4545736312866211,-0.09813913702964783,0.6731651425361633,-0.008226978592574596,0.11556049436330795,-0.43032610416412354,0.6424087882041931,0.22376583516597748,0.49770453572273254,-0.3031783401966095,0.12173181027173996,0.27618131041526794,-0.07197853177785873,1.1812376976013184,0.08358707278966904,-0.9637686014175415,0.24138271808624268,-0.16479989886283875,0.3326711654663086,0.3527592718601227,0.23891620337963104,-0.6751355528831482,0.6184125542640686,-0.05917786806821823,0.029848791658878326,-0.8334251642227173,0.2906665503978729,-0.477441668510437,-0.5380846858024597,-0.33610349893569946,0.32539263367652893,0.17871491611003876,-1.3408154249191284,1.4186136722564697,-0.08878593146800995,-0.33580443263053894,0.12472999095916748,0.03530126065015793,0.15808384120464325,-0.0741046890616417,0.20552334189414978,0.36109185218811035,-0.5477301478385925,-0.7895970940589905,-0.29785022139549255,0.07615553587675095,-0.22480671107769012,-0.029521241784095764,0.3596291244029999,-0.7336876392364502,0.7292660474777222,0.19128230214118958,-0.06444361060857773,-0.11146464943885803,-0.09203275293111801,0.1859014332294464,-0.3393285274505615,0.6020300984382629,0.012679016217589378,-0.17134328186511993,-0.7424255013465881,0.5369182229042053,0.5589966177940369,-0.039502181112766266,-0.33931130170822144,0.5328984260559082,0.04594755172729492,-0.2859419584274292,0.35980069637298584,0.3448003828525543,-0.42370396852493286,-0.7408443093299866,0.9779216051101685,0.6205726265907288,-0.3736851215362549
http://dbpedia.org/resource/Safari_(web_browser),-0.12274765968322754,0.008450654335319996,0.14208072423934937,-0.166193887591362,0.002592949429526925,0.3951159417629242,0.18498903512954712,0.3845781981945038,-0.22766387462615967,0.023734569549560547,-0.020486433058977127,0.16829952597618103,0.15183159708976746,0.282421737909317,-0.16218332946300507,0.10824195295572281,-0.10664379596710205,0.010049629956483841,0.210601344704628,0.12251736223697662,0.09290774166584015,-0.09527701884508133,-0.11643114686012268,0.45885419845581055,0.07282550632953644,0.15129461884498596,0.10863799601793289,-0.1031365841627121,-0.01881667599081993,0.16224969923496246,0.032270051538944244,0.05761045962572098,0.10353248566389084,-0.09173466265201569,-0.3499596118927002,0.11257202178239822,-0.10412778705358505,-0.017971238121390343,0.10694853216409683,0.011184842325747013,-0.2802516520023346,0.08712949603796005,-0.39594611525535583,0.011808695271611214,-0.1369594931602478,0.08702989667654037,-0.1115342527627945,0.13283635675907135,0.12743324041366577,0.0345795638859272,0.21272332966327667,0.018542824313044548,0.12712319195270538,0.02287268452346325,-0.17532986402511597,0.05070654675364494,-0.10355909913778305,0.005662031937390566,0.02144627831876278,-0.09285960346460342,0.005409701261669397,-0.007957191206514835,-0.2823190987110138,-0.09635397046804428,-0.003090525045990944,0.10113301128149033,-0.17769639194011688,0.2285926640033722,-0.10939823091030121,0.001961858943104744,-0.09380964934825897,-0.09297892451286316,-0.07849633693695068,-0.04844743385910988,0.0593305267393589,-0.07524679601192474,-0.06463918089866638,0.06854791939258575,0.09162351489067078,-0.245582714676857,-0.26028332114219666,0.07749734818935394,0.04143833369016647,-0.09170787781476974,0.005655213724821806,0.14060361683368683,0.01563951186835766,-0.11734176427125931,-0.12073952704668045,-0.026388326659798622,0.053819987922906876,-0.09138503670692444,0.05749235302209854,-0.08121912181377411,0.027946950867772102,0.02915775403380394,0.15392078459262848,0.10866451263427734,-0.130858913064003,-0.24809226393699646,0.032066259533166885,0.033178407698869705,-0.017666393890976906,0.13665708899497986,-0.002889750525355339,0.15190355479717255,0.27357760071754456,-0.018512587994337082,-0.285099059343338,0.20890434086322784,0.15927238762378693,0.15521425008773804,-0.22720810770988464,-0.08753063529729843,0.05232112109661102,0.12076456099748611,0.09819484502077103,-0.05004696920514107,-0.2930821180343628,-0.10572518408298492,-0.052484020590782166,0.005528417881578207,-0.15467068552970886,-0.015299967490136623,-0.041339147835969925,-0.04143962636590004,-0.34813860058784485,-0.07511138916015625,-0.13399550318717957,-0.15315181016921997,-0.18908819556236267,0.20881062746047974,-0.08068409562110901,0.08424312621355057,-0.10890687257051468,0.044914525002241135,0.039605919271707535,0.09436419606208801,0.09383715689182281,0.18460413813591003,0.03106694668531418,0.07603248208761215,-0.035978201776742935,-0.17684271931648254,0.09882475435733795,0.20312659442424774,-0.2240777462720871,0.1377732753753662,0.006713343318551779,0.1976923942565918,-0.07399142533540726,0.10463975369930267,-0.02415289916098118,-0.3262439966201782,-0.043352846056222916,0.211480051279068,0.005829140078276396,-0.08317029476165771,0.2900870442390442,-0.21700680255889893,0.048860449343919754,-0.1993030458688736,0.17264829576015472,0.25458815693855286,0.14605192840099335,0.01987517438828945,0.12723544239997864,-0.21706855297088623,-0.33107656240463257,0.1739816963672638,0.018478065729141235,-0.2819100022315979,0.39287397265434265,0.2881420850753784,-0.2000305950641632,0.21555529534816742,-0.16569417715072632,0.12397551536560059,-0.04150689020752907,-0.10471144318580627,0.25977998971939087,-0.03971630707383156,0.03378459811210632,-0.02330492064356804,-0.08614508807659149,-0.07587488740682602,-0.16552592813968658,0.014052696526050568,-0.1030547246336937,0.11922934651374817,0.1453726440668106,-0.03889467939734459,-0.02747555822134018,-0.03345872834324837,0.14320167899131775,-0.07498669624328613,-0.09657936543226242,0.07680542767047882,0.05692688003182411,-0.4140687882900238
http://dbpedia.org/resource/FileMaker_Inc.,-0.39882537722587585,0.682228684425354,0.4619074761867523,0.17402294278144836,-0.35926511883735657,0.8854808211326599,0.42560216784477234,0.6804913282394409,0.33281490206718445,-0.2801678478717804,-0.5162472128868103,0.7790026068687439,-0.4939502477645874,-0.6321620345115662,-0.3813156187534332,0.5706639885902405,-0.16413003206253052,-0.3830956518650055,-0.010875585488975048,0.4481355845928192,0.633004367351532,-0.3973855674266815,-0.7196239829063416,0.4543669819831848,-0.3026321530342102,0.569082498550415,0.278285950422287,0.14920103549957275,0.31230106949806213,0.31876641511917114,0.39946404099464417,-0.0948718786239624,-0.2825632393360138,-0.37228313088417053,0.4024817943572998,-0.24847154319286346,-0.8193247318267822,0.08078073710203171,0.01090503390878439,-0.8502718806266785,-0.17087890207767487,0.013806416653096676,-0.7159488201141357,0.37789157032966614,0.01300686877220869,0.024351444095373154,-0.2067423015832901,0.1342485547065735,0.32425740361213684,0.6010973453521729,-0.1441381275653839,-0.5744537711143494,0.15906104445457458,0.13065128028392792,-0.6775082945823669,0.6446645259857178,-0.291109174489975,0.541549026966095,0.5446357131004333,0.20487935841083527,-0.5406017303466797,0.7404629588127136,-0.04022733122110367,-0.6176113486289978,0.341929167509079,0.9758279919624329,-0.20192618668079376,1.0183640718460083,-0.5328159332275391,-0.3661983907222748,0.26514896750450134,-0.32089176774024963,0.14384128153324127,-1.2079179286956787,-0.03005673550069332,-1.324874997138977,0.3037264347076416,0.16045302152633667,0.49006304144859314,-0.4081632196903229,-0.2543412148952484,0.3437373638153076,-0.21806135773658752,-0.529266357421875,0.5815301537513733,0.03957846388220787,-1.0391756296157837,-0.539348304271698,0.4210958778858185,0.3249285817146301,-0.3315589427947998,-0.07237326353788376,-0.2702386975288391,-0.14657677710056305,0.18389908969402313,-0.08573131263256073,0.5401445627212524,-0.10198974609375,-0.3488662838935852,-1.4814800024032593,-0.39669591188430786,-0.39245614409446716,0.46987926959991455,1.0240455865859985,0.32855042815208435,0.12961708009243011,0.26836276054382324,0.12055821716785431,-0.6074890494346619,-0.5243181586265564,-0.10972607880830765,-0.4970724582672119,-0.21914051473140717,0.0396747961640358,-0.08563067018985748,-0.5630065202713013,-0.41730719804763794,-0.4471037983894348,-0.11203355342149734,0.06221868097782135,-0.29738807678222656,0.019911568611860275,-0.24048134684562683,0.17016682028770447,-0.8821696639060974,-0.6169645190238953,0.49658671021461487,0.31265416741371155,-0.03778337314724922,-0.5631819367408752,-0.840379536151886,0.25216683745384216,0.3080807328224182,-0.09856394678354263,-0.5619984269142151,0.5018271803855896,0.3216192424297333,-0.3705015182495117,0.05750199034810066,1.0185110569000244,-0.32061514258384705,-0.021868085488677025,-0.04352768883109093,-0.0058391815982759,0.7768575549125671,0.00795676652342081,-0.10278898477554321,0.036465130746364594,-0.35271182656288147,0.7063429355621338,-0.29293233156204224,-0.2193891704082489,-1.1066443920135498,-0.8167551159858704,0.800172746181488,0.34078672528266907,0.2163313925266266,0.2490711212158203,1.1665810346603394,-0.33322402834892273,0.31641268730163574,0.14234520494937897,0.7624223828315735,0.7231122255325317,-0.12948331236839294,0.4674411416053772,0.1624133437871933,-0.43614375591278076,-0.6049222350120544,0.4280518889427185,0.13741593062877655,0.2702482044696808,0.707206666469574,1.462162733078003,-0.6986344456672668,0.3495967984199524,-0.3717259168624878,-0.38475409150123596,0.23393529653549194,-0.9450411200523376,-0.45894575119018555,-0.16792462766170502,-0.14690738916397095,0.010703428648412228,-0.617458164691925,-0.05869317427277565,0.11433741450309753,-0.09950534254312515,-0.03600744158029556,-0.2674446105957031,0.43325281143188477,-0.3413178622722626,-0.20446382462978363,0.3296903371810913,0.6004796028137207,-1.3540030717849731,0.08006643503904343,0.5297430753707886,0.8145873546600342,-0.40848684310913086
http://dbpedia.org/resource/Guy_Kawasaki,-0.7984077334403992,-0.018860096111893654,-0.14821138978004456,0.7313123941421509,-0.44514143466949463,0.6016966104507446,0.6521637439727783,0.45969149470329285,0.015127073042094707,0.13306927680969238,-0.37373921275138855,0.10160817950963974,-0.03609813004732132,-0.15266864001750946,-0.4951176941394806,0.7704229354858398,-0.49469131231307983,0.4930199086666107,0.19338871538639069,0.5013567805290222,-0.13296093046665192,-0.2826554477214813,-0.03261528164148331,0.868045449256897,-0.10186726599931717,-0.12920932471752167,0.3959035873413086,-0.7223804593086243,0.6234473586082458,-0.12467892467975616,0.9602600336074829,-0.09257212281227112,-0.24908015131950378,-0.3446783423423767,-0.05901521444320679,-0.28338778018951416,-0.031942952424287796,-0.05172380432486534,-0.6812654733657837,0.19920828938484192,-0.3161185085773468,-0.35964035987854004,-0.6104845404624939,0.4420212507247925,0.11136288940906525,0.3592916429042816,0.3244949281215668,-0.228636234998703,-0.19649000465869904,0.10761743038892746,-0.37549933791160583,0.06657609343528748,0.05070662871003151,-0.37680885195732117,0.2794284522533417,-0.24248550832271576,0.02875414863228798,0.21033482253551483,1.0620313882827759,-0.8639885187149048,0.1695258766412735,-0.33224162459373474,-0.6004547476768494,-0.28198689222335815,0.19368413090705872,0.19980618357658386,-0.6721265912055969,0.8089436292648315,-0.6490495800971985,-0.034929849207401276,0.22495137155056,0.060975391417741776,-0.2646898329257965,-0.8473743796348572,0.8681273460388184,-0.2057652771472931,-0.38840073347091675,0.4574435353279114,0.17181900143623352,-0.014837386086583138,-0.03447067737579346,0.31274914741516113,0.31001588702201843,-0.504184365272522,0.13877582550048828,0.8346840739250183,-0.48614126443862915,0.11171338707208633,-0.5987839698791504,-0.2384539544582367,-0.21791347861289978,-0.2895139157772064,-0.3987259566783905,0.22561877965927124,0.23595735430717468,0.3557989299297333,0.7305930852890015,0.08966835588216782,-0.09718456119298935,-0.6741262674331665,1.1401517391204834,0.3158327639102936,-0.5262861251831055,0.96381676197052,-0.5398432016372681,0.45425549149513245,0.33013662695884705,-0.7312221527099609,0.1582421362400055,0.7845578193664551,-0.5933675169944763,0.516246497631073,0.12148402631282806,-0.42355066537857056,0.639653205871582,0.24654889106750488,-1.0195175409317017,-0.07714595645666122,0.04092605412006378,-0.10602449625730515,-0.20961500704288483,0.5464107394218445,-0.33882343769073486,-0.22596091032028198,-0.6188167333602905,0.12086162716150284,-0.48281732201576233,-0.026924826204776764,-1.0224201679229736,-0.3270435035228729,0.15004360675811768,0.48163509368896484,-0.7750341892242432,-0.07886571437120438,-0.6963501572608948,-0.16078230738639832,0.4415186643600464,-0.26130935549736023,0.21637263894081116,-0.41824066638946533,0.8400201797485352,-0.15632419288158417,-0.059697363525629044,-0.1746567189693451,-0.4388539791107178,0.21544945240020752,0.0037676519714295864,0.11800442636013031,1.4059196710586548,0.16580946743488312,0.4951367974281311,-0.35784289240837097,-0.9861552119255066,-0.9044178128242493,-0.14889706671237946,0.15614570677280426,0.07606399804353714,0.8337962627410889,0.12658996880054474,0.16137294471263885,0.03125592693686485,0.3949739634990692,-0.12015888839960098,0.03455710411071777,0.3683275878429413,0.8718544244766235,-0.24357028305530548,-1.2896173000335693,-1.4551546573638916,-0.04055457189679146,-0.0736362487077713,0.11307789385318756,0.7678738236427307,0.3798704147338867,-0.1891266405582428,0.4527016580104828,-0.6007838249206543,0.8600762486457825,0.31501251459121704,-0.13749390840530396,0.9765685796737671,-0.9718602895736694,0.10461139678955078,0.4105614721775055,0.12095728516578674,-0.06973309069871902,-0.16722027957439423,-0.45581984519958496,-0.6184874773025513,0.23515309393405914,0.4162672758102417,-0.31105905771255493,-0.10259292274713516,-0.7210359573364258,-0.12863358855247498,-0.5735374689102173,0.12415770441293716,-0.08503858745098114,0.2956298589706421,0.34603601694107056
http://dbpedia.org/resource/Microsoft,-0.02532382309436798,0.25580549240112305,0.3779709041118622,0.0729234516620636,-0.20097781717777252,0.06597387045621872,-0.014705457724630833,0.5290884375572205,-0.4163201153278351,-1.0180070400238037,0.012886271812021732,0.7276368737220764,-0.04243800789117813,1.1099001169204712,0.16918909549713135,0.10054011642932892,0.1620706468820572,-0.18597252666950226,0.49186867475509644,0.8784662485122681,-0.5870403051376343,0.40218138694763184,0.16272416710853577,0.7432364225387573,-0.20317183434963226,0.7463207840919495,-0.46044084429740906,0.20312871038913727,0.07737815380096436,-0.24457941949367523,1.435357928276062,0.20278479158878326,-0.03599398583173752,-0.021738994866609573,0.03304201364517212,0.19234593212604523,-0.2675645351409912,0.7912859320640564,0.07422146201133728,0.9443715810775757,-0.9204432368278503,-0.129364475607872,-0.3904986083507538,-0.1634518951177597,0.8988344669342041,-0.15783214569091797,-0.09399706870317459,0.1495668888092041,0.08212029933929443,0.0625748261809349,-0.2565712332725525,0.08789613097906113,-0.04214375838637352,0.13484753668308258,-0.8770353198051453,-0.16145426034927368,-0.046813592314720154,-0.5625035166740417,0.40240007638931274,0.3545128107070923,0.12177722156047821,0.2546977996826172,-0.2772008776664734,0.38000813126564026,-0.2096598744392395,0.6635528206825256,0.09972180426120758,0.48381584882736206,0.41818466782569885,0.1075078547000885,0.32910069823265076,-0.7237713932991028,-0.3462563753128052,-0.2122165411710739,-0.15832926332950592,-0.7999807000160217,-0.005527469329535961,0.40078645944595337,0.1097906157374382,-0.47107020020484924,0.16554440557956696,0.01900697685778141,0.299591988325119,0.08001291751861572,0.25531482696533203,0.08629924803972244,0.36595794558525085,0.44353145360946655,-0.030045505613088608,0.503351092338562,-0.053861528635025024,-0.027061402797698975,-0.21803544461727142,0.15175791084766388,0.218464657664299,-0.8222841620445251,-0.08904348313808441,-0.2670030891895294,-0.5130195617675781,-1.5173596143722534,0.08922991901636124,0.2796780467033386,-0.46453341841697693,0.18390010297298431,0.020886998623609543,0.8426732420921326,0.2969321608543396,0.1614169329404831,-0.38218775391578674,-0.21721865236759186,-0.21462500095367432,0.8467211723327637,-0.5599707365036011,0.11181819438934326,0.5964364409446716,0.05255993828177452,-0.0009030198561958969,0.8613041043281555,0.17188729345798492,-0.4858696162700653,-0.33312422037124634,0.020786793902516365,-0.20345920324325562,0.20411111414432526,-0.7260228991508484,-0.29111790657043457,-0.6129922866821289,0.14961600303649902,-0.20645414292812347,-0.7756446599960327,0.11496169120073318,0.23442082107067108,-0.42350056767463684,-0.23590877652168274,-0.03132535144686699,-0.09447398036718369,-0.2923952043056488,0.7475389242172241,-0.09219469875097275,0.37001314759254456,-0.41901925206184387,-0.5741180181503296,-0.2538115084171295,0.16173671185970306,0.23422622680664062,0.23568636178970337,-0.19170191884040833,0.6195175647735596,-0.5130734443664551,0.9445769786834717,0.3800089955329895,0.4567292034626007,-0.8073926568031311,0.08619662374258041,0.10452864319086075,0.5970768928527832,-0.41380420327186584,0.4762895703315735,1.2150412797927856,-0.6594102382659912,0.4410175085067749,0.023356255143880844,0.53462153673172,0.5961616039276123,0.4318382441997528,0.17160756886005402,0.3549612760543823,0.03347369283437729,-0.2286985218524933,0.953227698802948,0.20900839567184448,-0.36480358242988586,0.45107704401016235,0.6629850268363953,-0.3445178270339966,0.009764418937265873,0.14343559741973877,0.24004128575325012,-0.43975088000297546,-0.2677742540836334,1.1089988946914673,0.4996485710144043,-0.32705605030059814,0.01619095355272293,-0.06317690014839172,-0.009050439111888409,0.28395044803619385,-0.25681760907173157,0.49702244997024536,-0.5698804259300232,-0.32759910821914673,0.44205811619758606,-0.3956972062587738,0.10960766673088074,-0.18088102340698242,-0.3809756636619568,0.33236056566238403,-0.18971183896064758,0.41531655192375183,-0.19783173501491547
http://dbpedia.org/resource/Ridley_Scott,-0.12307928502559662,0.3691253066062927,0.6707744598388672,0.5675426721572876,0.26787370443344116,-0.3001422584056854,0.5165425539016724,0.16138482093811035,-0.8171325325965881,-0.17662324011325836,0.2890838384628296,-0.3636312186717987,0.2798079252243042,0.33284491300582886,0.2514878511428833,0.8791705965995789,-0.7693021297454834,-0.5192588567733765,0.21623173356056213,0.4643552303314209,-0.46639373898506165,0.04887109249830246,-0.2822459042072296,0.13698886334896088,-0.13306109607219696,-0.17795000970363617,-0.004335188306868076,-0.8060874938964844,0.603548526763916,0.5506991744041443,0.15743371844291687,0.8351038694381714,-0.14570945501327515,-0.547272801399231,-0.8990413546562195,0.4600536525249481,0.009464851580560207,-0.10907336324453354,-0.09903047978878021,0.13319750130176544,0.24996894598007202,0.7401695847511292,0.09596682339906693,0.17441073060035706,0.18493594229221344,-0.07858477532863617,0.09297148883342743,0.05327349901199341,-0.2791968286037445,-0.6475903391838074,-0.4584517478942871,-0.029469290748238564,0.38522109389305115,-0.565757691860199,0.06966673582792282,-0.3741976022720337,-0.058147598057985306,0.15046076476573944,1.1184805631637573,0.4801562428474426,0.07027477771043777,0.14158211648464203,-0.46084797382354736,0.09142275154590607,0.23466019332408905,-0.2873542606830597,0.2112414538860321,0.4899125397205353,-0.3311411738395691,0.2095557004213333,0.2603949010372162,0.30229809880256653,0.12800173461437225,-0.04408028721809387,-0.06438145041465759,0.35817673802375793,-0.3272875249385834,0.2801016867160797,0.37716144323349,-0.1872093826532364,0.2567327916622162,-0.3986198306083679,-0.6840776205062866,-0.5279397964477539,-0.11571528762578964,-0.09184282273054123,-0.0074375891126692295,-0.030404990538954735,-0.09936092793941498,-0.09091541916131973,0.3263136148452759,0.1603354513645172,0.6497451663017273,0.7273656725883484,0.09652125090360641,0.0771188735961914,0.23447290062904358,0.37810325622558594,-0.7911282777786255,-0.7549982666969299,0.5512608289718628,-0.2595776915550232,0.7257105708122253,0.6433176398277283,0.056304313242435455,0.3749862015247345,0.5262881517410278,-0.4182223677635193,-0.5385779738426208,0.7630457878112793,0.060988929122686386,0.6710953712463379,-0.14893516898155212,0.22962595522403717,0.579697847366333,-0.5187523365020752,-0.225526824593544,-0.358779639005661,-0.2222859263420105,-0.28612974286079407,-0.1600351333618164,0.15117095410823822,-0.10420582443475723,-0.05345269665122032,-0.009640969336032867,0.04725296422839165,-0.03797938674688339,-0.057536907494068146,-0.5478948354721069,-0.7644627094268799,0.04492958262562752,0.8697870373725891,0.30954763293266296,-0.4778108298778534,-0.8652920722961426,-0.33468297123908997,0.29184144735336304,-0.006704217288643122,0.26228463649749756,0.1849888116121292,-0.21838298439979553,0.010967493988573551,-0.4948618412017822,-0.029686763882637024,0.044595517218112946,-1.418897271156311,0.04134025424718857,-0.4159005582332611,0.05807137116789818,-0.2198939174413681,0.16278299689292908,-0.37574923038482666,-0.3228071928024292,-0.6127346754074097,0.11607038974761963,-0.08209062367677689,0.6209496855735779,-0.2350720316171646,-0.2489386796951294,0.4899989664554596,0.133609339594841,-0.27346697449684143,0.1507784128189087,0.1830819845199585,-0.5131484866142273,0.9603208303451538,0.32570183277130127,-0.18207599222660065,-0.9775635004043579,0.42525359988212585,-0.6323637366294861,0.23120473325252533,0.8390271067619324,0.3208054006099701,0.15931907296180725,-0.6734318733215332,-0.2602313756942749,0.6202174425125122,0.03457964211702347,-0.47924840450286865,0.0681254118680954,-0.21574954688549042,0.8411343097686768,-0.6674284338951111,-0.5175491571426392,-0.6689481139183044,-0.29968422651290894,-0.5715643167495728,0.006830357480794191,-0.5381654500961304,0.5297569036483765,-0.7836120128631592,0.20954546332359314,0.11234944313764572,0.14534322917461395,-0.8236140608787537,-0.5644562244415283,-0.4966748058795929,-0.3452497720718384,-0.7538666129112244
http://dbpedia.org/resource/Isaac_Newton,0.060929398983716965,-0.5362141132354736,0.21164162456989288,0.416705846786499,0.028096115216612816,-0.017911281436681747,0.1918894350528717,0.9367479085922241,-1.4528703689575195,-0.5239174365997314,0.3897358477115631,-0.0005958217661827803,0.25423136353492737,-0.22468434274196625,-0.38406094908714294,0.2808540463447571,-1.1451877355575562,-0.01509059127420187,0.6123905777931213,0.9049477577209473,0.5527567863464355,0.259528785943985,-0.5987462997436523,-0.050003331154584885,-0.12508651614189148,-0.4563199281692505,-0.19872212409973145,-0.1212792918086052,-0.10305753350257874,0.9166949391365051,-0.37547823786735535,0.43726447224617004,0.48884424567222595,0.15605945885181427,-0.25783637166023254,0.4532020092010498,0.20397773385047913,1.140344262123108,0.9963945746421814,-0.9122729897499084,-0.5672934651374817,0.6725736260414124,-0.6775508522987366,-0.34672272205352783,0.6428311467170715,0.10594096779823303,0.637351930141449,0.2677232027053833,0.4765934348106384,0.055745042860507965,0.3066147267818451,0.11410008370876312,0.400875061750412,0.2939286530017853,0.8552129864692688,0.13672445714473724,-0.27987489104270935,-0.4954119920730591,0.3283407688140869,0.1156037449836731,-0.9069528579711914,0.30329397320747375,-1.194267988204956,0.4886242747306824,0.14635704457759857,0.9097133874893188,0.7081289887428284,0.6420836448669434,-0.4255346953868866,-0.2397741973400116,0.8470749855041504,0.011148545891046524,0.24368909001350403,-0.834584653377533,0.20886917412281036,-0.6192474365234375,-0.17782922089099884,1.1192681789398193,0.7997065186500549,-0.3289838433265686,0.6190661191940308,0.18241755664348602,0.02330031804740429,-1.0278633832931519,-0.1695329248905182,0.09856399148702621,0.4582231938838959,0.5473577976226807,-0.34009256958961487,-0.2399776726961136,0.49080321192741394,-0.22573138773441315,-0.23750828206539154,0.3169231712818146,-0.2963992655277252,-0.7399776577949524,0.9051616787910461,0.6423338651657104,-0.7843901515007019,-1.3686256408691406,-0.016881762072443962,-0.12142662703990936,0.23755595088005066,0.720435380935669,0.5781665444374084,0.4252902567386627,0.9649373292922974,0.036455102264881134,-0.557787299156189,0.33716267347335815,0.7009035348892212,-0.10183393210172653,-0.6898831129074097,-0.25221508741378784,0.017000216990709305,0.45763203501701355,-0.21958273649215698,-0.41438573598861694,-0.4581458568572998,-0.40375572443008423,0.37678369879722595,-0.45027071237564087,-0.36566317081451416,-0.028473135083913803,-0.21656355261802673,0.136838898062706,0.06387387961149216,-0.29936662316322327,0.2004224807024002,0.1453576236963272,-1.0231382846832275,0.60816490650177,0.14259321987628937,-0.5836179256439209,-0.6054348349571228,-0.0753290131688118,0.3521374762058258,0.33997011184692383,0.3735296428203583,0.3496181070804596,-0.18123894929885864,-0.5424114465713501,-0.20100294053554535,-0.3749065697193146,-0.34561413526535034,0.06424367427825928,0.1489734947681427,-0.37712574005126953,1.3152445554733276,0.5690835118293762,0.5270345211029053,0.3399767279624939,-0.5993883013725281,0.08911408483982086,0.23321913182735443,1.3493181467056274,0.5469898581504822,-0.27402836084365845,0.007904390804469585,0.1243600845336914,-0.00898615550249815,-0.23345869779586792,-0.4737105071544647,0.1783825010061264,-0.20697510242462158,0.49435579776763916,0.30442607402801514,-0.1272612363100052,-0.06625793874263763,1.0023653507232666,-0.399249792098999,0.8474871516227722,0.6671913862228394,0.3790327310562134,-0.3168109357357025,-0.7396444082260132,-0.6623558402061462,0.43594494462013245,0.36183834075927734,0.13197845220565796,-0.15361221134662628,-1.4433003664016724,-0.01353734452277422,-0.771851658821106,-0.6724486351013184,-0.30753710865974426,-0.4080112874507904,-0.1447705626487732,-0.23183628916740417,0.7383900284767151,1.0321680307388306,-0.7690365314483643,-0.5963795185089111,-0.1550389975309372,0.2006746083498001,-0.25697603821754456,-1.23759925365448,-0.13553990423679352,-0.10677545517683029,-0.26579317450523376
http://dbpedia.org/resource/Alan_Turing,0.9181281924247742,0.6335945725440979,-0.13871441781520844,0.266920804977417,-0.3089179992675781,-0.34766316413879395,0.6753564476966858,1.033939242362976,-0.7848415374755859,0.11929470300674438,0.7432847023010254,-0.3351386785507202,0.24722826480865479,-0.10298483818769455,0.47154316306114197,0.6081157326698303,-0.9542107582092285,-0.5170698761940002,0.8126687407493591,1.0518444776535034,0.7267071604728699,-0.18657325208187103,-0.04483582079410553,0.5799608826637268,-0.57844078540802,0.3412679135799408,0.03894191235303879,-0.15978708863258362,0.035903267562389374,0.18255896866321564,-0.20226114988327026,0.22413045167922974,0.5550369620323181,0.37864595651626587,0.46786195039749146,0.36012887954711914,0.5765168070793152,0.8253938555717468,0.5802919268608093,-0.7787709832191467,-0.8175656795501709,0.12354058772325516,-0.27012377977371216,-0.4632682502269745,0.1936950385570526,0.3028184771537781,0.21353785693645477,0.4704776108264923,-0.4572802484035492,-0.13514354825019836,0.5120096206665039,-0.2894875407218933,0.41513168811798096,0.4711436629295349,0.8287174105644226,0.18077169358730316,-0.044443681836128235,0.25507596135139465,0.5461239814758301,0.8723491430282593,0.5102273225784302,0.3852878212928772,-0.7150034308433533,0.6187922954559326,0.19821862876415253,-0.3010367751121521,0.2245766818523407,0.588648796081543,-0.7768559455871582,0.21793292462825775,0.8194912672042847,-0.2866467833518982,-0.3086211085319519,-0.1726207435131073,0.5538007020950317,-0.3095676898956299,-0.6686923503875732,0.02540193498134613,0.4006965160369873,0.20348186790943146,-0.1983494758605957,0.11380337923765182,-0.2981904447078705,-0.39464759826660156,0.2853791117668152,-0.09762071818113327,0.18441499769687653,0.26286330819129944,-0.603900134563446,0.06892058253288269,-0.13729344308376312,-0.5855109691619873,-0.5309094190597534,0.292491614818573,0.1708373874425888,-0.1522805094718933,0.5712273120880127,0.9320533275604248,-0.9988988637924194,-1.2459911108016968,-0.5070814490318298,0.09837974607944489,0.26060664653778076,0.5846670269966125,0.48926910758018494,0.2536325454711914,0.2952611744403839,-0.5504696369171143,-0.44121551513671875,0.20343582332134247,0.493008553981781,-0.2657482922077179,-1.0306304693222046,-0.4085671305656433,-0.05571485310792923,0.2596060335636139,-0.0550088994204998,0.24103495478630066,-0.7555590867996216,-0.475784569978714,-0.1905335634946823,0.06818967312574387,0.2324446737766266,0.19870159029960632,-1.1526639461517334,-0.46338772773742676,-0.06635236740112305,-0.9397016167640686,-0.26196691393852234,-0.43925750255584717,-0.4307594299316406,0.7407412528991699,0.4215707778930664,0.6772154569625854,-0.6926587820053101,-0.4840148091316223,-0.18053187429904938,0.21990439295768738,0.20210345089435577,0.5667705535888672,0.5111108422279358,-0.6240938901901245,0.1551852971315384,0.14295215904712677,0.6936410665512085,-0.3167506456375122,0.02010504901409149,-0.34939268231391907,-0.1926661729812622,0.24305102229118347,0.5089215636253357,-0.15462017059326172,-1.2867801189422607,0.16588537395000458,-0.45663172006607056,0.20732033252716064,0.32433730363845825,-0.053528182208538055,0.3865775465965271,0.06624205410480499,0.653379499912262,0.0013988092541694641,-0.1936904639005661,-0.0931721180677414,0.48439887166023254,0.31516680121421814,0.41000986099243164,0.020152488723397255,-0.7872726321220398,-0.16819654405117035,0.13283292949199677,1.0918588638305664,0.5609386563301086,0.20361018180847168,-0.4589507281780243,0.13643065094947815,-0.18575018644332886,0.23687614500522614,-0.29106396436691284,-0.2655126750469208,0.8333184719085693,-1.1419930458068848,-0.127361461520195,-0.007798230741173029,-0.2969251275062561,-0.0014274045825004578,0.3228069543838501,-0.11273342370986938,-0.33840814232826233,0.38947704434394836,0.30059829354286194,0.285081148147583,-0.0034410248044878244,-0.5665666460990906,-0.138228178024292,-0.6674797534942627,-0.21833708882331848,-0.25955820083618164,0.048461660742759705,-0.7902016639709473
http://dbpedia.org/resource/United_States_Environmental_Protection_Agency,-0.2825604975223541,-0.8052886724472046,-0.5278958082199097,-0.42815902829170227,0.1269504725933075,-0.08687036484479904,0.4741663336753845,0.3480566442012787,-0.718711256980896,-0.5886396765708923,-0.029237229377031326,-0.20974889397621155,-0.548583447933197,-0.5643118023872375,-0.6817898154258728,1.0477274656295776,-0.32761886715888977,-1.271350383758545,0.17294612526893616,0.007179812528192997,-0.314213365316391,0.2341875582933426,0.04194384068250656,1.391556739807129,-0.20654664933681488,0.5842240452766418,-0.5187612771987915,-0.4031084477901459,-0.9337019920349121,0.34274789690971375,0.3129200339317322,-0.043490611016750336,-0.12003757804632187,-0.1975586712360382,0.4212510883808136,-0.20290562510490417,-0.24718618392944336,0.6028738021850586,0.5455459952354431,0.6298420429229736,-0.6133938431739807,0.3646077811717987,-0.27744531631469727,-0.20517241954803467,-0.08997917175292969,0.9926345944404602,0.09347810596227646,-0.4599108099937439,0.005434704944491386,-0.424784392118454,0.7578126788139343,0.6026137471199036,0.0007418720051646233,0.406842976808548,-0.19591255486011505,-0.5097532272338867,0.17872034013271332,0.936511218547821,0.49687227606773376,-0.35217443108558655,-0.25942671298980713,-0.6676616072654724,-0.5301436185836792,0.6403664350509644,0.05554411560297012,0.05633460357785225,-0.23901735246181488,0.5074728727340698,-0.547731339931488,-0.267501562833786,0.32559943199157715,0.2811049520969391,0.0014915975043550134,-0.08971308916807175,0.2984759211540222,-0.07075837254524231,-0.09762538969516754,0.8339539170265198,-0.2340705543756485,-0.19456268846988678,-0.26006340980529785,0.31726109981536865,0.38874027132987976,0.2871786057949066,-0.09985949844121933,-0.08704641461372375,0.2175661325454712,-0.1935412585735321,-0.3541192412376404,0.579505443572998,-0.03355027362704277,-0.07280689477920532,0.8159473538398743,-0.3799263834953308,0.6181411743164062,0.007875054143369198,0.41569629311561584,0.36976975202560425,-0.03589228168129921,-1.0465164184570312,-0.053713854402303696,0.1382361650466919,0.12450608611106873,-0.2838587760925293,-0.7524752616882324,1.461006999015808,-0.16604071855545044,-0.5851633548736572,-0.05697205662727356,-0.674068033695221,0.2945559024810791,-0.12420724332332611,0.6447139382362366,-0.2688201367855072,-0.2968059480190277,0.6249599456787109,0.058364592492580414,0.2882149815559387,0.27629682421684265,-0.3527364730834961,0.04033786058425903,0.7263249158859253,-0.2600570321083069,0.12658660113811493,-0.5689246654510498,-0.7239701151847839,0.361898809671402,-0.4103139042854309,-0.08583259582519531,-0.7285632491111755,-0.7626501321792603,0.27911877632141113,0.12818598747253418,0.4804436266422272,-0.32071295380592346,0.11927863955497742,-0.2910778522491455,0.4978676438331604,-0.23127193748950958,0.37788745760917664,0.002352283801883459,-0.1675562560558319,0.4257920980453491,-0.9856262803077698,0.5564624667167664,-0.1672266125679016,0.5238592624664307,0.3088277280330658,-0.38140806555747986,0.5125235915184021,-0.4145147204399109,0.374644935131073,-0.7471860647201538,0.04522743821144104,-0.3765697181224823,1.0604742765426636,0.1902218908071518,-0.23779438436031342,0.2862175703048706,0.38991209864616394,0.33834511041641235,0.4159868657588959,0.6755269765853882,0.5048832297325134,0.07292957603931427,-0.09311332553625107,0.25761985778808594,0.024394448846578598,-0.456190824508667,0.18751779198646545,0.016931582242250443,-0.37055274844169617,-0.026120305061340332,0.666965901851654,-0.6426216959953308,0.37544092535972595,-0.03628349304199219,0.5893411636352539,-0.24230778217315674,-0.40464138984680176,0.24061541259288788,0.01306634396314621,-0.2562251687049866,-0.4641778767108917,0.22114811837673187,-0.28369417786598206,0.028638528659939766,-0.7194990515708923,0.4115969240665436,0.06646974384784698,-0.09433859586715698,0.22391054034233093,-0.7126010656356812,0.35379210114479065,0.1650717705488205,-0.8592270016670227,-0.7035536170005798,-0.005395819433033466,0.6371175646781921,0.38933879137039185
http://dbpedia.org/resource/Greenpeace,0.6343780159950256,-0.030967654660344124,-0.10219267010688782,0.8215976357460022,0.377042680978775,0.20897197723388672,0.7267597913742065,0.6327643394470215,0.1605726033449173,-0.40933939814567566,0.20659320056438446,-0.5113595724105835,0.32047826051712036,-0.2144225835800171,-0.8670598864555359,-0.09384480863809586,-0.8123754858970642,-0.3055330514907837,-0.04686223343014717,0.8999433517456055,0.680483877658844,-0.4626583456993103,-0.18045809864997864,0.17461539804935455,-1.2152706384658813,0.016490451991558075,0.10767906159162521,0.32132941484451294,-0.8148727416992188,-0.36300337314605713,0.11451411992311478,0.17358055710792542,0.4515106976032257,-0.7181971073150635,-0.09908860921859741,-0.446130633354187,-0.5585201382637024,-0.046686865389347076,0.5157532691955566,0.26638588309288025,-1.507057547569275,-0.5584054589271545,0.030234403908252716,0.11750845611095428,0.346836119890213,0.38635364174842834,0.3764658272266388,0.34936046600341797,0.020587701350450516,-0.5858115553855896,1.2050431966781616,-0.38468340039253235,-0.7645357847213745,0.589414119720459,0.1798749566078186,0.2633299231529236,-0.3081722855567932,0.6111700534820557,0.35598522424697876,-0.19122542440891266,0.08133206516504288,0.4547617435455322,-0.1090012639760971,-0.7046079635620117,-0.44785115122795105,-0.17594709992408752,0.15525487065315247,0.2831823229789734,-0.1239255890250206,0.010205443017184734,-0.6169277429580688,-0.10440371930599213,0.05820200964808464,-0.2250012308359146,-0.39320072531700134,-0.21007563173770905,-0.06113317236304283,0.15267060697078705,0.14114703238010406,-0.19478724896907806,-0.2761929929256439,0.18487925827503204,0.6502014398574829,0.014914697967469692,0.7789459824562073,0.10190548747777939,-1.2623554468154907,-0.631301999092102,-0.3538942337036133,0.7456484436988831,0.17784132063388824,0.41672924160957336,-0.2980130910873413,-0.11607306450605392,0.5435120463371277,-0.542698323726654,1.0960676670074463,0.2980766296386719,-0.39759835600852966,-0.3713498115539551,1.0859203338623047,-0.9509074687957764,0.3000601530075073,-0.40249985456466675,-0.2713584303855896,1.2232060432434082,0.4469045102596283,-0.4390149414539337,-0.4534810185432434,0.1148824542760849,0.3087102174758911,-0.41538625955581665,-0.3704351782798767,0.17191237211227417,0.6772061586380005,-0.07069867104291916,-0.4919816851615906,0.675466001033783,-0.07950840890407562,0.3860062062740326,-0.2773929536342621,0.5223148465156555,-0.11441104114055634,0.45243486762046814,-0.19077467918395996,-0.23877732455730438,0.2388378083705902,-0.6223491430282593,0.015070559456944466,0.314727246761322,-0.5172147154808044,0.40884238481521606,0.5144949555397034,-0.43306612968444824,-0.1308215856552124,0.40606027841567993,-0.284714937210083,0.560989499092102,-0.8185850977897644,-0.4607631266117096,-0.3367186486721039,0.235600546002388,0.2052435725927353,-0.4838375747203827,0.8926758170127869,-0.10408186912536621,-0.4858407974243164,0.6906088590621948,0.4852944612503052,-0.22667370736598969,-0.5828115344047546,0.32042428851127625,-0.9599878787994385,0.7833064198493958,0.37744948267936707,1.471563458442688,0.5015814304351807,-0.052846845239400864,0.24861088395118713,0.840977668762207,0.4948071539402008,0.26194748282432556,-0.16743004322052002,0.398912250995636,0.24672888219356537,0.03403867781162262,0.11148031800985336,0.861122727394104,-0.6441657543182373,0.2010553777217865,0.05942285805940628,-0.10969116538763046,-0.28881895542144775,-0.13080643117427826,-0.0449734665453434,0.19811312854290009,-0.9376392960548401,0.656265914440155,0.6617307066917419,0.37400487065315247,0.3962193429470062,0.09051813185214996,-0.1805277019739151,-0.2436549812555313,0.03641100972890854,-0.3836069405078888,0.12054798007011414,0.18202205002307892,-0.32763803005218506,0.397410124540329,1.0652074813842773,0.4488980770111084,-0.5102980732917786,0.45345935225486755,0.4009075164794922,-1.0339171886444092,-0.10935898125171661,0.1414056122303009,-0.8440378308296204,-0.23192554712295532
http://dbpedia.org/resource/Ginza,-0.1490522176027298,-0.2541435956954956,-0.005714656785130501,-0.11157006025314331,-0.020173626020550728,0.4455084502696991,0.5477505922317505,0.7856510281562805,0.0928550437092781,-0.6656512022018433,-0.4571230709552765,0.11065562069416046,0.32754358649253845,-0.03039378672838211,-0.2266283929347992,0.01824144646525383,-0.49155864119529724,0.2197735458612442,0.4541810154914856,0.3051585555076599,0.01409858651459217,0.17206275463104248,-0.2777101695537567,0.9607986211776733,-0.3167113959789276,0.18778398633003235,-0.0023532318882644176,0.4273659288883209,0.437604159116745,-0.025726567953824997,-0.22867418825626373,-0.44326114654541016,0.18078382313251495,-0.3670838475227356,-0.4641728103160858,0.14426195621490479,-0.5855908393859863,-0.21014702320098877,-0.5949462652206421,-0.34718045592308044,-0.5828531384468079,-0.03435482829809189,0.3642360270023346,0.12043412029743195,0.12547989189624786,0.21042852103710175,-0.0007888469262979925,0.295270174741745,0.06532955914735794,0.16686120629310608,1.0055654048919678,-0.3285906910896301,-0.22416411340236664,-0.494671106338501,-0.061001136898994446,-0.21209365129470825,0.07954247295856476,-0.008855804800987244,-0.3364889621734619,0.057840920984745026,0.23173834383487701,0.1583336740732193,-0.21432848274707794,0.3446309566497803,-0.29280564188957214,0.4338262975215912,-0.02864810638129711,1.1129870414733887,-0.6475775837898254,-0.0016198639059439301,-0.45443210005760193,0.9253361225128174,-0.9138443470001221,-0.32322874665260315,-0.7574502825737,0.054888926446437836,0.2359241396188736,0.8758455514907837,-0.10010525584220886,-0.11521544307470322,0.655741810798645,-0.4020538926124573,0.14779286086559296,-0.4075142741203308,0.19270922243595123,0.6352812647819519,-0.29654911160469055,-0.36761075258255005,-0.28498518466949463,0.21541805565357208,0.503748893737793,0.12633925676345825,-0.11193254590034485,-0.23692049086093903,-0.4761181175708771,-0.22070834040641785,0.22514870762825012,0.7177537083625793,-0.15715903043746948,-0.23850642144680023,-0.13212835788726807,0.6700200438499451,0.2388220727443695,0.45980527997016907,-0.4036966562271118,0.8603149056434631,0.205381378531456,-0.6055988073348999,-0.2914499342441559,0.7266567945480347,-0.14444275200366974,-0.14603474736213684,-0.4804438054561615,0.020165512338280678,-0.224017933011055,-0.4548613429069519,0.44997408986091614,-0.10109125077724457,-0.2542259991168976,-0.38455885648727417,-0.3562813401222229,0.13733983039855957,0.049386244267225266,0.5085106492042542,-0.30816641449928284,-0.005683307070285082,0.44991111755371094,-0.1322365254163742,-0.014890278689563274,-0.24773286283016205,0.05074453726410866,1.0323797464370728,-0.6064318418502808,-0.19480903446674347,-0.11119639873504639,0.268756628036499,0.10543090850114822,-0.2783246338367462,-0.0024954937398433685,0.6212961673736572,0.46063804626464844,0.31307169795036316,-0.04329672455787659,-0.078617163002491,-0.5967376828193665,0.43471091985702515,0.18044951558113098,0.5422410368919373,0.28788670897483826,-0.5861153602600098,-0.16215650737285614,-0.4856259822845459,-0.03795440122485161,-0.6337281465530396,0.04802914336323738,0.46546587347984314,0.37409770488739014,-0.5503301620483398,0.5508290529251099,-0.3752458095550537,0.06887481361627579,-0.7426010966300964,-0.6000351309776306,0.15284402668476105,-0.3581794500350952,-0.11230314522981644,-0.4124317467212677,0.31162184476852417,-0.8893322348594666,-0.07957763224840164,0.327955037355423,0.4238758385181427,-0.17045187950134277,0.1043691337108612,0.06618203222751617,0.03448133170604706,-0.376375675201416,0.015324261970818043,0.466068297624588,-0.5291614532470703,0.13130950927734375,-0.24402981996536255,-0.11585164815187454,-0.05439979210495949,0.48744848370552063,0.5808481574058533,0.30592525005340576,0.28069230914115906,-0.34738361835479736,1.0362367630004883,1.5646564960479736,-0.17243030667304993,0.02557223290205002,0.7138983011245728,0.13529901206493378,-0.5637397170066833,-0.21001173555850983,0.1988779902458191,-0.2028650939464569,-0.8301748633384705
http://dbpedia.org/resource/Sears,-0.029209095984697342,0.018151594325900078,0.18768490850925446,0.29050666093826294,0.43998777866363525,-0.7030611038208008,0.9682415127754211,-0.3773873746395111,0.29333510994911194,-0.044030629098415375,-0.7738295793533325,-0.11024704575538635,0.11179205775260925,-0.397883802652359,0.08547889441251755,0.2680467963218689,-0.10027909278869629,0.5979584455490112,-0.2641141414642334,0.07658572494983673,-0.32119837403297424,0.08581006526947021,0.6111019253730774,0.033696286380290985,-0.09620599448680878,0.4923296272754669,0.48145270347595215,0.03812076896429062,-0.008769528940320015,1.0686577558517456,0.5711773633956909,-0.353035569190979,-0.061660103499889374,-0.44705745577812195,-0.9355197548866272,-0.1619628220796585,-0.12632310390472412,-0.0720057338476181,0.4342021942138672,0.13008029758930206,0.007686949335038662,0.16890859603881836,-0.7406357526779175,0.1496567726135254,0.07932968437671661,0.6326391696929932,-0.5570758581161499,-0.17160716652870178,0.09733612090349197,0.030426859855651855,0.014050785452127457,-0.4117678701877594,-0.36409175395965576,-0.05331282317638397,-0.335531622171402,-0.02955053374171257,-0.2153046727180481,-0.31314000487327576,0.4017772078514099,-0.07787822186946869,-0.3967360556125641,0.5569325685501099,0.12446685135364532,0.46207836270332336,0.0920923724770546,0.17724645137786865,-0.2997392416000366,0.1796497106552124,-0.636224627494812,0.28594908118247986,-0.6304183006286621,-0.04550347104668617,-0.014784427359700203,0.17974981665611267,-0.30273348093032837,-0.12905636429786682,-0.30519938468933105,0.3685353696346283,-0.17670388519763947,-0.3334692418575287,-0.0651676207780838,0.20448513329029083,-0.4142375886440277,0.21925580501556396,0.14403504133224487,0.10630230605602264,-0.28313586115837097,-0.17050230503082275,0.24091310799121857,-0.6104485988616943,-0.19987118244171143,0.2461167871952057,0.18134596943855286,-0.1557082235813141,0.28423187136650085,0.377480149269104,0.08460928499698639,-0.15841427445411682,-0.1375102400779724,-0.3469432294368744,-0.21068952977657318,-0.3397413194179535,0.5349894762039185,-0.1228700652718544,1.2095955610275269,0.5650726556777954,-0.3038191795349121,-0.5178130269050598,-0.396616667509079,1.0637357234954834,-0.014501674100756645,-0.1405673772096634,-0.23850439488887787,-0.06695053726434708,0.5712978839874268,0.41067516803741455,0.4718272387981415,-0.22569839656352997,-0.3790578842163086,0.06654606014490128,0.007260939572006464,-0.06611011922359467,-0.0019279869738966227,-0.09772531688213348,-0.5655587315559387,0.3464197516441345,-0.22718846797943115,-0.7616289854049683,0.23344308137893677,-0.8511365652084351,0.29833918809890747,0.5004133582115173,0.22512851655483246,0.4203113317489624,-1.4724076986312866,0.14001904428005219,-0.1746542751789093,-0.377549409866333,0.6887841820716858,-0.4574667811393738,0.5387665629386902,0.06509186327457428,0.14775928854942322,0.1517491489648819,0.22134046256542206,0.36034271121025085,-0.18463796377182007,0.5886173844337463,-0.24532482028007507,-0.4652157425880432,-0.8227634429931641,0.31284937262535095,-1.2928507328033447,-0.3504026234149933,0.1630568504333496,0.07334724813699722,-0.6318438053131104,-0.22615814208984375,0.5379683971405029,-0.0592457577586174,0.3911972641944885,0.3034995496273041,-0.14203785359859467,0.18586473166942596,-0.3926958739757538,-0.11359059810638428,-0.1574210673570633,-0.1846453845500946,-0.3102480173110962,-0.2523435950279236,-0.1935509592294693,0.5947262048721313,0.5838796496391296,-0.2436334490776062,0.16839757561683655,-0.13070987164974213,-0.3605652153491974,0.30775538086891174,-0.5145291686058044,-0.2465715855360031,0.019733648747205734,0.36726123094558716,-0.7417773008346558,-0.359699010848999,0.24644359946250916,0.03744886443018913,0.035641513764858246,0.36114057898521423,0.004930844996124506,0.19466140866279602,0.5512314438819885,0.4399912655353546,-0.9227957129478455,0.3994923233985901,0.9957077503204346,-1.1783300638198853,0.029942510649561882,-0.42828530073165894,0.5469653606414795,-0.9289878010749817
http://dbpedia.org/resource/Ford_Motor_Company,-0.6210781335830688,0.41050055623054504,1.654965877532959,0.5011339783668518,0.09788335859775543,0.2080729603767395,0.7677764892578125,0.25762104988098145,0.12186653167009354,0.05930843949317932,-0.1788087785243988,0.3546657860279083,-0.0430128388106823,-0.648571789264679,-0.3049684762954712,0.15735432505607605,1.6067169904708862,-0.5798998475074768,-0.08115477859973907,-0.06530088931322098,-0.6339653730392456,1.0078073740005493,0.2452678233385086,0.7384750247001648,-0.4614332318305969,0.8082283139228821,-0.4395813047885895,-0.4191347658634186,-0.2596825659275055,-0.401283323764801,1.608797311782837,0.7063170671463013,0.15506717562675476,-0.627220094203949,-0.8335484266281128,0.5443570613861084,0.3509938418865204,-0.06676723808050156,-0.3283800780773163,0.2932244837284088,-0.23402395844459534,-0.26432621479034424,0.37649112939834595,-0.38622844219207764,0.582441508769989,-0.5193029046058655,-0.008572477847337723,0.6376839280128479,0.7403668165206909,0.1717313677072525,-0.168035626411438,-0.3596495985984802,-0.9454331398010254,-0.024525774642825127,-0.08424500375986099,-0.4121631979942322,0.15414319932460785,0.3131883442401886,0.1674971878528595,-0.029430197551846504,-0.4171333312988281,-0.32549551129341125,0.445330947637558,-0.12258028984069824,-0.023899223655462265,-0.1467292457818985,0.09080376476049423,0.48378920555114746,0.4623078405857086,0.20536507666110992,-0.33437544107437134,-0.004626506939530373,0.10641750693321228,-0.7129331827163696,-0.5494459867477417,0.2510368227958679,-0.6924582123756409,-0.008768084459006786,0.7763098478317261,0.3568277060985565,-0.4712275266647339,0.8399533629417419,-0.6956280469894409,0.48590323328971863,-0.7612989544868469,0.9656692147254944,-0.25564491748809814,-0.4766223132610321,-0.49606817960739136,0.7113339304924011,-0.3554847538471222,0.8542706370353699,-0.10466387867927551,0.6715356111526489,0.28496378660202026,-1.5355346202850342,-0.42274096608161926,-0.019408969208598137,-0.7583271861076355,-1.0360113382339478,0.8639634251594543,0.44064557552337646,0.09404705464839935,-0.2977886497974396,-0.5433719158172607,0.7994348406791687,-0.5850850939750671,-0.42991378903388977,-1.175819993019104,0.12024427205324173,0.03219186142086983,0.6652641892433167,0.06968339532613754,0.668080747127533,0.3746960163116455,-0.07059163600206375,-0.5973209142684937,0.767031192779541,0.6246106624603271,0.23067080974578857,0.11100514978170395,0.42191824316978455,-0.5998693704605103,0.4207630455493927,-0.6054753065109253,0.694804310798645,-0.9343352913856506,-0.8933131098747253,0.4778231978416443,0.13629211485385895,-0.469671368598938,0.008174167014658451,0.5428762435913086,-0.5295184254646301,1.2891414165496826,0.7557500004768372,0.5374565720558167,-0.02319147065281868,0.8687174916267395,0.9132687449455261,-0.5297583341598511,-0.27236032485961914,-0.6224555969238281,-0.12782022356987,-0.2818284332752228,0.21044544875621796,-0.15644094347953796,0.7554740309715271,-1.0791372060775757,-0.19152754545211792,0.19094553589820862,-0.11851438134908676,-0.33928945660591125,-0.1524847000837326,-0.023126991465687752,0.3455767333507538,0.018694188445806503,-0.7545725703239441,0.27250659465789795,-0.5723600387573242,-0.5086011290550232,-0.5166682004928589,-0.3945351839065552,0.07173244655132294,-0.31000223755836487,0.2637963891029358,1.362918496131897,-0.6427151560783386,-0.33993619680404663,0.16737395524978638,-0.476950466632843,0.027660632506012917,0.9554473161697388,0.2935381531715393,0.29950734972953796,0.7415151000022888,0.40377873182296753,0.12671594321727753,0.6353358626365662,0.04251048341393471,0.5256543159484863,0.19604822993278503,-0.526529848575592,0.6097928285598755,0.9935266375541687,0.23743832111358643,0.45387110114097595,0.5482849478721619,0.9275524020195007,-0.45574766397476196,0.10570249706506729,-0.10102876275777817,-0.042255230247974396,-0.5202922821044922,-0.24867908656597137,-0.7519726753234863,-0.2752951979637146,0.12106180191040039,0.1555783897638321,-0.4490932524204254
http://dbpedia.org/resource/Google,-0.6628780364990234,0.2813711166381836,0.4652445316314697,0.43313807249069214,-0.2532827854156494,0.6428313255310059,1.1641651391983032,0.0018542127218097448,-0.30432385206222534,0.1866476833820343,-0.64422607421875,0.18090173602104187,-0.06309560686349869,0.9060957431793213,-0.4667128622531891,0.5811841487884521,1.3342639207839966,-0.2264009416103363,0.6586037874221802,0.8697007298469543,-0.004395052790641785,-0.30984947085380554,-0.21645589172840118,1.0174423456192017,0.08603843301534653,0.6615339517593384,0.03459412232041359,-0.17556236684322357,0.3056628406047821,-0.18678846955299377,1.0258287191390991,0.5081060528755188,-0.07647115737199783,0.14778342843055725,-0.06557180732488632,0.6148163676261902,-0.5982303023338318,-0.15138761699199677,-0.6014188528060913,0.13868947327136993,-0.07914350181818008,0.11809799820184708,-0.6170441508293152,-0.2818576395511627,0.509402334690094,0.7701010704040527,-0.3029410243034363,0.2669549882411957,0.05566256865859032,-0.28648683428764343,-0.7989858984947205,-0.18240706622600555,0.26194536685943604,0.010851224884390831,-0.17262226343154907,-0.13697242736816406,0.017453650012612343,0.3872162699699402,1.007846713066101,-0.2147987186908722,-0.048603519797325134,0.8138113021850586,-0.5538172721862793,-0.1987059861421585,0.2560369074344635,1.0893570184707642,-0.7133979201316833,0.5350268483161926,0.6936755776405334,-0.7727364301681519,0.3317764103412628,-0.8913332223892212,-0.1353040635585785,-0.6282220482826233,0.6844644546508789,-1.092525601387024,0.6438175439834595,1.4929603338241577,1.4065767526626587,-0.0698152557015419,-0.4160265326499939,0.28588706254959106,0.3757002353668213,-0.1972397267818451,0.654390811920166,0.801935613155365,-0.676453173160553,-0.25120508670806885,-0.17946016788482666,0.05723552033305168,-0.505513608455658,0.7041501998901367,-0.6498648524284363,0.917809247970581,0.4341610074043274,-0.42835909128189087,-0.508233904838562,-0.23183540999889374,-0.34097200632095337,-0.6929426193237305,-0.22816823422908783,0.07245483249425888,-0.36399057507514954,0.7065126299858093,-0.5247195959091187,0.993353545665741,0.9458032846450806,0.26872768998146057,0.1823851615190506,-0.22570380568504333,-0.21020713448524475,0.7150450348854065,-0.12130006402730942,-0.06282958388328552,-0.29387685656547546,-0.5255205631256104,0.36358705163002014,0.736793041229248,-0.19979795813560486,-0.2525603473186493,-0.39254069328308105,0.7695971131324768,0.06515459716320038,-0.24019576609134674,-0.9231509566307068,-0.13132363557815552,-1.0742652416229248,-0.5545229911804199,0.8624606132507324,-0.9683236479759216,-0.34852665662765503,0.5066485404968262,-0.00595597131177783,-0.396694153547287,0.3900267779827118,0.8178844451904297,0.41397860646247864,-0.282597154378891,-0.015754468739032745,1.107654333114624,-0.7930778861045837,0.09567040950059891,-0.8467509150505066,0.07464459538459778,1.2006372213363647,0.49019718170166016,-0.13817241787910461,1.2363369464874268,-0.19850580394268036,0.7689619064331055,-0.15090374648571014,-0.04585481062531471,-1.1024614572525024,-0.10220561921596527,0.17981447279453278,0.3032642602920532,0.37948092818260193,0.1499524563550949,0.7302192449569702,-0.27159103751182556,-0.2829032242298126,0.09875408560037613,0.4077952802181244,1.0773895978927612,-0.23514750599861145,0.6053973436355591,0.22508594393730164,0.1247684434056282,-0.6977919340133667,-0.19480668008327484,-0.30890145897865295,-0.5471298694610596,0.8641887307167053,0.5845179557800293,-0.26970145106315613,0.6619997024536133,-0.45476284623146057,-1.068960189819336,-0.5025410056114197,-0.5958516001701355,0.6723366975784302,-0.5643120408058167,-0.047845508903265,-0.4912101924419403,-1.1871775388717651,0.2639963924884796,0.15036903321743011,0.41514691710472107,-0.5875823497772217,0.02966027520596981,0.5295660495758057,0.7815514206886292,-0.4856482744216919,0.15314948558807373,-0.28035905957221985,-0.7065470814704895,-0.1445772349834442,-0.46641215682029724,0.3777278661727905,-0.5153402090072632
http://dbpedia.org/resource/Larry_Page,-0.8287273645401001,0.09651041030883789,0.42689284682273865,0.37394827604293823,0.14207857847213745,-0.412239670753479,1.1757581233978271,0.3160114884376526,0.33491063117980957,0.08157224208116531,-0.6845149993896484,-0.7256869673728943,-0.5125842094421387,-0.3475731909275055,-0.2644158601760864,0.50078946352005,0.4031101167201996,0.1054815724492073,0.14473897218704224,0.8000960350036621,0.5050186514854431,-0.024584569036960602,-0.13300924003124237,0.06683345139026642,0.46153610944747925,-0.03132988512516022,-0.15485095977783203,0.012025855481624603,-0.08617566525936127,-0.40618395805358887,0.7613360285758972,0.31365838646888733,-0.6479805111885071,-0.28833305835723877,0.6040164232254028,-0.21523602306842804,-0.4817500710487366,-0.04969075694680214,0.05236418917775154,-0.7543493509292603,-0.8401391506195068,-0.1173703670501709,-0.32601866126060486,-0.23627205193042755,0.9401078224182129,0.7865465879440308,-0.021487416699528694,0.06203167513012886,0.2034202516078949,-0.12165062129497528,-0.6170077919960022,-0.01857089251279831,-0.6829796433448792,-0.286333292722702,0.20316679775714874,0.3102349638938904,0.6708908081054688,0.7539291977882385,0.5861291289329529,-0.31363603472709656,0.30274519324302673,0.5257787108421326,-0.8574273586273193,-0.7547075748443604,0.23666726052761078,0.9304577112197876,-0.4098667502403259,0.3492090702056885,-0.4115259647369385,-0.2286662608385086,0.03855074197053909,0.13918602466583252,0.19894813001155853,-0.9453442692756653,0.16269133985042572,-0.6508523225784302,0.17450757324695587,0.2527170181274414,0.6272070407867432,0.07747793197631836,0.23231390118598938,0.5878542065620422,0.07578212022781372,-0.29839470982551575,0.06684785336256027,0.10174502432346344,-0.6881664395332336,0.2460014522075653,-0.16570156812667847,0.5221483707427979,0.15081427991390228,0.45156747102737427,-0.8102980256080627,0.05841555818915367,0.3493867814540863,-0.11113808304071426,0.34387558698654175,-0.04728395864367485,-0.1550518125295639,-0.4129425883293152,0.7353078126907349,-0.13300485908985138,0.7224292159080505,0.8517281413078308,-0.5232660174369812,0.9480884075164795,0.2921185791492462,-0.3130376935005188,0.017154010012745857,0.3085343539714813,-0.45335254073143005,-0.31235313415527344,-0.1595500260591507,0.5903176665306091,0.2823570966720581,0.018756264820694923,-0.7616543769836426,0.18499194085597992,0.5520549416542053,-0.5114311575889587,-0.14951129257678986,0.6980970501899719,0.2018294632434845,0.18733593821525574,-0.48644548654556274,0.3106769025325775,-0.26642516255378723,0.05007509887218475,0.337730348110199,-0.3142479360103607,-0.05173100531101227,0.07495678216218948,0.2108200639486313,-0.04517238214612007,-0.1003953143954277,0.06574931740760803,0.30515816807746887,0.2483993023633957,0.3660445213317871,0.7760930061340332,-0.11068227887153625,-0.1092776507139206,-0.05106262490153313,-0.22173994779586792,0.33325693011283875,0.6210750341415405,0.5072648525238037,0.37419551610946655,0.5446841716766357,0.3786567747592926,0.510718047618866,0.41699886322021484,-1.3122549057006836,-0.2277689129114151,-0.058067016303539276,0.20115932822227478,0.06369597464799881,0.048635851591825485,0.12707854807376862,-0.47126999497413635,-0.23858828842639923,0.1137300357222557,0.03491338714957237,-0.16675536334514618,-1.1229197978973389,-0.16311827301979065,0.03164885565638542,-0.13745899498462677,-1.1149227619171143,-0.015656132251024246,-0.2396867573261261,-0.33981701731681824,-0.07650317251682281,0.40374863147735596,0.3270684480667114,0.20580555498600006,-0.17891855537891388,-0.24523863196372986,-0.11621501296758652,-0.004939015954732895,0.19257082045078278,-0.6409042477607727,0.3271409273147583,-0.43907150626182556,-0.7447908520698547,-0.17042410373687744,-0.46490177512168884,0.2010963410139084,-0.4989064335823059,0.2226465344429016,0.9040299654006958,0.01471131294965744,-0.28708451986312866,0.1794690638780594,0.26284217834472656,-0.8486766815185547,-0.2426551878452301,-0.43209773302078247,-0.28188520669937134,-0.38079768419265747
http://dbpedia.org/resource/Sergey_Brin,-0.33660298585891724,-0.21775227785110474,0.2760578691959381,0.3587847054004669,0.45402929186820984,-0.09070631861686707,0.8230181932449341,0.2310156226158142,0.08097520470619202,0.16500596702098846,-0.38715431094169617,-0.6614636778831482,-0.29473748803138733,-0.33999714255332947,0.2580980658531189,0.5297585725784302,0.1719348281621933,-0.15407335758209229,0.11729130893945694,0.01436604093760252,0.26692259311676025,-0.3418821692466736,0.1598038524389267,0.2593444287776947,-0.5360732674598694,-0.39377662539482117,0.1640201359987259,-0.11771536618471146,0.05504783242940903,-0.30334949493408203,0.7596036791801453,0.22509467601776123,-0.2607424259185791,-0.13138286769390106,0.06438937783241272,-0.4635746479034424,-0.47191017866134644,0.3022754490375519,-0.39186519384384155,-0.5703372359275818,-0.8038425445556641,0.13731853663921356,-0.16101501882076263,0.17273379862308502,0.43536534905433655,0.15118640661239624,0.11706129461526871,0.005219620186835527,-0.17330710589885712,-0.028761286288499832,-0.6318530440330505,-0.40374335646629333,-0.3729041814804077,-0.4953685998916626,-0.03611738607287407,0.16175155341625214,0.30697229504585266,0.2348247915506363,0.44211462140083313,-0.06293797492980957,-0.15577027201652527,0.10096518695354462,-0.9625509977340698,-0.38618987798690796,0.38666561245918274,0.9433313608169556,-0.05728130787611008,0.2953854203224182,-0.44033363461494446,-0.5500190854072571,-0.012525309808552265,0.06813337653875351,0.3292969763278961,-1.0640455484390259,0.5454359650611877,-0.8857325315475464,-0.3464411795139313,0.5339242815971375,0.4457668364048004,-0.31969478726387024,-0.279277503490448,0.23188075423240662,0.03357825428247452,-0.29847070574760437,0.21611857414245605,0.25048235058784485,-0.19448529183864594,-0.08826080709695816,0.18204264342784882,0.7890868782997131,-0.2571852207183838,0.5283747315406799,-0.7131200432777405,0.36275941133499146,0.08098050951957703,0.049484338611364365,-0.18476611375808716,-0.242695152759552,0.14405150711536407,-0.21007876098155975,0.49199023842811584,-0.1702754944562912,0.5866108536720276,0.5959833860397339,-0.5536831021308899,0.6847537159919739,0.3481043577194214,-0.7358073592185974,-0.13770948350429535,-0.028511501848697662,-0.04278303310275078,0.4095202386379242,-0.05874248594045639,0.4254370331764221,0.11735691875219345,-0.2203158140182495,-0.7515841722488403,0.2219250500202179,0.07944780588150024,0.13084575533866882,0.18735210597515106,0.9089159965515137,-0.0386476069688797,-0.09841835498809814,-0.2641489803791046,0.528398334980011,-0.38601967692375183,-0.1776014268398285,0.2725742757320404,-0.8201330304145813,-0.05943608283996582,0.42575594782829285,-0.04991375282406807,0.15058425068855286,0.08525485545396805,0.10387781262397766,0.4951857626438141,0.2059212177991867,0.4459837079048157,0.717604398727417,-0.41515403985977173,-0.19500823318958282,-0.05130232125520706,0.016112126410007477,0.5169590711593628,0.2147941142320633,0.2627200484275818,0.5980396866798401,0.3403985798358917,0.2065717577934265,0.5756260752677917,-0.25748109817504883,-0.8189032673835754,-0.6456462740898132,0.2512257695198059,0.2881034016609192,-0.20671957731246948,-0.04661238566040993,0.6224184036254883,-0.11792150139808655,-0.38348454236984253,0.19349300861358643,0.6658146977424622,0.29671889543533325,-0.3602098226547241,0.33839109539985657,-0.3833203613758087,0.05039520561695099,-1.19629967212677,0.020080631598830223,-0.13381458818912506,-0.45402640104293823,0.3219037353992462,0.6445881724357605,0.25307488441467285,0.5564554929733276,-1.2150213718414307,-0.150348499417305,0.21206340193748474,-0.21436211466789246,-0.22101566195487976,-0.3365951478481293,-0.02013428881764412,-0.19906869530677795,-0.6116890907287598,-0.09666866064071655,0.25475892424583435,-0.16677986085414886,-0.2974620759487152,0.3625319302082062,0.6591404676437378,0.2112874984741211,-0.2748386859893799,-0.6118495464324951,-0.047833286225795746,-0.34984633326530457,0.044862378388643265,-0.34137415885925293,-0.5435547232627869,-0.3784220218658447
