http://dbpedia.org/resource/Apple_Inc.,0.1350928544998169,0.4954734742641449,0.41709041595458984,-0.22965435683727264,-0.6429128646850586,0.018459049984812737,-0.6398213505744934,-0.3038017451763153,0.09842916578054428,0.39379894733428955,-0.5748407244682312,-0.04641757905483246,-0.7093518376350403,-0.7289764881134033,0.3880433440208435,0.5133723616600037,1.1784248352050781,-0.05268623307347298,-0.359285444021225,0.20801471173763275,-0.7582383751869202,-0.021723676472902298,0.36409473419189453,0.25191259384155273,-0.021671203896403313,0.43607068061828613,0.6686658263206482,-0.0960918739438057,-0.29042595624923706,0.28641238808631897,-0.21164476871490479,-0.4926016926765442,-0.25815996527671814,0.1931506097316742,-0.049719080328941345,-0.5388650298118591,-0.00588805228471756,0.6661971211433411,0.4503389596939087,0.24944235384464264,0.4604628086090088,0.1967563033103943,-0.30717068910598755,0.6318981647491455,-0.0032530513126403093,-0.0005213113036006689,0.026636742055416107,0.4653952121734619,-0.8679602146148682,-0.04881097376346588,-0.43611276149749756,-0.173972025513649,0.014005566015839577,-0.9645424485206604,-0.7872400283813477,0.6069633960723877,0.484441876411438,0.050126150250434875,-0.2906782627105713,0.06652457267045975,0.3227740526199341,0.04397326707839966,0.15802541375160217,-0.6069405674934387,-0.7564758658409119,-0.48853594064712524,0.047104667872190475,0.2616424262523651,-0.2985589802265167,-0.06310608983039856,0.3383515179157257,-0.3094083070755005,0.2923320233821869,-0.5760058164596558,-0.8263848423957825,-0.4224775433540344,0.6490564346313477,-0.03396802395582199,-0.0076302126981318,-0.6419077515602112,-0.09967046976089478,-0.37224188446998596,0.009642304852604866,0.11445905268192291,-0.3119394779205322,-0.19647766649723053,-0.5339992642402649,-0.17725080251693726,0.3231041729450226,0.3808921277523041,-0.23548482358455658,0.16916756331920624,0.04834643006324768,0.08748304098844528,0.0036489020567387342,-0.43320709466934204,-0.3449927866458893,-0.48791414499282837,0.03551274538040161,0.03612150251865387,-0.5867878198623657,-0.1637324094772339,-0.4323510229587555,0.16295018792152405,0.20656585693359375,-0.1273440569639206,0.046037737280130386,-0.43948549032211304,-0.3784219026565552,-0.16716179251670837,0.43180909752845764,-0.049139901995658875,-0.08986049145460129,0.485494464635849,0.500251829624176,-0.1902303248643875,0.29940977692604065,0.39872226119041443,-0.6469905972480774,0.11352233588695526,0.13782943785190582,0.2587301731109619,-0.429068922996521,0.08652278035879135,-0.16545738279819489,0.13160943984985352,0.29429665207862854,0.5413629412651062,-0.3806990087032318,-0.3919053077697754,0.0990913137793541,0.3261246085166931,-0.07874254882335663,-0.49479398131370544,0.6242213249206543,-0.14219842851161957,-0.12476570904254913,-0.3299039602279663,-0.41393935680389404,-0.7108839154243469,-0.4811333119869232,-0.3059043288230896,-0.019584648311138153,-0.16767817735671997,-0.2759332060813904,0.7400261163711548,0.7142114043235779,-1.386881709098816,0.42375755310058594,0.733775794506073,0.4943452477455139,0.15128694474697113,0.11038368195295334,-0.22161461412906647,0.007242962718009949,0.20901459455490112,-0.01944587007164955,-0.37080785632133484,0.12179630249738693,0.016432618722319603,0.1349986344575882,-0.856893002986908,0.7581396102905273,0.45790398120880127,0.5711419582366943,-0.04354378208518028,0.06878859549760818,0.6710283756256104,-0.11975714564323425,-0.21561801433563232,0.3266351521015167,-0.06651141494512558,0.23766471445560455,-0.17617517709732056,0.24248507618904114,0.24296052753925323,0.4178377687931061,0.04710709676146507,0.4752868413925171,0.2879854142665863,0.337399423122406,0.03546445071697235,0.22236432135105133,-0.2843705713748932,-0.34902423620224,0.5238434076309204,-0.1983819305896759,0.10843535512685776,0.21047410368919373,0.5136240124702454,0.5996288657188416,0.5333855152130127,-0.2979409694671631,-0.32791784405708313,0.771277129650116,0.3899424076080322,-0.4934656620025635,0.3150881230831146,-0.013913629576563835,-0.4066707491874695,0.006185342092067003,-0.33173754811286926,-0.17878161370754242,0.20627841353416443,-0.2903951108455658,1.1114652156829834,0.12270445376634598,0.20763252675533295,0.7076822519302368,-0.5128830075263977,-0.35649701952934265,-0.0741802304983139,0.1867949664592743,0.1869494467973709,0.035263996571302414,-0.09856487065553665,0.4451805055141449,-0.1073780283331871,-0.09781695157289505,-0.5857139229774475,-0.44057244062423706,0.8289461731910706,-0.5243635773658752,0.0789046660065651,-0.38954898715019226,0.15329235792160034,0.8194742798805237,-0.4684935510158539,-0.40384820103645325,-0.19649222493171692,-0.2069176584482193,-0.22866979241371155,0.5269748568534851,-1.0338865518569946,0.7601559162139893,-0.21508367359638214,0.6236969828605652,0.10846614837646484,0.09687410295009613,0.3411979377269745,-0.5078525543212891,-0.6623478531837463,-0.34433141350746155,0.24628283083438873,-0.13947589695453644,-0.1308324635028839,0.8224167227745056,0.051695458590984344,0.0019310055067762733,0.9616715312004089,0.1963014155626297,-0.7610152959823608,-0.4456135630607605,-0.03091505914926529,0.3709266781806946,-0.2962264120578766,0.375995397567749,-0.4508896768093109,-0.20389102399349213,0.36377450823783875,-0.009765474125742912,0.4852335751056671,-0.26684632897377014,0.5092670321464539,0.33767688274383545,0.03130025044083595,-0.6532089114189148,-0.27190932631492615,0.8813098073005676,-0.5680145621299744,0.5107783675193787,-0.3526097536087036,-0.09390310198068619,-0.18782614171504974,-0.6295247673988342,0.32162371277809143,0.22858822345733643,0.9414960145950317,0.0717359110713005,-0.05421806126832962,0.25387880206108093,-0.7433677911758423,0.5528100728988647,0.058393798768520355,-0.22662021219730377,-0.3905113935470581,0.04927822947502136,0.017494387924671173,-0.565248966217041,-0.113163061439991,0.33438774943351746,0.1991649717092514,0.009974147193133831,0.2617739737033844,0.03888780623674393,-0.0670139417052269,-0.02028511092066765,-0.18832549452781677,0.40377700328826904,0.395450234413147,-0.2877376973628998,0.37207427620887756,0.3075468838214874,0.6363614201545715,-0.29743990302085876,0.17758136987686157,0.06288907676935196,0.11243599653244019,0.2740279734134674,0.8640027046203613,-0.16181327402591705,-0.3149092495441437,-0.3094063699245453,-0.2217620462179184,0.363314688205719,0.3203457295894623,0.2621661424636841,0.32334333658218384,0.2535571753978729,0.3738015592098236,-0.3833417296409607,-0.17466968297958374,-0.5783963799476624,-0.23543614149093628,0.061942052096128464,0.10976934432983398,-0.23796358704566956,-0.23385322093963623,0.6041889190673828,0.006319606676697731,0.6596377491950989,0.3876233994960785,0.6189559698104858,0.014990661293268204,0.6975001692771912,0.5975499749183655,-0.2265799641609192,-0.15789054334163666,0.37454700469970703,0.490397185087204,0.3000405430793762,-0.43149563670158386,0.17978116869926453,0.02304905280470848,0.6139528751373291,0.22388088703155518,0.29349634051322937,0.04302806034684181,-1.2134963274002075,-0.03059566393494606,0.2845160961151123,-0.09670166671276093,-0.1455594152212143,-0.34930408000946045,-0.530570387840271,-0.7023420333862305,0.4194716811180115,0.5558673739433289,0.41477492451667786,0.289913147687912,-0.3288421332836151,-0.5763050317764282,0.024984821677207947,-0.32603979110717773,-0.12899069488048553,0.12238873541355133,0.15421809256076813,-0.5431550145149231,0.41520318388938904,0.04774125665426254,0.778749942779541,0.24380923807621002,-0.6450955271720886,0.5476191639900208,0.7753888964653015,0.0011419159127399325,-0.49665895104408264,-0.12507818639278412,-0.1367553025484085,0.08738438040018082,-0.3856312930583954,0.6513117551803589,0.24593690037727356,0.22736351191997528,0.07653184235095978,-0.14915584027767181,-0.4966684877872467,0.3194836974143982,0.2523864507675171,-0.06800519675016403,-0.11816176772117615,-0.6880481243133545,0.35933932662010193,-0.4479893147945404,-0.009209038689732552,0.5737291574478149,0.12184236943721771,0.03627850487828255,-0.4157215654850006,-0.21634487807750702,-0.010586793534457684,0.26794934272766113,-0.18491634726524353,0.19578543305397034,-0.2732680141925812,-0.1240367516875267,-0.26456218957901,-0.1264781355857849,-0.9046612977981567,0.14857366681098938,-0.3727256655693054,0.1875908076763153,0.08818948268890381,-0.01357088703662157,0.5297840237617493,0.4240819215774536,-0.2450587898492813,0.06638256460428238,0.034180011600255966,0.3057553172111511,0.1499868482351303,-0.24622902274131775,-0.5137368440628052,0.4698427617549896,-0.367014616727829,-0.07919161021709442,0.20197400450706482,0.09916732460260391,0.11693792790174484,-0.011199474334716797,-0.30444473028182983,0.06225943565368652,0.17258520424365997,0.09275820106267929,0.42571303248405457,-0.7795606851577759,-0.0595184825360775,-0.08310769498348236,-0.19581472873687744,0.2258661389350891,0.09749353677034378,-0.12884725630283356,-0.3239854574203491,-0.0031305025331676006,-0.050236523151397705,-0.2705676555633545,-0.21861813962459564,0.19743385910987854,-0.021406088024377823,0.5219002366065979,-0.1629585176706314,-0.19418223202228546,-0.2637452185153961,0.0911174938082695,-0.14191552996635437,0.7102004289627075,0.15479230880737305,0.6406705379486084,0.5306227207183838,0.6535709500312805,-0.9335187673568726,-0.36343294382095337,-0.45935866236686707,-0.19744709134101868,-0.6571608781814575,-0.4654751718044281,0.6106452345848083,-0.0810566246509552,-0.7705567479133606,0.3594193160533905,0.28384873270988464,-0.47863149642944336,0.8505846261978149,-0.16428634524345398,0.06150525063276291,-0.19882500171661377,0.045426905155181885,0.40092840790748596,-0.27981334924697876,0.5619855523109436,-0.16704457998275757,-0.42883914709091187,-0.5546296238899231,0.6237505674362183,-0.2497987300157547,0.5418043732643127,0.1074034720659256,-0.4335668683052063,0.8163971304893494,-0.783611536026001,-0.07947109639644623,0.008699058555066586,-0.7115057110786438,0.29612812399864197,0.10941664129495621,0.1920255869626999,-0.18090876936912537,0.061580024659633636,-0.5209105014801025,0.6002373695373535
http://dbpedia.org/resource/Steve_Jobs,-0.03293163329362869,1.0664522647857666,0.8337734937667847,0.46142610907554626,-0.026630252599716187,-0.3402824401855469,-0.2985267639160156,-0.02176017500460148,0.13074788451194763,1.6335532665252686,-0.7518228888511658,-0.26043397188186646,0.015994392335414886,0.15186001360416412,-0.3395053744316101,-0.4545542597770691,0.07497382164001465,0.34719666838645935,-0.47037649154663086,0.17154192924499512,0.10933428257703781,-0.8448545336723328,-0.5756033658981323,0.8402215838432312,0.6516730785369873,0.24696089327335358,0.36007505655288696,-0.08598998934030533,0.02484573982656002,0.3228222131729126,-0.6486013531684875,1.137134075164795,-0.08939363062381744,-0.9299905300140381,0.14197573065757751,-0.4114953875541687,-0.7008528113365173,1.1736117601394653,-0.35532864928245544,0.3287919759750366,0.3275778293609619,0.026099057868123055,0.5632954835891724,0.29383546113967896,-0.5337523221969604,-0.28176048398017883,0.047953762114048004,0.6132658123970032,-0.20946381986141205,-0.01215333305299282,-0.5305922031402588,-0.09262137860059738,0.4905948042869568,-0.23197974264621735,-0.6253454685211182,0.5367599725723267,-0.014584085904061794,-0.18073652684688568,-0.3654567003250122,-0.10981308668851852,0.4645855128765106,0.9870052933692932,0.467931866645813,1.0873667001724243,0.8046878576278687,0.02320101670920849,0.5537378191947937,0.439674437046051,-0.8027596473693848,0.13570567965507507,-0.02803237922489643,0.44514620304107666,0.39512747526168823,0.07393191009759903,-0.1282816380262375,0.12870527803897858,-0.5324239134788513,-0.21551887691020966,-1.0717638731002808,-0.34896034002304077,-0.7627527117729187,-0.3827856481075287,0.022029653191566467,-0.6241258978843689,-0.13232409954071045,-0.7346391677856445,-0.0026746788062155247,-0.12660884857177734,-0.45526131987571716,1.0468337535858154,-0.39289337396621704,-0.16915640234947205,0.40851178765296936,-0.03066895343363285,-1.2937980890274048,-0.24152006208896637,0.38392671942710876,-0.24123060703277588,0.11923271417617798,0.38195714354515076,-0.8293012976646423,0.3416019380092621,-0.7532491683959961,-0.3241848051548004,-0.5058799386024475,-0.4575292766094208,-0.3759118318557739,-0.19710838794708252,0.07483895868062973,-0.2919263243675232,0.36128920316696167,0.20045486092567444,-0.11051095277070999,-0.56318199634552,0.10598175972700119,-0.6713276505470276,0.3031553328037262,0.11936865001916885,-0.292418897151947,0.5961434245109558,0.04058055952191353,-1.524192214012146,0.7932127714157104,-0.36469459533691406,0.40827056765556335,0.37687310576438904,-0.5316212773323059,0.8528997898101807,0.26618462800979614,0.4313470125198364,-0.5702950358390808,-0.6718591451644897,-0.3141251802444458,-0.5555267333984375,0.29402753710746765,-0.11431606858968735,-0.3226388692855835,0.31051769852638245,0.35211512446403503,0.08374347537755966,-0.17215315997600555,-0.6743046641349792,0.05678083375096321,0.46157851815223694,0.04450472816824913,-0.31726694107055664,0.8367475867271423,0.1173916757106781,-0.07786735892295837,-0.246131032705307,0.47132086753845215,-0.7193323373794556,0.48913899064064026,-0.05052371695637703,-0.2486417293548584,-0.11760509014129639,0.6701922416687012,0.1129826083779335,0.28986161947250366,-0.753505527973175,-0.4841199815273285,0.39114710688591003,0.451193243265152,-0.14363647997379303,0.9046007394790649,0.8038012385368347,0.19695064425468445,-0.07704256474971771,-0.014586400240659714,0.2269611656665802,0.5137506127357483,-0.2463589608669281,-0.01667730323970318,-0.19273577630519867,-0.2918398380279541,0.7562602758407593,-0.2688690721988678,-0.05087043717503548,0.17595215141773224,-0.04016207903623581,0.01222872082144022,-0.326966255903244,0.2874824106693268,0.272948682308197,-0.6189377903938293,0.12398401647806168,0.049104735255241394,-0.31929779052734375,-0.3631936013698578,0.18776127696037292,0.2503500282764435,-0.023137614130973816,-0.15005509555339813,0.37163570523262024,0.07057395577430725,0.4751493036746979,-0.3996673822402954,0.8315068483352661,0.31743717193603516,0.3443864583969116,-0.08165635168552399,-0.6274884939193726,-0.9347606301307678,-0.28833839297294617,-0.07587207853794098,0.1323101669549942,0.9427109360694885,0.5357363224029541,0.7363970279693604,-0.041596535593271255,0.3057788610458374,0.3244962692260742,-0.6488609910011292,-0.040895842015743256,0.11581835150718689,0.4070599377155304,0.3508986234664917,-0.8873013854026794,-0.25003206729888916,0.31452617049217224,0.5236130356788635,-0.24658751487731934,0.401125431060791,-0.035245127975940704,-0.39631274342536926,0.5836473703384399,0.52446049451828,0.7808878421783447,-0.05929573252797127,-0.8775583505630493,1.5054734945297241,-0.15221522748470306,0.12123946100473404,-0.07650993019342422,0.13366009294986725,-0.21132861077785492,0.7954868674278259,0.7188082933425903,-0.20070119202136993,0.4547804296016693,-0.06864197552204132,-0.37446269392967224,0.03277069330215454,0.09460444003343582,-0.57939213514328,-0.04942023381590843,0.5276435017585754,-0.13856327533721924,0.2681125998497009,0.16169118881225586,-0.37557467818260193,-0.1628749966621399,-0.16014637053012848,-0.6595077514648438,1.1739636659622192,-0.42002296447753906,0.7977165579795837,-0.555306077003479,-0.9113486409187317,-0.6661836504936218,0.28344079852104187,0.8654161691665649,0.3148086369037628,1.4184643030166626,0.08639717102050781,0.318170428276062,-0.08965708315372467,-0.5244167447090149,1.0653105974197388,0.06717390567064285,0.6601168513298035,0.12093786895275116,0.6882419586181641,0.5535430312156677,-0.04806019365787506,1.297330379486084,0.06833657622337341,0.007960726507008076,0.8828082084655762,-0.20166417956352234,-0.7649620175361633,-0.46526724100112915,-0.12625938653945923,-0.06822507083415985,-0.3823253810405731,0.330880731344223,-0.1749400794506073,0.8071258068084717,-0.10524526983499527,-0.36487531661987305,-0.43490058183670044,0.4357527792453766,1.0380544662475586,0.18004722893238068,-0.8089566826820374,0.5979592800140381,-0.027745475992560387,-0.6764156222343445,-0.5736838579177856,0.529299795627594,-0.3001117706298828,0.2193184643983841,-0.24464641511440277,-0.7885319590568542,0.37389224767684937,-0.4239947199821472,0.5203149914741516,0.2477605640888214,0.3738625943660736,0.3593527376651764,-0.3509620130062103,-0.5154123306274414,0.31591299176216125,0.9155480265617371,0.08553946763277054,-0.1680402010679245,-0.13672566413879395,-0.5072357654571533,0.47922882437705994,0.2376532107591629,0.30405309796333313,-0.16646797955036163,-0.9948868751525879,-0.37706488370895386,0.34261801838874817,-0.3005658984184265,0.1800445318222046,-0.23327012360095978,-0.3119557201862335,-0.09558521956205368,0.3588557839393616,-0.705119788646698,0.22820743918418884,0.19219569861888885,0.09862382709980011,0.09070080518722534,0.37086957693099976,0.48480939865112305,-0.03631855547428131,0.19290252029895782,-0.6339593529701233,-0.0024548836518079042,0.5925872325897217,0.020456191152334213,-0.4979071021080017,0.5616263151168823,0.5017937421798706,-0.30155107378959656,-0.510272741317749,0.4406186640262604,0.35583722591400146,0.2748225927352905,0.49218040704727173,0.06608761101961136,-0.7107908725738525,-0.13920257985591888,0.2818073630332947,0.41178080439567566,-0.25034481287002563,-0.328044056892395,-0.13104990124702454,-0.49061456322669983,0.4607641100883484,0.4194828271865845,-0.12109977751970291,0.5056463479995728,-0.21332666277885437,0.36040735244750977,-0.7477376461029053,0.5373203158378601,1.041461706161499,-0.08096259832382202,0.10573739558458328,0.6276870369911194,-0.3430182933807373,-0.29438820481300354,-1.0801000595092773,0.1661875694990158,-0.45082998275756836,0.44396302103996277,-0.1508311927318573,1.0199391841888428,0.3582160770893097,0.27446722984313965,-0.4622216522693634,-0.1267329454421997,-0.6975818276405334,-0.19335708022117615,0.11856788396835327,0.12663713097572327,-0.7249983549118042,-1.0220246315002441,-0.27525293827056885,0.36393025517463684,0.6337896585464478,0.5117926597595215,0.14791367948055267,-0.012601882219314575,0.01268890779465437,0.38760125637054443,-0.1883651316165924,-0.4874317944049835,-0.23707924783229828,0.6747958064079285,0.45954957604408264,-0.0030377283692359924,0.374732106924057,0.030042041093111038,0.3400570750236511,0.6825867295265198,0.14178530871868134,-0.9323617815971375,0.4126981496810913,0.06867240369319916,-0.19873438775539398,0.39492523670196533,-0.15535983443260193,0.36434438824653625,-0.43667545914649963,0.2218891680240631,0.08060340583324432,-0.20175859332084656,0.5466130375862122,0.7042631506919861,0.3192688822746277,-0.6841999292373657,-0.3768354058265686,0.12871494889259338,-0.3154413402080536,0.2523912489414215,-0.9774326086044312,0.12861809134483337,0.07885880768299103,0.8743857741355896,-0.4692748785018921,-0.13064101338386536,-0.12465737015008926,-0.29031145572662354,0.009830638766288757,0.5432355999946594,-0.11399461328983307,-0.013369007036089897,-0.3534650504589081,0.6379153728485107,0.2702299654483795,-0.30720117688179016,0.19876734912395477,0.9484275579452515,-0.22893081605434418,0.5080431699752808,-0.5722678899765015,0.10126519203186035,0.1215868815779686,-0.286723792552948,-0.019949432462453842,1.1991485357284546,0.0854509249329567,0.7330156564712524,0.5140227675437927,-0.7741292715072632,-0.28089097142219543,0.35820454359054565,-0.4835778772830963,0.6718526482582092,-0.26232242584228516,-0.06585945188999176,-0.2854592800140381,0.04617791250348091,-0.29029303789138794,-0.2901088297367096,0.0002993958187289536,0.27917975187301636,0.32876595854759216,-0.13909271359443665,-0.11513575911521912,-0.04634592682123184,0.0038734187837690115,-0.6906933784484863,-0.435928612947464,0.20918655395507812,-0.6064717173576355,0.010789315216243267,-1.1767935752868652,0.3973624110221863,-0.33815956115722656,0.6685562133789062,0.03910914063453674,-0.04168682545423508,0.09898215532302856,-0.7617554068565369,-0.16060090065002441,0.8541119694709778,0.21357461810112,-0.04047799110412598,-0.06357166171073914,-0.021849771961569786,0.5358311533927917,-0.17488539218902588,-0.3584725260734558,-0.2482532560825348
http://dbpedia.org/resource/Steve_Wozniak,0.07800249010324478,-0.18524318933486938,0.5019121170043945,0.020873814821243286,-0.2119465172290802,-0.1753031313419342,-0.005474458914250135,0.19875746965408325,0.16173186898231506,0.45614808797836304,-0.04933258891105652,-0.37545520067214966,0.22098541259765625,-0.01843154989182949,0.1537988781929016,-0.12815122306346893,0.43734505772590637,0.19290350377559662,0.12817156314849854,-0.5059757828712463,-0.5526214838027954,-0.48992985486984253,0.07958128303289413,-0.036601584404706955,-0.4743366837501526,0.4683224558830261,-0.04680292680859566,-0.09551683068275452,-0.5450975298881531,-0.4175668954849243,-0.2997668981552124,-0.08169231563806534,-0.3354513943195343,0.21678444743156433,0.3762686252593994,-0.05224142596125603,-0.08426506817340851,0.24464422464370728,0.5700656175613403,0.48264312744140625,0.09694764018058777,0.5227206349372864,-0.5069777965545654,0.04876534268260002,0.4082721769809723,-0.6791578531265259,-0.08282899856567383,0.5389353632926941,0.015222347341477871,-0.9612076878547668,-0.32555603981018066,0.2259732037782669,0.34360823035240173,-0.07926229387521744,-0.8313424587249756,0.809546172618866,0.7882751226425171,-0.3724519610404968,0.12153784185647964,0.0720338523387909,-0.26156312227249146,-0.16762720048427582,1.019129753112793,0.4677811563014984,-0.46455150842666626,-0.05479247495532036,-0.3541599214076996,0.5196626782417297,-0.18920645117759705,0.39367157220840454,-0.08674253523349762,0.06726501882076263,0.19786474108695984,-0.8241565227508545,-0.031774457544088364,-0.3882187008857727,-0.17010845243930817,0.09993331879377365,0.14233195781707764,-0.2123076617717743,0.4633677303791046,-0.3353615999221802,-0.7901809811592102,-0.37636062502861023,-0.20937754213809967,0.028421610593795776,-0.26982489228248596,0.035464007407426834,-0.06864383816719055,-0.03387471288442612,-0.16786830127239227,0.2725995182991028,0.49389126896858215,0.1934850662946701,-0.050245072692632675,-0.5727766752243042,-0.26874151825904846,-0.19914454221725464,0.08907701075077057,0.5468530058860779,0.28708529472351074,-0.08948338776826859,-0.56876540184021,0.3267086148262024,-0.025586063042283058,-0.3393760621547699,-0.8705310821533203,-0.05795149505138397,-0.39634403586387634,-0.28624603152275085,0.8855805397033691,0.1663479506969452,-0.2714129090309143,0.6428824663162231,-0.12557657063007355,-0.13139978051185608,0.4258872866630554,0.057730671018362045,0.6357588768005371,0.08011053502559662,0.28575536608695984,0.46598389744758606,-0.3859082758426666,-0.15391843020915985,-0.212446928024292,-0.5429795980453491,-0.37577006220817566,0.044922709465026855,-0.44840356707572937,-0.06306865066289902,0.025262048467993736,0.36341845989227295,-0.42359477281570435,-0.14307917654514313,0.2297036349773407,-0.1950349360704422,0.06708792597055435,0.1617738902568817,-0.16093391180038452,-0.3795486390590668,0.09185177087783813,-0.034577738493680954,0.045376360416412354,0.3618983030319214,-0.04163622856140137,0.7431624531745911,0.71205073595047,-1.0021793842315674,0.3640706241130829,0.38100576400756836,0.44282785058021545,0.24191069602966309,0.6204754114151001,0.4230124056339264,-1.0683188438415527,0.08673425018787384,0.1062573790550232,0.42026960849761963,0.38051751255989075,-0.5092180371284485,0.4141322374343872,-0.18537403643131256,-0.2204451858997345,-0.30032220482826233,0.9309256076812744,-0.24996145069599152,-0.3234729468822479,0.03737187385559082,-0.16296657919883728,-0.15111899375915527,0.35771965980529785,-0.20169667899608612,-0.10140421986579895,-0.190559983253479,-0.09578259289264679,0.4291491210460663,0.4508541226387024,-0.49129992723464966,-0.015226293355226517,-0.3450031280517578,0.8295380473136902,-0.33481961488723755,0.5926925539970398,0.17656655609607697,-0.05665479972958565,-0.4060441851615906,-0.6134630441665649,0.6681142449378967,-0.9422513246536255,0.9075707197189331,0.25185829401016235,0.3506936728954315,0.26829469203948975,-0.19867253303527832,-0.09313813596963882,0.379650741815567,-0.03014768287539482,0.47359222173690796,-0.12574519217014313,-0.41789042949676514,0.5261126160621643,0.009866122156381607,-0.42937424778938293,0.07157423347234726,-0.35121774673461914,0.3613681197166443,0.2606690526008606,0.001665146672166884,0.636271059513092,-0.020546577870845795,-0.3186030089855194,-0.028919171541929245,0.19402150809764862,-0.4138798713684082,0.015360950492322445,-0.26086363196372986,0.5780900716781616,-0.7490431666374207,0.01349574699997902,0.23582831025123596,-0.7729952931404114,1.232932448387146,-0.37261655926704407,0.2837280333042145,-0.3840084373950958,0.4583485722541809,0.6784617304801941,-0.43947353959083557,-0.5553856492042542,-0.03403318300843239,-0.2646637260913849,-0.6513579487800598,0.38165244460105896,-0.6444923281669617,0.8017578721046448,-0.18094901740550995,0.32994386553764343,0.35897359251976013,-0.4739600121974945,-0.057960499078035355,-0.8416579961776733,0.16281668841838837,-0.6460051536560059,0.23532456159591675,-0.37853047251701355,-0.42991313338279724,0.3052389323711395,-0.3924655616283417,-0.05208050459623337,0.28121256828308105,0.10057540982961655,0.33150702714920044,-0.2267232984304428,0.4819555878639221,-0.0037862379103899,-0.39592990279197693,0.9883733987808228,-0.3346925973892212,-0.05980612337589264,0.3687150478363037,-0.06330764293670654,0.3665591776371002,0.15369167923927307,0.8210023045539856,0.04356030374765396,-0.41467177867889404,-0.2499033659696579,0.08153889328241348,0.7571806907653809,-0.08270268142223358,1.1088054180145264,0.13717257976531982,-1.0309654474258423,-0.07652611285448074,-0.40375277400016785,-0.18172584474086761,0.3532918691635132,0.4789356291294098,0.2837514579296112,-1.096243977546692,0.060724109411239624,-0.2578222453594208,0.3368610441684723,-0.006185310427099466,-0.5704733729362488,0.12256275862455368,-0.49204567074775696,-0.14170539379119873,0.49382466077804565,0.08903813362121582,0.07160858064889908,0.15990810096263885,0.11788901686668396,0.11914311349391937,0.06770418584346771,-0.14606039226055145,-0.27065882086753845,0.22037141025066376,0.3265990614891052,0.04320623725652695,-0.24818307161331177,0.30948904156684875,-0.16434422135353088,0.3461219072341919,-0.08520185947418213,0.17652571201324463,0.009858460165560246,0.7276973724365234,0.3030470311641693,0.820300817489624,0.03345188498497009,0.0012171502457931638,-0.11378048360347748,-0.13829948008060455,0.6891149878501892,0.14587602019309998,0.5972211956977844,-0.3689608871936798,0.13685892522335052,-0.5018157362937927,0.18031391501426697,0.02330983802676201,-0.3261052966117859,-0.6857044100761414,0.01659836620092392,-0.7856161594390869,-0.3863404095172882,-0.29387006163597107,1.1247352361679077,-0.08320701867341995,0.7107239365577698,-0.6386827230453491,1.3285627365112305,-0.018900251016020775,-0.25870755314826965,-0.1753579080104828,-0.29862046241760254,-0.1991129219532013,0.48071759939193726,0.1388380378484726,0.06824415922164917,0.1096920445561409,-0.4150627851486206,0.014772173017263412,-0.49582287669181824,0.0320415273308754,0.28137651085853577,0.5669069886207581,-0.8527100682258606,0.14658679068088531,0.010161338374018669,0.2272546887397766,0.23855486512184143,-0.7220093011856079,-0.2450021207332611,-0.5131524801254272,1.0900158882141113,0.17859461903572083,0.09143189340829849,0.2763705551624298,0.1726526916027069,-0.12821762263774872,0.7896150350570679,0.08148695528507233,-0.16130658984184265,0.2844226658344269,1.25770103931427,0.07169787585735321,-0.12415959686040878,-0.18889877200126648,0.9525330662727356,0.0798921063542366,0.14395028352737427,-0.3395693898200989,0.6837080717086792,-0.3277614712715149,-0.6252349615097046,0.11812744289636612,0.19614313542842865,-0.1706075370311737,-0.41282525658607483,0.6458510756492615,0.14038316905498505,-0.01355192344635725,0.881004810333252,0.6440252065658569,-0.5286320447921753,-1.3251770734786987,-0.101082943379879,-0.11229447275400162,-0.5028632879257202,-0.19740699231624603,0.621388852596283,0.12923559546470642,0.8611878156661987,0.42401015758514404,-0.020916461944580078,-0.41611790657043457,-0.14963357150554657,-0.39081206917762756,0.21054662764072418,-0.29858577251434326,-0.7542572021484375,0.27157819271087646,-0.2924843430519104,-0.20563484728336334,-0.23798872530460358,0.22408095002174377,-0.1363854855298996,0.1814858466386795,-0.4296115040779114,0.25659599900245667,0.031435512006282806,-0.04045891389250755,0.6593837738037109,0.19298380613327026,-0.04070312902331352,0.32365870475769043,-0.3085067868232727,0.2339065968990326,-0.1540290266275406,0.28467440605163574,0.6372462511062622,-0.07518153637647629,-0.5406033396720886,-0.10238514840602875,-0.546176016330719,-0.32135486602783203,0.7662538886070251,0.18913905322551727,0.253704696893692,-0.5256208777427673,0.16640856862068176,0.22400525212287903,0.08425870537757874,0.17748793959617615,-0.1951570063829422,-0.34403958916664124,-0.20406043529510498,-0.1806187480688095,0.4832150340080261,-0.3420502543449402,-0.15099389851093292,-0.13332542777061462,0.25372448563575745,0.31418630480766296,0.26266565918922424,0.09946891665458679,0.2553561329841614,0.2065977305173874,0.29088088870048523,-0.35490986704826355,0.09349449723958969,0.5725279450416565,0.22189433872699738,0.5165632963180542,0.47289156913757324,0.8443148732185364,0.0017093147616833448,0.24047745764255524,-0.46512603759765625,-0.3387221395969391,-0.03703072667121887,-0.9221557378768921,-0.49507248401641846,-0.5473458170890808,1.052978277206421,0.15891651809215546,0.09000223875045776,0.5528966784477234,-0.2783118486404419,-0.354556679725647,0.9498334527015686,0.2512250244617462,-0.29385313391685486,0.10783922672271729,0.05336630716919899,0.026385121047496796,-0.41981175541877747,0.47431498765945435,0.296202689409256,-1.100721836090088,-0.04367653653025627,0.37900310754776,-0.3830995559692383,0.3063391447067261,-0.8885869383811951,-0.6248089671134949,0.42870473861694336,0.18872861564159393,-0.0978950783610344,0.338647723197937,-0.8046770095825195,-0.19966794550418854,-0.5856058597564697,0.0461227223277092,-0.8721813559532166,0.17360074818134308,-0.16830769181251526,0.18119925260543823
http://dbpedia.org/resource/Jonathan_Ive,0.09466031938791275,-0.1568925678730011,0.2225174903869629,0.5751680135726929,-0.36985477805137634,0.3102602958679199,-0.41166362166404724,-0.5597960352897644,-0.17662391066551208,0.19512850046157837,-0.7271570563316345,0.1270226687192917,0.48619234561920166,-0.48878106474876404,-0.7809703946113586,0.3365631699562073,0.2607530355453491,0.3357228934764862,-0.1907145231962204,-0.5758708119392395,-0.741812527179718,-0.5467619895935059,0.7880225777626038,0.7529458403587341,0.05232026055455208,-0.034093648195266724,0.11110056191682816,0.3133496046066284,0.1135660782456398,0.22261273860931396,0.21986408531665802,-0.24324090778827667,-0.3369907736778259,0.5809932351112366,0.8510690331459045,-0.06984053552150726,0.3112243115901947,0.1627754122018814,0.2078191488981247,-0.1488221287727356,0.3136186897754669,0.09016580879688263,-0.31982699036598206,0.2528790533542633,0.01703195460140705,-0.015041034668684006,-0.3212863802909851,0.4417110085487366,-0.6022228002548218,-0.5370445847511292,-0.6321550011634827,0.44182735681533813,0.31887492537498474,-1.394039511680603,-0.3924929201602936,-0.21913965046405792,-0.0067528062500059605,-0.2820452153682709,0.05727624520659447,-0.3471906781196594,-0.06949297338724136,0.25577810406684875,0.8031768798828125,-0.271761417388916,-0.7775660157203674,-0.5956610441207886,-0.5412188768386841,0.12582342326641083,-0.520151674747467,0.27302953600883484,-0.023557689040899277,-0.4379396140575409,0.33938372135162354,-0.6271145939826965,-0.15632927417755127,-0.699120819568634,1.0240800380706787,-0.0026232246309518814,-0.32916149497032166,-0.28332141041755676,0.16772161424160004,-0.11961857229471207,-0.17551225423812866,0.05082280933856964,-0.05876760184764862,0.5396596193313599,-0.17883312702178955,-0.11440177261829376,0.5072792172431946,0.4461669921875,0.03249354660511017,0.19626465439796448,-0.11256477981805801,-0.1260034590959549,-0.7867160439491272,0.05205921083688736,0.43341949582099915,0.08089739084243774,0.4680229127407074,-0.07847647368907928,0.1921406090259552,0.1901937872171402,-0.4370993971824646,-0.048230674117803574,0.3285979926586151,-0.15883584320545197,0.07013942301273346,-0.31539613008499146,0.3851872384548187,0.26031917333602905,-0.1775868833065033,-0.09530055522918701,-0.20713239908218384,0.24217088520526886,0.5620587468147278,0.04175318032503128,0.19686011970043182,0.7771974802017212,-0.05275352671742439,0.31441959738731384,0.03891708329319954,0.29356276988983154,-0.15089242160320282,-0.4121655225753784,0.29826620221138,-0.020503578707575798,-0.4048629105091095,0.35859793424606323,-0.7431905269622803,-0.1860649287700653,0.04219134524464607,0.20256121456623077,0.48537275195121765,-0.9718571305274963,0.37013930082321167,-0.11084173619747162,-0.10017246007919312,0.09167642146348953,0.504041850566864,-0.22969692945480347,-0.23564393818378448,-0.2468976229429245,-0.1166992112994194,0.27030110359191895,-0.13326382637023926,0.23225586116313934,-0.0052278595976531506,-1.031610131263733,0.13337436318397522,0.3791058361530304,1.0697718858718872,0.36425846815109253,0.018417371436953545,0.11413313448429108,-0.5034226775169373,0.07879921793937683,-0.4423433542251587,0.09198145568370819,-0.07485165446996689,-0.1329410821199417,0.17051638662815094,-0.3596378266811371,0.7519517540931702,0.21571408212184906,0.37588638067245483,0.1255549043416977,0.017655890434980392,0.30234038829803467,0.7249098420143127,0.39752429723739624,0.4019126892089844,-0.015586311928927898,0.508958101272583,0.06892289221286774,0.6711574196815491,0.3154422342777252,-0.06078609451651573,0.07547257840633392,0.10080498456954956,-0.04580424353480339,0.4254799485206604,-0.3319934904575348,0.10533210635185242,0.6903773546218872,-0.1462898999452591,0.044636182487010956,-0.5941122770309448,0.3859999179840088,-0.6014759540557861,0.05261778086423874,0.15246343612670898,0.7377358078956604,0.08519037812948227,0.10279189050197601,0.2206195443868637,-0.32503411173820496,-0.23818127810955048,0.9932873845100403,-0.5438864231109619,-0.555395781993866,-0.17347542941570282,-0.3585890829563141,-0.29756850004196167,0.6862093210220337,0.11143550276756287,-0.06888630241155624,0.11779416352510452,0.28097519278526306,0.7492763996124268,0.020123744383454323,-0.01593600958585739,0.09216010570526123,0.03210216388106346,-0.018118975684046745,0.950027585029602,0.028306566178798676,0.08140408247709274,-0.5906659960746765,0.5092120170593262,0.17039690911769867,-0.7579768300056458,0.6562328934669495,-0.08901490271091461,-0.1530887931585312,0.4658004343509674,0.29074862599372864,0.3488677740097046,-0.4162170886993408,-0.13082249462604523,-0.33498916029930115,0.20155376195907593,-0.5363965630531311,-0.08091322332620621,-0.12624581158161163,0.491483598947525,0.3764148950576782,0.4027862846851349,0.23093336820602417,-0.138845756649971,0.49221521615982056,-0.8050916790962219,-0.41870617866516113,-0.04203415662050247,0.10950623452663422,-0.7200267314910889,-0.309097021818161,0.5634093284606934,-0.25364160537719727,0.05058488994836807,-0.0023888032883405685,0.22912755608558655,-1.0975196361541748,-0.006036882754415274,0.6149622797966003,0.6812986731529236,0.051525890827178955,0.45481494069099426,-0.4314681887626648,0.32012370228767395,0.7086294889450073,0.04105650261044502,0.17006608843803406,0.2101670652627945,0.2425907701253891,0.2945863604545593,-0.10795677453279495,-0.3927854299545288,-0.07306953519582748,0.6614956259727478,-0.4112253189086914,1.2270159721374512,-0.05857062339782715,-0.10578160732984543,0.2893443703651428,-0.15327589213848114,0.5795976519584656,0.014427576214075089,0.34000179171562195,0.2149764597415924,0.2220042645931244,-0.12708081305027008,-0.39104151725769043,0.709293007850647,-0.13478341698646545,-0.7115963697433472,-0.31664928793907166,-0.07715126127004623,0.22505609691143036,0.806524932384491,-0.12270550429821014,-0.14843761920928955,0.5401651263237,0.23744621872901917,0.7463014125823975,0.1414264589548111,-0.06040000542998314,-0.0075025190599262714,-0.0996885746717453,-0.08185804635286331,0.36102673411369324,0.6619212627410889,0.11840339004993439,0.1393481343984604,0.31434229016304016,-0.2479671984910965,0.4021013677120209,0.02834765985608101,0.17678378522396088,0.6893815994262695,0.6049460768699646,0.531159520149231,-0.35402730107307434,-0.277741938829422,-0.4816577732563019,0.4363032579421997,0.22342757880687714,0.07200107723474503,0.43858692049980164,0.12228285521268845,0.3846878409385681,-0.1505725234746933,-0.5229349136352539,-0.47115710377693176,0.48861053586006165,0.504919171333313,-0.6149008870124817,0.24029852449893951,-0.07118771225214005,0.8250020146369934,-0.09034665673971176,0.38786211609840393,-0.24759119749069214,0.746893584728241,-0.16677670180797577,0.40154504776000977,0.27870121598243713,0.4907388389110565,0.08614566922187805,0.1525408923625946,0.2443549931049347,-0.2702489495277405,-0.425520658493042,0.9371811747550964,0.010995318181812763,0.5428358912467957,0.03204363211989403,0.4937927722930908,0.29551199078559875,-0.9399484992027283,0.37606704235076904,0.30165550112724304,-0.6105313301086426,0.0592009611427784,-0.12062817066907883,-0.6266727447509766,-0.06675777584314346,0.5685433149337769,0.03427070379257202,-0.37675777077674866,0.29891902208328247,-0.05769570916891098,-0.5060957670211792,0.3392329514026642,-0.603837251663208,-0.1193816140294075,-0.060284048318862915,0.4912662208080292,0.20810140669345856,0.4000765085220337,-0.14695124328136444,0.6930010318756104,-0.6692399978637695,-0.26914340257644653,-0.06114712357521057,0.2673376500606537,-0.01301052700728178,-0.46904703974723816,-0.10311441868543625,-0.3124941289424896,0.23894134163856506,-0.5904375910758972,0.12548300623893738,0.2535873353481293,0.23525170981884003,0.6342542171478271,-0.13200043141841888,-0.32090267539024353,-0.7248149514198303,0.41160568594932556,-0.37503835558891296,0.14307357370853424,-0.5712608098983765,0.4055768549442291,0.042182181030511856,0.5405219197273254,0.2471405416727066,0.6463354229927063,0.05281618610024452,-0.31186988949775696,-0.21659281849861145,-0.0794089213013649,-0.06724241375923157,-0.18288716673851013,0.28541919589042664,0.09758027642965317,-0.008692718110978603,0.2351614236831665,0.5454190969467163,-0.21999774873256683,0.11660000681877136,0.5535940527915955,0.440041720867157,-0.3079383373260498,0.14902657270431519,0.13642436265945435,0.12215624749660492,-0.023119591176509857,-0.20674778521060944,-0.035928402096033096,0.5756213068962097,0.6690773367881775,-0.29247522354125977,-0.6408447027206421,0.16282586753368378,-0.14243349432945251,-0.7560317516326904,-0.2988062798976898,-0.09029368311166763,0.32104039192199707,0.4452807903289795,-0.22373345494270325,-0.1360517144203186,0.07081437110900879,0.8290179967880249,0.3481059670448303,-0.5665628910064697,-0.12673841416835785,0.1518472284078598,-0.04143085330724716,0.1749761700630188,0.0945790484547615,-0.2832779288291931,-0.49336087703704834,-0.5472084283828735,0.3270777463912964,-0.437420517206192,0.3269573748111725,-0.15336981415748596,-0.14943164587020874,0.5190073847770691,0.14825424551963806,-0.36365944147109985,0.37987080216407776,0.15816733241081238,0.14712847769260406,1.1732549667358398,0.05364609509706497,-0.0619971826672554,0.2832760214805603,-0.01033186074346304,-0.629793643951416,-0.7715243697166443,0.3319126069545746,-0.12778660655021667,-0.17486916482448578,-0.5324402451515198,0.2472887933254242,0.05404140055179596,0.12116119265556335,0.5356293320655823,0.13279995322227478,0.12993207573890686,0.7833425998687744,0.27931496500968933,-0.17172102630138397,-0.04441162198781967,-0.16621482372283936,0.06403099000453949,-0.24848635494709015,0.02085687965154648,-0.3274088501930237,-0.2009044736623764,-0.07654079049825668,0.4648379385471344,0.2709593176841736,0.6399967670440674,0.2541550397872925,-0.720612645149231,0.3531268537044525,-0.6179548501968384,-0.1354026049375534,-0.10987554490566254,-0.2860911786556244,-0.33099764585494995,0.5416920781135559,0.13329075276851654,-0.24758405983448029,-0.15579253435134888,0.15984715521335602,-0.12355442345142365
http://dbpedia.org/resource/Mac_Pro,0.35058775544166565,-0.5837589502334595,-0.21038970351219177,0.24842999875545502,-0.3336583077907562,0.4269062280654907,0.49235373735427856,-0.08382023870944977,-0.4063732922077179,0.97029048204422,-1.2700132131576538,-0.5660571455955505,0.2770947217941284,-0.3452211022377014,-0.8033254742622375,-0.004391820169985294,-0.9282730221748352,0.15452268719673157,-0.2235758751630783,-0.20458140969276428,0.7113534808158875,0.5542035102844238,0.17511756718158722,0.25947797298431396,0.05515054613351822,0.07832163572311401,0.2573268413543701,0.7147491574287415,0.18819977343082428,0.10767703503370285,-0.010364016517996788,-0.1483115404844284,0.05999579653143883,0.347109854221344,0.5633904933929443,-0.15817373991012573,-0.1600542813539505,-0.306799978017807,-0.15784895420074463,-0.3382909595966339,-0.6025567054748535,0.16700857877731323,-0.320322185754776,0.4782639145851135,0.09132420271635056,0.24244147539138794,0.42695358395576477,0.47209224104881287,-0.3918429911136627,-0.6425720453262329,-0.31885403394699097,0.48997899889945984,0.3532519042491913,0.0972357988357544,-0.3951531946659088,-0.6575376391410828,-0.012387140654027462,-0.47076132893562317,-0.45554035902023315,0.8995227217674255,0.5382441878318787,0.3471284806728363,0.3008204400539398,0.23954682052135468,-0.10161912441253662,0.056460313498973846,-0.3286031484603882,0.638457715511322,0.1680489033460617,-0.2507137060165405,-0.5933986306190491,0.2567158341407776,0.24438604712486267,-0.4164753258228302,-0.0864708349108696,-0.125031977891922,0.30411237478256226,-0.41711992025375366,0.5598721504211426,-0.5512470006942749,-0.3950951397418976,0.4325385093688965,-0.36651480197906494,-0.2812168300151825,0.5310667753219604,0.19963331520557404,-0.05690876394510269,0.33866778016090393,0.19119320809841156,0.6892086267471313,-0.44965478777885437,0.010351900942623615,0.043532595038414,0.38952580094337463,-0.24553631246089935,0.2749673128128052,0.13912327587604523,-0.3944368064403534,0.7276463508605957,0.3922090530395508,0.20804063975811005,-0.4495828151702881,-0.4024431109428406,0.0192731786519289,-0.6041814088821411,-0.2528475821018219,-0.46339932084083557,-0.42285290360450745,1.0246686935424805,0.4599776268005371,0.18418172001838684,-0.11755075305700302,0.06471825391054153,0.2571924328804016,6.477602437371388e-05,-0.07733571529388428,-0.35009345412254333,0.5957114696502686,0.49529969692230225,0.6942529678344727,0.18076194822788239,0.4251611828804016,0.5895596742630005,-0.10975196957588196,0.46072620153427124,0.20640581846237183,-0.4191146194934845,-0.000746919889934361,0.08563016355037689,0.916093647480011,-0.26248982548713684,-0.7125443816184998,0.36530280113220215,-0.7233566641807556,0.30893054604530334,0.05643860623240471,0.36228036880493164,0.4415188431739807,1.2703657150268555,0.5689794421195984,-0.7878373861312866,-0.2883474826812744,-0.2567562758922577,0.17195458710193634,-0.3701951801776886,-0.3693777620792389,0.5280527472496033,0.20151986181735992,0.5465502142906189,0.4287327527999878,0.020432215183973312,-0.24745695292949677,0.36701783537864685,0.2858700156211853,0.14987005293369293,-0.424883097410202,-0.7271109223365784,-0.6177255511283875,0.13459300994873047,-0.2695619463920593,-0.315290242433548,0.023044774308800697,0.2234402298927307,-0.5086855292320251,0.22911475598812103,-0.11115618050098419,0.2740449011325836,0.21683673560619354,0.09177937358617783,-0.7792724967002869,0.4510597288608551,-0.06228137016296387,0.13428975641727448,-0.1943926364183426,0.2488785982131958,0.13206781446933746,0.5458102226257324,0.24361003935337067,0.3114122450351715,0.44125038385391235,0.4215102791786194,-0.14288638532161713,-0.2764279246330261,0.623853325843811,0.15045225620269775,-0.13324467837810516,-0.19546596705913544,0.12121095508337021,0.44664254784584045,0.7017312049865723,0.6469932794570923,-0.5151868462562561,-0.5063232183456421,-0.27195489406585693,-0.0007249159971252084,0.0808333307504654,-0.12456699460744858,-0.20244410634040833,0.5343056321144104,-0.49122923612594604,0.01666327938437462,-0.1338961273431778,-0.4402415454387665,-0.3720960021018982,-0.37785860896110535,-0.22207467257976532,0.09654635190963745,0.11486513912677765,0.2757096588611603,-0.4049552381038666,-0.19133934378623962,0.39316460490226746,0.4360286295413971,0.20488400757312775,0.31304147839546204,0.010692966170608997,0.21545349061489105,-0.01278119906783104,0.07044409215450287,-0.4420396089553833,-0.44586285948753357,0.36452290415763855,0.25980719923973083,0.4175646901130676,-0.3192337453365326,0.5198628306388855,-0.09229585528373718,-0.17434968054294586,0.4016891121864319,-0.2750031054019928,0.5477220416069031,-0.2525895833969116,-0.21230462193489075,-0.4967249035835266,-0.3665000796318054,-0.29912641644477844,0.4586118757724762,-0.482803612947464,-0.4427900016307831,0.05980971083045006,0.3485034704208374,-0.17468704283237457,-0.1172219067811966,-0.23876230418682098,-0.11945097148418427,-0.04112449288368225,0.07094885408878326,-0.007409058976918459,0.29181480407714844,-0.4492247700691223,-0.32350054383277893,-0.3891478180885315,0.2318539172410965,0.013102552853524685,-0.14717493951320648,-0.4142611026763916,0.4417640268802643,-0.1997375637292862,0.35653603076934814,0.4277118146419525,0.5244482755661011,0.3751165568828583,0.40817856788635254,-0.09026920795440674,0.1856749951839447,0.19144906103610992,-0.331611692905426,-0.3565312922000885,0.5506483316421509,-0.8478934168815613,0.01325313001871109,-0.16316674649715424,-0.07344090193510056,0.2436780035495758,-0.46616876125335693,-0.05148923024535179,-0.1298351138830185,-0.06645803898572922,-0.09791017323732376,0.8184700012207031,-0.19101683795452118,0.05682234838604927,-0.11827879399061203,-0.18126782774925232,-0.3252728283405304,-0.43714144825935364,0.3203401565551758,0.07320480793714523,0.03484524041414261,0.22211246192455292,-0.1045713946223259,0.016299083828926086,0.4246290922164917,-0.059725046157836914,-0.5416004061698914,0.11426051706075668,-0.5383616089820862,0.3590455949306488,-0.3585234582424164,0.2956317663192749,-0.16583676636219025,0.073105089366436,0.5850444436073303,0.27067068219184875,0.48208087682724,-0.2812102735042572,0.07378458976745605,0.4569821059703827,-0.036069102585315704,-0.2979537844657898,0.08545082062482834,-1.1388312578201294,0.757636308670044,0.4414936304092407,0.31202349066734314,0.21134619414806366,0.0820399820804596,0.8243188858032227,0.05781703442335129,0.26022401452064514,-0.24829381704330444,0.044186268001794815,-0.7762940526008606,-0.1797596514225006,0.5951433181762695,0.07132310420274734,-0.5227910876274109,0.08017423748970032,0.35519030690193176,-0.5993183255195618,0.14303500950336456,-0.7005709409713745,1.1999881267547607,0.0064225997775793076,0.08295000344514847,-0.31703856587409973,0.4930691421031952,-0.05105334520339966,-0.5484804511070251,-0.20368237793445587,-0.4031260311603546,0.13382203876972198,1.1925736665725708,0.02175089344382286,0.5086988806724548,0.02629968523979187,-0.17735861241817474,0.4894280731678009,-0.37215012311935425,1.2178399562835693,-0.26213502883911133,-0.15898658335208893,0.6381469368934631,-0.08699396252632141,-0.7571035027503967,-0.8265020251274109,0.19655565917491913,-0.647706151008606,-0.20765525102615356,-0.030022386461496353,0.38085877895355225,0.3279381990432739,0.21296964585781097,0.3487595021724701,-0.18220409750938416,0.23407407104969025,0.02752549760043621,0.29339319467544556,-0.6696561574935913,0.1816958487033844,-0.061615586280822754,-0.6625032424926758,-0.3832951486110687,0.4299663305282593,0.9680137038230896,0.004236630164086819,-1.062990427017212,1.2230397462844849,-0.4408600628376007,0.47965461015701294,-0.010568561032414436,0.22270791232585907,-0.36083027720451355,-0.0996563658118248,0.07929819077253342,-0.47864702343940735,-0.16099503636360168,-0.687407374382019,0.39142754673957825,-0.0029709963127970695,-0.8767771124839783,-0.3246270418167114,0.5731626749038696,0.20084042847156525,0.48955851793289185,-0.26938578486442566,0.3881904184818268,0.0655246451497078,-0.04621029272675514,0.43196365237236023,0.15298530459403992,0.5174645781517029,0.08593270182609558,0.38794445991516113,0.3759688138961792,0.4036821126937866,-0.19508512318134308,-1.1320362091064453,0.20041289925575256,-0.0073549202643334866,0.1989070475101471,-0.642126739025116,0.032621804624795914,-0.37875261902809143,0.15679582953453064,0.2649071514606476,0.01277734711766243,0.28469914197921753,-0.9725289940834045,0.19360291957855225,0.2655477523803711,-0.36798492074012756,0.2980353832244873,0.4521869421005249,-0.4357856214046478,-0.6616473197937012,-0.4469095766544342,0.2400057464838028,0.4234241545200348,0.5129082798957825,0.13745704293251038,-0.6298231482505798,0.3232680857181549,0.7193506956100464,-0.891461193561554,0.006664339452981949,0.5890030860900879,-0.15520483255386353,-0.5758788585662842,-0.2918761372566223,-0.0015596779994666576,0.06964512169361115,-0.12870760262012482,-0.28386741876602173,0.23947618901729584,-0.4396425783634186,-0.042878396809101105,-0.3711109161376953,0.652945876121521,0.44675400853157043,0.579169750213623,-0.48419445753097534,-0.09247824549674988,0.058913394808769226,-0.02690325304865837,0.5265678763389587,-0.2931272089481354,0.6283482313156128,0.33478039503097534,0.3415738642215729,-0.4524315595626831,0.5653170943260193,-0.04187026992440224,0.14990603923797607,0.9107882380485535,-0.3436683714389801,0.06789202243089676,-0.6298550963401794,0.39844831824302673,0.11449830234050751,0.36811235547065735,0.542832612991333,-0.24536216259002686,-0.10493656992912292,-0.3006446659564972,-0.4191821813583374,0.32785508036613464,0.19889354705810547,0.3677642345428467,0.17160284519195557,-0.47452905774116516,0.1395934522151947,0.4995158016681671,0.5293854475021362,-0.13132032752037048,0.05120694637298584,0.0518493689596653,-1.0239858627319336,0.09266567975282669,0.08633102476596832,0.24313879013061523,0.5156069993972778,-0.24637173116207123,0.3635942339897156,-0.41303396224975586,0.2924472689628601,0.2930539548397064,-0.24106086790561676,-0.25645384192466736,-0.4412977993488312
http://dbpedia.org/resource/Mike_Markkula,-0.06553547084331512,-0.749657392501831,0.7863751649856567,0.43662893772125244,-0.16958343982696533,-0.03905148059129715,-0.22527574002742767,-0.46925047039985657,0.06071745976805687,0.5774801969528198,-0.26625198125839233,-0.3019723892211914,0.025896433740854263,0.4587695300579071,-0.38670799136161804,0.4247182309627533,-0.3110801577568054,0.959587574005127,-0.1460447907447815,-0.09275366365909576,0.16012579202651978,0.20697349309921265,0.034489117562770844,-0.19420494139194489,0.016535459086298943,0.08745481073856354,0.7081972360610962,-0.18722520768642426,-0.35466691851615906,0.08700436353683472,-0.16119344532489777,0.3293418288230896,-0.053361617028713226,-0.1761559545993805,-0.29244837164878845,-0.000864983128849417,-0.07208491116762161,0.30639147758483887,0.5595006942749023,-0.3986431658267975,-0.18055149912834167,0.8566983342170715,-0.08279898762702942,0.4464854598045349,0.2606242597103119,-0.30404022336006165,0.1517486572265625,0.7722076177597046,-0.6711307168006897,-0.2478892207145691,-0.17143221199512482,0.6281164288520813,0.1984379142522812,0.11670613288879395,-0.029163731262087822,-0.4682081937789917,-0.05301204323768616,-0.6251368522644043,-0.17464390397071838,0.6871286630630493,0.2146773636341095,-0.257490336894989,0.04276507720351219,-0.38049691915512085,0.611233115196228,-0.08398288488388062,0.22682707011699677,0.6301981806755066,-0.17069919407367706,-0.16067267954349518,-0.30685195326805115,0.3424539566040039,0.08038810640573502,-0.3623954951763153,0.03311702236533165,-0.039433132857084274,0.05057625472545624,-0.06520680338144302,-0.2260514348745346,0.5094530582427979,-0.2249518483877182,-0.06581299751996994,0.3235349655151367,-0.35467177629470825,-0.5285874605178833,-0.049225207418203354,-0.2945329546928406,0.029444485902786255,-0.16144047677516937,0.6434235572814941,0.4662753939628601,-0.6918773651123047,0.3222925066947937,0.09695107489824295,-0.6908127665519714,0.2866562306880951,0.5633112192153931,0.15235505998134613,0.4872052073478699,0.3895823359489441,-0.13217981159687042,-0.3274187743663788,-0.14921721816062927,-0.21087868511676788,-0.30578339099884033,0.44509661197662354,0.04323821887373924,0.5817739963531494,0.053670790046453476,0.1978607475757599,0.0734185203909874,-0.22815510630607605,-0.11684350669384003,-0.03716863691806793,-0.004561340902000666,-0.5400729179382324,0.17027577757835388,0.4448772072792053,0.2160162776708603,0.15777713060379028,-0.2224138081073761,0.0200509000569582,0.5232900977134705,-0.5118324756622314,0.1602182537317276,-0.028814857825636864,0.16245213150978088,-0.33476200699806213,-0.6406497359275818,1.0943522453308105,0.13056303560733795,-0.3290342390537262,-0.004581994842737913,-0.40435758233070374,0.04281856492161751,0.002620022278279066,0.3080960512161255,0.09752032160758972,0.5962411165237427,0.0026588619221001863,0.15771867334842682,0.2261296510696411,0.06587308645248413,0.5212828516960144,0.07554072886705399,-0.3177691400051117,0.4218813478946686,-0.16426657140254974,-0.10802359879016876,0.34983545541763306,0.5067815780639648,-0.22149480879306793,0.1442103087902069,-0.7191248536109924,-0.1485210359096527,0.01339425053447485,-0.08667600899934769,-0.6696088314056396,0.2966294288635254,-0.4861707389354706,-0.48090699315071106,-0.20609207451343536,0.07305391132831573,-0.2948659062385559,0.4236034154891968,0.17734110355377197,0.6485468149185181,0.45485347509384155,0.1369251012802124,-0.3673885464668274,0.08346132189035416,0.009523172862827778,0.26149967312812805,-0.36736518144607544,0.5143149495124817,0.42365187406539917,-0.08508319407701492,-0.3332791030406952,-0.39366406202316284,0.5184478163719177,0.4455760419368744,-0.5547386407852173,0.15331882238388062,-0.17099235951900482,0.12122301012277603,-0.15668079257011414,-0.5533313155174255,0.2065044492483139,0.3540842533111572,0.11066513508558273,0.10123702138662338,0.24174144864082336,0.22520333528518677,0.33429232239723206,-0.412913054227829,0.39220166206359863,0.3331340551376343,0.11311731487512589,0.02877265401184559,-0.3558642864227295,0.2732938528060913,-0.32078617811203003,-0.2703852951526642,-0.07030604034662247,0.3689660429954529,0.04105471819639206,-0.6206099390983582,0.12191269546747208,-0.037008561193943024,0.009811093099415302,-0.3309154808521271,0.16503003239631653,-0.42281651496887207,0.14201784133911133,0.3969170153141022,-0.04336626082658768,-0.0659603551030159,0.11381255090236664,0.42507877945899963,0.22133073210716248,-0.03751581162214279,-0.027898022904992104,0.3363778591156006,-0.32997429370880127,-0.30242136120796204,0.37445011734962463,0.20048445463180542,0.01430802047252655,-0.16222478449344635,-0.5654079914093018,0.334442138671875,-0.343166321516037,0.04512108862400055,-0.15088386833667755,-0.07640035450458527,-0.07852079719305038,0.325386106967926,0.1532575488090515,-0.6631482839584351,0.4721730649471283,0.4255117177963257,-0.5452142357826233,-0.22299839556217194,-0.04030526801943779,-0.6667512655258179,-0.12776294350624084,-0.11757350713014603,-0.1966385543346405,-0.0609288290143013,0.19006720185279846,0.3354420065879822,-0.2031513899564743,-0.6756926774978638,0.1325637549161911,-0.2810182571411133,0.382572203874588,0.31174689531326294,0.05176182836294174,-0.6434040069580078,0.33236339688301086,0.3411816656589508,-0.21416795253753662,0.5372706651687622,0.10558361560106277,-0.17493903636932373,-0.024470308795571327,0.07804539054632187,0.13860519230365753,0.37453386187553406,0.34542128443717957,0.30051445960998535,-0.23036323487758636,0.2464655190706253,0.3307051360607147,0.4716176986694336,-0.4302540719509125,-0.29117676615715027,0.4354245066642761,0.4978739023208618,-0.04827156662940979,-0.4232322871685028,0.46890127658843994,0.6995047330856323,0.38478657603263855,0.13050609827041626,0.17028145492076874,-0.2555111348628998,0.1883983165025711,0.02627633325755596,-0.24136728048324585,0.1246243566274643,-0.06138394773006439,0.37611261010169983,-0.12177632749080658,-0.05881425365805626,-0.8053058385848999,-0.32081329822540283,0.0852227658033371,-0.24625851213932037,0.1729530394077301,-0.39356303215026855,0.31126928329467773,0.2933736741542816,0.5119280815124512,0.24793431162834167,0.3636259138584137,0.45313167572021484,0.3503166437149048,0.605574369430542,0.07183640450239182,-0.40965864062309265,0.11493657529354095,-0.6090282201766968,0.3245493471622467,0.4230354130268097,0.4038371443748474,0.4463420510292053,0.41606396436691284,0.4897795021533966,0.589127779006958,-0.04248882085084915,-0.09652449190616608,-0.3625739812850952,-0.14240774512290955,0.32811906933784485,-0.3250613510608673,-0.008461778052151203,-0.2473779171705246,0.34020373225212097,-0.33048632740974426,-0.4451961815357208,-0.5622158646583557,0.1262386590242386,0.03292810171842575,-0.28399422764778137,0.040199074894189835,0.3270447552204132,-0.09883593767881393,0.1756257265806198,0.48895952105522156,-0.9042401313781738,-0.1190803274512291,0.4561481475830078,0.19574470818042755,-0.23811011016368866,-0.07002535462379456,0.014769540168344975,0.2304207682609558,-0.19145934283733368,-0.18859554827213287,-0.10341434925794601,-0.29499366879463196,0.30756062269210815,-0.20378229022026062,-0.14439526200294495,-0.20926141738891602,-0.04310475289821625,0.061609942466020584,-0.3001360595226288,0.3081887662410736,-0.0975743904709816,-0.370305597782135,0.5407717227935791,0.12933076918125153,0.056188784539699554,-0.39605942368507385,0.2847670614719391,0.3215183913707733,-0.23857338726520538,-0.041688982397317886,0.0647599995136261,0.5605133175849915,-0.5909842848777771,0.549573540687561,-0.17426377534866333,0.024382105097174644,-0.6345235705375671,0.4454667568206787,0.1893998086452484,-0.5119560956954956,-0.023953940719366074,-0.38843411207199097,-0.14818866550922394,-0.24503092467784882,-0.09537429362535477,0.2569665312767029,0.4271279573440552,-0.7762349247932434,-0.11886545270681381,-0.20125405490398407,-0.4089511036872864,0.41243189573287964,-0.4118765592575073,0.1260632425546646,0.47788089513778687,-0.27206259965896606,0.04052376374602318,-0.13615891337394714,-0.3779449462890625,-0.5455772280693054,-0.25709980726242065,0.2095833718776703,0.04959407448768616,0.315049946308136,0.7614618539810181,-0.17454543709754944,0.3584608733654022,-0.3620677590370178,-0.25394946336746216,-0.2526974081993103,-0.10887087881565094,-0.5415341258049011,0.09338194131851196,0.24936261773109436,0.15990640223026276,0.1590476632118225,0.4943253695964813,0.6246588230133057,-0.6706366539001465,-0.23876385390758514,-0.16938357055187225,-0.010016375221312046,-0.3142787516117096,-0.22366592288017273,-0.0017096088267862797,-0.2375974804162979,-0.5199714303016663,-0.5134518146514893,0.047071702778339386,-0.033538565039634705,-0.10120303183794022,-0.24248124659061432,-0.22289921343326569,0.5608354806900024,-0.13472841680049896,0.32176509499549866,-0.12014450877904892,-0.5313975811004639,-0.3242568373680115,0.20902791619300842,0.32230064272880554,-0.051596660166978836,-0.1425890177488327,-0.7438560724258423,-0.15834972262382507,0.040731433779001236,0.012265673838555813,0.2840575575828552,0.3633829653263092,0.22100356221199036,-0.09130587428808212,-0.7407884001731873,-0.24650345742702484,-0.16489987075328827,-0.028751667588949203,0.5921839475631714,0.21739058196544647,-0.2034733146429062,0.483499675989151,0.4151371121406555,-0.011889799498021603,-0.5317362546920776,-0.302288293838501,-0.20402052998542786,-0.01953079178929329,-0.10090133547782898,0.20098744332790375,-0.6043940186500549,-0.014777599833905697,-0.0063237897120416164,0.06550175696611404,0.5681910514831543,-0.10509439557790756,-0.0882047712802887,0.5534520149230957,-0.4101963937282562,0.2976890504360199,-0.02650914527475834,0.06697460263967514,-0.3770938515663147,0.3333647847175598,-0.3952775001525879,-0.09367842972278595,0.11655387282371521,-0.0023866526316851377,-0.3775283694267273,0.3765884041786194,-0.013680661097168922,0.5120130181312561,-0.33163681626319885,0.182111456990242,0.01136948075145483,0.049650970846414566,0.7309267520904541,0.16994346678256989,0.15958942472934723,-0.04428712651133537,-0.1638343781232834,-0.16720284521579742,-0.0854278951883316
http://dbpedia.org/resource/Infinite_Loop_(street),-0.17911675572395325,-0.5744192600250244,-0.03672840818762779,0.24411194026470184,-0.2129260003566742,0.5122271180152893,-0.410565048456192,-0.2798388600349426,0.1801067441701889,0.7566176652908325,-0.5689845085144043,-0.3103853166103363,0.09601479023694992,-0.06806071102619171,-0.5086793303489685,-0.09790704399347305,-0.4220338463783264,0.3115132749080658,-0.39936405420303345,-0.18610256910324097,-0.15836459398269653,0.08829702436923981,-0.6098456978797913,0.8012800812721252,-0.07391408085823059,0.15258894860744476,0.05661231651902199,-0.11346849799156189,-0.1947818547487259,0.4239245355129242,0.4240928590297699,0.11339566856622696,-0.2136678844690323,0.09540602564811707,0.20615650713443756,0.003852115012705326,0.12450843304395676,0.5428454875946045,-0.0975232645869255,-0.3677389323711395,-0.5050424337387085,-0.07363583147525787,-0.2093096673488617,0.6126023530960083,-0.21101728081703186,0.18764017522335052,0.26003894209861755,0.5285286903381348,-0.45386162400245667,0.17211908102035522,-0.03952496871352196,0.0887526348233223,0.3315455913543701,-0.5736297965049744,0.12490871548652649,0.2864701747894287,0.2640397250652313,0.09207947552204132,0.050152942538261414,-0.05135029926896095,0.1705915927886963,-0.37776845693588257,0.5086917877197266,-0.09579823911190033,-0.059235408902168274,0.02048112079501152,-0.022038472816348076,-0.29927515983581543,-0.24307984113693237,-0.27885007858276367,-0.3348844647407532,-0.23210261762142181,0.18322545289993286,-0.3505406379699707,0.005897548981010914,0.18995149433612823,0.8780009746551514,-0.04502272605895996,-0.012324218638241291,0.2842676341533661,0.1034332811832428,0.179782897233963,-0.1748480200767517,0.48940905928611755,-0.37012913823127747,0.0056885709054768085,-0.2883965075016022,0.14807072281837463,0.28068315982818604,0.5855062007904053,-0.036976393312215805,-0.5770934224128723,0.08356424421072006,-0.48219048976898193,-0.32221609354019165,0.005249422043561935,-0.039039306342601776,-0.3620050847530365,0.2611004710197449,0.0519721582531929,0.26806923747062683,0.37767913937568665,-0.3919065296649933,0.1862434595823288,-0.07373879849910736,-0.3669629693031311,-0.008335186168551445,-0.15969620645046234,-0.5270141959190369,-0.21287591755390167,0.5656457543373108,-0.1511232703924179,0.32083675265312195,-0.19599969685077667,-0.2479529231786728,-0.6233585476875305,-0.041446950286626816,-0.0998365581035614,0.1237630620598793,0.31124770641326904,0.12637872993946075,-0.3287075459957123,0.5001327395439148,0.2469598352909088,0.0963989794254303,0.19805783033370972,-0.023754453286528587,-0.10085830092430115,0.03749445825815201,-0.20087751746177673,-0.31647220253944397,0.21490441262722015,0.6834000945091248,-0.516371488571167,-0.1755620837211609,-0.3250872790813446,-0.7574811577796936,0.32308563590049744,0.2158403992652893,-0.35591262578964233,0.25389528274536133,-0.19095081090927124,-0.2798192799091339,0.07053252309560776,0.24309150874614716,-0.2440337836742401,0.2699838876724243,0.1340218484401703,-0.018939394503831863,-0.14619676768779755,0.4163185954093933,-0.18782366812229156,0.3064952492713928,0.01184972282499075,0.406300812959671,0.39220863580703735,-0.8848704099655151,-0.05211780220270157,-0.09074094891548157,-0.1471567451953888,-0.30589619278907776,-0.44929414987564087,0.7273382544517517,0.15053552389144897,0.13346965610980988,-0.194357767701149,-0.3108680248260498,0.2675560712814331,-0.4475550651550293,0.3712891936302185,0.21247869729995728,0.21091942489147186,0.18032601475715637,-0.3598621189594269,0.2411908358335495,0.8946035504341125,-0.04741713032126427,-0.4483128786087036,0.20301547646522522,0.2918614149093628,0.3825293183326721,-0.7584256529808044,0.3370201587677002,0.16891275346279144,0.03420577198266983,-0.07141413539648056,-0.22116521000862122,0.14955060184001923,0.29282060265541077,-0.33967435359954834,0.34005051851272583,-0.10815529525279999,0.39347025752067566,0.1420070379972458,-0.3668048083782196,-0.19021150469779968,-0.3280695378780365,-0.070172019302845,0.4609712064266205,-0.46572157740592957,-0.2516096532344818,-0.3099242150783539,-0.35019543766975403,-0.2702973783016205,-0.047076042741537094,0.21927164494991302,0.39049437642097473,-0.1929376721382141,-0.2452433854341507,0.4036922752857208,-0.05229979753494263,0.12291763722896576,-0.02519397623836994,0.09159460663795471,0.4887789189815521,-0.2051720768213272,0.35396742820739746,-0.1745707392692566,0.48738330602645874,-0.16588129103183746,-0.5446541905403137,0.6335513591766357,-0.32266509532928467,0.2843247950077057,-0.6684602499008179,0.13083738088607788,0.15642409026622772,-0.17864353954792023,-0.02977673150599003,-0.14814676344394684,0.7770583629608154,-0.5873081684112549,0.23775121569633484,-0.24453142285346985,0.4523085057735443,0.05375328287482262,-0.18471013009548187,0.07419422268867493,-0.4194128215312958,0.03932567685842514,0.16764244437217712,-0.17214351892471313,-0.4712960720062256,0.11130385100841522,-0.2897140383720398,-0.029440531507134438,-0.12184959650039673,-0.07789471000432968,-0.0392814539372921,-0.289441853761673,-0.06427418440580368,-0.1704583317041397,-0.3468203842639923,-0.23294615745544434,-0.12008457630872726,0.366972416639328,0.10181915760040283,-0.11194772273302078,-0.05880502983927727,0.14887036383152008,-0.07732091099023819,-0.32975903153419495,-0.3014606237411499,0.6575592756271362,0.3842129707336426,0.6271728873252869,-0.3994094431400299,0.529041588306427,0.37866801023483276,0.21974609792232513,0.37888243794441223,0.15111324191093445,-0.3983217477798462,0.3406006395816803,0.44264477491378784,0.6129153370857239,-0.005797506310045719,0.08715644478797913,0.4817141592502594,-0.07098270207643509,-0.20196044445037842,0.25875356793403625,0.47330647706985474,-0.05325407534837723,-0.5554138422012329,-0.2981126010417938,0.0972360149025917,-0.11443887650966644,0.15283840894699097,0.12243833392858505,0.1898539662361145,0.3929668366909027,-0.48746928572654724,0.21300414204597473,-0.6415286660194397,0.040894463658332825,0.3793431520462036,0.25668537616729736,-0.2647976875305176,0.085323266685009,0.18492460250854492,0.4842996597290039,0.6282921433448792,-0.40302085876464844,0.14960108697414398,-0.523470938205719,-0.27099889516830444,0.6901881098747253,0.07668469846248627,-0.2052556276321411,-0.39888012409210205,-0.14904262125492096,-0.43156540393829346,-0.17885223031044006,-0.05948353186249733,-0.043875180184841156,0.4309144616127014,0.46145135164260864,0.4740630090236664,0.1852421760559082,0.040077876299619675,0.30194664001464844,-0.44503021240234375,-0.43898236751556396,0.40146663784980774,0.22607332468032837,-0.5906423926353455,-0.3400910496711731,0.5098593831062317,-0.32932940125465393,0.04270964488387108,-0.23639753460884094,0.5261564254760742,0.6296921372413635,-0.010861663147807121,0.35741785168647766,0.870200514793396,0.10389337688684464,0.5889081358909607,0.1587725728750229,-0.4663057327270508,0.2127918303012848,0.6107712388038635,0.4953360855579376,-0.16282188892364502,-0.08265118300914764,0.3222085237503052,0.534686803817749,-0.435979962348938,0.23829685151576996,0.10224424302577972,0.461269736289978,0.14591485261917114,-0.5811976194381714,-0.6144815683364868,-0.25674858689308167,0.14812646806240082,-0.3216816782951355,-0.18672935664653778,0.16070865094661713,-0.25129014253616333,0.007260837126523256,0.09122638404369354,0.3023725152015686,0.17897018790245056,0.16545625030994415,0.2955159544944763,0.20441019535064697,-0.68953937292099,0.05814381688833237,0.2706873416900635,0.4317851960659027,-0.0825791284441948,0.38666078448295593,0.5766028761863708,-0.07769787311553955,-0.03691459447145462,0.8016003966331482,-0.27147167921066284,0.40768980979919434,-0.4163377583026886,0.26389381289482117,-0.14279413223266602,0.2537491023540497,-0.1291268914937973,-0.018754975870251656,0.414066880941391,-0.39335623383522034,0.11752201616764069,0.007648004684597254,-0.2737821638584137,-0.539365291595459,-0.1613757163286209,0.10104212164878845,0.15991900861263275,-0.10488657653331757,0.3813072741031647,0.029560759663581848,0.14939577877521515,0.24568186700344086,-0.2300538569688797,0.11956102401018143,0.19572457671165466,-0.06392525136470795,0.44836845993995667,-0.6090972423553467,0.46173733472824097,-0.4033344089984894,0.3673202395439148,0.1537216305732727,-0.2087082713842392,-0.369949072599411,-0.2982933223247528,-0.424891859292984,0.1510465294122696,0.18292337656021118,-0.2987399399280548,-0.19551758468151093,-0.06780558079481125,-0.24648769199848175,-0.35253483057022095,0.2342527061700821,-0.1269858181476593,0.12049870193004608,-0.24101249873638153,0.4138989746570587,0.09421666711568832,-0.1934160441160202,0.4465472400188446,0.3020172715187073,0.342848002910614,-0.36272749304771423,0.051297422498464584,-0.07464578747749329,-0.7655762434005737,0.5741915106773376,-0.00020330754341557622,-0.605341911315918,-0.09851021319627762,0.032527707517147064,-0.4777807295322418,-0.795918881893158,-0.196543350815773,-0.21144457161426544,-0.8021608591079712,-0.8129125833511353,0.0107609573751688,-0.050641220062971115,0.4144923985004425,0.6481128931045532,-0.37547338008880615,-0.45472151041030884,-0.5675119757652283,-0.2609381079673767,0.28601333498954773,0.6831571459770203,0.12222408503293991,0.44433996081352234,0.1127522885799408,0.28877171874046326,0.23765823245048523,0.047788023948669434,-0.3087756633758545,-0.4085618555545807,-0.2752700448036194,0.3761022388935089,-0.07504083216190338,-0.046006735414266586,0.3416328430175781,-0.0906643494963646,0.12275208532810211,0.13819165527820587,0.17439185082912445,0.3897221088409424,-0.38283443450927734,-0.5273319482803345,0.20621143281459808,0.12460407614707947,-0.1831853836774826,0.013796122744679451,0.13926756381988525,0.067190982401371,-0.39494016766548157,0.14956140518188477,0.051595814526081085,0.1625063419342041,-0.1346757709980011,-0.3263832926750183,0.1280200034379959,-0.3829098045825958,0.31542733311653137,0.1352871060371399,0.3603048026561737,0.2516855299472809,0.21318182349205017,-0.5099974870681763,0.6395276784896851,-0.3970934748649597,-0.1493896245956421,-0.08241936564445496
http://dbpedia.org/resource/Silicon_Valley,-0.06574749201536179,-0.3855261504650116,0.14456236362457275,-0.18192365765571594,-0.5605246424674988,-0.35233086347579956,-0.4554709792137146,-0.008788677863776684,0.09320744127035141,0.6509507894515991,-0.4963822066783905,0.15334898233413696,0.037218958139419556,-0.4419702887535095,0.03197646886110306,-0.1404440999031067,0.25951188802719116,0.045277904719114304,-0.33275967836380005,0.49098527431488037,-0.4698539674282074,0.01824110373854637,-0.006170681212097406,0.25679251551628113,-0.07634538412094116,0.02246220037341118,0.18671341240406036,0.07935202866792679,0.16610540449619293,0.1473173350095749,-0.24733415246009827,0.15442459285259247,0.00811144057661295,-0.5727284550666809,-0.16529664397239685,-0.6444289088249207,-0.143617182970047,0.35873153805732727,0.3847821354866028,0.11792585253715515,-0.17825675010681152,0.49261710047721863,-0.08917346596717834,0.4502897560596466,-0.3451840281486511,0.27665042877197266,0.20664863288402557,-0.04545922204852104,-0.33866366744041443,0.08661872148513794,-0.014599090442061424,0.3400391936302185,0.36240705847740173,-0.39778685569763184,-0.6338935494422913,0.2507750988006592,0.4896588921546936,0.01180578675121069,0.11966729164123535,0.11644642800092697,0.11716753244400024,-0.13655191659927368,0.6523946523666382,0.40781068801879883,-0.263688325881958,-0.2715837061405182,0.1527206003665924,-0.10382264852523804,-0.48346734046936035,0.2965337634086609,-0.18516209721565247,-0.6196933388710022,0.12281658500432968,-0.41250962018966675,0.03893172740936279,-0.2939530611038208,-0.21757900714874268,-0.6311416029930115,0.3440113365650177,-0.42837822437286377,0.1806974560022354,0.03252676874399185,-0.04863033443689346,-0.42612871527671814,-0.4862845242023468,0.3964158296585083,-0.5596610903739929,-0.008253964595496655,0.15414167940616608,0.02358054742217064,0.29366081953048706,-0.20275826752185822,0.1721143275499344,0.06547646224498749,-0.8219811916351318,-0.20205482840538025,-0.16716070473194122,-0.08373600244522095,0.2930312752723694,-0.3811492919921875,-0.30021435022354126,0.09874304383993149,-0.15213759243488312,-0.35656628012657166,-0.17615601420402527,-1.014420747756958,0.28574109077453613,-0.23442573845386505,0.061821792274713516,-0.4312121868133545,0.21288524568080902,-0.036674950271844864,-0.5707791447639465,-0.01859419234097004,0.4643075466156006,-0.05067886784672737,0.23785071074962616,-0.07594660669565201,0.002154199406504631,0.3600158989429474,-0.1046786978840828,0.043268706649541855,-0.8614904880523682,-0.1853816658258438,0.19871462881565094,0.6045123934745789,-0.047642167657613754,0.2388814240694046,0.13749653100967407,-0.1885616034269333,0.40511584281921387,-0.15115152299404144,-0.2705436050891876,-0.3385907709598541,0.6058868169784546,-0.4369717538356781,0.46453040838241577,0.02490069903433323,0.09798470884561539,-0.46662405133247375,0.08424287289381027,-0.7516721487045288,0.6454259157180786,-0.32704827189445496,0.2676175832748413,0.042438700795173645,0.6581531167030334,-0.27414342761039734,0.3096068799495697,0.5225245952606201,-0.15998558700084686,0.4254034161567688,0.5698882937431335,0.43872368335723877,0.18632973730564117,0.23631085455417633,-0.14398887753486633,0.49789807200431824,0.5910252332687378,-0.15603400766849518,0.3363976776599884,-0.14532268047332764,0.6094344258308411,0.48319002985954285,0.7558398246765137,-0.08750417828559875,-0.4936674237251282,0.09297532588243484,-0.2311333268880844,-0.40571358799934387,0.385528564453125,-0.12958039343357086,0.28891006112098694,-0.5640711784362793,-0.2017926275730133,-0.23494406044483185,0.5828014016151428,-0.5379499793052673,0.17769047617912292,0.4061185419559479,-0.0008561983122490346,-0.010823145508766174,-0.6545015573501587,0.0203145369887352,-0.08095932006835938,0.3070383071899414,0.04277133569121361,0.13956540822982788,0.4778424799442291,0.32898783683776855,0.16290134191513062,0.4480161666870117,-0.16768571734428406,-0.2577208876609802,0.2353246659040451,-0.08068829029798508,-0.6456548571586609,-0.47708866000175476,0.29973140358924866,-0.17858247458934784,0.07741003483533859,-0.4164307415485382,-0.07254288345575333,0.18265613913536072,-0.5108696222305298,0.5576664805412292,0.1083354502916336,0.4384799301624298,-0.16920159757137299,-0.03197035193443298,0.046391405165195465,-0.09246077388525009,-0.06746804714202881,0.007599876262247562,0.29393821954727173,-0.34014084935188293,0.32918986678123474,0.01559393759816885,0.056261464953422546,-0.5846023559570312,-0.22735655307769775,0.25548192858695984,-0.0159554835408926,-0.5280284285545349,-0.3036896586418152,0.20860745012760162,0.04562768712639809,0.12504956126213074,0.068388931453228,-0.5193261504173279,0.30879801511764526,-0.3447295129299164,0.41925832629203796,-0.013421831652522087,-0.012852223590016365,-0.2339887171983719,0.36511021852493286,0.07409966737031937,0.029521843418478966,0.2751452922821045,0.2136104553937912,-0.49807143211364746,-0.22604548931121826,-0.11469320207834244,0.25328660011291504,-0.11888184398412704,-0.32162776589393616,-0.12692324817180634,-0.28638994693756104,0.33262431621551514,0.0430276095867157,-0.8457908034324646,-0.4884718358516693,0.35196447372436523,0.29174479842185974,0.3763008415699005,0.24105381965637207,-0.08681140094995499,-0.5366936922073364,0.2073814421892166,0.3831061124801636,-0.2673407793045044,0.23076575994491577,0.4669477343559265,-0.2673516571521759,0.2570442855358124,-0.4556732773780823,0.15180857479572296,0.2905013859272003,-0.42196983098983765,0.01411430537700653,-0.31453168392181396,-0.5757684707641602,-0.24209599196910858,-0.8074687719345093,0.5085360407829285,1.0369206666946411,0.28817152976989746,0.22595864534378052,-0.38220342993736267,0.006779372226446867,-0.33301764726638794,-0.24598602950572968,-0.11698416620492935,-0.05214367061853409,0.3923081159591675,0.30905553698539734,0.29765814542770386,-0.016880163922905922,0.6403434872627258,-0.023900257423520088,-0.07487426698207855,-0.3365956246852875,-0.039301879703998566,0.10764556378126144,0.29116082191467285,0.18461856245994568,-0.31869134306907654,-0.15581393241882324,0.2533053457736969,-0.5530616641044617,0.5057348608970642,0.40813109278678894,-0.18852977454662323,0.2595702111721039,0.19092118740081787,-0.6527379751205444,0.6899316310882568,0.18199734389781952,0.25005167722702026,0.20298878848552704,-0.01596156507730484,-0.1790747046470642,0.33239907026290894,0.33125337958335876,-0.26528674364089966,0.39248308539390564,-0.30868926644325256,-0.18741656839847565,0.6677202582359314,0.16429589688777924,-0.07752905040979385,-0.4181031584739685,-0.45295092463493347,-0.20340418815612793,-0.1729709953069687,-0.31470566987991333,-0.12629610300064087,0.2735402286052704,0.17952382564544678,0.626574695110321,-0.27516719698905945,0.7574905753135681,-0.03657171502709389,0.5472785234451294,0.9644002318382263,0.24840262532234192,0.08498717099428177,0.24020208418369293,-0.1428702026605606,0.03194352984428406,0.08166081458330154,-0.3236176669597626,-0.43983837962150574,0.1956857144832611,-0.07517939805984497,0.27543124556541443,0.4001062214374542,-1.2514759302139282,0.0018244055099785328,0.4285662770271301,0.42902520298957825,0.034658707678318024,-0.9441950917243958,-0.17211171984672546,-0.12136518955230713,0.28932327032089233,0.30888766050338745,-0.0571548156440258,0.2822948694229126,-0.32304349541664124,-0.02617049776017666,-0.07029714435338974,0.03313339501619339,0.13153575360774994,-0.021466339007019997,0.39261874556541443,-0.14573036134243011,-0.19405309855937958,0.4562495946884155,0.6330746412277222,0.4920201897621155,-0.21953536570072174,0.4075768291950226,0.21348577737808228,-0.09796538203954697,-0.9896029829978943,0.15771964192390442,-0.2569088935852051,-0.07642167061567307,-0.5132030844688416,0.5581881999969482,0.6335463523864746,-0.10748565196990967,0.5599279999732971,0.17426875233650208,0.0885218009352684,-0.4806307256221771,-0.0064529231749475,-0.6795462369918823,-0.556154191493988,-0.6799888014793396,-0.2209075540304184,0.15225854516029358,0.5382142663002014,0.701121985912323,-0.4978899359703064,0.07964956015348434,-0.10585286468267441,-0.36874720454216003,0.23676137626171112,0.10911529511213303,-0.2943599224090576,0.46278733015060425,0.5813688039779663,0.3963782489299774,-0.3179650604724884,0.2225833684206009,-0.17512597143650055,-0.25141507387161255,-0.035669583827257156,0.10609449446201324,0.1710355281829834,0.37444430589675903,0.5021865963935852,0.5801736116409302,0.26989641785621643,0.4059072434902191,0.19017936289310455,0.05597084388136864,-0.4102841317653656,-0.23303522169589996,0.3097887933254242,0.2139352411031723,-0.8165704011917114,0.035624485462903976,-0.15506009757518768,-0.279363751411438,0.21100535988807678,0.026558250188827515,-0.24267005920410156,-0.47841623425483704,0.20449621975421906,-0.5013207197189331,-0.4257389307022095,-0.5127084255218506,0.2999955713748932,-0.6303073167800903,-0.12264370173215866,-0.1700492799282074,-0.05690894275903702,-0.11725544929504395,-0.548669159412384,-0.04289655014872551,-0.44124332070350647,-0.6574977040290833,0.22813037037849426,0.3118610680103302,-0.2759910523891449,0.8667926788330078,0.06178101524710655,-0.1908939927816391,-0.3134496212005615,0.4174681305885315,0.045908864587545395,0.10954231768846512,-0.23311805725097656,0.19019675254821777,0.3014460802078247,0.4307202696800232,-0.5148338079452515,-0.2585674226284027,-0.3021543323993683,-0.8146394491195679,-0.2939840853214264,0.1617947369813919,0.2015749216079712,0.039163149893283844,-0.5894736647605896,0.6415836811065674,-0.06736184656620026,0.009691772051155567,0.8126295208930969,0.2050279825925827,-0.1464725136756897,-0.14909502863883972,-0.037313636392354965,-0.005502605345100164,-0.9037419557571411,0.6982342004776001,-0.3174806237220764,-0.398860365152359,-0.2717338800430298,-0.06620325148105621,-0.16675488650798798,0.7219748497009277,0.16896457970142365,0.053555116057395935,0.622137188911438,-0.5315536260604858,0.3061472773551941,0.4368216395378113,-0.3220721483230591,-0.41179150342941284,0.5091193318367004,-0.287612646818161,-0.04477253183722496,0.47930052876472473,-0.30378231406211853,0.28258052468299866
http://dbpedia.org/resource/NeXT,0.5266966223716736,0.550739586353302,-0.1424308717250824,0.5475269556045532,0.04188596084713936,0.8034175038337708,-0.2998318374156952,-0.40701842308044434,0.5293177366256714,1.0193613767623901,-0.7936985492706299,-0.29659339785575867,-0.9004537463188171,0.48210105299949646,0.3363805413246155,-0.00644719647243619,0.5410611629486084,0.21363204717636108,-0.5209164023399353,0.02494252473115921,-0.41373398900032043,-0.24211470782756805,-0.10543542355298996,-0.048847928643226624,-0.3783387541770935,0.5593322515487671,0.5759660601615906,-0.30162227153778076,-0.591080904006958,0.3758908808231354,0.018076907843351364,1.052645206451416,-0.8588120341300964,-0.8801845908164978,-0.23677273094654083,-0.10061360895633698,-0.7519559860229492,0.13074557483196259,0.626677930355072,0.5875314474105835,-0.17365552484989166,-0.4307916760444641,0.016418879851698875,1.380506157875061,0.17294348776340485,0.37975069880485535,-0.4006502628326416,0.3413533568382263,-1.12833571434021,-0.8593466877937317,-0.4282013177871704,-0.22221040725708008,0.028793778270483017,-0.9078890085220337,-1.7116249799728394,0.06312895566225052,0.20801067352294922,-0.4214419722557068,-1.2049555778503418,0.17906391620635986,0.6826354265213013,0.8899338245391846,-0.012100137770175934,-0.4612513482570648,-0.23429054021835327,0.3094015419483185,0.4973738193511963,0.8174755573272705,-0.4684354066848755,0.8932276964187622,0.9450731873512268,-0.2398882508277893,0.5636448860168457,-0.4500236511230469,-0.5830450057983398,-0.720000684261322,-0.47777259349823,-0.9094703793525696,0.28547197580337524,-0.12414418905973434,-0.13335172832012177,-0.06752574443817139,-0.6325306296348572,-0.6135926246643066,0.08475328236818314,-0.46875515580177307,-0.51047682762146,0.04505924507975578,-1.0966588258743286,0.6172108054161072,0.010366900824010372,0.1959376186132431,0.5436453819274902,-0.2871074378490448,0.24788865447044373,0.004274764098227024,-0.7670040130615234,0.17571601271629333,0.6638448238372803,1.1029919385910034,-0.7617691159248352,-0.3753320276737213,-0.9684146642684937,0.29259103536605835,0.20976923406124115,-0.6049152612686157,-0.05494513362646103,-1.2214775085449219,-0.6966707706451416,-0.4909086525440216,0.10288484394550323,-0.18396732211112976,0.7022346258163452,0.3064703643321991,-0.2259383201599121,-0.9641252160072327,-0.07086105644702911,0.6178261041641235,0.7703499794006348,-0.23164373636245728,0.5677388906478882,-0.5589427947998047,0.6265089511871338,0.34334734082221985,0.11587497591972351,-0.7290922403335571,-0.0602879673242569,0.9919953346252441,0.06060425564646721,-0.31836867332458496,0.3936325013637543,0.5431593656539917,-0.5391141176223755,-1.1048877239227295,0.6823738813400269,-0.7200891971588135,-0.07268417626619339,0.27431392669677734,0.26290029287338257,-0.15600033104419708,-0.5374801754951477,-0.6093765497207642,-0.40749627351760864,-0.1649978756904602,-0.6648910641670227,-0.3129497766494751,1.3146076202392578,0.03411838784813881,-0.7591041326522827,0.19530841708183289,0.8669501543045044,0.004276178311556578,0.23026718199253082,-0.8042156100273132,-0.2043919414281845,-0.3022017180919647,-0.7443899512290955,1.2944175004959106,0.36338916420936584,-1.4248158931732178,-0.17324844002723694,0.09923740476369858,0.6763496994972229,-0.28729209303855896,0.18478327989578247,1.0236155986785889,-0.07061595469713211,0.8112277388572693,-0.05825568735599518,0.2550823986530304,-0.5277532935142517,0.1947585940361023,0.6704976558685303,-0.20997488498687744,-0.3448212444782257,0.3715957701206207,-0.16572150588035583,0.8132755756378174,-0.6349607110023499,-0.4677332639694214,0.71368408203125,-0.1714264303445816,0.03969551622867584,0.1425141841173172,0.751707136631012,-0.007426017429679632,0.24490079283714294,0.40511277318000793,-0.14911328256130219,-0.3425647020339966,0.006493639200925827,0.43747806549072266,-0.9516543745994568,0.6765374541282654,0.10591811686754227,-0.3866075277328491,-0.5924408435821533,0.7574861645698547,0.45452752709388733,0.34674233198165894,-0.015981802716851234,-0.4211350679397583,-0.5163849592208862,-0.6774455308914185,-0.39585259556770325,-0.06781826168298721,0.5095680356025696,0.4202575385570526,1.530995488166809,0.3796637952327728,0.16492792963981628,0.16914962232112885,-0.1414792686700821,-0.1648598462343216,0.9860243797302246,-0.4999619126319885,1.1227948665618896,-0.7019780874252319,0.25436028838157654,0.03132060542702675,-0.8736889958381653,0.24631062150001526,0.26554274559020996,-0.9330630898475647,-1.242204189300537,0.7554240226745605,0.12275566160678864,-0.050182078033685684,0.4530099034309387,0.2684398293495178,0.9200387001037598,0.21283097565174103,0.3357306718826294,-0.160546213388443,0.5122644305229187,-0.6049800515174866,0.009785403497517109,-0.19632871448993683,0.2306360900402069,0.5329998731613159,0.5507299304008484,-0.9920806288719177,-0.3225367069244385,0.5051834583282471,-0.09686063230037689,0.6488565802574158,0.6491268873214722,-0.27718058228492737,1.1261028051376343,1.0492370128631592,0.1933053433895111,-0.021436430513858795,-0.9039768576622009,-0.007542440667748451,0.38415196537971497,-0.5765535831451416,0.05669666454195976,-0.11475134640932083,-0.20711231231689453,0.19878189265727997,-0.5857530236244202,1.0406785011291504,-0.3964426815509796,0.8030360341072083,0.33050909638404846,-0.6165026426315308,-0.45202308893203735,0.0007451236015185714,0.6744133234024048,-0.8878379464149475,0.8356027007102966,-0.1014338806271553,-0.43428587913513184,0.41610386967658997,0.1502811461687088,0.06029480695724487,0.7451056241989136,0.7069925665855408,0.6687460541725159,0.16593848168849945,-0.3244013488292694,-0.18592704832553864,0.7849649786949158,0.1186639592051506,0.0448339469730854,-0.04642350226640701,0.08291134983301163,-0.85118168592453,0.2452165186405182,0.8782984614372253,-0.09270810335874557,0.11749350279569626,0.970190167427063,-0.1381024569272995,0.5373828411102295,0.05136038362979889,0.005114322993904352,-0.42540380358695984,0.4962218999862671,0.35226917266845703,-0.1701691448688507,0.03412697836756706,0.3952966630458832,0.6515870094299316,-0.1627809852361679,-0.2442978173494339,1.0645114183425903,0.7830309271812439,0.3051064610481262,-0.06552962213754654,0.4432434141635895,-0.42866408824920654,-0.31965339183807373,1.1922523975372314,-0.08832702785730362,0.5043794512748718,0.8183186054229736,-0.5816260576248169,0.374103844165802,0.6795803308486938,-0.4412221908569336,0.31892094016075134,-0.07438777387142181,-0.4541357755661011,0.10981114953756332,-0.4329609274864197,-0.34726569056510925,-0.13831371068954468,-0.20106470584869385,0.2194342464208603,0.3049863576889038,-0.2779806852340698,0.5487425327301025,0.30985569953918457,0.4545822739601135,0.28778892755508423,0.7304637432098389,0.7033865451812744,0.18763390183448792,0.2802078425884247,-0.4923453629016876,0.9004421234130859,-0.19512557983398438,0.36117514967918396,0.11211834847927094,0.33673417568206787,0.4307807683944702,0.19566625356674194,-1.3423902988433838,1.0037059783935547,0.18011873960494995,0.3481822907924652,-0.07451920956373215,-0.5600261688232422,-0.9592841863632202,-0.23655946552753448,0.3458893895149231,0.23713913559913635,-0.32598263025283813,-0.15744097530841827,0.5085614323616028,-0.320665180683136,0.5254983901977539,-0.029482169076800346,0.7070106267929077,0.1421685367822647,0.956209659576416,-0.15759168565273285,-0.4451642632484436,-0.39238929748535156,0.20329506695270538,0.34208041429519653,-0.6303070783615112,-0.21909043192863464,-0.1523786336183548,-0.41511228680610657,-0.545825183391571,0.3198155164718628,0.4725683033466339,1.001452088356018,-0.8490161895751953,0.892670750617981,0.6038303375244141,0.04301414266228676,-0.100862056016922,-0.26432499289512634,-0.728558361530304,0.03905349597334862,0.9688848853111267,0.5301429629325867,0.4009232521057129,-1.0947169065475464,0.34928828477859497,0.18873724341392517,0.0523984469473362,0.37869301438331604,-0.00033437079400755465,-0.07893093675374985,0.4942047894001007,0.16780200600624084,-0.634319543838501,-0.04820336401462555,-0.0664452388882637,-0.07647666335105896,0.3800206482410431,0.23682516813278198,-0.18130171298980713,-0.22093185782432556,0.24742341041564941,0.0542827844619751,0.14746861159801483,-0.6410884261131287,0.1882144659757614,0.8996111154556274,-0.05670921877026558,-0.0579071044921875,-0.10027468204498291,0.39970242977142334,0.5564422011375427,-0.43416863679885864,-0.11052978038787842,0.2631300389766693,-0.9582520723342896,0.3320997953414917,-1.2132699489593506,-1.1910957098007202,-0.6540101766586304,-0.1163245216012001,-0.11223877966403961,0.2831028401851654,0.6141368746757507,-0.032727520912885666,0.38774392008781433,0.49920329451560974,0.1402045488357544,-0.4427267014980316,0.20474477112293243,-0.2139400988817215,0.18806137144565582,0.5355483293533325,0.6065137982368469,-0.1504923403263092,-0.585844874382019,-0.36656638979911804,0.37972116470336914,-0.7408934235572815,0.24643567204475403,0.638950765132904,0.19009095430374146,0.6616625189781189,0.3934243321418762,-0.4748828709125519,0.5315152406692505,0.7237785458564758,-0.27838510274887085,1.1511255502700806,-0.12114569544792175,0.3397041857242584,0.5928803086280823,-0.38249513506889343,-0.559088408946991,-0.37461572885513306,-0.49786388874053955,-0.03216466307640076,0.5415072441101074,-0.31074070930480957,0.24068981409072876,-0.43238183856010437,-1.2875045537948608,0.9922815561294556,0.26761841773986816,-0.5519449710845947,1.0367591381072998,0.043964214622974396,0.02370728924870491,-0.32277366518974304,0.12667235732078552,0.5367505550384521,-1.1708472967147827,0.9088004231452942,-0.20422795414924622,0.4560583531856537,-0.6399657726287842,0.8826353549957275,-0.29848116636276245,-0.4421899616718292,0.03159424662590027,-0.3796587288379669,0.7157689929008484,-0.17796266078948975,0.15925683081150055,0.5588514804840088,0.11438232660293579,0.6672900319099426,0.3510719835758209,0.5783640742301941,0.5858919024467468,0.3663937449455261,-0.9335386753082275,0.8462455868721008
