http://dbpedia.org/resource/Apple_Inc.,0.22539392113685608,0.22953037917613983,-0.14139503240585327,-0.05481058731675148,0.34615832567214966,-0.1442720890045166,-0.13400517404079437,-0.6062586307525635,0.11308876425027847,-0.49074527621269226,-0.3335576057434082,-0.11080129444599152,0.310596227645874,-0.2582789361476898,0.18017098307609558,0.05672497674822807,0.5256210565567017,-0.11587908864021301,-0.25358206033706665,0.04894738271832466,-0.4936154782772064,-0.31561779975891113,0.34496209025382996,0.349712610244751,0.3568958044052124,0.06456261873245239,-0.30123448371887207,0.1352301388978958,-0.5853301882743835,0.10588330030441284,0.5352945327758789,-0.7404656410217285,-0.5853899717330933,0.16258791089057922,-0.24444320797920227,0.3805319666862488,0.36107560992240906,-0.06435412913560867,-0.3134111166000366,-0.23807257413864136,0.47588497400283813,-0.09163285791873932,-0.23854310810565948,0.7689419388771057,-0.20274099707603455,0.7413262724876404,0.3633143901824951,0.02738722413778305,0.08998487144708633,0.15330137312412262,-0.10570497065782547,-0.8693410754203796,-0.3859616816043854,0.45818454027175903,-0.01871512085199356,0.15325021743774414,-0.1408209502696991,-0.23672355711460114,0.09865935146808624,0.13460060954093933,0.2537471354007721,-0.21556635200977325,-0.3318202495574951,-0.22035600244998932,0.019335996359586716,0.3654414117336273,-0.5352033376693726,0.10021118074655533,-0.09013620018959045,0.0304950550198555,0.8061023950576782,-0.4398532807826996,0.2001199871301651,-0.5795561671257019,-0.08209966123104095,-0.3778759837150574,0.9033371806144714,-0.046040017157793045,0.0501229465007782,-0.25543949007987976,0.17658258974552155,0.39558443427085876,0.5859732627868652,0.10652390867471695,0.07688578218221664,-0.535892128944397,0.0813651755452156,0.009277277626097202,0.8802105188369751,-0.6286600828170776,-0.2598969340324402,-0.04372652247548103,0.04262213781476021,-0.6820068359375,-0.16234199702739716,0.0060332524590194225,0.5246766209602356,-0.2915906012058258,0.0649973526597023,-0.969200074672699,-0.9853368997573853,0.3047529458999634,0.2563857138156891,0.08515109866857529,0.1033061146736145,-0.18520870804786682,0.42419278621673584,-0.7760818004608154,0.3126603066921234,0.16593390703201294,0.2695634365081787,0.2618965208530426,-0.46414244174957275,0.5036048889160156,-0.061708465218544006,-0.1077549159526825,0.5085060596466064,0.6228663921356201,-0.5144822001457214,-0.5296118259429932,-0.38803741335868835,0.001836298732087016,0.6126022338867188,0.4219040274620056,0.04887159913778305,-0.2442294955253601,-0.16732211410999298,0.5722882747650146,0.7366526126861572,0.23461225628852844,0.4302513003349304,-0.49641430377960205,-0.2066129744052887,0.4518134295940399,-0.15955406427383423,-0.31379178166389465,0.019884034991264343,-0.43316057324409485,-0.17272557318210602,0.039919413626194,-0.07342317700386047,0.41797518730163574,-0.08207408338785172,-0.06799989938735962,-0.37465277314186096,0.9898800253868103,0.10279572010040283,-1.0498459339141846,-0.350278377532959,0.4635786712169647,-0.17291246354579926,0.4297091066837311,-0.7134666442871094,0.05829484015703201,-0.2016255110502243,0.011906580068171024,-0.2090991735458374,0.1588868349790573,0.21176163852214813,0.6921669244766235,0.4567326307296753,-0.5089927911758423,0.07807964831590652,0.4072743356227875,-0.3744933605194092,0.271691232919693,-0.1861933469772339,-0.3255005478858948,0.09631892293691635,0.30781182646751404,-0.20353630185127258,-0.044947102665901184,0.31347665190696716,0.1851903200149536,-0.12594899535179138,0.16562087833881378,0.2627711296081543,-0.01845155842602253,-0.6851730346679688,-0.260298490524292,-0.8431475162506104,-0.2116820365190506,0.37835970520973206,-0.028552619740366936,0.34655383229255676,-0.4881492555141449,-0.5385499596595764,-0.009610801003873348,-0.8103606104850769,0.7965710759162903,-0.21319246292114258,0.34219780564308167,0.0686226561665535,0.5229450464248657,-0.48795920610427856,0.18616920709609985,0.16314393281936646,0.9082449078559875,0.7652506828308105,-0.34815749526023865,0.42942163348197937,-0.17461295425891876,0.5051395297050476,0.1393088400363922,0.29998522996902466,0.0016155409393832088,0.21207208931446075,-0.4454761743545532,-0.44555234909057617,-0.12168420106172562,0.4311675429344177,-0.11420008540153503,0.33968573808670044,0.7490679621696472,-0.03690044581890106,0.07907997071743011,-0.4030689597129822,0.25444403290748596,-0.12749870121479034,0.4981653392314911,0.8313479423522949,-0.41108977794647217,0.09349368512630463,0.008808703161776066,-0.4663880169391632,-0.464984267950058,0.49389466643333435,0.16332480311393738,0.34135138988494873,0.003687516786158085,0.15793663263320923,0.5934865474700928,-0.37056899070739746,-0.4423752725124359,0.6307870149612427,0.047291673719882965,0.167751744389534,0.17231619358062744,0.03138346970081329,-0.09488733112812042,-0.20809639990329742,0.06559763103723526,0.36712151765823364,0.4287908673286438,0.11968619376420975,-0.8662723302841187,0.014761357568204403,0.10293381661176682,0.0023046142887324095,-0.2854098081588745,0.3559897840023041,-1.189165711402893,0.12292531132698059,-0.19200852513313293,-0.08375933766365051,0.09961123764514923,-0.08587910979986191,0.20654532313346863,0.09278922528028488,-0.28412073850631714,-0.49773257970809937,0.3572133779525757,0.4802868664264679,0.22950585186481476,0.39666780829429626,0.14276060461997986,0.3778444826602936,-0.19634811580181122,0.12202099710702896,0.19437354803085327,0.17496849596500397,-0.5885781049728394,0.3086126744747162,-0.17532703280448914,0.2969798445701599,-0.11773041635751724,-1.24468994140625,-0.40643641352653503,0.18275023996829987,-0.278991162776947,0.2804780900478363,0.26850348711013794,0.2811031937599182,-0.24529916048049927,0.06137492507696152,-0.38205471634864807,-0.20291371643543243,-0.4504334330558777,-0.0016605946002528071,0.17194974422454834,-0.06313888728618622,0.32674145698547363,-0.0771336704492569,0.5641604661941528,0.44497448205947876,-0.22413887083530426,-0.13058944046497345,0.30360570549964905,-0.31920239329338074,0.21083509922027588,0.7337214350700378,0.4758704900741577,-0.0037706114817410707,-0.3454471230506897,-0.23115068674087524,0.4194009602069855,0.3271677494049072,-0.5059921145439148,-0.027339786291122437,0.7190342545509338,0.0589604452252388,0.383041650056839,0.42717504501342773,-0.5459997653961182,0.18357470631599426,0.049585919827222824,-0.29890742897987366,0.06288400292396545,-0.034132275730371475,0.45875313878059387,-0.358921617269516,-0.8998609781265259,-0.8231207132339478,0.350140243768692,-0.16612426936626434,0.39479586482048035,-0.2568424940109253,0.6384347081184387,-0.16080643236637115,-0.13733278214931488,-0.11490985006093979,0.04671657085418701,-0.08245270699262619,-0.5290924906730652,0.01898491382598877,0.1804972141981125,0.05911600962281227,0.23939760029315948,-0.5057165622711182,-0.3095223903656006,1.1170387268066406,-0.9250608086585999,-0.47382259368896484,0.5177128911018372,-0.2999246120452881,-0.3417392373085022,0.19689758121967316,-0.40146082639694214,0.3193391263484955,0.7087791562080383,-0.07026347517967224,0.04897281527519226,-0.3172762095928192,0.25796496868133545,0.08638358861207962,-0.08947659283876419,0.21787598729133606,0.2417033612728119,0.2706124484539032,0.23875242471694946,-0.8487312197685242,-0.37270328402519226,-0.011330648325383663,0.48458191752433777,-0.48169127106666565,-0.07180668413639069,-0.015118500217795372,0.16104041039943695,0.35087430477142334,0.1915043592453003,0.7342018485069275,0.1884198933839798,-0.6261134743690491,0.35930079221725464,0.2074897140264511,0.4024573564529419,0.516586422920227,-0.7919026613235474,0.32127201557159424,-0.35464945435523987,0.18022306263446808,-0.6438620686531067,0.29568642377853394,0.11904708296060562,-0.38245704770088196,0.04867326840758324,0.4417199194431305,0.9667636156082153,0.20054619014263153,0.2265259474515915,0.6927888989448547,0.1352453976869583,0.4999701976776123,-0.11931594461202621,-0.14745250344276428,0.3230677843093872,0.20960991084575653,-0.009179257787764072,0.04689742252230644,-0.003741078544408083,0.23120532929897308,0.16673019528388977,-0.02650473266839981,-0.09894582629203796,0.13470353186130524,-0.3910866379737854,0.2635609805583954,-0.14457352459430695,0.2174655646085739,0.3456327021121979,0.4547128677368164,-0.16720987856388092,0.37488406896591187,-0.4198704659938812,-0.09145563840866089,-0.0026211042422801256,-0.31565940380096436,0.0782124251127243,0.4916571080684662,0.2761147618293762,0.6523564457893372,-0.14845947921276093,0.27214011549949646,0.1703839749097824,-0.38737156987190247,-0.05525873973965645,0.03248819708824158,0.6817556619644165,-0.47017207741737366,0.1402871012687683,-0.13737347722053528,0.23294083774089813,0.07902643084526062,0.20730902254581451,0.585877537727356,0.26863664388656616,0.26549533009529114,0.01435187179595232,-0.39126044511795044,-0.17372748255729675,-0.19626562297344208,0.2691459059715271,0.09883689880371094,-0.6920508742332458,-0.0949825793504715,-0.10773696005344391,0.3965509533882141,-0.36779138445854187,-0.02300122193992138,-0.22611606121063232,0.0975879579782486,0.30571842193603516,-0.18634921312332153,0.35573050379753113,0.41084593534469604,0.2904169261455536,-0.0692172646522522,0.3306022882461548,-0.35484734177589417,-0.07651934772729874,-0.3003474473953247,0.05080265551805496,0.7706555724143982,-0.18667401373386383,0.11296193301677704,0.44465717673301697,-0.11503251641988754,-0.163948193192482,-0.6148514747619629,-0.17461679875850677,-0.031770430505275726,0.6510078310966492,-0.06065044552087784,-0.05245344340801239,-0.263200968503952,0.4875851571559906,0.36911866068840027,0.4339965879917145,-0.2242671698331833,-0.08202186226844788,0.4725096523761749,-0.009361031465232372,-0.41186127066612244,-0.1792454570531845,-0.3623022437095642,0.2101447433233261,0.8433787226676941,-1.14433753490448,-0.3896063566207886,-1.027101993560791,0.15961414575576782,-0.7460356950759888,0.413369357585907,-0.3503681719303131,-0.20928668975830078,0.21008700132369995,0.030131900683045387,-0.2847267985343933,-0.4519316256046295,-0.09363115578889847
http://dbpedia.org/resource/Steve_Jobs,-0.1639096438884735,0.8289482593536377,0.355208158493042,0.0837787389755249,0.1704513430595398,-0.16812139749526978,0.31121137738227844,-0.1756250262260437,0.07249340415000916,-0.01715903915464878,-0.19619567692279816,0.4918713867664337,-0.9259694218635559,0.43599534034729004,-0.29952019453048706,0.46456071734428406,0.7307190895080566,-0.3424781858921051,0.05953818932175636,0.33207961916923523,0.48004454374313354,-0.45465797185897827,0.1687692552804947,0.295444130897522,0.048023536801338196,-0.5084385871887207,0.08344583958387375,-0.0871005430817604,-0.07668524980545044,0.1791163831949234,-0.052993807941675186,0.5159464478492737,0.12037014961242676,0.05711032822728157,-0.05964966490864754,-0.03413737937808037,-0.629576563835144,0.3230317533016205,-0.08495049923658371,-0.20021335780620575,0.3349483609199524,-0.5889026522636414,0.30432215332984924,0.12248516827821732,-0.415709912776947,-0.3005785644054413,0.3512515127658844,0.08289746195077896,0.2066928595304489,0.24553269147872925,-0.3593986928462982,-0.1113116592168808,0.368767648935318,0.03712790459394455,0.21748408675193787,0.3767002820968628,-0.3058108985424042,0.08082975447177887,0.006303681991994381,-0.6243665218353271,-0.013670836575329304,0.08987291157245636,-0.7162182927131653,0.8621683120727539,0.7784080505371094,0.004631109535694122,-0.08890698105096817,0.35995352268218994,-0.12961618602275848,-0.014214819297194481,0.2672775387763977,0.13649192452430725,0.00138241914100945,-0.3138335645198822,-0.10527098923921585,0.30257511138916016,-0.15448139607906342,0.016796603798866272,-0.8027161955833435,-0.7097741365432739,-0.42959246039390564,-0.10053824633359909,0.28356122970581055,-0.2582654058933258,0.10246872901916504,-0.658255398273468,0.33050042390823364,0.47960469126701355,-0.2153719961643219,0.3050015866756439,-0.1258254498243332,0.12566640973091125,-0.02674613706767559,0.30217453837394714,-0.44730421900749207,-0.010728109627962112,0.24609819054603577,-0.2683933675289154,0.2800919711589813,-0.4009924530982971,-1.0192631483078003,0.36657920479774475,-0.2192053198814392,-0.36753198504447937,0.5587087273597717,0.09547419846057892,0.13289332389831543,-0.05345090106129646,0.11431165784597397,-0.595624566078186,-0.15369339287281036,0.2098488062620163,-0.25841039419174194,-0.0065820650197565556,-0.39104369282722473,0.36894047260284424,0.1680147498846054,-0.02927614003419876,-0.3282891809940338,-0.20850536227226257,-0.26324620842933655,-0.7339302897453308,0.37423810362815857,-0.14248719811439514,-0.055657096207141876,-0.18156370520591736,-0.6866589188575745,0.528843343257904,0.25229108333587646,0.26236265897750854,0.33150914311408997,-0.2783961892127991,-0.5817049741744995,-0.024861492216587067,0.21801607310771942,-0.07009213417768478,-0.31372925639152527,-0.06596247106790543,-0.48517704010009766,0.5163716673851013,-0.12299131602048874,0.15212219953536987,-0.1893535852432251,0.3885108232498169,-0.23764093220233917,0.40642157196998596,0.06794768571853638,-0.3521456718444824,-0.2754654586315155,-0.084615558385849,-0.3282018005847931,0.23844781517982483,0.10345664620399475,-0.6073420643806458,-0.03785489872097969,0.21441441774368286,0.6224455237388611,0.2893289625644684,0.1736762523651123,-0.10015241801738739,-0.23735101521015167,0.07859131693840027,0.09610193222761154,0.3248070180416107,-0.06668476015329361,0.6409426927566528,0.34232187271118164,-0.237821564078331,-0.04569605365395546,0.5558609962463379,0.3413378596305847,0.35462963581085205,-0.20200678706169128,-0.05587396025657654,-0.19633466005325317,0.24632102251052856,-0.11771255731582642,0.3278898596763611,0.0354808047413826,-0.1473722904920578,-0.3241185247898102,0.03312010318040848,0.2378254532814026,-0.1461290568113327,-0.4518280327320099,-0.4890405535697937,0.09989243745803833,0.1288701891899109,-0.635053813457489,0.12360286712646484,-0.257359117269516,0.008050010539591312,-0.27344757318496704,0.6142765283584595,-0.26489102840423584,-0.15654590725898743,0.1819792240858078,0.48511549830436707,0.046057987958192825,0.2040765881538391,0.400305837392807,-0.40715697407722473,-0.7344199419021606,-0.4875570237636566,-0.1535971760749817,-0.18917503952980042,0.5729027390480042,0.5020639896392822,0.04633583873510361,-0.49189913272857666,0.41700124740600586,-0.06422092765569687,-0.18789508938789368,-0.03892745077610016,-0.14199912548065186,0.3706899881362915,-0.13316206634044647,-0.0750272125005722,-0.3187984824180603,0.1005977988243103,0.39999011158943176,-0.5443899035453796,-0.34540027379989624,-0.44489479064941406,-0.342588871717453,0.14644992351531982,0.2588423490524292,0.4673202931880951,0.09461362659931183,0.12748271226882935,0.38482666015625,-0.181383416056633,0.16905203461647034,-0.2850816547870636,0.01600331999361515,-0.26042577624320984,-0.16871149837970734,0.30706292390823364,0.31702685356140137,0.6745842695236206,-0.27428266406059265,-0.10499246418476105,0.14732496440410614,0.11104094237089157,-0.13662700355052948,-0.33332476019859314,-0.5234968066215515,-0.14582286775112152,-0.020755449309945107,0.09357792139053345,-0.1846415102481842,-0.1301702857017517,0.11381199955940247,-0.1654026359319687,0.3165034055709839,-0.1805252730846405,-0.35884758830070496,0.18039724230766296,0.04145402833819389,-0.17694629728794098,0.10785549879074097,0.5481078624725342,0.4507131576538086,0.0959012508392334,0.45179760456085205,-0.1726759672164917,0.08786305040121078,-0.03482813760638237,0.33893200755119324,0.525600016117096,0.5669965147972107,0.06803413480520248,0.2360704094171524,0.29583093523979187,0.011219676584005356,0.9928503036499023,-0.1840977817773819,-0.26694387197494507,0.3293724060058594,0.29971715807914734,-0.2882591187953949,-0.4029974341392517,-0.063827745616436,-0.2425820231437683,0.07929400354623795,0.3451424837112427,-0.21435172855854034,0.44781598448753357,-0.14940476417541504,0.3206847012042999,-0.14919595420360565,0.35371917486190796,0.7618234157562256,0.1907564103603363,-0.19229699671268463,0.45207586884498596,0.05507960915565491,0.06488940864801407,0.01760248653590679,0.17879247665405273,0.5251831412315369,-0.04397043213248253,-0.3973188102245331,-1.0609197616577148,0.34105002880096436,0.0023071335162967443,0.16548554599285126,-0.07655181735754013,-0.16904442012310028,0.11120244860649109,0.542067289352417,-0.45358747243881226,0.34608593583106995,0.6108809113502502,-0.06526775658130646,0.19750820100307465,-0.7244656682014465,-1.5416651964187622,0.01424402929842472,0.022352568805217743,-0.6205339431762695,0.08545111119747162,-0.19480448961257935,0.22222790122032166,0.25425347685813904,0.16674143075942993,0.02591267041862011,0.11560803651809692,-0.6479726433753967,0.2382078915834427,0.156585693359375,-0.1451343595981598,-0.33660393953323364,0.44503527879714966,-0.45402100682258606,-0.2181662768125534,-0.2498357743024826,0.7774991393089294,-0.5019093751907349,-0.36848393082618713,0.30256304144859314,-0.4018608331680298,-0.14397484064102173,0.21368852257728577,-0.6033288240432739,0.04727480933070183,0.5106546878814697,-0.10242283344268799,0.14728830754756927,0.06975416839122772,0.3671286404132843,-0.018261101096868515,0.17407795786857605,0.9666194319725037,0.07832369208335876,0.5451588034629822,0.7270854711532593,0.29334768652915955,0.6253935694694519,-0.08742397278547287,-0.09884893894195557,-0.20939072966575623,-0.08761724084615707,0.12132550776004791,-0.18705308437347412,0.27686750888824463,0.6547868847846985,-0.15981453657150269,-0.06634365022182465,0.2089860886335373,-0.09548730403184891,-0.06605003029108047,-0.38646069169044495,0.5409175157546997,0.22597065567970276,-0.02107483148574829,0.4209898114204407,-0.6377344727516174,0.05813226103782654,0.09836170077323914,0.41196680068969727,-0.6241044402122498,-0.08212166279554367,0.3045460283756256,-0.26503995060920715,-0.38111409544944763,-0.26076242327690125,0.4876813292503357,-0.01585100218653679,0.7424693703651428,0.46487823128700256,-0.2348443865776062,-0.5988757014274597,0.015740185976028442,-0.4871838688850403,0.13850943744182587,-0.29070377349853516,0.131016805768013,0.48253488540649414,0.5848928689956665,-0.07219652086496353,0.05880528315901756,0.538800060749054,0.32894113659858704,-0.18056054413318634,-0.17963117361068726,-0.014239324256777763,-0.051792170852422714,0.47800692915916443,0.27036967873573303,-0.029296720400452614,-0.1453358232975006,0.11046504229307175,0.2744384706020355,-0.3106871545314789,9.41512826102553e-06,0.07606019824743271,0.31778669357299805,0.3681080937385559,0.4040326178073883,0.06290397047996521,-0.2523607909679413,0.5212128162384033,0.16866455972194672,0.3153223395347595,-0.6349295973777771,0.21284598112106323,0.05727362260222435,-0.2962121367454529,-0.23783014714717865,-0.24527432024478912,0.5749483108520508,0.11218510568141937,-0.16275052726268768,-0.19604669511318207,0.4586798846721649,-0.05432548001408577,0.21222354471683502,0.07208427786827087,0.07168546319007874,-0.09622187912464142,0.10096824169158936,0.16374650597572327,0.622429609298706,-0.4090227484703064,0.258853554725647,-0.045455459505319595,0.4409707486629486,-0.20801548659801483,0.10957106947898865,-0.8037385940551758,0.8445550203323364,0.327320396900177,0.15851128101348877,-0.1492234319448471,0.1317097395658493,0.316866934299469,-0.13228826224803925,0.011695756576955318,-0.4916246235370636,0.009592534974217415,0.17251981794834137,0.141888827085495,0.7529001235961914,0.04103601351380348,0.012124317698180676,0.034018710255622864,-0.4666084349155426,-0.5934082269668579,-0.14426681399345398,-0.4188176095485687,0.23193620145320892,-0.2604227066040039,0.41926437616348267,-0.19852811098098755,0.380715548992157,0.17570513486862183,-0.25343069434165955,0.38588279485702515,0.8236256241798401,-0.46671241521835327,0.3166249990463257,-0.9699639081954956,-0.09760666638612747,-0.4183657467365265,0.3768293261528015,0.16722412407398224,0.2741115987300873,0.03809504210948944,-0.45034095644950867,-0.19255763292312622,0.12418848276138306,0.6149389147758484,-0.359539270401001,0.2806676924228668,-0.001240586512722075,0.6089382767677307,-0.1192624643445015,-0.12182550132274628,-0.09383893013000488
http://dbpedia.org/resource/Steve_Wozniak,-0.0939459279179573,0.34268537163734436,0.37051132321357727,-0.32461321353912354,-0.04790128022432327,0.15996053814888,0.08036600053310394,0.3726590871810913,0.1836790144443512,-0.1511463075876236,0.0886535793542862,-0.007742478046566248,0.24561282992362976,0.12082387506961823,0.12384217232465744,-0.5358397364616394,0.26753419637680054,-0.2576711177825928,0.11209721118211746,-0.4315822720527649,-0.12482153624296188,-0.09155277162790298,0.3031552731990814,-0.35965394973754883,0.12228117883205414,-0.16244223713874817,-0.2880784869194031,-0.18554316461086273,-0.44553902745246887,0.1871887892484665,-0.32693377137184143,0.002810034668073058,0.1366921216249466,-0.006521944887936115,0.36689990758895874,0.551734209060669,-0.07617460191249847,-0.0575563982129097,0.17948181927204132,0.29587218165397644,0.24842774868011475,-0.3128299415111542,-0.13915356993675232,-0.3252474069595337,0.29581063985824585,0.34068945050239563,-0.12197571247816086,-0.30203625559806824,-0.008701499551534653,-0.4891919195652008,0.12040295451879501,-0.16775432229042053,-0.036011118441820145,0.4610178768634796,-0.16300691664218903,-0.008669495582580566,-0.16286171972751617,-0.3843448758125305,0.3252533972263336,-0.3268698453903198,-0.03664330020546913,0.05266852676868439,-0.38547393679618835,-0.08662373572587967,-0.08253718912601471,-0.04101107269525528,-0.503114640712738,0.24943377077579498,-0.42879635095596313,0.3790736198425293,0.22590532898902893,-0.2275998741388321,0.24604851007461548,-0.1813519299030304,-0.33483201265335083,-0.1471894383430481,0.11182080954313278,0.6191306710243225,0.16164885461330414,-0.2767115831375122,0.2073601633310318,0.390838086605072,-0.5099305510520935,-0.07070362567901611,-0.03475835919380188,-0.04649818316102028,0.05131092667579651,0.340722918510437,0.3323741853237152,-0.49061015248298645,-0.36842650175094604,-0.013020270504057407,0.26592785120010376,-0.0266285203397274,0.16527485847473145,0.00708187697455287,0.14289359748363495,0.07124454528093338,-0.25753673911094666,0.3565772473812103,0.07426754385232925,-0.2567724585533142,-0.22880274057388306,0.0805279016494751,0.34669482707977295,-0.18684571981430054,0.04674820974469185,-0.16901986300945282,0.502957284450531,-0.28803199529647827,0.4209538698196411,-0.20919643342494965,-0.26483267545700073,0.3205558955669403,-0.24359920620918274,0.31206974387168884,0.8906614184379578,-0.11757183820009232,0.004981216974556446,-0.2776826024055481,-0.08081303536891937,0.1473638117313385,0.08382996916770935,0.14916761219501495,-0.4656960666179657,-0.08764535933732986,-0.4435480535030365,-0.08663003891706467,0.07834137231111526,0.4642864167690277,0.2450813502073288,0.1044611856341362,-0.338588148355484,0.5016003251075745,0.004539704415947199,-0.18856951594352722,0.18956638872623444,-0.21899192035198212,-0.4512861967086792,0.2619580030441284,0.27017447352409363,0.29375842213630676,-0.26153019070625305,0.4164559543132782,-0.23454076051712036,0.3168359696865082,0.4135025441646576,-0.9461984038352966,0.0066194380633533,0.339931458234787,0.022825906053185463,0.4358394145965576,-0.071510449051857,0.3015274703502655,-0.033142078667879105,0.028803197667002678,0.6291360855102539,0.5763554573059082,0.2195950597524643,-0.06389293074607849,0.4241766035556793,-0.2830616533756256,-0.0589773990213871,0.019741853699088097,0.14357790350914001,-0.02256818488240242,0.06350592523813248,0.332431435585022,-0.2773419916629791,0.6622412204742432,-0.35912278294563293,-0.012838312424719334,-0.04043786972761154,0.050105828791856766,-0.17864318192005157,-0.11640974879264832,0.6722506284713745,0.11583986133337021,-0.2987905740737915,-0.5914720892906189,0.283258855342865,-0.17154987156391144,-0.010448498651385307,0.060793276876211166,0.4237029552459717,-0.6507653594017029,-0.0067942882888019085,0.2452336847782135,-0.8775464296340942,0.3810596764087677,-0.01763918250799179,0.20457524061203003,0.9900038242340088,-0.02887226827442646,-0.2227831482887268,-0.12879760563373566,0.27690622210502625,0.27963852882385254,0.11159835755825043,-0.3401862680912018,0.261932373046875,0.2655971050262451,0.3012307286262512,0.03684159368276596,0.16373294591903687,-0.04220392182469368,0.46549558639526367,-0.42453688383102417,-0.3684263229370117,0.03838621824979782,-0.14858810603618622,0.1656920462846756,0.09445316344499588,-1.0889208316802979,-0.05038252845406532,0.11648910492658615,0.12505345046520233,0.10447882115840912,-0.09168209880590439,0.34641581773757935,0.028015613555908203,-0.25408363342285156,-0.05612628161907196,-0.08942844718694687,-0.19586502015590668,-0.24911776185035706,0.15204760432243347,0.22462770342826843,0.04326749965548515,0.23086504638195038,0.26375848054885864,-0.40673142671585083,0.3967691659927368,0.2737061083316803,0.43969136476516724,0.006282064598053694,-0.00030012158094905317,0.19014860689640045,0.23675671219825745,0.06218355894088745,-0.08189846575260162,0.2075633704662323,0.06325748562812805,-0.02864888869225979,0.19869425892829895,-0.2140989899635315,-0.19001930952072144,-0.04622909799218178,-0.012526228092610836,-1.1251050233840942,0.13521817326545715,-0.29663366079330444,0.07720275968313217,0.06373050063848495,-0.10312744230031967,-0.000893407326657325,0.25987839698791504,0.25264838337898254,0.27733901143074036,-0.304767906665802,-0.34544605016708374,0.4225127398967743,0.1538417488336563,-0.1276700496673584,0.008081871084868908,-0.01476394385099411,-0.01136336475610733,-0.04888759180903435,-0.4815051257610321,0.37227246165275574,-0.03687925636768341,-0.11775341629981995,0.009573154151439667,-0.012432015500962734,-0.06815487146377563,-0.10733731091022491,-0.6138309836387634,0.16879497468471527,-0.282972514629364,-0.6654923558235168,0.07742501050233841,-0.05946218967437744,0.0950702354311943,-0.06284021586179733,-0.302688866853714,-0.5925360918045044,-0.39964964985847473,-0.2947655916213989,0.04752703383564949,0.3081646263599396,-0.13618144392967224,0.2224750518798828,0.06528648734092712,-0.17392222583293915,0.24675089120864868,-0.020153172314167023,-0.1131543442606926,0.6731788516044617,0.5825372934341431,0.04737279936671257,0.12413164973258972,0.25552797317504883,-0.500973105430603,-0.5483779311180115,-0.10565641522407532,-0.014015394262969494,0.19952520728111267,0.1140250638127327,-0.18244199454784393,0.19635798037052155,0.2569426894187927,-0.16727648675441742,0.220839723944664,0.30826282501220703,-0.3431142270565033,0.3438743054866791,0.2949827313423157,-0.7631531357765198,-0.337260901927948,-1.017441987991333,-0.4305913746356964,-0.4072994589805603,-0.30167773365974426,0.03884125500917435,-0.10210733860731125,-0.11807019263505936,-0.20641985535621643,0.3008565306663513,-0.10897362977266312,0.09804797172546387,0.39302927255630493,-0.28237539529800415,-0.44493696093559265,0.014740518294274807,0.18221276998519897,0.0902692899107933,-0.3626340627670288,-0.43043744564056396,-0.417542964220047,-0.3128819465637207,0.7184872031211853,-0.045070476830005646,-0.8845977187156677,0.43949443101882935,-0.5868909955024719,0.19174957275390625,0.0706683099269867,0.13507743179798126,0.4816421866416931,-0.13283057510852814,0.4460451602935791,-0.11000391840934753,-0.04694683104753494,-0.0820917934179306,0.3069993257522583,0.04373966529965401,0.37808069586753845,-0.1944124698638916,0.29093238711357117,0.40180131793022156,-0.14537549018859863,-0.008145276457071304,0.4301873445510864,0.13942642509937286,-0.26417839527130127,-0.15377390384674072,0.4230460226535797,-0.14039246737957,0.6499779224395752,0.02526199072599411,0.5189558863639832,-0.23856551945209503,0.20231188833713531,-0.12994834780693054,0.1889857053756714,0.12929384410381317,0.6926546096801758,-0.6382037401199341,0.04064202308654785,-0.062336429953575134,0.23191122710704803,-0.117409847676754,0.01710551045835018,0.05836764723062515,0.11831628531217575,-0.1000823974609375,-0.06439159065485,0.05760567635297775,-0.24045050144195557,0.3043423295021057,0.5581517815589905,-0.03440786898136139,0.21701161563396454,0.47227808833122253,-0.1039387434720993,-0.0028611940797418356,0.05688361078500748,-0.7955362200737,0.12449727952480316,0.24303047358989716,-0.05064094439148903,-0.22388030588626862,-0.24306730926036835,-0.09248658269643784,-0.5452572703361511,-1.0815727710723877,0.16112741827964783,0.4210507273674011,-0.00917147845029831,0.038759034126996994,-0.19458477199077606,0.20648692548274994,-0.20072144269943237,0.5804762840270996,-0.1536451280117035,-0.11672323942184448,-0.7400491237640381,0.1848498284816742,0.03986051306128502,-0.1201634332537651,0.08909507840871811,-0.11525052785873413,0.057093847543001175,-0.19134292006492615,-0.06657610833644867,0.028086446225643158,-0.39826738834381104,-0.15336987376213074,0.32578402757644653,0.09920849651098251,-0.0824752151966095,-0.410519540309906,-0.09562145173549652,0.03233766183257103,-0.09272285550832748,0.8998570442199707,0.2443419247865677,-0.25578945875167847,-0.20570535957813263,-0.3597396910190582,0.37336504459381104,-0.09070134907960892,0.3888528645038605,-0.0697316825389862,-0.3653948903083801,-0.1762227863073349,0.2879922688007355,0.43145468831062317,-0.3659091889858246,-0.4174673557281494,0.17609451711177826,0.28545626997947693,0.0653173103928566,0.5554661750793457,0.6153221726417542,-0.1237730160355568,0.18525050580501556,0.6452397704124451,-0.42554229497909546,-0.2419864982366562,-0.4586464762687683,-0.3259682059288025,0.577761173248291,-0.6834530234336853,-0.03398071229457855,-0.07398252189159393,0.08679920434951782,0.40336838364601135,0.15547184646129608,-0.25240349769592285,0.05120961368083954,-0.34282293915748596,0.1119689866900444,0.5156528949737549,-0.38245677947998047,0.5352521538734436,-0.2852269411087036,-0.4748452603816986,0.5617919564247131,0.3681119382381439,0.1303350031375885,-0.4807853102684021,-0.1317766308784485,-0.2573571503162384,0.08770783990621567,0.27979761362075806,0.5295676589012146,-0.02800944074988365,0.0063302889466285706,0.33429625630378723,-0.03941859304904938,0.28151804208755493,-0.564311683177948,-0.40327998995780945,-0.5007928013801575,0.3393501341342926,-0.4869464039802551,0.07543198019266129,-0.02707061357796192,0.1442713886499405
http://dbpedia.org/resource/Jonathan_Ive,0.35812121629714966,0.4476291835308075,-0.11005493998527527,0.009587752632796764,-0.49598827958106995,0.17675188183784485,-0.21179620921611786,0.184858039021492,-0.2937363088130951,0.0060221608728170395,-0.49320265650749207,-0.21928296983242035,0.12413376569747925,-1.0374090671539307,-0.3926117718219757,0.03365536034107208,0.3784772753715515,0.30182844400405884,-0.3807797431945801,-0.0879867672920227,-0.06493755429983139,-0.2023959457874298,0.6951143145561218,0.029589012265205383,0.17668747901916504,0.11742578446865082,-0.11906503140926361,0.2173864245414734,-0.14927063882350922,0.3650054633617401,0.08240017294883728,-0.3221126198768616,-0.2041790634393692,0.25867241621017456,-0.16637316346168518,0.23637866973876953,0.15467680990695953,-0.25315529108047485,-0.3646995723247528,-0.388449490070343,0.34240299463272095,0.15872831642627716,0.0761711597442627,0.17008624970912933,0.14420577883720398,0.4406784474849701,0.24904358386993408,-0.04411224275827408,-0.20163141191005707,-0.26729342341423035,0.14373110234737396,0.09057609736919403,-0.3654789328575134,-0.3678867518901825,-0.329891175031662,-0.32941725850105286,0.2662298083305359,-0.15876513719558716,0.0662459209561348,0.21782609820365906,0.3236941993236542,-0.332777738571167,0.1431676596403122,-0.5427353978157043,-0.4341801106929779,-0.05856470391154289,-0.5580744743347168,0.04402805119752884,-0.3855597674846649,0.05900958552956581,0.048771269619464874,-0.10788758099079132,0.3731846213340759,-0.36299756169319153,-0.3908025622367859,-0.4292227029800415,0.5557330250740051,0.28762486577033997,-0.12745548784732819,-0.7368184328079224,0.3535234332084656,-0.05641578137874603,0.23161284625530243,-0.4925802946090698,0.01932111196219921,-0.4402608573436737,-0.6335198879241943,0.13816307485103607,0.5626304745674133,0.02180633880198002,0.24117620289325714,0.2761629819869995,-0.18600590527057648,0.1633981615304947,0.016456985846161842,0.3012641370296478,0.254366397857666,-0.009906581602990627,-0.06487401574850082,-0.4605604410171509,0.08046603202819824,0.1299387812614441,0.12055180221796036,-0.18174168467521667,0.6435853242874146,-0.0067861950956285,0.12996354699134827,-0.11162726581096649,-0.04520836099982262,-0.23653210699558258,-0.13647261261940002,0.011414806358516216,0.03856607899069786,0.20527136325836182,0.3210684359073639,-0.12005464732646942,0.41233372688293457,0.5539025068283081,-0.48812708258628845,-0.4256627857685089,0.1710844784975052,0.3613181412220001,-0.2227545976638794,0.28411865234375,-0.06952405720949173,0.12072689831256866,-0.4052259922027588,0.6325880289077759,-0.02708391286432743,0.41694778203964233,0.4083729684352875,-0.34242475032806396,0.15972988307476044,0.2274913489818573,-0.14055556058883667,-0.19336189329624176,-0.0614728145301342,-0.042688142508268356,-0.27596214413642883,0.24661476910114288,-0.047234419733285904,0.024165906012058258,-0.3365227282047272,0.1481238156557083,-0.3989267647266388,0.5976099967956543,-0.0027402276173233986,-0.31077995896339417,-0.12906403839588165,0.29241594672203064,0.010029353201389313,0.4683448374271393,-0.19133639335632324,0.19412313401699066,-0.40412774682044983,-0.020186487585306168,0.6731691956520081,0.3722427487373352,-0.533534049987793,0.29095548391342163,0.41908788681030273,-0.5128779411315918,-0.11512129008769989,0.2359616905450821,0.12140165269374847,0.08910425752401352,0.16425469517707825,-0.07892444729804993,0.18178227543830872,0.251485139131546,-0.051190897822380066,0.3798212707042694,0.042031485587358475,0.17894384264945984,0.14512337744235992,-0.20513881742954254,0.19745470583438873,-0.07379008829593658,-0.07220423966646194,0.03583696484565735,-0.25176090002059937,0.250606894493103,0.010172197595238686,0.3909495770931244,0.17879033088684082,-0.08902434259653091,-0.04285356402397156,0.3957233130931854,-0.20136840641498566,0.19506144523620605,-0.5809781551361084,0.6509786248207092,0.514640212059021,-0.17576289176940918,-0.2499828338623047,0.04822012037038803,0.5733420252799988,0.6875729560852051,0.15445436537265778,-0.3699726164340973,0.6259255409240723,0.2720648944377899,0.6976186633110046,0.19299425184726715,0.1386924535036087,0.2732534408569336,0.43979257345199585,-0.5782187581062317,-0.3022240996360779,-0.03127124905586243,0.27944448590278625,-0.08526433259248734,0.3073059022426605,-0.2913097143173218,0.6352035999298096,0.23342953622341156,-0.27874138951301575,-0.1507091224193573,0.11255953460931778,0.15658581256866455,0.2579895853996277,-0.15551145374774933,-0.2154107242822647,-0.037678174674510956,-0.010673817247152328,-0.19879405200481415,0.15851221978664398,0.01987854763865471,0.20797167718410492,0.09054359048604965,0.19023293256759644,-0.3113889992237091,-0.07950623333454132,-0.24407456815242767,0.7842891812324524,0.28506970405578613,0.005606517661362886,0.1121659055352211,0.6707668304443359,0.279411643743515,0.2159421145915985,0.08228849619626999,0.6098681092262268,-0.044014062732458115,-0.13117200136184692,-0.6971184015274048,-0.0783560648560524,-0.1650112122297287,-0.13861039280891418,-0.32641276717185974,0.06300701946020126,-0.8941850066184998,0.07044990360736847,0.0029909820295870304,0.3775424361228943,0.09592387080192566,-0.1003875881433487,0.004888833966106176,0.4114499092102051,-0.46111539006233215,-0.2714904248714447,0.641425609588623,0.6635361909866333,-0.14518769085407257,-0.13323119282722473,0.03955148160457611,0.06930215656757355,0.25828635692596436,-0.1501479148864746,-0.045705631375312805,0.10076726227998734,-0.2694595456123352,0.11269424110651016,-0.30862438678741455,0.12375221401453018,0.6150943040847778,-0.8446412086486816,0.016441382467746735,-0.09203732013702393,-0.20954923331737518,-0.03909054026007652,-0.12797650694847107,0.4513740837574005,-0.2689504325389862,-0.12882360816001892,-0.3304325044155121,-0.36943817138671875,0.009811447001993656,-0.13927030563354492,-0.4179351031780243,0.013734660111367702,0.21499213576316833,0.43523916602134705,0.11416591703891754,0.2742072343826294,0.07636025547981262,0.15421868860721588,0.46229517459869385,0.20736590027809143,0.08370879292488098,0.4586774408817291,-0.01093193981796503,-0.5161720514297485,-0.5329583883285522,-0.3190300166606903,0.15937547385692596,0.397735595703125,-0.22127574682235718,-0.3938378095626831,0.12453979253768921,0.16585317254066467,0.16281487047672272,0.3858258128166199,-0.19621236622333527,-0.2099040150642395,0.21099971234798431,-0.5754784345626831,-0.31154346466064453,-0.22894778847694397,-0.21163059771060944,-0.8300522565841675,-0.7037951946258545,0.04550851136445999,0.49998724460601807,-0.33174896240234375,0.3472287952899933,0.3787805438041687,0.2576059103012085,-0.1525198370218277,0.3306654393672943,0.22308696806430817,0.1105179637670517,-0.09496545046567917,-0.09009180217981339,0.0320955365896225,0.21714124083518982,-0.06576300412416458,0.24584829807281494,-0.3553122878074646,-0.4744274616241455,0.5166677236557007,-0.4636123478412628,-0.35902854800224304,0.6636269688606262,-0.3682897686958313,-0.015441542491316795,0.02097448520362377,-0.3201630711555481,0.5991072058677673,-0.13126495480537415,0.6756172776222229,0.3759691119194031,-0.5718956589698792,0.6253113150596619,0.23629499971866608,-0.15874451398849487,0.2120952159166336,-0.07264965027570724,-0.31285297870635986,0.20846855640411377,-0.3049030303955078,0.01852983981370926,0.008703113533556461,0.1885802298784256,0.16358107328414917,0.3715919554233551,0.04846866428852081,0.11296875029802322,0.3680364191532135,-0.10496065765619278,0.25541234016418457,-0.05591920390725136,-0.1040467768907547,-0.028924554586410522,0.3447589576244354,0.5034170746803284,0.8988969326019287,-0.2840084731578827,0.06502898782491684,-0.4943276643753052,-0.3588799238204956,-0.41801419854164124,-0.2797301411628723,-0.1615084856748581,0.13433390855789185,0.05180438607931137,0.025558410212397575,-0.026619713753461838,0.22783704102039337,0.43970242142677307,0.4026743769645691,0.14019696414470673,-0.03577377274632454,-0.22011315822601318,-0.4216173589229584,0.570904016494751,0.1315118372440338,0.08799263834953308,-0.01783589832484722,0.22671835124492645,-0.024267157539725304,0.21562005579471588,0.258165568113327,0.016332266852259636,0.2583284080028534,-0.20519161224365234,-0.03975194692611694,-0.1183357834815979,0.15336927771568298,0.3646416664123535,0.18588009476661682,-0.31289228796958923,0.08134663850069046,0.2624817192554474,-0.5551322102546692,-0.5140419602394104,-0.893175482749939,-0.15452930331230164,0.2577737271785736,-0.2537408173084259,0.07204179465770721,0.040457744151353836,-0.12018909305334091,0.30975207686424255,0.21651270985603333,-0.21458442509174347,0.2692197561264038,-0.0464165173470974,-0.09047620743513107,-0.2798439860343933,-0.38115715980529785,-0.010896108113229275,-0.34109872579574585,0.3642784357070923,0.35085952281951904,0.47841405868530273,-0.11516116559505463,0.6629603505134583,-0.1269620954990387,-0.19986648857593536,-0.022313833236694336,0.09649516642093658,0.18612927198410034,-0.13876105844974518,-0.16095958650112152,-0.3784073293209076,0.2876192033290863,0.2058487832546234,-0.33184003829956055,-0.2726462185382843,-0.25747552514076233,0.3431706130504608,0.5932303071022034,0.24648858606815338,-0.1676662415266037,0.11825254559516907,0.019942834973335266,0.3847818374633789,0.06092683598399162,-0.5837733745574951,-0.23913493752479553,-0.5031912326812744,0.6402212381362915,-0.45274269580841064,0.1362239271402359,0.06451870501041412,-0.5414514541625977,-0.5193133354187012,-0.36520469188690186,-0.24271011352539062,-0.564511775970459,0.16113199293613434,0.004515680950134993,0.25874027609825134,-0.7496317625045776,0.46625539660453796,0.2742058038711548,-0.35819655656814575,0.3595101535320282,-0.1762756109237671,0.11718319356441498,0.0854671522974968,-0.39245015382766724,-0.2917547821998596,-0.08600697666406631,0.3079266846179962,0.20692867040634155,-0.5671924352645874,-0.28788670897483826,-0.5683811902999878,0.12650197744369507,-0.26063793897628784,-0.15444879233837128,-0.5620682239532471,-0.06296198815107346,0.4038381576538086,-0.03518635407090187,-0.2667291760444641,-0.22754833102226257,-0.03738716244697571
http://dbpedia.org/resource/Mac_Pro,-0.2550046145915985,0.07141107320785522,0.06709092110395432,-0.40265101194381714,0.03441896289587021,0.3768136203289032,0.30111968517303467,0.09384319186210632,0.011391882784664631,-0.1971009373664856,0.1723509430885315,0.07357519865036011,-0.1421181857585907,0.2626553773880005,-0.5863549113273621,-0.20343372225761414,-0.08516792953014374,-0.7361106276512146,0.412589967250824,0.5773910880088806,-0.1043943390250206,0.2852199375629425,0.0780850350856781,-0.28557974100112915,-0.11354935169219971,0.20164048671722412,0.5537776947021484,0.1761532574892044,0.24223759770393372,-0.34903931617736816,-0.07471582293510437,-0.18558837473392487,0.5397748351097107,0.48441097140312195,-0.25922080874443054,0.17612896859645844,-0.047095295041799545,-0.3294888734817505,0.12547576427459717,0.007112387102097273,0.46938005089759827,-0.5233974456787109,0.020074736326932907,-0.29470908641815186,-0.38375136256217957,0.013421927578747272,-0.047804590314626694,-0.2727522850036621,0.2119321972131729,-0.5986550450325012,-0.018045343458652496,-0.12528790533542633,0.040128160268068314,-0.13161732256412506,-0.17011836171150208,-0.07475253939628601,-0.38393574953079224,-0.6212562918663025,-0.03291131928563118,-0.1766536831855774,0.2888617515563965,0.1371801346540451,-0.2014654129743576,-0.09925157576799393,0.0018599083414301276,0.42061561346054077,0.04089144989848137,0.5264289379119873,0.4619549810886383,0.050259873270988464,-0.19745518267154694,0.02012050896883011,0.2221275120973587,-0.4400377571582794,0.11212822049856186,0.24391858279705048,0.1954783946275711,-0.0998954251408577,0.00725274533033371,-0.44735193252563477,0.023852543905377388,0.2106032371520996,0.185281440615654,-0.26976391673088074,0.7665766477584839,-0.19261938333511353,0.4766834080219269,0.20636031031608582,0.3755563199520111,-0.38835474848747253,-0.11345813423395157,0.3617613911628723,-0.3563976585865021,-0.0620640330016613,0.238389253616333,0.4578171670436859,0.05608496814966202,0.20170317590236664,-0.3242065906524658,-0.43705713748931885,-0.5178976058959961,-0.35388612747192383,-0.24138657748699188,0.11053971201181412,0.0003951334219891578,0.24630984663963318,0.7287143468856812,-0.7038092613220215,0.504783034324646,0.5425530672073364,-0.1457030028104782,0.008536804467439651,0.07701936364173889,-0.10542328655719757,0.25460585951805115,0.5207341909408569,0.08226669579744339,-0.08209922164678574,-0.525778591632843,-0.18185564875602722,-0.021769491955637932,-0.2675997316837311,-0.33663490414619446,0.4512670934200287,0.23861752450466156,-0.3248167335987091,-0.485044926404953,-0.13294245302677155,0.6183756589889526,0.08925821632146835,0.06158391013741493,-0.5425252914428711,0.5254489779472351,0.2231588214635849,0.3902603089809418,0.34391018748283386,0.10008081793785095,-0.18392150104045868,0.005535303149372339,0.24951355159282684,0.053505219519138336,0.008536029607057571,0.00843462161719799,0.47069162130355835,-0.3688824474811554,0.402794748544693,0.2815721333026886,0.028030794113874435,0.08682099729776382,0.12051719427108765,-0.8097947835922241,0.39310961961746216,-0.44305503368377686,-0.045353733003139496,0.18447622656822205,-0.17518335580825806,-0.452034056186676,0.21518652141094208,-0.112879678606987,-0.034840814769268036,0.07988008856773376,0.4921233654022217,-0.13089843094348907,0.2689126431941986,-0.41319429874420166,0.3126799166202545,0.21600286662578583,-0.30784276127815247,0.06300176680088043,-0.16945841908454895,0.2607041001319885,0.02205302007496357,0.27068090438842773,0.310310959815979,-0.294969767332077,0.16215884685516357,0.44246456027030945,0.35860157012939453,-0.3323899209499359,-0.4961145222187042,-0.5932947993278503,0.009326486848294735,-0.13587787747383118,0.2812635600566864,0.2661517858505249,-0.4331566393375397,0.44948944449424744,0.5323669910430908,-0.07116597890853882,0.5234162211418152,0.23771436512470245,-0.1451524943113327,-0.23428869247436523,-0.2704867124557495,-0.02954324707388878,-0.44206440448760986,0.03205202519893646,-0.311803936958313,0.6562764644622803,0.37892529368400574,0.03714171051979065,0.0678338035941124,0.19762948155403137,-0.3027055561542511,-0.3599621653556824,0.21863512694835663,0.4025020897388458,0.3702736496925354,0.09527083486318588,-0.08075904101133347,-0.3825024366378784,0.10848309844732285,0.5561560988426208,0.24778535962104797,-0.20668257772922516,-0.3323523700237274,0.21278569102287292,0.5121104121208191,-0.5377866625785828,-0.6418536305427551,0.1427285075187683,-0.01841638796031475,0.04270457103848457,-0.0849461778998375,-0.13457028567790985,-0.05362863466143608,-0.1923225373029709,0.2117835134267807,0.7808683514595032,0.04536755755543709,0.0865190327167511,-0.049652840942144394,0.24862295389175415,0.37482479214668274,-0.2920883893966675,-0.6697278022766113,0.11560076475143433,-0.14711999893188477,0.4374944269657135,0.13554562628269196,0.14635445177555084,-0.12449859827756882,0.1836659461259842,-0.195311039686203,-0.22075317800045013,-0.1993066519498825,0.04558718949556351,-0.41076236963272095,-0.02904851734638214,-0.10134398937225342,-0.17422707378864288,0.15200315415859222,0.1668710559606552,-0.4786268472671509,-0.08950450271368027,-0.20316827297210693,-0.3769187927246094,0.08371949195861816,0.2966785132884979,-0.6046077609062195,-0.3307091295719147,0.9427441358566284,0.6413005590438843,-1.3372442722320557,0.2845168709754944,-0.5398643612861633,-0.35631445050239563,-0.33537644147872925,-0.21768715977668762,-0.3081378936767578,-0.3408673107624054,-0.1591818779706955,-0.30521488189697266,0.3780819773674011,-0.16126668453216553,-0.13145549595355988,-0.060019198805093765,-0.504040539264679,0.15926450490951538,0.384089857339859,0.7133323550224304,-0.5860430598258972,-0.2484753429889679,0.20132212340831757,-0.19271138310432434,-0.08148963004350662,-0.011572200804948807,0.3043576180934906,-0.5667541027069092,-0.20406904816627502,-0.06259268522262573,-0.3639421761035919,0.032827187329530716,-0.22176124155521393,0.2835361063480377,0.12920333445072174,0.4321737289428711,0.3803032338619232,0.3325613737106323,-0.44168955087661743,0.4344349801540375,-0.18100863695144653,-0.050998713821172714,-0.15551048517227173,-0.1863812357187271,-0.40223899483680725,0.15061260759830475,-0.7425610423088074,-0.5716479420661926,0.28951573371887207,0.05010151118040085,-0.5289372205734253,0.7151281833648682,-0.04878554120659828,0.04569344222545624,0.2533853054046631,-1.0642390251159668,-0.7897316217422485,-0.4353903830051422,-0.2236226201057434,-0.22637784481048584,-0.33741530776023865,-0.24323469400405884,0.02995418943464756,-0.017879506573081017,0.6418976783752441,0.5808519721031189,0.18676501512527466,0.09837503731250763,-0.006516553927212954,-0.18917571008205414,0.2793845534324646,-0.2590559422969818,-0.27016910910606384,-0.051917679607868195,-0.29625576734542847,-0.1944389045238495,0.1975523978471756,-0.48346346616744995,-0.5303912162780762,0.39827534556388855,0.4241572618484497,-0.48117175698280334,0.0427718348801136,-0.21147680282592773,-0.41575518250465393,0.11994171887636185,-0.025113528594374657,0.5196893215179443,0.7409070730209351,0.042264681309461594,0.10804538428783417,-0.19157537817955017,0.637855052947998,0.35537925362586975,-0.15239927172660828,-0.5243364572525024,-0.1914132833480835,-0.01526265125721693,-0.2522510886192322,-0.20189528167247772,0.00873495638370514,-0.5013425946235657,-0.1056605726480484,-0.2799167335033417,0.3485884368419647,-0.14393891394138336,0.03723946213722229,0.3612656891345978,0.2744782567024231,-0.26680293679237366,-0.16459600627422333,-0.12394215911626816,-0.2086947113275528,0.6459863185882568,-0.11142156273126602,0.2277330458164215,0.6404805183410645,-0.04191157966852188,0.3939799666404724,0.5141907930374146,-0.3202115297317505,-0.06931858509778976,-0.07258197665214539,0.04054737836122513,-0.2735942006111145,0.3165481686592102,0.39152809977531433,0.040555439889431,-0.07889901101589203,0.5781893134117126,0.14785319566726685,0.568496823310852,-0.5375139713287354,0.009316888637840748,-0.3466590642929077,0.1393771469593048,0.04183768481016159,0.218756765127182,0.6140821576118469,0.17528250813484192,0.19895243644714355,0.3394942581653595,0.07910129427909851,0.08246758580207825,-0.33179768919944763,0.17983652651309967,-0.5124519467353821,0.7559521794319153,-0.08864577114582062,0.3743699789047241,0.328965961933136,-0.07116995006799698,-0.4948388934135437,-0.44521045684814453,0.0007330785738304257,-0.4533279538154602,0.302646279335022,-0.6186733245849609,-0.23739230632781982,0.45531371235847473,0.07889387011528015,0.3984059691429138,0.43023812770843506,-0.04494350403547287,-0.3061588704586029,0.2326221615076065,0.35718265175819397,-0.32546359300613403,-0.37983909249305725,-0.10516689717769623,0.1929207593202591,0.2994685471057892,0.17988944053649902,-0.1428951919078827,-0.0019540416542440653,0.6348438262939453,0.20668786764144897,-0.03473487123847008,-0.8356950283050537,-0.03617051616311073,0.29358264803886414,0.31206294894218445,-0.13924828171730042,-0.4522879719734192,-0.26461800932884216,-0.3968028724193573,0.1053115501999855,0.11514180898666382,-0.21538938581943512,0.08116839081048965,0.23987968266010284,0.5508540868759155,0.8915778398513794,0.037983957678079605,0.11180798709392548,0.3133222758769989,0.047605618834495544,-0.48287421464920044,0.28997737169265747,-0.27478763461112976,0.4686780571937561,-0.2010638415813446,-0.074720099568367,1.1657123565673828,-0.0009605116792954504,-0.3738931715488434,-0.7070738077163696,0.5157802104949951,-0.3036539852619171,0.09324048459529877,0.6189192533493042,-0.854892909526825,0.11813602596521378,-0.5876186490058899,0.42222827672958374,0.15870514512062073,0.16683238744735718,0.14294147491455078,0.23581312596797943,-0.2797156274318695,0.44877228140830994,-0.020035531371831894,-0.13219867646694183,-0.18710504472255707,-0.040354173630476,0.19144681096076965,-0.04379621893167496,-0.21454212069511414,0.47830891609191895,0.20529617369174957,-0.057230692356824875,-0.11466566473245621,0.15287920832633972,-0.47349342703819275,0.2134368121623993,0.23913966119289398,0.05369865521788597,0.22332753241062164,-0.41541653871536255
http://dbpedia.org/resource/Mike_Markkula,-0.37117043137550354,-0.0659576877951622,0.15398791432380676,0.03593987226486206,0.1879594624042511,0.0015381696866825223,-0.2602231502532959,0.2692544162273407,0.1447809338569641,-0.30125516653060913,0.6709282994270325,0.036638934165239334,-0.08820199966430664,0.3357527256011963,0.16924332082271576,0.3205595910549164,0.6066030859947205,-0.17549391090869904,0.2677777111530304,0.08355488628149033,0.05601263418793678,-0.12824715673923492,0.332078218460083,-0.22062966227531433,0.07286480814218521,0.19343899190425873,0.5957903861999512,-0.15401239693164825,0.12673087418079376,0.2722280025482178,0.12198415398597717,0.019645828753709793,0.09103044867515564,-0.17954973876476288,-0.1715962141752243,0.0711345449090004,0.019528690725564957,-0.13334894180297852,0.2962886393070221,-0.23384810984134674,0.34041157364845276,0.33438923954963684,0.0365169458091259,-0.1541847139596939,0.0618179626762867,-0.20043981075286865,0.0992840826511383,0.0077788871712982655,-0.27376702427864075,0.21770627796649933,0.1058497279882431,0.043584976345300674,-0.21682198345661163,0.2854028046131134,0.3063190281391144,-0.3927149176597595,0.057730354368686676,-0.6331021785736084,-0.09487106651067734,0.13765589892864227,-0.21775273978710175,-0.35562920570373535,-0.20900198817253113,-0.21611972153186798,-0.09631447494029999,0.07262936979532242,0.08934547752141953,0.14538998901844025,-0.07108118385076523,-0.10815872997045517,0.04270604997873306,0.2863701581954956,0.1310724914073944,-0.23789481818675995,-0.14219439029693604,-0.05235043540596962,-0.07210544496774673,0.33609476685523987,-0.3875958025455475,0.2121909260749817,0.09547114372253418,-0.233037069439888,0.3436707854270935,-0.40915608406066895,-0.22197163105010986,-0.10656826198101044,0.005111925303936005,0.38691073656082153,0.11707574129104614,0.002629646332934499,-0.03264095261693001,-0.4564453363418579,-0.06572871655225754,-0.06180351972579956,0.11772637069225311,0.1520594358444214,0.22323556244373322,0.08519243448972702,-0.07761318981647491,-0.12580443918704987,-0.17049559950828552,-0.09907441586256027,0.010371646843850613,-0.05717463046312332,0.04534614086151123,0.2595008313655853,0.6118931770324707,0.16831514239311218,-0.2434208244085312,-0.07089457660913467,-0.1505332738161087,-0.2006538361310959,-0.33200305700302124,0.015427089296281338,-0.04900458827614784,-0.040038153529167175,0.10485706478357315,0.2549430727958679,-0.0266598891466856,-0.5313441753387451,-0.3423812687397003,-0.21835961937904358,0.01917354017496109,0.03134346380829811,-0.07952221482992172,-0.0793519914150238,0.06402982026338577,-0.3495033383369446,-0.11006307601928711,-0.10835999250411987,0.202902689576149,0.023872695863246918,0.07790502905845642,0.09631305187940598,0.10530774295330048,0.03593473136425018,0.007043426390737295,0.012563121505081654,-0.5818809270858765,-0.0363236665725708,0.31353533267974854,0.3035838007926941,0.19524259865283966,0.05238409712910652,0.2081575244665146,0.3936537504196167,0.24533185362815857,-0.013575895689427853,0.10998541116714478,0.19995655119419098,-0.29899731278419495,-0.049262624233961105,-0.27175357937812805,-0.1789608746767044,-0.13626503944396973,-0.07866138964891434,0.48230066895484924,0.2729831635951996,-0.07353341579437256,-0.03779520466923714,-0.06804229319095612,-0.3251120448112488,-0.17053402960300446,0.1859542429447174,0.03178796172142029,-0.054572734981775284,0.09181606769561768,-0.1185699999332428,0.03245484083890915,0.0062193055637180805,-0.34557685256004333,0.09273404628038406,0.15598167479038239,-0.012048116885125637,0.12103520333766937,0.0078890360891819,-0.1777600347995758,-0.14301525056362152,-0.3304316997528076,-0.1738053262233734,-0.15518689155578613,-0.43589457869529724,0.17110779881477356,-0.21383920311927795,0.0991414412856102,-0.00400586286559701,0.18923014402389526,0.35173818469047546,-0.18812958896160126,0.020835015922784805,-0.027115097269415855,0.057947464287281036,0.16354887187480927,0.14594927430152893,-0.21419861912727356,0.020387673750519753,0.4316076934337616,-0.09154250472784042,-0.09660134464502335,0.011255904100835323,0.03982025384902954,-0.21546941995620728,0.17454013228416443,0.23178087174892426,0.347367525100708,0.044270873069763184,-0.21913614869117737,0.18615737557411194,-0.017639152705669403,0.15262135863304138,-0.23271344602108002,-0.03951621800661087,0.39101502299308777,0.3122045695781708,-0.11786067485809326,0.21018239855766296,-0.06492116302251816,0.21477417647838593,0.022186916321516037,-0.15846891701221466,0.16841256618499756,-0.2797679305076599,-0.25902315974235535,-0.22132608294487,-0.10289459675550461,-0.2590520977973938,0.06192212179303169,0.20209737122058868,0.3259120583534241,0.1471025049686432,-0.2137763798236847,-0.09964186698198318,0.20163825154304504,0.2894013524055481,-0.26139578223228455,-0.10764393210411072,-0.07383573800325394,-0.05820337310433388,-0.04997627064585686,0.327218234539032,0.17296352982521057,-0.15244856476783752,0.47119009494781494,0.11740673333406448,-0.13055533170700073,0.18174034357070923,0.03712243214249611,-0.07529598474502563,-0.3778580129146576,0.13685379922389984,0.06320784986019135,-0.09145888686180115,-0.10873520374298096,-0.059774260967969894,-0.02102317474782467,0.448251336812973,-0.2558629810810089,0.11493892967700958,0.19346237182617188,-0.1688566654920578,-0.16823835670948029,0.08649057149887085,-0.05550402030348778,-0.22379086911678314,0.12940546870231628,-0.22591613233089447,0.2678277790546417,0.11725809425115585,-0.2011832445859909,0.2709898352622986,-0.20847348868846893,-0.140177920460701,0.19058863818645477,0.007885728031396866,0.13858643174171448,-0.1893780529499054,-0.2677305340766907,0.24628008902072906,-0.19218851625919342,-0.014642870053648949,0.15075258910655975,0.20980581641197205,0.0776333436369896,-0.05466493219137192,0.22762109339237213,-0.08282220363616943,-0.3938506245613098,0.15616925060749054,-0.07086844742298126,0.029907960444688797,0.1521512269973755,-0.31730175018310547,-0.1356087625026703,-0.010062677785754204,0.37799957394599915,-0.3013902008533478,0.09452173858880997,-0.10934615135192871,0.456441193819046,0.15662917494773865,0.23143082857131958,0.009243527427315712,-0.11069010943174362,0.118149533867836,0.09449212998151779,0.09514372795820236,0.4382200837135315,-0.13654322922229767,-0.07743559777736664,0.23134832084178925,0.041039615869522095,-0.018536431714892387,-0.2666199207305908,0.03475724533200264,-0.26202571392059326,0.034045856446027756,-0.4021909236907959,-0.27910691499710083,-0.17403320968151093,0.16194838285446167,-0.16236254572868347,-0.1423691213130951,-0.1312495619058609,0.2477811723947525,-0.018279986456036568,0.3643374443054199,0.21500538289546967,0.003108371514827013,-0.41262272000312805,-0.02345091663300991,-0.3956559896469116,0.2862258851528168,-0.2856409251689911,0.031089454889297485,0.05456967651844025,-0.05574990436434746,0.07283242791891098,0.08389852941036224,0.05025062710046768,0.027541613206267357,0.10769998282194138,-0.23261068761348724,-0.4056020677089691,0.20685045421123505,-0.38718554377555847,-0.03551942855119705,-0.1099805161356926,-0.23136597871780396,0.42398500442504883,-0.0767759382724762,-0.2672199606895447,-0.03795992583036423,-0.22694814205169678,0.06111814081668854,0.6811906099319458,0.3158310651779175,-0.1775466948747635,0.34363022446632385,0.4133226275444031,0.05947427079081535,-0.1127183586359024,-0.10489830374717712,-0.03365794196724892,0.12425556778907776,-0.045557450503110886,-0.44834306836128235,0.07362721115350723,-0.09331170469522476,-0.05774174630641937,0.31276223063468933,0.07979589700698853,0.3099301755428314,-0.27905717492103577,0.4898078441619873,-0.04975243657827377,0.2655678689479828,0.2801295816898346,-0.39015406370162964,0.10202188044786453,-0.4512258768081665,0.2641336917877197,-0.6154673099517822,0.11920100450515747,-0.3452203571796417,-0.2753908932209015,-0.03725891560316086,0.2930040955543518,0.2792593836784363,-0.7230340838432312,0.15009960532188416,0.28779637813568115,0.09460796415805817,0.15142248570919037,-0.37054234743118286,0.040562182664871216,0.007084080018103123,0.08929253369569778,0.16004325449466705,-0.29791000485420227,-0.2716350555419922,0.3993740677833557,-0.04368595778942108,0.28358301520347595,-0.02199331298470497,-0.24289511144161224,-0.25448790192604065,0.2110915631055832,0.25800830125808716,-0.07669128477573395,-0.2235371470451355,-0.08853641152381897,0.03432697057723999,0.14185799658298492,-0.13842011988162994,-0.23594357073307037,-0.18073944747447968,0.09737535566091537,0.2443155199289322,-0.023552006110548973,-0.007528080139309168,0.1301794797182083,-0.174093097448349,0.2863219678401947,-0.08663533627986908,0.06586769968271255,-0.23967085778713226,-0.3312234878540039,0.07097054272890091,-0.2301533818244934,-0.11441982537508011,-0.13278496265411377,0.3333032429218292,-0.3523818850517273,-0.1096043586730957,-0.03333306312561035,-0.07252637296915054,0.19016104936599731,-0.2266882359981537,-0.17144542932510376,-0.0960497185587883,0.03968310356140137,0.04555448517203331,0.33460095524787903,-0.053429823368787766,-0.016795815899968147,-0.21838930249214172,0.08729410171508789,0.2681874930858612,-0.4098283648490906,-0.16341668367385864,0.03327610343694687,-0.1667240858078003,0.008842305280268192,0.07299108058214188,0.41367438435554504,0.01957661099731922,0.08872385323047638,-0.2674868702888489,-0.117695152759552,0.03056272305548191,0.04267897084355354,-0.26989662647247314,-0.09793471544981003,0.13355423510074615,-0.2637619376182556,0.11975475400686264,0.004281577654182911,-0.3848244249820709,-0.09520462155342102,-0.10710610449314117,-0.2874685525894165,0.016575394198298454,-0.4185345470905304,0.07658511400222778,0.13201744854450226,0.3329176902770996,-0.09223147481679916,0.1367546021938324,0.3036232888698578,0.41364264488220215,0.27729928493499756,-0.16278885304927826,0.006717301905155182,-0.09080713242292404,-0.2884390652179718,-0.3141046464443207,0.2715834081172943,-0.05580390244722366,0.05216602981090546,0.03268418833613396,0.15382547676563263,-0.18872344493865967,-0.0786035805940628,-0.18857832252979279,-0.07972641289234161,-0.004831146914511919,0.06064599007368088,-0.29067739844322205,0.13310489058494568,-0.46313589811325073
http://dbpedia.org/resource/Infinite_Loop_(street),-0.15968243777751923,-0.230930894613266,0.023826079443097115,-0.14041109383106232,0.3143936097621918,0.20599398016929626,-0.18910330533981323,0.1414896845817566,0.41286569833755493,-0.36554670333862305,-0.041839126497507095,0.27864938974380493,-0.2618136703968048,0.41622069478034973,-0.18831054866313934,0.05329790711402893,0.19621776044368744,-0.5162660479545593,0.020612675696611404,-0.1657859832048416,0.026787113398313522,-0.04873627424240112,-0.249944269657135,0.09169066697359085,0.1697491556406021,0.07874903827905655,-0.03524859622120857,-0.29905965924263,-0.23047509789466858,0.12522050738334656,0.07479244470596313,-0.22641046345233917,0.40843766927719116,0.2934646010398865,-0.038277119398117065,0.13645705580711365,-0.09097835421562195,0.17429286241531372,-0.003258398035541177,0.11186113953590393,-0.03869809955358505,-0.1137978807091713,0.023162677884101868,0.113289013504982,-0.2261752337217331,-0.16718387603759766,0.5132504105567932,-0.12077219039201736,0.020247403532266617,0.051542431116104126,0.14981164038181305,0.13495072722434998,0.16579043865203857,0.4826003611087799,0.3345820903778076,0.02812081389129162,0.09807936102151871,-0.06382516771554947,-0.13001802563667297,-0.7341515421867371,-0.18266017735004425,-0.37181809544563293,0.22080571949481964,-0.2489476203918457,0.12364460527896881,-0.18378576636314392,-0.24359683692455292,-0.1573229432106018,-0.1559382528066635,-0.11301376670598984,0.12922266125679016,-0.47032105922698975,0.23035092651844025,0.23336903750896454,-0.303132563829422,0.39080968499183655,0.2900749742984772,-0.26783430576324463,-0.2674219012260437,-0.34874212741851807,-0.10444708913564682,0.44661200046539307,-0.017441339790821075,0.0751401036977768,-0.24039015173912048,0.05761716514825821,-0.12824618816375732,0.13658708333969116,0.3135971426963806,-0.4040664732456207,-0.5262957215309143,-0.23926323652267456,-0.10222352296113968,0.023794934153556824,0.015455835498869419,0.08526913821697235,-0.15181559324264526,0.208609476685524,-0.20042620599269867,-0.6797457337379456,-0.18567095696926117,0.18938048183918,0.18453910946846008,-0.029602626338601112,-0.1247384175658226,0.3667508363723755,-0.09893178194761276,-0.08594590425491333,-0.01297155860811472,0.3739810585975647,-0.31427738070487976,-0.17033451795578003,-0.18412767350673676,-0.3332566022872925,0.17578694224357605,0.10233044624328613,0.24986398220062256,-0.012720574624836445,-0.4956929385662079,-0.3606971800327301,-0.22387917339801788,-0.25848355889320374,0.0340070016682148,0.11544770002365112,0.2431657612323761,0.1499817669391632,-0.12008587270975113,0.0809190645813942,-0.23114565014839172,-0.6112084984779358,0.11377201229333878,-0.08477813005447388,0.3856201469898224,0.19451017677783966,-0.010662460699677467,-0.24825723469257355,0.13020728528499603,0.4545805752277374,-0.36007481813430786,-0.3504936397075653,0.21670615673065186,0.15329833328723907,-0.10879629105329514,-0.17142781615257263,0.060214027762413025,0.2690080404281616,-0.290949285030365,0.15580980479717255,0.0007205078145489097,-0.01808147132396698,0.11189470440149307,-0.007501992397010326,-0.17117539048194885,-0.03488316386938095,0.2146386057138443,0.4081599712371826,-0.16602247953414917,0.35785797238349915,0.07852563261985779,0.30846622586250305,0.0631880909204483,-0.2313840091228485,0.4027332067489624,0.5321040153503418,-0.2644530236721039,-0.3471883237361908,0.03742987662553787,-0.03386036679148674,0.0980943813920021,0.1567191630601883,-0.11241287738084793,0.1967746466398239,0.2649330794811249,0.24339845776557922,-0.2852788269519806,0.5087405443191528,-0.14741258323192596,-0.34939295053482056,-0.09892314672470093,-0.19560085237026215,-0.25972482562065125,0.05406010523438454,-0.005399763118475676,-0.06606794148683548,0.24520878493785858,-0.1645471453666687,-0.060896553099155426,-0.113109290599823,-0.403915137052536,0.16266141831874847,0.525510847568512,0.3262566030025482,0.06460348516702652,0.2886693775653839,0.039155714213848114,-0.6460128426551819,-0.41960975527763367,-0.09719635546207428,0.05095920339226723,-0.05648564547300339,0.12720079720020294,-0.3252801299095154,0.21798984706401825,-0.003257997566834092,-0.06028826907277107,-0.25083574652671814,0.4026920795440674,-0.1873527616262436,-0.06733071058988571,0.20354346930980682,-0.03773653134703636,0.13696438074111938,0.36875027418136597,-0.07241620123386383,-0.21817637979984283,-0.5547528862953186,-0.07409869879484177,-0.31659120321273804,0.10305559635162354,-0.36008840799331665,0.08350206166505814,-0.2167605459690094,-0.06398709118366241,-0.061964672058820724,-0.014732534997165203,-0.3713458478450775,-0.15156544744968414,0.0655355229973793,0.20243851840496063,0.08067680895328522,0.020485667511820793,-0.1370660364627838,0.36718621850013733,0.16443516314029694,0.19455762207508087,0.37885138392448425,0.3916585147380829,-0.14162196218967438,0.4877077043056488,-0.031349215656518936,-0.06015865504741669,-0.6392799615859985,0.39358285069465637,0.1366921365261078,-0.1544310450553894,0.0856800302863121,-0.08577419072389603,-0.02094956673681736,0.0349401980638504,-0.09594281762838364,-0.1015382781624794,-0.01613467186689377,0.03679338097572327,-0.017652560025453568,-0.08560478687286377,0.22154605388641357,0.04672993719577789,-0.46105673909187317,0.14832474291324615,-0.2773878276348114,0.10240595787763596,0.2727694809436798,0.08774031698703766,-0.3585674464702606,0.10835517197847366,0.24836644530296326,-0.05607612803578377,0.03479858487844467,-0.2632479667663574,0.0896821841597557,-0.3316051959991455,0.20462265610694885,-0.35439229011535645,0.040095604956150055,-0.14365726709365845,0.052843764424324036,-0.10838817059993744,-0.2654823958873749,-0.3398202657699585,-0.19500340521335602,-0.4340384900569916,-0.13936708867549896,-0.17269325256347656,0.3162352740764618,-0.22797855734825134,0.12345847487449646,-0.41802653670310974,-0.0795886293053627,0.029149744659662247,-0.07524368166923523,-0.09073753654956818,0.2318526655435562,-0.3776518404483795,-0.11993236839771271,-0.3284400701522827,0.3376660943031311,0.09061786532402039,0.21000812947750092,0.050450075417757034,-0.081184521317482,0.3974432647228241,0.31168147921562195,-0.23172320425510406,-0.47522610425949097,-0.14737388491630554,-0.5680235624313354,-0.24657903611660004,-0.16010631620883942,-0.08402606099843979,0.4010302722454071,-0.1418481171131134,-0.05005502328276634,0.1479174792766571,-0.1930452138185501,0.11462855339050293,-0.36594030261039734,0.057189539074897766,-0.2508222758769989,0.25441837310791016,-0.2940284013748169,-0.20604448020458221,0.050242725759744644,-0.31648048758506775,0.35238707065582275,0.18406353890895844,0.5290811061859131,0.242287278175354,-0.2969151437282562,-0.20631778240203857,-0.31893226504325867,-0.4216318428516388,0.10750439763069153,-0.45132672786712646,0.2898292541503906,-0.10033770650625229,-0.2096034586429596,0.12670983374118805,-0.2103537619113922,0.013539034873247147,-0.40299221873283386,0.4269505441188812,-0.07078052312135696,-0.5738471746444702,0.4440136253833771,-0.17065881192684174,-0.04503605514764786,0.32847997546195984,-0.1649009734392166,0.007424066308885813,-0.07304511964321136,-0.08364969491958618,0.5740126371383667,-0.17891763150691986,0.48221781849861145,-0.31457585096359253,0.25514182448387146,-0.2120208591222763,0.018101230263710022,0.5044748187065125,-0.08357702940702438,-0.2404925525188446,-0.013510814867913723,-0.12651008367538452,0.27947765588760376,-0.2066287100315094,0.007424039300531149,0.4615553915500641,-0.0009376793168485165,0.23786163330078125,0.2294720858335495,0.020223168656229973,-0.16736629605293274,-0.0802333876490593,-0.02948373556137085,0.3292061984539032,-0.14124086499214172,0.2080545276403427,-0.0776040181517601,0.02133406698703766,-0.3853602111339569,-0.12276413291692734,-0.27935537695884705,0.36023202538490295,0.12222442775964737,-0.3048153519630432,-0.223117858171463,0.2449846714735031,0.6878723502159119,-0.05020246282219887,0.035731974989175797,0.40209025144577026,-0.023146919906139374,0.034874118864536285,-0.13458935916423798,-0.6167951822280884,0.1557275801897049,-0.18406403064727783,-0.12265001982450485,0.43965911865234375,0.23166640102863312,0.08607810735702515,-0.14422892034053802,0.3502531051635742,0.22277392446994781,-0.3800992965698242,-0.11038817465305328,0.3353661298751831,0.16196362674236298,0.40438055992126465,-0.2255423367023468,-0.1301422268152237,0.3497004508972168,-0.012481211684644222,0.10110076516866684,-0.2724209725856781,0.048979803919792175,-0.3470986485481262,-0.19843249022960663,0.4399372637271881,-0.023797722533345222,-0.17348821461200714,0.06915852427482605,-0.10138999670743942,0.24369753897190094,-0.1760026216506958,-0.031396910548210144,0.2367928922176361,-0.15535804629325867,-0.08675547689199448,0.065091572701931,0.06340084969997406,0.4662346839904785,-0.14878877997398376,0.07989766448736191,0.2285042107105255,0.46577832102775574,0.2946731150150299,0.2902039885520935,-0.4095666706562042,0.015400903299450874,-0.526103138923645,-0.21588924527168274,-0.03171595185995102,0.10112054646015167,-0.5605699419975281,-0.7725481390953064,0.1994149088859558,-0.016684843227267265,0.20622295141220093,0.08099911361932755,-0.21445290744304657,0.10555729269981384,-0.2285575121641159,0.236045703291893,0.454679936170578,0.05071666091680527,-0.028407588601112366,0.399522989988327,-0.3865829110145569,0.12930232286453247,0.5288416743278503,-0.19467784464359283,0.17343197762966156,-0.13216032087802887,-0.34099340438842773,0.19724850356578827,-0.16439713537693024,-0.10946783423423767,-0.29945066571235657,-0.032765552401542664,0.08739481121301651,0.010125896893441677,0.1101924329996109,0.6152604222297668,-0.2583806812763214,0.20163117349147797,0.27405035495758057,0.233026921749115,0.24014557898044586,0.7699800729751587,0.2369636744260788,-0.0196992214769125,-0.6480333209037781,-0.27386581897735596,-0.26725032925605774,-0.3820917308330536,0.13165433704853058,0.47023844718933105,-0.2920924127101898,0.023982971906661987,0.3477048873901367,-0.3706567883491516,0.1657462865114212,0.03661184385418892,0.08977842330932617,-0.09158672392368317,0.7192807793617249,-0.3117469549179077,-0.12133998423814774,-0.048443857580423355
http://dbpedia.org/resource/Silicon_Valley,0.027556467801332474,-0.36396652460098267,-0.015345163643360138,0.061387799680233,0.03548325225710869,-0.015953674912452698,0.34737277030944824,-0.010446307249367237,0.39690473675727844,0.3671341836452484,-0.10822579264640808,0.4635516405105591,0.3544439971446991,-0.3813096880912781,-0.2606532871723175,0.21955187618732452,-0.21412062644958496,-0.4905538558959961,-0.43566304445266724,0.497391015291214,-0.09792891144752502,0.0046312082558870316,0.0008270363323390484,-0.18140742182731628,0.38762277364730835,-0.3625287711620331,-0.5666934847831726,-0.26420778036117554,-0.006677655968815088,-0.24392105638980865,0.16949932277202606,0.06700751930475235,0.16134394705295563,-0.5439164638519287,-0.3087606430053711,-0.10614760220050812,-0.37001490592956543,0.37657400965690613,-0.06452546268701553,-0.1606123447418213,0.21155501902103424,0.06296242028474808,0.25080642104148865,0.27937808632850647,0.02047709934413433,0.27986323833465576,-0.037778738886117935,-0.24924615025520325,0.21459901332855225,-0.3368043601512909,0.18141686916351318,0.15759414434432983,-0.23700545728206635,0.10044829547405243,0.055274415761232376,0.1172211617231369,0.36930447816848755,-0.11301885545253754,-0.27070459723472595,0.12654243409633636,-0.32021334767341614,0.2082815021276474,-0.20018234848976135,-0.3222927749156952,-0.3635300099849701,0.12027214467525482,0.2654593884944916,-0.2468079775571823,-0.012167876586318016,-0.012402419932186604,-0.20813444256782532,-0.39312657713890076,0.03627685084939003,0.19277693331241608,0.44572198390960693,-0.10167265683412552,0.13079743087291718,-0.3801354169845581,-0.2476634979248047,-0.15289855003356934,0.4881543815135956,-0.03331635892391205,0.23914127051830292,-0.25445714592933655,-0.29224836826324463,-0.35060203075408936,0.049136433750391006,0.41542086005210876,0.4350639879703522,-0.4379144608974457,-0.023662585765123367,-0.5722206830978394,-0.024082493036985397,-0.27565062046051025,-0.4562262296676636,0.4443208575248718,-0.1922280639410019,0.03558855876326561,0.5479958653450012,-0.9115806818008423,0.19591084122657776,-0.08110170066356659,0.21909905970096588,-0.30844545364379883,0.01571384072303772,-0.43899497389793396,0.17012663185596466,0.12277735024690628,0.5621616244316101,-0.18247060477733612,-0.34018516540527344,-0.14248450100421906,-0.33152228593826294,-0.20317088067531586,0.8895155787467957,0.188631072640419,0.615657389163971,-0.17608648538589478,-0.4514703154563904,-0.29380545020103455,0.11383935809135437,-0.07916924357414246,0.2805677354335785,0.17840440571308136,0.12563635408878326,0.15288004279136658,-0.013177008368074894,-0.039204977452754974,0.15710513293743134,0.5400638580322266,0.5821537375450134,-0.18601812422275543,-0.09042183309793472,0.6396121382713318,0.31789034605026245,-0.1253955066204071,0.37075746059417725,0.20969240367412567,-0.22108495235443115,-0.20040372014045715,0.4229421019554138,0.08465639501810074,0.39506128430366516,-0.2023274004459381,0.2720503509044647,0.44868698716163635,0.5481347441673279,0.41030576825141907,-0.49526068568229675,-0.14803890883922577,-1.107998013496399,-0.04359329119324684,-0.01625548116862774,0.5029019117355347,0.09767409414052963,0.2010786384344101,0.2563897669315338,1.0861817598342896,0.7183476686477661,0.2150091677904129,0.18493294715881348,-0.13205789029598236,0.07647404074668884,0.8459357023239136,0.2979913055896759,0.2637677490711212,-0.0816815122961998,-0.49672651290893555,-0.17103764414787292,-0.14135490357875824,-0.24495533108711243,0.008149094879627228,0.37272322177886963,-0.41138574481010437,-0.2854546904563904,-0.006780053488910198,0.6658385396003723,-0.26384976506233215,-0.4095822274684906,0.3170182406902313,-0.17543841898441315,-0.11424046754837036,-0.4694603383541107,-0.3922871947288513,-0.05646592006087303,0.07235246896743774,-0.19371165335178375,0.26238030195236206,0.3326975405216217,0.474292129278183,-0.22662098705768585,0.3597651422023773,-0.15701712667942047,0.4451066255569458,-0.4081737697124481,-0.8046773076057434,-0.713141679763794,-0.6332030892372131,0.6646462082862854,-0.008320556953549385,0.39950671792030334,-0.03279343619942665,0.2626183032989502,-0.0997486561536789,-0.6564237475395203,0.017809392884373665,0.45256733894348145,0.27203401923179626,-0.47515982389450073,0.5607958436012268,0.5086920261383057,-0.5649319887161255,-0.04703696817159653,-0.21073970198631287,0.27958667278289795,0.14564570784568787,-0.3641749918460846,0.17569847404956818,-0.4285806119441986,0.24934284389019012,0.15227536857128143,-0.35391467809677124,0.10078956186771393,-0.29400184750556946,0.2241482436656952,0.15077899396419525,-0.14220120012760162,0.1896776407957077,0.09488964825868607,-0.018661867827177048,0.1801873743534088,-0.17978817224502563,-0.06223234906792641,0.5851687788963318,0.06383989751338959,-0.1748470664024353,0.3430050313472748,-0.11920522898435593,0.5660218000411987,0.13238508999347687,0.168812558054924,-0.027135521173477173,0.4452039897441864,-0.47230345010757446,1.1419068574905396,0.15430817008018494,-0.5395089983940125,-0.5565879940986633,-0.7038744688034058,-0.16285325586795807,-0.49762198328971863,-0.34354907274246216,-0.3093692362308502,-0.03696059435606003,0.09489133954048157,0.5167009830474854,-0.09364811331033707,0.35451221466064453,0.12855570018291473,-0.14999288320541382,-0.15629702806472778,0.19846411049365997,-0.09589232504367828,0.1617252677679062,0.12207809835672379,-0.08078322559595108,0.4064146876335144,0.6237194538116455,-0.36922064423561096,-0.3022582530975342,-0.19933538138866425,0.03511719033122063,0.01957780122756958,0.13765163719654083,-0.20510300993919373,0.12507449090480804,0.05617076903581619,-0.05187046900391579,0.14065036177635193,-0.04942690581083298,-0.050251029431819916,-0.1260601133108139,-0.631794810295105,-0.1080077588558197,-0.19628652930259705,0.05118412524461746,-0.2764293849468231,0.13130193948745728,0.17939592897891998,0.2271963506937027,-0.2367243617773056,0.48608338832855225,-0.3584444522857666,0.1339401751756668,0.12895053625106812,0.26745525002479553,0.261504203081131,0.12266697734594345,-0.014118235558271408,-0.20735912024974823,0.5080472230911255,-0.18051809072494507,0.059008676558732986,-0.5157004594802856,0.05758531764149666,0.3725458085536957,-0.3017031252384186,0.15052182972431183,-0.0671280175447464,0.1067502573132515,0.41700854897499084,-0.03473980724811554,-0.2513054609298706,-0.1802440732717514,0.15720611810684204,-0.3965032696723938,-0.5308377742767334,-0.3282107710838318,-0.39487457275390625,0.858176589012146,0.26966363191604614,-0.22266003489494324,-0.2592434287071228,-0.016973568126559258,-0.5415707230567932,-0.3921906650066376,-0.4583664536476135,0.12595869600772858,0.02235439606010914,-0.26006415486335754,0.3794599771499634,-0.4567764401435852,-0.043747272342443466,0.08755646646022797,0.5036244988441467,0.6972342729568481,0.0801411122083664,0.1303539276123047,-0.5570793151855469,-0.1235644668340683,0.6515656113624573,-0.08720371127128601,-0.9072695374488831,0.43316665291786194,-0.28854867815971375,-0.2634235620498657,0.10756208747625351,0.20054049789905548,-0.3010948896408081,0.09815917909145355,0.6292722821235657,0.708655595779419,0.17276427149772644,-0.06150440871715546,0.1902557611465454,0.16914799809455872,-0.6267737150192261,0.12618733942508698,0.5826188921928406,0.2694588601589203,-0.2769562602043152,0.09107298403978348,-0.6323496699333191,0.24145805835723877,-0.24406373500823975,0.17485392093658447,-0.1596401184797287,-0.6844823360443115,0.13308370113372803,-0.01534594502300024,-0.054841939359903336,0.44072425365448,-0.017913836985826492,0.5606990456581116,-0.15099143981933594,0.3519555628299713,0.3795202970504761,-0.0689125657081604,0.36230120062828064,0.23884651064872742,-0.39361414313316345,-0.32202351093292236,0.4930762052536011,-0.16764508187770844,0.06189171224832535,-0.1167525202035904,0.08170728385448456,0.29579147696495056,-0.41137123107910156,-0.3827202022075653,0.18129955232143402,0.35262516140937805,-0.5002986788749695,-0.4959222376346588,-0.2875639796257019,0.6390084028244019,-0.05993913859128952,-0.03708630055189133,0.15090295672416687,-0.670075535774231,0.256044864654541,0.12417896836996078,0.2934727966785431,0.1797148883342743,0.48055610060691833,-0.16181567311286926,-0.5451174378395081,0.4099629521369934,0.8256025910377502,-0.30881357192993164,0.2715403735637665,0.4175044000148773,0.06898678094148636,0.17831960320472717,0.007902448065578938,-0.16959822177886963,0.004418632015585899,-0.23900701105594635,-0.11275070905685425,-0.8382072448730469,-0.1092010885477066,-0.3189549744129181,0.01702655479311943,-0.2921498715877533,-0.3009544909000397,-0.208658367395401,-0.5517220497131348,-0.11427317559719086,-0.11661455035209656,0.11744540929794312,-0.13917122781276703,0.17604748904705048,0.10072770714759827,-0.7249978184700012,-0.05470622703433037,0.7077689170837402,0.3704985976219177,-0.022689636796712875,-0.21094179153442383,-0.5877233743667603,-0.6369410753250122,-0.25295281410217285,0.3834133744239807,0.3238098621368408,-0.5910562872886658,-0.22816148400306702,0.024980898946523666,0.4319671094417572,-0.32972252368927,-0.12425512075424194,0.2725650370121002,0.2929059863090515,0.13398632407188416,0.1819482445716858,-0.1333412528038025,-0.35052749514579773,-0.40601468086242676,0.008727691136300564,-0.007743088994175196,-0.0808783546090126,-0.4932944178581238,0.17732353508472443,0.09051532298326492,-0.3233553469181061,-0.07057631760835648,0.14923235774040222,0.04232259467244148,-0.5476532578468323,-0.15644194185733795,0.20102208852767944,-0.2275734543800354,0.0666201040148735,0.07084067165851593,0.28347209095954895,-0.08643480390310287,-0.08163731545209885,-0.3178580701351166,-0.18747848272323608,-0.3585495948791504,0.5530850887298584,-0.25762510299682617,-0.05413801595568657,-0.3577207028865814,-0.2786054313182831,-0.44986677169799805,0.16940583288669586,0.8128748536109924,0.2034628987312317,0.08032003045082092,-0.2598441541194916,-0.006532382685691118,-0.25872287154197693,0.10489370673894882,-0.6085051894187927,0.3307008147239685,0.12483282387256622,-0.04041096940636635,0.3315863013267517,-0.17419008910655975,0.18357735872268677
http://dbpedia.org/resource/NeXT,-0.12373924255371094,0.8482837080955505,-0.040393803268671036,-0.001956494990736246,-0.1441858857870102,0.3697079122066498,-0.4521220922470093,-0.3029877841472626,0.24964238703250885,0.06251593679189682,-0.18811632692813873,-0.3574126064777374,-0.19228394329547882,0.477850079536438,-0.3654325306415558,-0.2442806363105774,0.4072628915309906,-0.31801462173461914,-0.23919564485549927,0.08292720466852188,-0.08754301816225052,0.34695738554000854,0.34682413935661316,0.04299977421760559,-0.10659964382648468,-0.16054430603981018,-0.11631645262241364,0.2250998318195343,-0.7819525003433228,0.026081819087266922,-0.1898084431886673,0.37443894147872925,-0.11216919124126434,-0.3316810727119446,0.22503551840782166,0.6383764147758484,-0.23607774078845978,0.049580104649066925,-0.381771445274353,-0.13772442936897278,0.18539297580718994,-0.6887916326522827,-0.08240009099245071,0.49364274740219116,-0.13552576303482056,-0.3481915295124054,-0.42017969489097595,-0.6547845602035522,0.014843200333416462,-0.34835657477378845,-0.00955661665648222,-0.3637155294418335,-0.31151536107063293,-0.41277772188186646,-0.23454129695892334,-0.046587664633989334,-0.0712721049785614,-0.12809957563877106,-0.22672176361083984,-0.4869464635848999,-0.030928703024983406,0.6505576372146606,-0.7714940905570984,-0.49191853404045105,-0.018817001953721046,0.3987492620944977,0.07298941910266876,0.15031975507736206,-0.5647189617156982,-0.01978546753525734,0.4435264766216278,-0.02641191892325878,0.23584921658039093,0.23794877529144287,-0.23639743030071259,-0.33929067850112915,0.38100674748420715,-0.26987436413764954,-0.18966327607631683,-0.2848737835884094,0.3271404802799225,0.20660266280174255,0.1790142059326172,-0.1620582938194275,0.23792031407356262,-0.4255225658416748,0.46966636180877686,0.061970748007297516,-0.0270872563123703,-0.2048112154006958,-0.2671440541744232,0.11140116304159164,-0.14865270256996155,-0.25490322709083557,0.3289043605327606,0.3580808937549591,0.36510515213012695,-0.15689155459403992,0.29820021986961365,-0.1323360651731491,-0.41837093234062195,-0.010193646885454655,-0.5174659490585327,-0.528499186038971,0.4907088279724121,0.49419859051704407,-0.18503357470035553,-0.9922811985015869,-0.05766092985868454,-0.07877618074417114,-0.4513785243034363,-0.10773500800132751,0.03448355197906494,0.2592480182647705,0.059858571738004684,0.34939706325531006,0.07083415985107422,0.38871923089027405,-0.1279505044221878,-0.629906177520752,0.2644113302230835,-0.301600843667984,0.6716067790985107,0.12390116602182388,0.0195940975099802,-0.6278914213180542,0.10914648324251175,0.9392743706703186,0.4201973080635071,0.27327802777290344,0.40626904368400574,0.015605499036610126,0.09579432010650635,0.03481362387537956,0.4131690561771393,-0.3909369111061096,-0.07831275463104248,-0.11820916831493378,-0.5897368788719177,0.11923753470182419,0.007342248223721981,-0.11022326350212097,-0.10099084675312042,0.10588515549898148,-0.5595073103904724,0.1375984102487564,0.0224577896296978,-0.2035989761352539,-0.719943106174469,0.19888660311698914,-0.35651180148124695,-0.20297785103321075,-0.33795154094696045,-0.2415846884250641,-0.29176223278045654,-0.34054720401763916,-0.34933897852897644,0.7048665285110474,-0.0738435685634613,-0.26063141226768494,0.0013435044093057513,0.008637425489723682,-0.14998742938041687,-0.10629602521657944,-0.18403291702270508,0.3998481333255768,0.5532691478729248,0.11070740967988968,-0.7110717296600342,0.38249656558036804,-0.5059675574302673,0.15965536236763,0.3173214793205261,0.06282804906368256,-0.437701016664505,-0.29085496068000793,0.2451685220003128,0.6400361657142639,-0.2599581480026245,-0.18390586972236633,-0.2717876136302948,-0.3328249752521515,0.3229930102825165,0.33185139298439026,0.3588760495185852,-0.15938551723957062,0.41801291704177856,0.22366437315940857,0.14702148735523224,-0.28317707777023315,-0.13693103194236755,0.8323602676391602,-0.1369697004556656,0.3485772907733917,-0.45205098390579224,0.029570508748292923,0.5442354083061218,0.45628100633621216,0.5655698180198669,0.06565158069133759,-0.10927855968475342,-0.1582203358411789,-0.054098911583423615,-0.2119600921869278,-0.19345921277999878,-0.24901384115219116,0.8329675793647766,0.13966859877109528,0.4774685800075531,0.19117501378059387,0.3418184518814087,-0.3946293890476227,0.06825777888298035,0.4764750003814697,0.09863834828138351,0.21921353042125702,0.23559321463108063,-0.13845807313919067,-0.2353503555059433,0.27048376202583313,-0.11313487589359283,-0.2827739119529724,0.1926840990781784,-0.7931234240531921,-0.5713245272636414,-0.23560038208961487,0.4084904193878174,0.10195210576057434,0.6093829274177551,0.25741609930992126,0.20262503623962402,-0.17386071383953094,-0.2687254250049591,0.34065115451812744,0.21815304458141327,-0.13991592824459076,0.12168816477060318,0.28843817114830017,0.6171172261238098,0.3056994378566742,0.4288332760334015,-0.28261399269104004,0.144133061170578,-0.04196925088763237,0.09761778265237808,0.7207527756690979,0.09475500881671906,0.29845234751701355,0.4245643615722656,0.05388471484184265,-0.36611029505729675,-0.4612357020378113,-0.002759372815489769,-0.2721724808216095,0.3716891407966614,-0.13365621864795685,-0.29646769165992737,0.20092348754405975,0.7240463495254517,-0.7725034356117249,-0.9582566022872925,0.8304015398025513,-0.3816293478012085,-0.25802934169769287,0.3306642472743988,-0.7099705934524536,-0.2630423605442047,0.4887239634990692,0.04881299287080765,-0.004489669110625982,0.04496205970644951,-0.12396252155303955,0.030539801344275475,0.20733915269374847,-0.32229071855545044,0.005247117020189762,-0.11457321792840958,0.31395450234413147,0.6787273287773132,-0.38047924637794495,-0.15188392996788025,-0.5292962193489075,-0.11010487377643585,0.1114371120929718,0.4755413830280304,-0.1461372822523117,-0.3995789885520935,-0.13648715615272522,-0.05604271963238716,0.47436267137527466,-0.0581543855369091,-0.22781632840633392,0.6992141008377075,0.3367368280887604,0.08789487183094025,0.11216085404157639,0.3268851041793823,0.009939516894519329,0.35678166151046753,-0.029745029285550117,0.9718713164329529,0.24633260071277618,-0.3346385955810547,0.08826151490211487,0.06605539470911026,-0.037066418677568436,0.37686434388160706,-0.13675539195537567,-0.10063716024160385,0.41037753224372864,0.16092079877853394,0.07493586093187332,-0.1856929212808609,0.3678199052810669,-0.4393555819988251,-0.22527524828910828,-0.07567096501588821,-0.8863779902458191,-0.017337283119559288,0.467682808637619,-0.3172600269317627,-0.4869270622730255,0.22078430652618408,0.8227781057357788,-0.178646519780159,0.5880371332168579,0.18884512782096863,0.07198449224233627,-0.2629302442073822,0.18017829954624176,-0.3819814920425415,0.033837415277957916,-0.18057575821876526,-0.1133582815527916,0.27940547466278076,-0.23966477811336517,0.017147131264209747,0.568870484828949,-0.2836003601551056,-0.018171779811382294,0.11733152717351913,-0.13412116467952728,-1.2175863981246948,0.4434603154659271,-0.17721045017242432,-0.25812485814094543,0.20002178847789764,0.22612430155277252,0.5808650255203247,0.26219886541366577,-0.010244530625641346,0.33979421854019165,0.18685027956962585,0.34848225116729736,0.05946354568004608,-0.17381832003593445,0.582819938659668,0.09300271421670914,0.2883143126964569,-0.4147509038448334,0.041292235255241394,-0.25362733006477356,-0.11410021036863327,0.14601486921310425,0.11153075098991394,0.4332922399044037,0.3236885368824005,-0.5085625052452087,0.17173124849796295,-0.44705039262771606,0.286076158285141,0.19224725663661957,-0.613008439540863,-0.3118956685066223,0.08077142387628555,-0.09555790573358536,0.6967925429344177,-0.49391186237335205,0.23895646631717682,0.3294046223163605,0.11603139340877533,-0.38453349471092224,0.10908019542694092,-0.2774806618690491,0.03861241042613983,-0.0318937748670578,-0.2994931936264038,1.1539185047149658,0.22294047474861145,0.19790533185005188,0.7659008502960205,-0.03707437217235565,-0.20471282303333282,0.10201989859342575,-0.2862527072429657,0.25114938616752625,0.36159440875053406,-0.11188682168722153,-0.044372327625751495,0.2821829617023468,0.04980122298002243,-0.21133559942245483,0.5131189823150635,0.3327223062515259,0.46925801038742065,-0.16350317001342773,0.08404666185379028,-0.21140317618846893,0.220613494515419,-0.1431802660226822,0.134965181350708,-0.1566341072320938,-0.03797202929854393,-0.05158142372965813,-0.5480750203132629,-0.19410842657089233,-0.4334014654159546,0.22498105466365814,0.6656844615936279,0.26913535594940186,-0.4886593520641327,0.029936866834759712,-0.11595477908849716,-0.054628416895866394,-0.12852248549461365,-0.12708322703838348,-0.16060562431812286,-0.12113353610038757,-0.3556673228740692,0.21670569479465485,0.045114077627658844,0.47279438376426697,0.2121838927268982,0.17780886590480804,-0.3047643303871155,0.28700995445251465,0.44881531596183777,0.29453763365745544,0.27270081639289856,-0.340175598859787,-0.12156961858272552,-0.1970343291759491,0.056090082973241806,-0.23933851718902588,0.15370769798755646,-0.589069664478302,0.3704495429992676,0.26780882477760315,-0.4647137224674225,-0.035876210778951645,0.17900504171848297,0.33877742290496826,0.3311419188976288,0.42732399702072144,-0.06978802382946014,-0.23858080804347992,0.09226221591234207,-0.3624151349067688,0.10241994261741638,-0.034724846482276917,-0.10216440260410309,0.027290264144539833,-0.3828314244747162,0.04082823172211647,0.3119103014469147,-0.13709458708763123,0.10978034883737564,-0.3279854953289032,-0.35330867767333984,0.031585801392793655,-0.5149950981140137,-0.1050223559141159,-0.07215685397386551,0.17816808819770813,-0.25047850608825684,0.28269195556640625,0.25679218769073486,0.4422937035560608,-0.05649643391370773,0.8175472021102905,-0.4291161894798279,-0.09910518676042557,-0.6316947937011719,-0.02763824537396431,-0.4995001554489136,-0.38889241218566895,0.6184680461883545,0.13418984413146973,-0.18788717687129974,0.06497822701931,0.167683407664299,0.3546619415283203,-0.0824480652809143,-0.22020232677459717,-0.030375750735402107,0.55782151222229,0.4344404637813568,0.1964203268289566,0.28680965304374695,-0.09285843372344971
