http://dbpedia.org/resource/Apple_Inc.,-0.11268629133701324,-0.49221494793891907,0.12347377836704254,-0.6398661136627197,0.8130874633789062,0.002505694283172488,0.3716505765914917,0.47864267230033875,0.2917090654373169,-0.11105398088693619,-0.02069143019616604,1.1251742839813232,-0.6492530703544617,0.03986167535185814,0.7323589324951172,0.14710579812526703,0.844875156879425,-0.8962277770042419,-0.6866201162338257,-0.02935849316418171,0.16459447145462036,-0.13057081401348114,-0.3517390489578247,-0.2112291157245636,-0.4171364903450012,0.044166021049022675,0.12905694544315338,-0.03985588252544403,0.2052253633737564,-1.0285797119140625,-0.5885816216468811,-0.26466113328933716,0.22877436876296997,-0.19587342441082,-0.3431665301322937,-0.092281773686409,0.47193869948387146,0.474731981754303,1.0287668704986572,0.07953837513923645,0.6778367161750793,-1.1153899431228638,-0.12279319763183594,0.1794452667236328,0.9184815883636475,0.5352143049240112,0.7464303970336914,0.05849868431687355,0.18477222323417664,0.026702474802732468,0.6831444501876831,-0.3059402108192444,0.18099786341190338,-0.15229646861553192,-1.872493863105774,0.8471871018409729,0.35131269693374634,-0.16297851502895355,0.6916053891181946,-0.10526128113269806,0.3478929400444031,-0.2192213237285614,1.0664937496185303,0.23168833553791046,-0.4235120117664337,0.3760419189929962,0.08274156600236893,-0.4636082053184509,0.1905769556760788,0.17333541810512543,-0.6886525750160217,-0.43121036887168884,-0.44097286462783813,-0.228203684091568,-0.8497160077095032,-0.8080126643180847,-0.021611055359244347,-0.4866393506526947,-0.7345821857452393,0.14735466241836548,-0.49840015172958374,0.031149325892329216,0.718497097492218,0.05065496265888214,0.06217349320650101,-0.08426081389188766,-0.43737632036209106,0.50865238904953,-1.089320182800293,0.08694103360176086,0.43005672097206116,0.22553910315036774,-0.4509359896183014,-0.3939210772514343,0.5432096123695374,0.5045072436332703,-0.18582306802272797,-0.785793125629425,0.2437112033367157,0.12872350215911865,0.2786388695240021,-0.2608855962753296,-0.1336471140384674,-0.7876142263412476,1.234633207321167,-0.2797870635986328,0.60008704662323,-0.7777185440063477,-0.944510281085968,-0.5853979587554932,-0.44507837295532227,-0.39243945479393005,-0.10921335220336914,-0.5089620351791382,0.18295085430145264,0.18403615057468414,0.024508977308869362,0.8525044322013855,0.020535070449113846,-0.20816288888454437,-0.05323341116309166,-0.4995042681694031,-0.9979168176651001,0.3086774945259094,-0.8045591115951538,-0.7614673972129822,-0.9907152056694031,-0.19906486570835114,0.16375668346881866,-0.01061077881604433,0.5916702151298523,0.29707252979278564,-0.2571805715560913,0.9397091865539551,-0.24636970460414886,0.6264897584915161,-0.3216041028499603,0.13059186935424805,-0.004475862253457308,-0.4710184931755066,0.25680777430534363,-0.12312401831150055,0.33286258578300476,0.2973977327346802,0.05006241425871849,-0.07032009214162827,0.3671112358570099,-0.3845357596874237,1.2695742845535278,0.6947160363197327,-0.1893186718225479,0.47037962079048157,0.005523795261979103,-0.2767162024974823,0.6571900248527527,-0.15901342034339905,1.0455538034439087,0.6897242665290833,0.15215235948562622,-0.5118613839149475,0.19574828445911407,-0.5480453968048096,0.1806168258190155,0.13953490555286407,-0.5831879377365112,-0.3003178536891937,-0.5328878164291382,0.5351150631904602,-0.10017794370651245,0.2531101107597351,-0.010758395306766033,-0.6522180438041687,0.574363112449646,-0.4999089539051056,-0.2548038363456726,-0.2523689270019531,0.36317285895347595,-0.3379910886287689,-0.13625900447368622,0.3218412399291992,0.23218593001365662,-0.1286805272102356,-0.18121109902858734,0.21866782009601593,-0.06185739487409592,0.6101657152175903,0.6137077212333679,0.5694843530654907,0.2566112279891968,-0.08857892453670502,-0.653893232345581,0.5240544676780701,0.9274865984916687,-1.1723065376281738,1.8615484237670898,-1.242887020111084,-0.24153263866901398,0.4576607942581177,0.4018387794494629,0.5157120227813721
http://dbpedia.org/resource/Steve_Jobs,-0.8510168194770813,-0.29951196908950806,0.4501982033252716,0.052654121071100235,-0.05468113347887993,0.5188971757888794,0.3088962435722351,0.8791579604148865,0.22707580029964447,0.7209933400154114,-1.0747820138931274,1.335411787033081,0.10237938910722733,0.06307542324066162,1.50477933883667,-1.1646883487701416,-0.121767058968544,0.09106527268886566,-0.44852215051651,-0.2801728844642639,-1.118645191192627,0.2204737663269043,0.2787296772003174,0.12156595289707184,-0.15314078330993652,-1.0119482278823853,-0.8470176458358765,-0.5598037838935852,-0.1466868370771408,-0.18088948726654053,-0.5445746183395386,-0.35704177618026733,-0.16780473291873932,0.11975722014904022,-0.08977323770523071,-0.32986268401145935,0.385046124458313,-0.11470570415258408,-0.4134000241756439,0.8196200728416443,0.015036053955554962,-0.8457970023155212,0.15156115591526031,0.2279205471277237,0.13433930277824402,0.853928804397583,0.28964993357658386,0.1044405996799469,0.12179065495729446,-0.9574027061462402,0.23364555835723877,0.19303499162197113,1.4561495780944824,-0.17652486264705658,-0.3844563961029053,0.8189054131507874,1.300960659980774,1.0304309129714966,-0.1207009106874466,0.09479773789644241,0.11088547110557556,-0.3665488064289093,1.2859610319137573,0.07226826250553131,-1.303719401359558,-0.10353859513998032,-1.4105077981948853,-1.0301034450531006,0.5571588277816772,-0.5878508687019348,-1.127651572227478,-1.31220281124115,-0.5991701483726501,0.24214684963226318,0.8753059506416321,0.3852333128452301,-0.39325955510139465,0.15657839179039001,0.51034015417099,-0.5803885459899902,-0.12974435091018677,0.5497225522994995,0.2566010355949402,-0.7795742750167847,1.219179391860962,0.045505598187446594,-0.6271755695343018,0.3086566627025604,0.02273881807923317,-0.36195772886276245,1.2749590873718262,0.03074820525944233,0.08884746581315994,0.20994269847869873,0.13435423374176025,1.2357213497161865,0.06403291970491409,-0.3552074134349823,0.30819499492645264,0.8435483574867249,-1.3614293336868286,-0.7428945302963257,-0.26456257700920105,-0.36451584100723267,0.6678854823112488,0.316741019487381,0.6152998208999634,-0.01539203803986311,-0.014161627739667892,-0.20263880491256714,-0.5628473162651062,-0.5974444150924683,-0.22978602349758148,-0.8609499931335449,0.21654798090457916,0.07617541402578354,-0.45043739676475525,0.3256625831127167,-0.014703306369483471,1.1393823623657227,-0.2075805515050888,-0.746067464351654,-0.45016828179359436,-0.6546578407287598,-1.1671829223632812,-0.35942697525024414,-0.016098491847515106,0.20824076235294342,-0.4724332392215729,-0.880519449710846,0.6157147884368896,0.08690445870161057,1.1053227186203003,1.0439192056655884,0.40448102355003357,0.24180735647678375,0.5514742732048035,-1.292534589767456,0.7273877263069153,0.36518368124961853,0.4183846712112427,-0.827331006526947,-0.1884031742811203,-0.050366196781396866,0.40989193320274353,0.009617529809474945,-0.17481064796447754,-0.6887904405593872,0.87523353099823,0.6221470832824707,-0.07769159227609634,-0.058800820261240005,-0.02264365181326866,-1.2115273475646973,1.4491479396820068,-0.5951963663101196,0.9756776094436646,-1.0107680559158325,-0.4432937502861023,0.48353803157806396,0.13765181601047516,-0.34025630354881287,0.5615139007568359,0.42156046628952026,-0.323160856962204,-0.06213565915822983,-0.9115657210350037,-0.05585126951336861,-0.017399966716766357,-0.33808594942092896,0.034860894083976746,-1.6835992336273193,0.33183038234710693,-1.0773578882217407,0.48630791902542114,0.8161348104476929,0.6488986015319824,-0.8176272511482239,1.6026370525360107,1.422483205795288,0.15273518860340118,-0.5551595091819763,-0.22097845375537872,-0.3407842814922333,-0.501643717288971,-0.4799555242061615,-0.3379576802253723,0.625350832939148,0.2312878966331482,0.09831402450799942,-0.9243946075439453,0.1121869757771492,0.13869091868400574,-1.0838611125946045,0.8882377743721008,-0.6462070345878601,-0.1958123743534088,-0.7877066731452942,-0.24529632925987244,1.2436445951461792
http://dbpedia.org/resource/Steve_Wozniak,-0.02523854933679104,-0.3912114202976227,0.6945992112159729,0.7501462697982788,0.7281979322433472,0.8899454474449158,-0.0038306599017232656,0.5747474431991577,0.9728468060493469,-0.08019572496414185,-0.1853630542755127,1.4323235750198364,-0.0008384266984649003,0.18684770166873932,0.5365672707557678,0.17487305402755737,0.5097545981407166,0.33171576261520386,-0.5303529500961304,-0.257107138633728,-0.21041357517242432,0.07858490943908691,-0.09603780508041382,-0.37549537420272827,0.16585838794708252,0.09130636602640152,-0.4907219409942627,-0.4308493435382843,-0.2431817203760147,-0.11618607491254807,0.19211247563362122,0.1627161055803299,0.016167540103197098,0.1434413641691208,-0.14301912486553192,0.5221360325813293,-0.30445006489753723,0.7772414088249207,-0.02806274965405464,0.8979054093360901,0.8881462216377258,-1.6387532949447632,-0.426217257976532,-0.5911123156547546,0.7479119300842285,0.3667939305305481,0.905350923538208,-0.03541093319654465,0.973327100276947,-0.19084058701992035,0.3623754680156708,-0.10886570811271667,-0.27379322052001953,-0.4330489933490753,-2.0578367710113525,0.4946231245994568,0.6556759476661682,-0.263170063495636,0.13596606254577637,0.4923051595687866,-0.15067720413208008,-0.6629206538200378,0.17773933708667755,0.5272520780563354,-0.6933932900428772,0.5354012846946716,-0.37117788195610046,-0.2053164541721344,-0.5022551417350769,0.30714255571365356,-0.7873591184616089,-0.6963962316513062,-0.23001861572265625,-0.336146742105484,0.2797907590866089,0.08019418269395828,0.16880081593990326,-0.11515989154577255,0.0021484466269612312,0.0569547638297081,0.44551631808280945,0.20893725752830505,0.49917009472846985,-0.14578744769096375,0.00650385394692421,-0.4235381484031677,-0.6180909276008606,0.23537535965442657,-0.5372459292411804,-0.08025442063808441,0.43549224734306335,-0.07868188619613647,0.06984706968069077,-0.10714422166347504,-0.0844959244132042,0.018034178763628006,0.014198364689946175,-1.3754024505615234,0.27545467019081116,1.051285743713379,0.12467232346534729,0.15054626762866974,-0.2743190824985504,-0.6444046497344971,-0.1992671638727188,-0.029481878504157066,1.5800336599349976,-1.1472190618515015,-0.4139171242713928,-0.9498364329338074,-0.5414796471595764,-0.19319841265678406,-0.6319224238395691,-0.08918950706720352,0.8723337650299072,-0.13154856860637665,0.22436125576496124,0.20486366748809814,0.24945256114006042,-0.3064219355583191,0.03906039521098137,-1.3464442491531372,-0.23788583278656006,-0.5750747919082642,-1.0299290418624878,-0.20562990009784698,-0.6524750590324402,-0.48348021507263184,0.550692081451416,0.5281988978385925,0.794337272644043,-0.3590294420719147,0.013156712986528873,0.3002232611179352,-0.18271048367023468,0.6050260663032532,0.06267991662025452,-0.14551576972007751,0.7390819787979126,0.8620104789733887,1.8503655195236206,-0.4588518738746643,1.0013034343719482,0.26714733242988586,0.7040054202079773,1.1386356353759766,0.1419171392917633,-0.26933401823043823,0.5358100533485413,0.6262558102607727,-0.49657583236694336,0.14212928712368011,-0.3886173665523529,-0.7100368738174438,0.09029624611139297,0.15380176901817322,1.28656005859375,0.09197818487882614,-0.24146509170532227,-1.5626062154769897,0.031452476978302,-0.40312403440475464,-0.3791261911392212,0.2179587185382843,-0.15081627666950226,-0.29882529377937317,0.21708886325359344,-0.10199666768312454,0.3721660375595093,0.35332000255584717,0.10424645990133286,-0.7673324942588806,0.8398355841636658,-0.8113879561424255,-0.5541062355041504,0.08384505659341812,0.5544984936714172,0.2882886826992035,0.05141734704375267,-0.04678158462047577,-0.34238624572753906,-0.43121641874313354,-0.43671292066574097,0.3320840299129486,0.1669788956642151,-0.16070058941841125,0.5397642850875854,0.4658091962337494,0.2623283267021179,0.3297705352306366,-0.8782077431678772,0.09170341491699219,0.9724278450012207,-1.1791962385177612,1.5727864503860474,-0.7575508952140808,-0.5164967179298401,0.7215453386306763,0.1990860551595688,0.5245482325553894
http://dbpedia.org/resource/Jonathan_Ive,-0.17799070477485657,-0.6629005074501038,0.21925781667232513,-0.1060870811343193,0.41496896743774414,-0.0711342841386795,0.10561441630125046,0.2581391930580139,0.35305237770080566,1.2427005767822266,-0.26317885518074036,0.4663464426994324,0.2686249017715454,0.26217642426490784,0.005450624506920576,-0.3882262408733368,0.3090282678604126,-0.103302501142025,-0.10730235278606415,0.13923925161361694,0.2433798909187317,0.49313536286354065,-0.6915155649185181,-0.2899969518184662,-0.28383776545524597,-0.2781412601470947,-0.040931422263383865,0.15227067470550537,-0.20501412451267242,-0.4609478712081909,-0.1011127158999443,0.8187301158905029,0.23112894594669342,-0.29949766397476196,-0.08225329965353012,0.19857555627822876,0.7331238389015198,1.0392858982086182,-0.14103062450885773,0.23678946495056152,0.952825665473938,-0.6913022398948669,-0.384414404630661,0.2808074951171875,1.1260418891906738,0.23251983523368835,0.07810954004526138,0.0665893480181694,-0.6199413537979126,-0.5376274585723877,-0.10044693201780319,0.20443616807460785,0.3091769516468048,0.03118639439344406,-0.9886866807937622,-0.04097263142466545,0.7654989957809448,-0.43794557452201843,-0.6240923404693604,0.3034130930900574,-0.07404133677482605,-0.28244563937187195,0.7382331490516663,0.2709183394908905,-0.3410146236419678,-0.2484368085861206,0.020471422001719475,-0.031197814270853996,-0.1320674866437912,-0.03735139220952988,-0.5503551363945007,-0.23021040856838226,0.12399017065763474,-0.07690690457820892,0.2889028787612915,-0.3281804919242859,-0.15906286239624023,-0.3174867630004883,-0.7154849767684937,0.054028503596782684,-0.4080665409564972,0.34501463174819946,0.7152015566825867,0.09822458773851395,-0.2394283264875412,-0.16749082505702972,-0.5257655382156372,0.3374826908111572,-0.8343002796173096,0.2479449361562729,0.9766477942466736,0.3953661620616913,-0.7089442014694214,-0.22467349469661713,-0.38529419898986816,0.35846132040023804,-0.014017055742442608,0.048145223408937454,0.794597864151001,0.8939183950424194,0.5264430046081543,-0.13666173815727234,-0.5126627087593079,-1.0608586072921753,1.0254100561141968,-0.279400110244751,1.1857821941375732,-0.5812699198722839,-0.7463811635971069,-0.40656769275665283,0.2637735605239868,0.2132437527179718,0.22172744572162628,-0.5175662040710449,0.05908213555812836,-0.4623686671257019,-0.25228920578956604,0.9771259427070618,0.4761638343334198,0.47904351353645325,0.33337411284446716,-1.0685302019119263,-0.046186044812202454,0.2219482809305191,-0.5747420191764832,-0.6184285283088684,-0.7306631803512573,-0.355350136756897,0.15392544865608215,0.43645256757736206,0.7384923696517944,0.016009576618671417,0.7455179691314697,0.6809446811676025,0.06267846375703812,0.5244361162185669,-0.007092368323355913,0.35140401124954224,0.7976765632629395,-0.281646192073822,0.8119447827339172,0.44082701206207275,0.8604385852813721,0.9015220403671265,0.6288189888000488,0.1021999791264534,-0.2588842213153839,0.36337020993232727,1.0751200914382935,0.13089750707149506,-0.08442869037389755,-0.47037819027900696,-0.6114392280578613,-0.21945859491825104,0.6865151524543762,-0.148415207862854,0.39043697714805603,0.19009025394916534,0.5528303384780884,-0.4635627269744873,0.5005856156349182,-0.3733263909816742,0.11917345970869064,-0.16272354125976562,-0.636793851852417,0.009565914049744606,-0.6637754440307617,-0.11696171015501022,0.7166965007781982,0.050966378301382065,0.04486864060163498,-0.1016908660531044,0.8462033271789551,-0.8192604184150696,-0.5030621290206909,0.5687280297279358,-0.10742045938968658,-0.7638754844665527,-0.5024505853652954,0.6329330801963806,-0.0884147509932518,-0.3239527940750122,-0.06247728317975998,0.04260948672890663,0.21357306838035583,0.8441064357757568,0.699414074420929,0.4566088020801544,0.3407707214355469,-0.019946033135056496,-0.7336957454681396,0.804996907711029,0.05896952748298645,-0.46745312213897705,1.2190157175064087,-0.8182871341705322,-0.008767168037593365,0.540846049785614,0.6336362361907959,0.08056891709566116
http://dbpedia.org/resource/Mac_Pro,-0.48294126987457275,-1.7665868997573853,1.2210098505020142,-0.715883195400238,-1.2345653772354126,0.16164511442184448,0.6250947713851929,-0.02501353621482849,0.683614194393158,0.7237654328346252,-1.0257995128631592,0.575596272945404,-0.09999550133943558,-0.4309396743774414,-0.354239284992218,-0.189372718334198,0.1337915062904358,0.1281920075416565,-0.2749563157558441,-0.27490338683128357,-0.0828515812754631,0.3484867215156555,-0.33087220788002014,-0.25087055563926697,-0.001116586267016828,0.2928868532180786,0.36863088607788086,-0.34238916635513306,0.1693819910287857,-0.35065728425979614,0.0536482036113739,-0.3566456735134125,-0.155674010515213,-0.10653272271156311,0.09336435794830322,-0.5306942462921143,-0.36197030544281006,-0.4768952429294586,-1.386734127998352,0.3651452958583832,-0.06993158906698227,0.7220374345779419,0.2587849497795105,0.9854191541671753,0.9031938910484314,0.65315842628479,0.009670485742390156,0.739007294178009,0.33494001626968384,-1.744681715965271,-0.5184831619262695,0.2913534939289093,1.22990083694458,0.43777918815612793,0.3101153075695038,0.3156583905220032,0.6330128312110901,0.2960303723812103,-0.8742588758468628,2.37911057472229,-0.15975984930992126,-0.9706004858016968,0.39165735244750977,-0.3404713571071625,-0.21271373331546783,0.5009406208992004,0.5112267732620239,-1.4056143760681152,-0.2897998094558716,0.5300655961036682,-0.16476459801197052,0.7209291458129883,0.5679784417152405,-0.2545359134674072,0.31510716676712036,-0.16511879861354828,-0.029396051540970802,-0.6292520761489868,-0.18262876570224762,0.46243390440940857,0.17586080729961395,0.6649895310401917,0.17825576663017273,-0.4751375913619995,1.3800309896469116,-0.3522156774997711,-0.8793798685073853,-0.11983967572450638,-0.3568851947784424,0.1672484427690506,0.690315842628479,-0.7078610062599182,-0.025298239663243294,0.5671985149383545,-1.802320957183838,-0.029677044600248337,0.9354861974716187,-0.40998032689094543,0.49130135774612427,1.2885383367538452,0.08004608005285263,0.48611143231391907,-0.8832234740257263,0.421108216047287,0.5577042698860168,0.34628334641456604,0.6907676458358765,-0.3707059323787689,-0.129923477768898,0.2772330343723297,0.7636778354644775,-0.3107618987560272,-0.38603368401527405,0.12239649891853333,0.3846321702003479,-0.11566352099180222,-0.18856321275234222,0.9300920963287354,0.9979286193847656,0.10265425592660904,-0.47168973088264465,0.06071373075246811,0.8740925788879395,-0.8815624117851257,-0.5423697233200073,-1.430702567100525,0.06070457398891449,-0.2164284735918045,-0.4058676064014435,0.618844747543335,0.9287155866622925,-0.3142562508583069,1.1487568616867065,-0.2260333150625229,-0.011558463796973228,0.010506552644073963,-0.501732349395752,-0.3416457176208496,1.2133303880691528,0.5804733633995056,-0.07944110780954361,-0.050794970244169235,-0.825127124786377,0.7455031871795654,0.13954651355743408,-1.2836980819702148,-0.369022399187088,0.3583018481731415,0.7353562712669373,-0.588364839553833,-0.5832387804985046,-0.15998443961143494,-0.1529509723186493,0.2113543599843979,0.9247415661811829,-0.4899906516075134,-0.3319988548755646,-0.08156730234622955,-0.43195226788520813,-0.7868171334266663,-0.12972009181976318,0.15526774525642395,-1.4829089641571045,1.006293773651123,-0.6934757232666016,0.18386173248291016,-0.3437534272670746,0.7366889715194702,-0.47097617387771606,-0.4366492033004761,0.5564651489257812,0.05214764177799225,1.0547869205474854,-1.1959786415100098,0.38008296489715576,0.2813379168510437,-0.1355055719614029,-0.006411169655621052,-0.376432329416275,0.5629991888999939,1.0007343292236328,-0.3490477204322815,-0.03460115194320679,0.6286532878875732,-0.05147900804877281,-0.460748553276062,-0.09921759366989136,-0.3372713327407837,-0.01913481391966343,-0.8182613253593445,0.6308597326278687,-0.44342848658561707,-0.6026083827018738,-0.2517312169075012,1.2121866941452026,0.06803487986326218,-0.2554742395877838,0.7755072116851807,0.37409499287605286,0.5105016827583313
http://dbpedia.org/resource/Mike_Markkula,0.10883832722902298,-0.6970400810241699,0.7561668157577515,0.5353286862373352,0.14904168248176575,-0.026058504357933998,0.03402489796280861,-0.16590651869773865,-0.5402458906173706,0.5715577602386475,-0.5218749642372131,0.31608858704566956,0.08392062038183212,0.19387851655483246,0.6062207221984863,-0.5920458436012268,0.45279088616371155,-0.06683546304702759,-0.32611384987831116,0.059634026139974594,0.3474135100841522,0.44518202543258667,0.34574568271636963,0.03497983142733574,-0.3422088027000427,0.47525277733802795,-0.2610240578651428,-0.14411136507987976,0.15826842188835144,-0.5221364498138428,-0.24141088128089905,-0.38358521461486816,-0.049920741468667984,-0.3284796178340912,0.5632691979408264,-0.3236370086669922,0.32429400086402893,-0.10423693060874939,-1.0360174179077148,0.8724650144577026,0.2121071070432663,0.5446368455886841,-0.5177812576293945,-0.7061832547187805,0.3955402076244354,0.6582764983177185,0.3015369772911072,0.2346312701702118,-0.38004180788993835,-0.8608455061912537,-0.06417844444513321,0.4285050630569458,0.2390742301940918,0.43263372778892517,-0.5066258907318115,-0.10562296956777573,0.8656487464904785,0.5421162247657776,-0.3795163631439209,0.9176263213157654,-0.10885558277368546,-0.8736023902893066,1.0250884294509888,0.6552637815475464,0.3427295684814453,0.2031809687614441,-0.35112035274505615,-0.3109312057495117,-0.2640175223350525,0.3743617534637451,0.024859227240085602,-0.10960850119590759,-0.27548661828041077,0.19984658062458038,0.7179630398750305,-0.21314895153045654,-0.0923023372888565,0.0586717315018177,1.0867786407470703,-0.5538274049758911,-0.4424678385257721,-0.32444119453430176,0.263912558555603,-0.9243185520172119,-0.25640347599983215,0.02010517194867134,-0.3583754003047943,0.4930855631828308,0.5339779853820801,0.47080209851264954,0.38069450855255127,-0.810060441493988,0.24670562148094177,0.08361964672803879,-1.4337329864501953,-0.04276328533887863,-0.07994058728218079,-0.7218091487884521,0.07400863617658615,0.8130673766136169,0.0035670993383973837,-0.0440671481192112,-0.33525341749191284,-0.18238919973373413,0.8255157470703125,-0.11178228259086609,0.32047930359840393,-0.10234973579645157,-0.22789247334003448,-0.6599418520927429,0.2010042667388916,0.5481579303741455,-0.46178674697875977,0.252760112285614,0.33798885345458984,0.2878332734107971,-0.4369163513183594,0.5094313621520996,0.37854087352752686,0.0554974190890789,-0.9071043133735657,0.14918428659439087,0.8877431154251099,-0.49369633197784424,-0.9210166931152344,-0.045565616339445114,-0.8423062562942505,-0.7411736249923706,-0.41496673226356506,0.369424045085907,-0.1930082142353058,-0.2551756501197815,0.5764906406402588,-0.06978665292263031,-0.7394335865974426,0.32361626625061035,-0.45539307594299316,0.45082345604896545,1.5032212734222412,1.0015863180160522,0.18421928584575653,-0.30090266466140747,-0.07342234253883362,0.5003072023391724,-0.019864672794938087,-0.577883243560791,-0.1583234965801239,0.171152725815773,0.5598365068435669,0.0985444188117981,-0.7944424748420715,-0.5681548118591309,-0.6282164454460144,-0.7420507073402405,0.7423976063728333,-0.8755886554718018,-0.25284844636917114,-0.4224640727043152,-0.5611512064933777,-0.2835592031478882,-0.39174214005470276,-0.5657902956008911,0.27340227365493774,-0.19403153657913208,0.10644655674695969,0.13130150735378265,-0.3589242994785309,0.6294265389442444,-0.18578380346298218,0.9777860045433044,0.216841459274292,0.8344177007675171,0.6159906983375549,-0.7069418430328369,-0.3036510646343231,0.25748783349990845,-0.6013911366462708,-0.4141867458820343,0.30992355942726135,0.15931349992752075,-0.18895986676216125,0.21963104605674744,0.6173637509346008,0.22478848695755005,0.022006815299391747,-0.07160943746566772,0.04091443121433258,0.03027470037341118,0.43904832005500793,0.6019927859306335,0.35473325848579407,0.47216159105300903,0.2224162369966507,-0.16245846450328827,0.17873872816562653,-0.673141598701477,-0.7400329113006592,0.12746307253837585,0.39417245984077454,-0.06719702482223511
http://dbpedia.org/resource/Infinite_Loop_(street),-0.20832790434360504,-0.6111610531806946,0.3977194130420685,-0.11211012303829193,0.3027673661708832,0.21666255593299866,-0.03886318579316139,0.49551790952682495,0.00867596734315157,0.4637381434440613,0.1257917881011963,0.3700048625469208,-0.15037129819393158,0.5177406072616577,0.144850492477417,-0.11281321942806244,0.42745569348335266,0.20606552064418793,-0.03986525535583496,0.08855299651622772,0.2522512674331665,0.4868892729282379,-0.381111204624176,-0.13692805171012878,-1.0515722036361694,-0.05526810139417648,-0.3841819167137146,0.628686785697937,-0.023601248860359192,-0.4644240438938141,-0.9531393647193909,0.45027756690979004,0.4326074719429016,-0.29723355174064636,-0.23711584508419037,-0.20597916841506958,-0.013134772889316082,0.01550624705851078,-0.7943820953369141,0.9007681012153625,-0.0583699569106102,0.1426047384738922,-0.10484154522418976,0.30273520946502686,0.8287323117256165,0.9821988940238953,0.23242531716823578,-0.42858296632766724,-0.00665427977219224,0.05298865959048271,-0.12461798638105392,0.6615109443664551,0.16535252332687378,-0.367622435092926,-0.8314400911331177,0.3623282015323639,0.8426727056503296,-0.17343035340309143,-0.31777703762054443,0.6218029856681824,0.1741700917482376,-0.5584388971328735,-0.09286490827798843,-0.11925353854894638,-0.21570797264575958,0.14139872789382935,-0.3609934449195862,-0.734978199005127,-0.9714574217796326,-0.5739264488220215,-0.6203352808952332,-0.4071962833404541,0.1350020468235016,0.2891092598438263,-0.09181983768939972,-0.11150312423706055,-0.6581119894981384,-0.7988911867141724,-0.6970520615577698,0.021858997642993927,-0.013118110597133636,0.8947532773017883,0.3179503083229065,0.04094027355313301,0.5233467817306519,-0.29710692167282104,-0.7483319044113159,0.9421256184577942,0.049259595572948456,0.21166588366031647,-0.0879284143447876,-0.06183894723653793,-0.21091017127037048,0.24637041985988617,-1.409566044807434,0.6979091167449951,-0.22762013971805573,0.41805997490882874,0.13092626631259918,0.5510419011116028,1.0232665538787842,0.46587783098220825,0.21470768749713898,-0.9006305932998657,0.09343898296356201,-0.2011447697877884,-0.34832218289375305,0.043613336980342865,-0.2827896177768707,0.5068804025650024,0.13049080967903137,0.570146381855011,0.6910667419433594,0.5286649465560913,0.8471800088882446,-0.035753846168518066,-0.45885783433914185,0.020614171400666237,-0.3721136450767517,0.9419227242469788,-0.028707023710012436,-0.9888914823532104,-0.13551843166351318,0.11261601746082306,-0.5461409687995911,0.01387954130768776,-0.3337683081626892,-0.3897312879562378,-0.7503902912139893,0.6917142868041992,-0.5894755721092224,0.0007258917321451008,0.03599579259753227,0.036856066435575485,-0.662297248840332,0.4712047874927521,0.15902750194072723,0.17495162785053253,0.4743095338344574,0.4808228611946106,0.11542107909917831,0.18147188425064087,-0.8922480940818787,0.2806892395019531,0.6781072616577148,-0.26217642426490784,0.2479574978351593,0.4672999978065491,0.7839547395706177,0.4781497120857239,-0.05039240047335625,-0.21498462557792664,0.09254574775695801,-0.15107914805412292,0.4616447985172272,-1.194642186164856,0.5321323871612549,0.30405575037002563,-0.5735384821891785,-0.1738251894712448,0.05014587938785553,-0.4685157239437103,-0.3838101029396057,-0.24823053181171417,0.11556927114725113,0.618976891040802,0.27711182832717896,0.16012603044509888,0.4617328345775604,0.041666075587272644,0.5324785113334656,-0.4793086647987366,0.323362797498703,-0.22429245710372925,-0.24359720945358276,0.4892329275608063,0.343959242105484,-1.1516001224517822,0.12517647445201874,0.6752623319625854,0.9493967294692993,-0.5804738998413086,0.10716740041971207,-0.03642156720161438,0.06156715750694275,-0.18969418108463287,-0.13490496575832367,0.2410522699356079,-0.5779853463172913,0.3348240852355957,0.2190919816493988,-0.17059126496315002,0.046362318098545074,-0.5377660989761353,0.45667850971221924,-0.6955572962760925,-0.6206943988800049,0.011814406141638756,0.4131353795528412,0.6705448031425476
http://dbpedia.org/resource/Silicon_Valley,-0.5827739834785461,-0.45609551668167114,0.26010727882385254,-0.4435238242149353,0.0970887690782547,0.5194616317749023,0.1343671679496765,0.6740780472755432,-0.06144464761018753,-0.10526233166456223,0.34448009729385376,1.4005930423736572,-0.24348655343055725,0.006987395696341991,0.5284961462020874,-0.14672577381134033,0.7928381562232971,-0.13933421671390533,-0.2170739620923996,0.18882852792739868,-0.07131307572126389,-0.4287497401237488,0.11718345433473587,-0.5188865661621094,-0.7590067386627197,-0.47924134135246277,0.15395809710025787,-0.6903874278068542,-0.4527159631252289,0.5377687215805054,-0.32424893975257874,0.056534163653850555,-0.18453556299209595,-0.09416563808917999,-0.51603764295578,-0.40282291173934937,0.23157621920108795,0.5260394215583801,0.4768780767917633,0.5786224603652954,0.02648189850151539,-0.9069005846977234,-0.05498078092932701,-0.1926143616437912,-0.10247278213500977,0.8245039582252502,-0.018882885575294495,-0.6081185936927795,0.003882855176925659,-0.14470556378364563,0.029788006097078323,-0.6372610926628113,0.9170637726783752,-0.6095452308654785,-0.6711951494216919,0.27607282996177673,0.5740247964859009,0.05029962956905365,0.1602385938167572,0.3194749057292938,0.25620555877685547,-0.83567214012146,0.8833218812942505,-0.02658134326338768,0.16262707114219666,-0.09727311134338379,0.5798416137695312,-0.04406005144119263,0.07920379191637039,0.06010374426841736,-0.3208317756652832,0.05455533415079117,0.05982198566198349,0.2659834921360016,0.3674905300140381,0.009262983687222004,-0.6692950129508972,-0.060488950461149216,-0.5974230766296387,-0.02897762693464756,-0.1038973405957222,0.4103918969631195,0.8008106350898743,0.004618304315954447,0.14652951061725616,-0.0040526920929551125,-0.4051240086555481,0.6630261540412903,-0.24453726410865784,-0.08270206302404404,0.20008166134357452,-0.285455584526062,-0.4859345257282257,0.2835664451122284,-1.2967946529388428,0.46032091975212097,0.08154817670583725,-0.17599144577980042,0.025909772142767906,0.206685870885849,0.04982210323214531,-0.0052247438579797745,-0.3516079783439636,-1.1414756774902344,0.07448866963386536,0.13218669593334198,0.4902561902999878,-0.1897135227918625,-0.6314877867698669,-0.21575844287872314,-0.5019142031669617,-0.20046012103557587,-0.22408215701580048,-0.20045267045497894,0.11454746872186661,-0.19379599392414093,0.4178886115550995,-0.16264945268630981,0.09295691549777985,0.02039508894085884,-1.0174139738082886,-0.08408994227647781,-0.8279593586921692,0.17109668254852295,-0.3628261983394623,0.04421962425112724,0.3635271489620209,-0.08122917264699936,0.689889669418335,0.25099629163742065,-0.14015930891036987,0.10942570865154266,0.7035437822341919,-0.2931796610355377,-0.22957248985767365,0.5092107653617859,-0.31166908144950867,-0.20569857954978943,0.2884473204612732,-0.03320006653666496,0.47990548610687256,-0.5997421741485596,-0.18301112949848175,-0.13033995032310486,0.5699371695518494,0.6026778221130371,0.09631475806236267,-1.1067670583724976,1.2456413507461548,0.4883792996406555,-0.3055070638656616,0.5931118726730347,0.10706233978271484,0.030353184789419174,0.3591175973415375,-0.046743154525756836,0.35783830285072327,0.5123996138572693,-0.6184809803962708,-0.2679269015789032,-0.05661208927631378,-0.29514577984809875,0.44239065051078796,0.6877691745758057,0.8765567541122437,0.21333789825439453,-0.038583334535360336,0.4109653830528259,-0.1004987359046936,-0.1453435868024826,0.23219549655914307,-0.3921150863170624,0.3677960932254791,-0.357863187789917,0.08974938839673996,-0.2859899699687958,0.21855612099170685,-0.5628029108047485,0.6024842262268066,0.20053254067897797,0.5791692137718201,-0.6149839758872986,-0.3956506550312042,-0.35457271337509155,-0.021906651556491852,0.07884804904460907,0.0027734022587537766,0.35729146003723145,-0.5542279481887817,0.2817511260509491,0.013566679321229458,-0.4172985255718231,-0.2484261840581894,-0.6985020637512207,0.9432339072227478,-0.5829882025718689,-0.798494279384613,0.34558799862861633,0.44674426317214966,0.371977299451828
http://dbpedia.org/resource/NeXT,-0.25903305411338806,-0.4685242176055908,0.634602963924408,-1.223145604133606,0.754125714302063,0.8691227436065674,0.18045426905155182,0.382969468832016,0.41123029589653015,-0.4544615149497986,-0.4808548390865326,1.125754475593567,-1.0856168270111084,0.5480850338935852,1.5725103616714478,-0.6472445726394653,0.6647894382476807,-0.6267656683921814,0.021902156993746758,-0.40641194581985474,-0.25500932335853577,-0.45456793904304504,-1.2894260883331299,0.7303910851478577,-0.296115517616272,-0.4809017479419708,-0.23314188420772552,-0.7739905714988708,-0.040754284709692,-0.24188658595085144,-0.16467566788196564,0.5310714244842529,0.6561093926429749,0.6632025241851807,-0.20062746107578278,-0.22816884517669678,0.4407080411911011,1.4684687852859497,-0.3413735628128052,0.7823031544685364,1.1333863735198975,-0.8662029504776001,0.5193081498146057,-0.8618625998497009,0.5964680910110474,1.181402325630188,-0.1360168159008026,0.6854164004325867,0.09188080579042435,-1.1621665954589844,-0.14570634067058563,-0.6185297966003418,1.301877498626709,0.30053961277008057,-1.3358404636383057,-0.0588759109377861,0.6806594729423523,-0.26153069734573364,0.7373194694519043,-0.37423092126846313,0.6236541271209717,-1.6263697147369385,0.7701618671417236,0.47164249420166016,-0.8060534000396729,-0.6555994749069214,0.08516868948936462,-0.4972347915172577,-0.29481157660484314,0.2718803882598877,-0.8866603970527649,-1.840097427368164,0.566007673740387,-0.794325590133667,-0.3465428650379181,-0.36217305064201355,-1.0132241249084473,0.8742550611495972,0.1824738085269928,0.01641959324479103,-0.05153221637010574,-0.21575354039669037,0.7894138097763062,0.3364144265651703,0.48865818977355957,0.2591080367565155,0.028169963508844376,0.4290425777435303,-0.5255509614944458,0.2003391534090042,0.8836478590965271,0.273938924074173,0.09683394432067871,0.2391260713338852,-0.842376172542572,0.7073653340339661,-0.47256970405578613,-0.30619674921035767,0.6251544952392578,0.07324575632810593,-1.1372010707855225,0.22935795783996582,0.5246546268463135,-1.1513736248016357,0.12612687051296234,-0.9672018885612488,0.9759957790374756,-0.8126842379570007,-0.44372785091400146,-0.9497497081756592,-0.3634142279624939,-0.6805863976478577,1.1276775598526,-0.7495818734169006,-0.583932101726532,-0.13665711879730225,1.1474145650863647,0.8841360807418823,0.2336440533399582,0.4143482744693756,-0.33794987201690674,-1.568274736404419,-0.05086766183376312,0.6541776657104492,-0.9630314111709595,-0.4152488708496094,0.17887885868549347,0.36539340019226074,0.18003514409065247,0.8647738695144653,0.694658100605011,-0.11479845643043518,-0.7580928802490234,1.135441541671753,-0.213854119181633,0.2987774908542633,-0.9226840734481812,-0.42931562662124634,1.1723344326019287,-1.1644799709320068,0.6192215085029602,-0.19151169061660767,-0.85246342420578,0.9180476069450378,-0.6806132793426514,0.012587129138410091,-0.49761447310447693,-0.8885902166366577,1.043824315071106,0.7129430770874023,-0.138780876994133,-0.611113429069519,-0.8051323294639587,-1.0339430570602417,1.276262879371643,-1.557065725326538,1.3150155544281006,-0.6305992603302002,0.32586100697517395,0.28804242610931396,1.366607904434204,-0.5277369022369385,0.08868815004825592,0.845464289188385,-0.4791736304759979,0.3028500974178314,-0.2137823849916458,0.7893552184104919,0.33603760600090027,0.2365449070930481,-0.14969360828399658,-0.8022620677947998,0.4365963339805603,-1.1302639245986938,0.3654617667198181,0.33351606130599976,0.6332159638404846,-1.143593192100525,0.7949343919754028,0.43063297867774963,-0.42355501651763916,-1.3497936725616455,-0.7576683759689331,0.36941981315612793,0.856689453125,-0.0003023014578502625,-0.12865664064884186,-0.049082063138484955,0.6527435779571533,0.11752361804246902,-0.6080201268196106,0.6794106364250183,0.7060431838035583,-0.7709333300590515,1.730873465538025,-1.601717472076416,-0.012395070865750313,-0.11953093856573105,-0.6367489695549011,1.2154631614685059
http://dbpedia.org/resource/Safari_(web_browser),-0.024298012256622314,-0.7571361064910889,0.352035790681839,0.48815399408340454,-0.4440336227416992,0.15387725830078125,-0.09138700366020203,-0.07514166086912155,0.14512889087200165,0.5572829842567444,-0.3856402039527893,0.039042890071868896,0.219685897231102,0.1481095254421234,-0.2152523249387741,-0.17618857324123383,-0.4283907413482666,0.12542663514614105,-0.06136579439043999,-0.22921277582645416,0.21311184763908386,0.3461216986179352,-0.1311466097831726,0.023129457607865334,-0.006480634678155184,0.14863422513008118,-0.05653008446097374,0.2371930032968521,-0.3060835897922516,-0.048250775784254074,-0.048439402133226395,0.07247252017259598,-0.11309928447008133,0.04028506577014923,0.19072037935256958,-0.311587393283844,-0.08716928958892822,-0.0841887891292572,-0.6524034738540649,0.12405169755220413,-0.31151244044303894,0.18587487936019897,-0.16006268560886383,0.20218931138515472,0.4460184872150421,0.3576831519603729,0.22031784057617188,0.35205307602882385,-0.03257763385772705,-0.33053261041641235,-0.3621794283390045,0.4431604743003845,0.3579578697681427,-0.047518473118543625,-0.10565657913684845,-0.2605431377887726,0.42083534598350525,-0.22403332591056824,-0.19600193202495575,0.8058501482009888,0.17309680581092834,-0.3341778516769409,0.08267990499734879,0.0850444808602333,0.08770036697387695,0.12792649865150452,0.1663135141134262,-0.37545374035835266,-0.3555835485458374,-0.0315743088722229,-0.36584120988845825,-0.019223397597670555,0.442013680934906,0.2066802680492401,0.37385061383247375,0.0479666069149971,-0.2114468812942505,0.09624703973531723,0.13653713464736938,0.351266086101532,-0.1093955710530281,0.14175403118133545,0.1477360874414444,-0.10324591398239136,0.29201897978782654,-0.0913332924246788,-0.15505340695381165,0.37818723917007446,0.09629097580909729,0.35952135920524597,0.36973610520362854,-0.130840465426445,-0.016189150512218475,0.013038516975939274,-0.6625795960426331,0.2507392168045044,0.2726839482784271,0.1563841700553894,0.26661840081214905,0.42250344157218933,0.4351044297218323,0.06340885907411575,-0.1729034185409546,-0.014401900582015514,0.2337128221988678,0.24839453399181366,-0.07713799178600311,0.09537556022405624,0.1967199295759201,0.10359171032905579,0.3400379717350006,0.18640653789043427,0.005472701974213123,0.2648330330848694,0.11676786094903946,-0.14393918216228485,-0.05021689087152481,0.4829524755477905,0.4121001660823822,0.7092674374580383,-0.07692676037549973,-0.09744361788034439,0.44142118096351624,-0.21263615787029266,-0.0820935070514679,-0.47703853249549866,-0.013644831255078316,0.0634835734963417,-0.27312740683555603,0.6577509045600891,-0.14037944376468658,-0.02805972285568714,0.5551406741142273,-0.4650033116340637,-0.3203975260257721,0.0915181115269661,-0.1467236876487732,0.002589097712188959,0.8967993259429932,0.645781397819519,-0.004919626750051975,-0.0021007873583585024,-0.26648345589637756,0.49506857991218567,0.19320517778396606,-0.5621421337127686,-0.5603505373001099,0.39268019795417786,0.241277277469635,-0.19788230955600739,0.1622668355703354,-0.25117504596710205,-0.1275276243686676,-0.2231476753950119,0.05315766856074333,-0.22105303406715393,-0.13816103339195251,-0.2773272395133972,-0.29775872826576233,-0.20582754909992218,-0.3979121148586273,0.014313891530036926,0.06755863130092621,-0.09981288015842438,0.1067798063158989,-0.007140734698623419,-0.27304399013519287,0.14925973117351532,0.16425877809524536,-0.055299464613199234,-0.014297575689852238,0.07577833533287048,0.29128003120422363,-0.4539107382297516,0.27757492661476135,0.5978289842605591,-0.15400683879852295,-0.3708881735801697,0.005408548749983311,0.33826693892478943,0.31956544518470764,-0.15863247215747833,0.048685453832149506,0.06427720189094543,0.144290030002594,-0.09201767295598984,-0.377106249332428,-0.04191667586565018,0.03776334971189499,0.017715616151690483,0.16712714731693268,-0.16119134426116943,-0.1061214804649353,-0.11091937124729156,0.07942117005586624,-0.23080949485301971,-0.034084923565387726,0.3941695988178253,0.14734160900115967,0.08920899033546448
http://dbpedia.org/resource/FileMaker_Inc.,0.1400303989648819,-0.5739709734916687,0.18812227249145508,-0.21129055321216583,0.6664356589317322,-0.03525093197822571,0.14669130742549896,0.45106688141822815,0.7760428190231323,0.0936131700873375,-0.11782708019018173,0.8317220211029053,-0.8258371353149414,0.11436998844146729,0.3340136706829071,-0.2273082286119461,0.6140199303627014,-0.07701585441827774,-0.9724623560905457,-0.24639436602592468,0.6483968496322632,-0.43706315755844116,-0.4028748869895935,-0.03323804959654808,-0.5004026889801025,-0.37826603651046753,-0.2852279245853424,0.15162625908851624,0.38922974467277527,-0.5957258939743042,-1.0455150604248047,0.14331161975860596,-0.1872282475233078,-0.4083265960216522,-0.15292443335056305,-0.6381264328956604,0.5313624143600464,0.3111460208892822,0.5757428407669067,-0.05926746129989624,-0.14215652644634247,-0.9322314858436584,0.08010352402925491,0.9492201805114746,-0.10150168091058731,0.17543303966522217,0.6661806106567383,0.3482174575328827,0.3038092255592346,-0.04642787203192711,0.08068275451660156,-0.203023299574852,0.6540897488594055,0.4888436198234558,-1.373663067817688,0.7772150635719299,0.7992917895317078,-0.6410993933677673,-0.5792207717895508,1.0532597303390503,0.4516879618167877,-0.7104859948158264,0.7621049284934998,0.3135283887386322,-0.13402019441127777,0.35482126474380493,-0.6015098094940186,-0.20114435255527496,-0.9031981825828552,0.0926094725728035,-0.8872647881507874,-0.04203709959983826,-0.3372294306755066,0.05621793866157532,-0.31981587409973145,0.40295377373695374,-0.6707201600074768,-0.37161898612976074,-0.33689260482788086,0.06379146873950958,-0.6042599678039551,0.3204334080219269,0.6315593123435974,0.3846602737903595,0.4337629973888397,0.2543811798095703,-0.7892735004425049,0.23420391976833344,-0.4879472553730011,0.06954232603311539,0.2580673098564148,-0.9135212898254395,-0.5344260334968567,-0.10619406402111053,-0.3343465328216553,0.9387728571891785,0.10790315270423889,-0.1474800556898117,0.8024300336837769,0.8576011061668396,0.13411666452884674,-0.26614534854888916,0.3008136451244354,-0.8529259562492371,0.965335488319397,-0.5607964396476746,1.285529613494873,-0.43782660365104675,-1.0870479345321655,-0.6198151111602783,-0.3006075918674469,-0.5473263263702393,0.3075302243232727,-0.4609784483909607,0.6430667638778687,0.3735310733318329,-0.8244574069976807,0.5680156350135803,0.028925785794854164,0.1050579845905304,-1.2741703987121582,-0.6523853540420532,-0.8034730553627014,-0.19859571754932404,-0.7367655038833618,-0.1822463423013687,-0.6680673956871033,-1.3784183263778687,0.6617171168327332,0.9077997207641602,0.07743222266435623,0.002494889311492443,-0.04377589374780655,0.5943637490272522,-0.3981921970844269,0.2117643505334854,-1.1780941486358643,-0.03599976375699043,0.5458151698112488,-0.40603309869766235,0.38527655601501465,0.12849965691566467,-0.49660924077033997,0.51497882604599,0.4010983407497406,0.6412619948387146,-0.16519072651863098,0.016135217621922493,0.8728127479553223,0.826995849609375,0.36209678649902344,0.14654183387756348,0.28429511189460754,0.09458442777395248,1.413930892944336,0.2764924168586731,0.820833146572113,0.4237058758735657,0.1742493212223053,-0.7205556631088257,-0.16485944390296936,-0.5742578506469727,-0.1801491379737854,-0.261720210313797,-0.6007827520370483,-0.2013591229915619,-0.6081075072288513,0.6154348254203796,-0.07969797402620316,-0.09205102920532227,-0.23946861922740936,-0.3460848033428192,1.141453742980957,-1.2920405864715576,-0.252225786447525,-0.3044252097606659,0.21129834651947021,-0.5578870177268982,-0.22113017737865448,0.5522043108940125,-0.07867899537086487,-0.6344789862632751,0.4485490024089813,-0.24353305995464325,0.0572635792195797,0.10822661966085434,0.12180369347333908,0.39649882912635803,0.8084992170333862,-0.14678478240966797,-0.16013526916503906,0.5281002521514893,0.31098607182502747,-0.8066351413726807,1.7299100160598755,-0.7422956228256226,0.36007317900657654,0.6577494144439697,0.2560117840766907,0.4846232533454895
http://dbpedia.org/resource/Guy_Kawasaki,-0.13019001483917236,0.22376374900341034,0.5414274334907532,-0.2542957365512848,-0.031902194023132324,1.1776684522628784,0.5852574110031128,0.13438184559345245,0.36933842301368713,0.46338003873825073,-0.07061495631933212,0.6551744937896729,0.5941371917724609,0.24536721408367157,0.5879255533218384,-0.24196307361125946,0.9704963564872742,-0.26453936100006104,-0.4814625084400177,-0.2261056751012802,0.16945002973079681,0.3212299048900604,-0.8425198197364807,-0.4688950479030609,0.5234497785568237,-0.19391757249832153,-0.0632745772600174,-0.8952916860580444,-0.4896034598350525,-0.48054832220077515,-0.1726200431585312,-0.7551490068435669,-0.22308671474456787,-0.6206598877906799,0.7133948802947998,-0.8076162338256836,0.24562926590442657,-0.018428822979331017,-0.866865873336792,0.9522423148155212,-1.1862461566925049,-0.8241980075836182,-0.05970272421836853,0.11159379780292511,0.7777534127235413,0.4878445267677307,0.6067880392074585,0.1496623158454895,-0.3394865095615387,-0.9333617091178894,-0.5641588568687439,0.269906610250473,0.49655333161354065,0.6306582093238831,0.051242440938949585,0.5834630131721497,0.26382628083229065,-0.09225387126207352,-0.20410215854644775,0.41192328929901123,0.12136495858430862,-0.14219562709331512,1.320744276046753,0.5701907277107239,-0.2079993188381195,1.0052597522735596,0.25920310616493225,0.18740268051624298,0.04921620711684227,-0.1804589033126831,-0.6240798234939575,-0.07011504471302032,0.40120744705200195,1.2877249717712402,-0.8846307396888733,0.016541747376322746,-0.3240531384944916,-0.7073124051094055,-0.6444795727729797,0.34520837664604187,0.8977700471878052,0.4905332326889038,0.015098236501216888,-1.0553408861160278,0.629734992980957,0.1718723475933075,0.4530673623085022,2.104640007019043,-0.706425130367279,-0.10202429443597794,1.0088539123535156,-0.8872050642967224,-0.7446593642234802,-0.8571638464927673,-0.5891436338424683,-0.8085834383964539,0.48387905955314636,0.8634738326072693,0.7646498084068298,1.3689433336257935,-0.05870479717850685,-0.21029780805110931,-0.178554505109787,-0.31753453612327576,0.912172794342041,0.3567262589931488,1.1516087055206299,0.4045960307121277,-0.7559216022491455,-0.8287411332130432,-0.5185139179229736,0.24757686257362366,-0.20062269270420074,0.3029332160949707,0.3478778600692749,-0.09595324844121933,0.04538460075855255,0.013005810789763927,0.33733704686164856,1.1632966995239258,0.07216597348451614,-1.5922656059265137,-0.0715128630399704,-0.4068332314491272,-0.7494722604751587,-0.3547694683074951,-0.486062228679657,-0.6698359847068787,0.39702749252319336,0.1237516924738884,-0.6078556180000305,-0.5889352560043335,-0.14763617515563965,-0.4803885519504547,-1.3345708847045898,0.07268071174621582,-0.10560822486877441,-0.17762377858161926,0.6907109022140503,0.8104038238525391,0.516193687915802,-1.1170119047164917,-0.2341109961271286,-0.5396800637245178,0.24321821331977844,0.04422428458929062,0.5731523633003235,-0.11822652071714401,0.5047638416290283,-0.8699026107788086,0.12780147790908813,-0.08204362541437149,-0.933804452419281,-0.14163212478160858,0.015603970736265182,0.099077969789505,-0.12915301322937012,-0.9196223616600037,-0.5493112802505493,-0.4483150541782379,0.31692901253700256,-0.4268902540206909,0.4550740718841553,-0.2905023396015167,-0.28338199853897095,-0.5780453681945801,0.23079881072044373,1.7946182489395142,0.08262308686971664,-0.5967908501625061,0.06467525660991669,1.1226403713226318,-0.5390262007713318,0.12375346571207047,-0.30791565775871277,-0.015296959318220615,-0.260942280292511,-0.11259128153324127,0.581277072429657,0.5700543522834778,-0.4227603077888489,-0.24660012125968933,0.025120863690972328,0.031554579734802246,0.49980297684669495,-0.09075606614351273,-0.6766118407249451,0.6486771702766418,-0.020222580060362816,-0.6861895322799683,-0.28394028544425964,0.3965986967086792,0.2783001959323883,-0.5916381478309631,1.5331454277038574,-0.8399441242218018,0.06262107938528061,1.4015799760818481,0.03761899843811989,0.6783353090286255
http://dbpedia.org/resource/Microsoft,-0.43827569484710693,0.21877135336399078,-0.05641340836882591,-0.39764514565467834,-0.12428001314401627,0.037217311561107635,-0.16591259837150574,0.7929404973983765,0.2636430263519287,-0.3889562487602234,0.48665598034858704,0.8578290939331055,-0.6415518522262573,0.1595194786787033,0.04777360334992409,-0.2931649386882782,0.6255064606666565,-0.4588530957698822,-0.3144308924674988,-0.16840101778507233,0.2314775437116623,-0.1685134470462799,0.08502233773469925,0.3405333459377289,-0.2727440595626831,-0.23503956198692322,0.21824593842029572,-0.1346210539340973,-0.1872839331626892,-0.49168288707733154,-0.16029413044452667,-0.20000502467155457,0.4087308943271637,0.2827507257461548,-0.23506061732769012,0.3295876681804657,0.17615242302417755,0.10910705476999283,0.37834954261779785,0.13938798010349274,0.1146993339061737,-0.20114347338676453,0.30174440145492554,-0.6009421348571777,0.255878210067749,0.9431741833686829,0.7116496562957764,-0.0939728394150734,-0.4929056465625763,-0.26342645287513733,0.48267096281051636,0.0525592565536499,0.14786724746227264,-0.36065754294395447,-1.2036237716674805,0.7172972559928894,0.07587677985429764,-0.006583705544471741,0.24505752325057983,0.07755511999130249,0.20250612497329712,0.0034606328699737787,0.3404073417186737,-0.20303326845169067,-0.1181650310754776,0.43103447556495667,-0.28378909826278687,0.11129824817180634,0.28878647089004517,-0.24167785048484802,-0.5089191794395447,-0.6605710983276367,-0.44190558791160583,-0.06402488052845001,-0.06314010173082352,-0.12734879553318024,0.07133884727954865,-0.2709268629550934,-0.6395846009254456,-0.040691621601581573,-0.1671963930130005,0.13748106360435486,-0.34460732340812683,0.06890472769737244,0.27883380651474,0.1304294466972351,-0.029973581433296204,0.13519282639026642,-0.6238459944725037,-0.333108514547348,0.10193141549825668,0.15900006890296936,-0.23448199033737183,-0.1187882199883461,0.3401976525783539,0.40508824586868286,-0.5796087980270386,-0.09174035489559174,-0.1726272702217102,0.020198596641421318,-0.16328325867652893,0.12106438726186752,-0.08972787857055664,-0.6424301266670227,0.39825913310050964,-0.9482812285423279,0.3766855299472809,-0.3506135642528534,-0.6910465955734253,0.04725388437509537,-0.10981082916259766,-0.0856017917394638,-0.019884329289197922,-0.9182423949241638,0.011090518906712532,0.1802680641412735,0.6424391865730286,0.3264336585998535,0.009025785140693188,-0.19189152121543884,-0.21134290099143982,-0.4186585545539856,-0.3367760479450226,0.025052251294255257,-0.13495956361293793,-0.6379806995391846,-0.07682039588689804,-0.46863535046577454,0.1634935587644577,0.033381491899490356,-0.1980106383562088,-0.2151825875043869,-0.26321277022361755,0.5412607192993164,-0.3398348391056061,0.678637683391571,-0.23006953299045563,-0.21335425972938538,0.05243946984410286,-0.4072127342224121,-0.07942052185535431,-0.18189643323421478,0.4011571705341339,-0.4407333731651306,-0.13563692569732666,0.1841370165348053,0.5330543518066406,-0.42590928077697754,0.7485955953598022,0.285165935754776,0.1180751696228981,0.34363991022109985,0.22553910315036774,0.07280228286981583,-0.07900392264127731,0.17758870124816895,0.2819049060344696,0.41556310653686523,0.5821605324745178,-0.2770327627658844,0.037683986127376556,-0.21716871857643127,-0.08961712568998337,0.4379380941390991,-0.3140525221824646,0.019830171018838882,0.08026973903179169,0.3691202700138092,-0.4318871796131134,0.09266187995672226,0.20959176123142242,-0.4010356664657593,0.44923660159111023,0.02078460156917572,-0.2719131112098694,-0.3584040105342865,0.5511952042579651,-0.03962058201432228,-0.1201837882399559,0.17604655027389526,-0.06169959157705307,0.4238014817237854,0.2624959647655487,0.8513393998146057,0.5033910274505615,0.3714279234409332,0.5036454200744629,0.3890171945095062,-0.24910762906074524,0.24650469422340393,-0.19115392863750458,0.3800294101238251,0.25936469435691833,-0.2998463213443756,1.29091215133667,-0.6527639627456665,0.4440096616744995,-0.37266284227371216,0.16861537098884583,0.39179402589797974
http://dbpedia.org/resource/Ridley_Scott,-0.004050140269100666,-1.1366732120513916,0.7566444873809814,1.0296462774276733,-0.22654464840888977,-0.4205005466938019,-0.35003793239593506,0.004328310955315828,0.5549994707107544,0.8493539094924927,-0.6307928562164307,0.033229224383831024,0.53689044713974,0.3743853271007538,0.3014877438545227,-0.1049528643488884,-0.20753514766693115,0.11539646238088608,-0.13586731255054474,0.10585056245326996,-0.18129347264766693,0.9412196278572083,-0.5650531649589539,-0.1839338093996048,0.3554145097732544,0.16905644536018372,-0.1771518737077713,0.5075604319572449,-1.102321982383728,-0.10296094417572021,-0.05024111270904541,-0.05913890525698662,0.31647154688835144,-0.18737779557704926,0.745864748954773,-0.7048084139823914,-0.04416840523481369,-0.29719504714012146,-1.0626329183578491,0.4301227629184723,0.33510467410087585,1.0520895719528198,0.19645439088344574,1.1867878437042236,0.14965103566646576,-0.06135530769824982,0.5949061512947083,0.6191320419311523,-0.2922082245349884,-1.0581762790679932,-0.5951167941093445,0.2938115894794464,0.5607331991195679,-0.3145323097705841,-0.3066238462924957,-0.10947001725435257,0.9760507941246033,-1.082504391670227,-0.7478489279747009,1.502825140953064,-0.6173657774925232,-0.45675572752952576,0.23242121934890747,0.2714535892009735,-0.35197699069976807,0.3456434905529022,-0.4240283966064453,-0.9854909777641296,-0.3476175367832184,-0.25729134678840637,-0.46878281235694885,0.3999553620815277,0.29910844564437866,0.5731185674667358,0.44369566440582275,0.08815129101276398,-0.19302067160606384,0.10682334750890732,0.23455658555030823,0.0693528950214386,-0.1590016484260559,0.17712438106536865,-0.5010616183280945,-0.6335499882698059,0.12660756707191467,-0.14779534935951233,-1.074141263961792,0.44468244910240173,-0.2244381308555603,0.3449278473854065,0.7828937768936157,0.123594731092453,0.01910707913339138,-0.023579733446240425,-1.238543152809143,-0.14600147306919098,1.100774884223938,-0.03175543621182442,-0.1235511302947998,1.398850679397583,1.0031352043151855,-0.1722479909658432,-0.6525253057479858,0.3850809931755066,0.7469452023506165,0.34247615933418274,0.733736515045166,0.34180185198783875,0.887785792350769,0.7369861602783203,0.48082444071769714,0.33613261580467224,0.05114653334021568,0.39078831672668457,0.27867525815963745,0.037458084523677826,-0.7565563917160034,-0.3187832534313202,0.5913693904876709,0.6695732474327087,-0.18302017450332642,-0.3736353814601898,0.5744239687919617,-0.5777966380119324,0.12396758049726486,-0.6653308868408203,-0.09644082188606262,0.4606322944164276,-0.6551831960678101,0.8419707417488098,-0.7441080808639526,-0.3403245210647583,0.7485098838806152,-0.26810768246650696,-0.27430716156959534,-0.00878974050283432,-0.6774906516075134,-0.4876943528652191,1.1902878284454346,0.44118285179138184,0.7326210737228394,-0.22985874116420746,0.48528242111206055,0.3967951834201813,0.18031176924705505,-0.6723284721374512,-0.25108659267425537,-0.037174664437770844,1.2440848350524902,-0.06387046724557877,-0.01073230616748333,0.18339259922504425,-0.5407898426055908,-0.5492340922355652,0.10204193741083145,0.5824071168899536,-0.23605917394161224,-0.15802139043807983,-0.3735380470752716,0.4087027907371521,-0.21825700998306274,-0.2691599428653717,0.03900392726063728,0.1719580590724945,0.5730650424957275,0.24851679801940918,-0.3055390417575836,0.03791029378771782,0.23475204408168793,0.2811146676540375,-0.41011807322502136,0.3740609586238861,0.8249040842056274,-0.6117233037948608,0.608305811882019,1.4331721067428589,0.7984170317649841,-0.2221115082502365,-0.6819013357162476,0.2375570386648178,0.3226602077484131,-0.056362371891736984,0.0033214036375284195,-0.36049291491508484,0.1305171102285385,-0.5022322535514832,0.14410358667373657,0.24599359929561615,-0.5347932577133179,-0.34816744923591614,0.32500818371772766,-0.5655680298805237,-0.03316999226808548,-0.16619367897510529,0.8396097421646118,-0.12705481052398682,0.2786957621574402,1.0176948308944702,-0.09599965810775757,-0.29876798391342163
http://dbpedia.org/resource/Isaac_Newton,-1.3073441982269287,-1.0270555019378662,1.31708562374115,1.083708643913269,-0.15013429522514343,0.9169217944145203,0.756405234336853,0.15264354646205902,0.6096712350845337,0.781034529209137,-0.6033154129981995,0.9182990789413452,0.6411030292510986,-0.39710333943367004,-0.08919282257556915,-0.31670355796813965,0.21469692885875702,-0.15201321244239807,-0.12488481402397156,0.19872047007083893,-0.6256524324417114,0.6342217922210693,-0.5008236765861511,0.7745565176010132,-0.2347111850976944,-0.02316300943493843,-0.19884608685970306,0.17313452064990997,-0.20029900968074799,-0.4967608153820038,-0.32421156764030457,0.09801102429628372,-0.2950228750705719,-0.17600038647651672,0.9559397101402283,-0.2562939524650574,0.335516095161438,-0.18820656836032867,0.06460672616958618,-0.013609384186565876,-0.432120144367218,0.4542256295681,-0.5062644481658936,-0.04865432158112526,-0.3520173132419586,0.5624996423721313,0.4713202714920044,0.43367528915405273,-0.47698304057121277,-0.43593016266822815,-0.40808141231536865,1.0463424921035767,-0.37087979912757874,0.1501409113407135,-0.03583662584424019,-0.04446778818964958,0.1922418177127838,0.5050427317619324,-0.7212857604026794,0.7792266607284546,0.04538552463054657,-0.32366490364074707,-0.5745249390602112,0.7496091723442078,0.025672292336821556,-0.3442387282848358,-0.22241060435771942,-0.7760441303253174,-0.20691484212875366,0.039362844079732895,-0.738440752029419,-1.0133591890335083,-0.8937597870826721,0.1862356811761856,1.0037168264389038,-0.5926994681358337,-0.2790822982788086,0.26870620250701904,0.9136459231376648,0.32098114490509033,0.40640419721603394,0.4473757743835449,0.15901875495910645,-0.5612673759460449,0.7382098436355591,-0.8584290146827698,-0.8337904810905457,1.5508203506469727,0.7786740660667419,0.35279369354248047,0.8501861095428467,-0.58851158618927,-0.5681279301643372,-0.28732654452323914,-0.3174881041049957,-0.1856541782617569,0.17022894322872162,0.32393041253089905,0.5954619646072388,0.4493752121925354,0.5155087113380432,-0.24427610635757446,-0.6699439287185669,-0.3881286084651947,-0.17100141942501068,0.2621573805809021,0.9811557531356812,0.3024640679359436,0.21942348778247833,0.5638867020606995,-0.19813382625579834,1.1425511837005615,-0.13499030470848083,0.3822709918022156,-0.07727579027414322,-0.4844299852848053,0.2334996908903122,0.37492936849594116,0.47000738978385925,1.8079453706741333,0.3957497775554657,-0.7847936749458313,0.4909341633319855,-0.9529420137405396,-0.1886530965566635,-0.4985090494155884,-0.6308733224868774,-0.4467625916004181,0.8511291146278381,0.8628934621810913,0.24956014752388,0.5273902416229248,1.7103745937347412,0.03872200846672058,-0.7428687810897827,0.5910803079605103,0.4221673905849457,-0.6823564767837524,1.2692822217941284,0.3637673854827881,1.3240889310836792,-0.5673590302467346,-0.5177704095840454,0.15186215937137604,0.8132209181785583,-0.5603632926940918,-0.48347342014312744,0.3069714903831482,-0.1437179446220398,0.5724857449531555,0.18101850152015686,0.7579072117805481,-0.782399594783783,0.13278335332870483,0.5194846987724304,-0.23275385797023773,-0.19438959658145905,-0.3111342787742615,0.8256000280380249,0.20469947159290314,-0.42548689246177673,-0.2095000296831131,0.5610512495040894,-0.21652887761592865,0.4705774784088135,0.04510096088051796,0.01885785348713398,0.1685294508934021,-0.12435298413038254,0.06729631870985031,-0.40234139561653137,-0.15916003286838531,0.5706059336662292,-0.6669677495956421,0.6591908931732178,1.632819414138794,-0.2573232054710388,-0.12949329614639282,-0.10104616731405258,0.3553166091442108,0.611821174621582,0.1706957370042801,-0.3362286686897278,0.5262591242790222,0.39176902174949646,-0.10427682101726532,0.2878035008907318,0.06732461601495743,-0.5253396034240723,-0.2958364486694336,-0.05520601198077202,-0.3417564332485199,0.30122441053390503,0.08856064826250076,0.5172080397605896,-1.3117547035217285,0.8175121545791626,0.8918099403381348,1.0576965808868408,0.9069874286651611
http://dbpedia.org/resource/Alan_Turing,0.037814561277627945,-0.9060673713684082,0.7670952081680298,1.0007966756820679,-0.405758798122406,0.6068365573883057,0.7115999460220337,0.4307590425014496,0.4155098795890808,0.9926829934120178,-0.37942180037498474,0.33462458848953247,-0.19525323808193207,-0.21192702651023865,-0.23126673698425293,-0.44320032000541687,0.11201154440641403,-0.2633727788925171,-0.04548650234937668,0.8164889216423035,0.819621741771698,1.2297099828720093,0.37174537777900696,0.0923251062631607,-0.2544860541820526,0.544344961643219,-0.353484570980072,0.8363337516784668,-0.8942124843597412,-0.6397265195846558,-0.5689046382904053,0.006188609637320042,-0.007513535209000111,-0.07745355367660522,0.42259681224823,-0.12955036759376526,-0.15690062940120697,0.1216215267777443,-0.2835870683193207,0.19469156861305237,0.39233484864234924,-0.19241325557231903,-0.6218218803405762,0.7234994769096375,-0.551681399345398,0.8024891018867493,-0.025402121245861053,-0.6307191252708435,-0.5179610848426819,-0.6539478898048401,-0.49492231011390686,-0.6089441180229187,-0.024448055773973465,0.02180776558816433,-1.7526373863220215,0.4330143630504608,0.7950040102005005,-0.3837455213069916,-0.3492535352706909,-0.07288159430027008,-0.7812843918800354,-1.166312336921692,-0.22541695833206177,0.9392903447151184,0.3397645354270935,0.735982358455658,0.18272283673286438,-0.9391400218009949,0.4138023555278778,-0.26285678148269653,-0.24382704496383667,-0.025064902380108833,-0.5012609362602234,0.9555845260620117,0.43932783603668213,-0.08973812311887741,-0.5695061087608337,0.22518306970596313,0.2187979519367218,-0.24388448894023895,0.3732275366783142,0.663506805896759,0.31466811895370483,-0.28463485836982727,0.042332883924245834,-0.9986792802810669,-1.3100900650024414,0.07614462822675705,0.12072621285915375,0.16668792068958282,0.8191889524459839,0.32099029421806335,-0.7541600465774536,-0.3534063398838043,-0.5790215134620667,0.8360670804977417,0.22476184368133545,0.3411601781845093,0.24124273657798767,1.012176513671875,0.9128426313400269,0.6023057103157043,0.28077322244644165,-1.1690876483917236,0.46127447485923767,0.5958220362663269,1.1190193891525269,-0.421491801738739,-0.42199528217315674,1.305673360824585,-1.4443190097808838,0.06330040842294693,-0.9673211574554443,0.038320574909448624,-0.22133100032806396,0.5457462668418884,-0.1844039261341095,0.27117154002189636,0.6209009885787964,1.115134596824646,0.24912042915821075,-1.1228492259979248,0.3983146548271179,-0.027110857889056206,-0.22045592963695526,0.4830659329891205,-0.2848699390888214,-0.7749173641204834,-0.4678407907485962,0.282145231962204,-0.5683714151382446,0.2427091747522354,2.2135634422302246,0.6833553314208984,0.14350846409797668,-0.3763965368270874,0.6519744992256165,-0.17034940421581268,1.27726149559021,-0.014529574662446976,0.14375872910022736,-0.7978844046592712,0.36969199776649475,-0.14753952622413635,0.9174642562866211,0.7501680850982666,-0.4419299364089966,-0.06110770255327225,-0.2166689783334732,0.6532304286956787,-0.11793706566095352,0.5859271287918091,-0.8104095458984375,-0.21992060542106628,0.7012994289398193,0.2553252577781677,0.021677767857909203,-1.1400731801986694,0.43538594245910645,-0.4529094099998474,-0.023246288299560547,0.09206017851829529,-0.5483266711235046,0.6393218040466309,-0.3850567936897278,0.7633941769599915,-0.34395715594291687,1.6614956855773926,-0.47227057814598083,-0.18840983510017395,-0.6808323264122009,-0.13306938111782074,0.37321802973747253,-0.4855554699897766,0.6847483515739441,1.790465235710144,-0.36282259225845337,0.399427205324173,-0.37267976999282837,-0.15385101735591888,0.5313553214073181,0.5263310670852661,0.6518712639808655,0.5042799115180969,0.46264034509658813,0.5391550064086914,0.15868781507015228,0.15759123861789703,-1.853071928024292,-0.6225863695144653,-0.3147051930427551,0.24245767295360565,1.219314694404602,-0.671747088432312,0.744648814201355,-0.37682825326919556,0.4252645671367645,1.0755804777145386,0.638592541217804,0.05054014176130295
http://dbpedia.org/resource/United_States_Environmental_Protection_Agency,-0.8969782590866089,-0.14702312648296356,0.5034579634666443,-0.6443160772323608,-0.7205983400344849,0.9162946343421936,-0.8564785122871399,0.04001639783382416,-0.6447765231132507,-0.03817664459347725,-0.05182815343141556,0.7471511960029602,0.21249939501285553,0.48033395409584045,-0.28318965435028076,-0.21079571545124054,-0.17999903857707977,0.343398779630661,0.1690930873155594,-0.3347788453102112,-0.05153592303395271,0.8978954553604126,-1.3098019361495972,-0.18853963911533356,0.939739465713501,-0.40555307269096375,0.8265549540519714,-0.40233564376831055,-0.032065246254205704,-0.3972092270851135,-1.623297929763794,0.5856620073318481,0.816372811794281,-0.5271218419075012,-0.14495481550693512,0.32785120606422424,0.13766688108444214,1.0321955680847168,0.036334943026304245,0.4109098017215729,0.1860746592283249,0.26649239659309387,0.025092510506510735,-0.5418770909309387,0.2520158886909485,1.0210434198379517,2.161644458770752,-0.40718838572502136,-0.22087478637695312,-0.04768189415335655,-0.5529941320419312,0.1000824123620987,0.37139692902565,0.6888837814331055,-0.9573374390602112,1.3241795301437378,0.312356173992157,0.6212136149406433,0.49874240159988403,-0.11490736901760101,0.36401695013046265,0.3643726408481598,-0.08228956907987595,-0.4734264314174652,0.04691801220178604,1.3827662467956543,-0.8531848192214966,-0.24392782151699066,-0.9617878198623657,1.3067063093185425,0.4053710699081421,-0.43969258666038513,-0.3520635664463043,1.3018968105316162,0.32783928513526917,-0.4925597608089447,-1.178662657737732,0.27792856097221375,0.4079093337059021,-0.8914719820022583,-0.07011108100414276,-0.16229259967803955,-0.42737671732902527,-0.287641704082489,0.8245714902877808,0.04829506576061249,0.009213305078446865,0.449274480342865,0.06819520890712738,0.2057245522737503,0.94126957654953,-0.05715199187397957,0.5140305757522583,0.11836651712656021,0.5700931549072266,0.9878987073898315,0.41900065541267395,-0.5557938814163208,0.43984586000442505,0.1738552749156952,-0.3234243094921112,0.7127379775047302,-0.19096873700618744,-1.2601144313812256,-0.19651715457439423,0.38516369462013245,-0.19084909558296204,-1.0322118997573853,-1.51268470287323,-0.7999724745750427,-0.966067910194397,0.6460487246513367,-0.397539347410202,-0.7183555364608765,0.3527986705303192,0.44448769092559814,0.0072777350433170795,-0.31207260489463806,1.1141314506530762,-0.18237997591495514,-0.08044642955064774,-1.8804633617401123,0.18677358329296112,0.42745378613471985,-0.7052172422409058,-0.5015508532524109,-0.03575555235147476,0.035604894161224365,-0.049307312816381454,1.1010900735855103,0.44669395685195923,-0.2414228916168213,0.06848203390836716,0.45609667897224426,-1.0838209390640259,-0.18517352640628815,1.3836132287979126,-0.7285089492797852,0.19663164019584656,-0.3565044105052948,1.1819500923156738,-0.5804867744445801,0.6171668767929077,0.8892339468002319,1.0960347652435303,0.28465011715888977,-0.37762174010276794,-0.22269941866397858,1.0533446073532104,0.03626900538802147,-1.0871225595474243,0.4468459486961365,-0.0016336807748302817,-0.39140358567237854,0.0016770146321505308,-0.19895079731941223,0.5679453015327454,0.5038419365882874,0.015811538323760033,-0.4504270851612091,0.05554140359163284,-0.9551787376403809,1.0142961740493774,1.3779442310333252,0.011122736148536205,-0.14099904894828796,0.3807069957256317,-0.24860702455043793,0.74183589220047,-0.4222865104675293,0.16486668586730957,-0.8800941109657288,0.5795955061912537,0.48250478506088257,-0.28072023391723633,0.20266787707805634,0.4554479718208313,-0.3529298007488251,-0.9354737997055054,0.36177507042884827,-0.5711995959281921,0.05276218056678772,0.5932099223136902,1.2698947191238403,0.35855770111083984,0.5976477861404419,-0.5015842318534851,0.7550764083862305,-0.4916065037250519,-0.764039933681488,-0.2383819967508316,0.674272894859314,-0.10181272774934769,-1.6871143579483032,2.4183945655822754,-0.3203134834766388,-0.6598038673400879,1.24061918258667,-0.5191888809204102,1.3480602502822876
http://dbpedia.org/resource/Greenpeace,0.4420791566371918,-1.406287670135498,0.49808627367019653,0.5223084092140198,-0.6680005192756653,0.9086796045303345,-0.5077364444732666,-0.25409433245658875,0.7489266991615295,0.6497222781181335,-0.2602289319038391,1.435304045677185,0.2192026972770691,-0.11370567977428436,0.8054202795028687,-0.7961751818656921,0.5576560497283936,-0.2625640034675598,0.7907878160476685,-0.2833983302116394,-0.30017611384391785,1.765557050704956,-0.15511474013328552,-0.3109755218029022,0.15326711535453796,0.27639350295066833,0.7146250009536743,0.6048488020896912,0.8148162961006165,-0.5167515873908997,-0.758363664150238,1.2655978202819824,0.5464368462562561,-0.3344070315361023,-0.3450682759284973,-0.3048050105571747,-1.0766230821609497,0.49831631779670715,-1.4745733737945557,-0.18099671602249146,0.7262176871299744,0.9868215918540955,0.8073614239692688,0.8252006769180298,1.252042531967163,-0.5142026543617249,0.5769217014312744,0.4901854693889618,0.4545981287956238,-0.7917081117630005,-1.2109684944152832,0.5893783569335938,0.6143844127655029,0.2858942449092865,-0.12427502125501633,1.0700918436050415,1.3097031116485596,-0.21665005385875702,1.0627497434616089,0.46881476044654846,0.416867733001709,-0.7825937867164612,0.2842521071434021,-0.1765010803937912,-0.5202323198318481,0.18046680092811584,1.1445257663726807,-0.01847495138645172,-0.23709604144096375,0.46953973174095154,0.9502582550048828,-0.584941565990448,0.28756827116012573,0.039664894342422485,0.20699089765548706,-0.3213464617729187,-1.5295929908752441,1.0533028841018677,0.4668193757534027,-0.2790289521217346,-0.7842966914176941,0.3635197877883911,1.328652024269104,0.6900172829627991,0.610241711139679,-0.3134734332561493,0.08889441192150116,1.5744625329971313,-0.7370416522026062,-1.3623734712600708,1.0222680568695068,0.2734481394290924,-0.3968394994735718,0.9961626529693604,-0.7495757341384888,0.2052025943994522,0.4972403049468994,0.2922542989253998,0.057586636394262314,1.1194676160812378,-0.4906151592731476,-0.4111752510070801,-0.7422473430633545,-0.349609911441803,-0.16456525027751923,0.6182201504707336,-0.10498853772878647,-0.30722272396087646,-1.0860110521316528,0.667561948299408,0.46878543496131897,0.18715496361255646,-1.705276370048523,0.43659353256225586,0.2750484347343445,-0.1921302229166031,-0.7051876187324524,1.6740115880966187,1.5195990800857544,1.3311681747436523,-1.2764849662780762,-0.22305426001548767,-0.8737931251525879,-1.085073471069336,1.0217111110687256,-0.8608660101890564,-0.7847692370414734,-0.735919713973999,-0.27656471729278564,0.05898222699761391,-0.052369099110364914,-0.4688003361225128,-0.29364240169525146,-0.37096282839775085,-1.4148410558700562,0.6872329711914062,0.9316026568412781,-1.2262320518493652,2.157094955444336,1.4776219129562378,-1.0473250150680542,0.5286452174186707,-0.06887513399124146,-0.21408668160438538,1.0003362894058228,0.03729299455881119,-1.5342705249786377,0.24531617760658264,0.7216217517852783,0.45830318331718445,1.3900941610336304,-0.10969971865415573,0.6415880918502808,-0.0414310060441494,0.7305544018745422,-1.055105209350586,0.31592896580696106,-0.3429868519306183,-2.4937357902526855,-1.1169805526733398,-0.5418103337287903,-0.011572632007300854,0.05750979855656624,0.7734696865081787,0.5789522528648376,-0.9443634748458862,-0.5871577262878418,-0.20956331491470337,-0.40479621291160583,0.26471972465515137,0.4634833335876465,0.5414156913757324,-0.4337722659111023,0.13268035650253296,0.5958896279335022,2.1813480854034424,0.708908200263977,-0.0012334922794252634,-0.040071751922369,0.5847019553184509,0.22122371196746826,-0.6947792172431946,-0.09503854066133499,1.278743028640747,0.11683840304613113,0.17551496624946594,0.823800265789032,0.08515054732561111,-0.6894001364707947,-0.3516995906829834,1.0726888179779053,-0.6106905341148376,0.42880523204803467,-0.9912405610084534,1.7664576768875122,-0.17056085169315338,-0.3621467649936676,0.6106321811676025,1.3791213035583496,1.2772165536880493
http://dbpedia.org/resource/Ginza,-0.02210373617708683,-1.0987498760223389,0.47060003876686096,0.5051299333572388,0.08274104446172714,-0.1483992040157318,-0.19989588856697083,-0.5239946842193604,0.2530123293399811,0.46420323848724365,-0.4890466630458832,0.22519655525684357,-0.4425518810749054,0.19438661634922028,0.34871694445610046,-0.1965343952178955,-0.08712167292833328,0.21420574188232422,-0.42872354388237,-0.012807123363018036,0.2010049968957901,0.19222892820835114,-0.5442487597465515,0.07780838757753372,0.22022013366222382,0.23345541954040527,-0.4731532633304596,-0.36417505145072937,-0.1694812923669815,-0.3941260576248169,-0.6257230043411255,-0.2591404616832733,0.07780999690294266,-0.22057747840881348,0.4100149869918823,-0.2518973648548126,-0.07643988728523254,0.014409543015062809,-0.33889827132225037,0.12008805572986603,-0.7817900776863098,0.24044930934906006,-0.031010635197162628,0.44186273217201233,0.5779591798782349,0.7329984307289124,0.9022012948989868,0.28435543179512024,-0.15142863988876343,0.47008374333381653,-0.5701271295547485,0.031445447355508804,0.0471300408244133,-0.5991308689117432,-0.6950867772102356,-0.05878687649965286,0.18365110456943512,-0.23675537109375,0.14098048210144043,0.4220333397388458,0.34030425548553467,-0.42189037799835205,0.7251732349395752,0.578206479549408,-0.43971678614616394,-0.08864520490169525,0.3100079596042633,-0.5204787850379944,-0.1883026659488678,0.14014485478401184,-0.6664158701896667,-0.13528022170066833,0.16811339557170868,-0.07509412616491318,-0.0999731793999672,0.05567789450287819,-0.34920358657836914,-0.5714887380599976,0.3008311986923218,0.024149583652615547,-0.1716974675655365,0.45608118176460266,0.23017890751361847,0.11901488155126572,0.4457458257675171,-0.3133847117424011,0.09397250413894653,0.7453218698501587,0.08201379328966141,0.3645699918270111,-0.027165120467543602,-0.286138117313385,0.4283719062805176,-0.48049917817115784,-0.7525917887687683,0.427870512008667,0.09567522257566452,-0.2850056290626526,0.5954945683479309,0.5329456925392151,0.29043689370155334,0.24175170063972473,-0.42455387115478516,0.06705053895711899,0.16849182546138763,0.019059715792536736,-0.027869146317243576,-0.3435971736907959,0.13570857048034668,0.1395999789237976,0.03693358227610588,0.33301544189453125,-0.03049396723508835,0.49695825576782227,-0.6104336977005005,-0.0673343762755394,0.1946563869714737,0.07460815459489822,0.8399268984794617,0.3820611834526062,-0.44266390800476074,-0.3063204288482666,0.7904541492462158,0.015445628203451633,0.320191353559494,-0.44834697246551514,-0.09273459017276764,-0.09556800127029419,-0.2133844643831253,0.9705118536949158,-0.6586005091667175,-0.0489286407828331,0.48325756192207336,-0.444243460893631,0.014931216835975647,0.2904162108898163,0.3610924482345581,-0.26659178733825684,1.2776659727096558,0.5557965040206909,-0.5697238445281982,-0.31086650490760803,-0.34302741289138794,0.49364763498306274,0.18828167021274567,-0.8015452027320862,-0.5676091909408569,0.362571120262146,0.29757916927337646,-0.24785003066062927,-0.024346191436052322,0.021571870893239975,-0.5000911355018616,-0.25860118865966797,0.12674568593502045,0.45083385705947876,0.020725704729557037,-0.5040839314460754,-0.5800334811210632,0.15684500336647034,-0.021850047633051872,-0.5416723489761353,-0.6415427923202515,0.5510832071304321,0.20597726106643677,0.0004905547830276191,-0.5878960490226746,0.42732590436935425,0.04183163866400719,0.09888476133346558,-0.14253750443458557,0.12781743705272675,0.8743249773979187,0.17387354373931885,0.20539717376232147,0.4551566541194916,-0.6275376081466675,-0.2929087281227112,-0.05818406865000725,0.11491308361291885,0.2733965516090393,-0.4425860643386841,-0.22080112993717194,0.057438381016254425,-0.03834018111228943,-0.005870642140507698,-0.09441585838794708,0.1444387286901474,-0.10113421827554703,0.09627330303192139,-0.15340641140937805,-0.617962121963501,0.03160754218697548,-0.34435340762138367,0.48591095209121704,-0.5269477963447571,0.1477193683385849,0.32480478286743164,0.3555644750595093,0.9335422515869141
http://dbpedia.org/resource/Sears,-0.9846797585487366,-0.8776722550392151,0.07201771438121796,0.07550997287034988,-0.5309934616088867,0.15166372060775757,-0.10357235372066498,0.5223396420478821,-0.015912752598524094,0.0704793706536293,-0.2667340636253357,0.5431925058364868,-0.6321355104446411,0.599396288394928,0.3479613959789276,-0.13511788845062256,0.3258678615093231,-0.5087705850601196,-0.7517833113670349,-0.2705984115600586,0.3516029119491577,0.9551455974578857,-0.2642216384410858,0.5797699689865112,-0.209939643740654,0.040374044328927994,0.029645072296261787,-0.57632976770401,-0.0007238841499201953,0.5265536308288574,-0.49168452620506287,0.19453968107700348,-0.03705950453877449,-0.1503564417362213,0.31213104724884033,0.40580785274505615,-0.42558273673057556,0.2685892879962921,-0.1473778784275055,0.31999585032463074,0.298831582069397,-0.6051852703094482,0.3861951529979706,-0.4815414547920227,0.12417473644018173,0.27198365330696106,0.5799993872642517,0.4655703902244568,0.6206985116004944,0.1723308563232422,-0.2739269733428955,-0.37212440371513367,-0.08729023486375809,0.05950555205345154,-1.4125392436981201,0.7501955628395081,0.1892334669828415,-0.7462517619132996,0.4736006557941437,-0.0552339069545269,0.2792123854160309,-0.2258107215166092,0.2211734503507614,0.37459325790405273,-0.5770665407180786,-0.39453038573265076,0.3158127963542938,-0.2318999469280243,-0.3483682870864868,-0.5341746807098389,-0.2913687229156494,-0.3017347455024719,-0.2276085466146469,0.18612802028656006,-0.26259440183639526,-0.4002150893211365,0.10081589221954346,0.4336983859539032,-0.06257836520671844,0.22998128831386566,-0.4925318658351898,0.6391274333000183,0.17465108633041382,1.0501569509506226,0.6000621914863586,0.06097592040896416,-0.4159456789493561,0.6366869211196899,-0.6027350425720215,0.36380735039711,0.2917751967906952,-0.005710945930331945,-0.6812630891799927,-0.11282794922590256,-0.6307345032691956,-0.05915914475917816,0.31967926025390625,-0.5200562477111816,0.7314350008964539,0.31117144227027893,0.10905157774686813,0.1302158385515213,0.022605761885643005,-1.4105472564697266,0.5523207783699036,0.10065708309412003,0.7487788200378418,-0.7328646779060364,-0.6645413041114807,-0.029234837740659714,0.04025456681847572,-0.4034197926521301,-0.42440301179885864,-0.5164612531661987,0.8229448199272156,0.32718202471733093,0.14260351657867432,-0.07971934974193573,-0.5165585279464722,0.2670309841632843,-0.4850907027721405,-0.36558401584625244,-0.19084589183330536,0.35532814264297485,0.06449183821678162,-0.021372681483626366,-0.28639912605285645,-0.04938381537795067,-0.5502145886421204,0.43737080693244934,-0.2018803507089615,0.04938496649265289,-0.41951048374176025,-0.07962585985660553,-0.2624443769454956,0.29196542501449585,0.11191242933273315,-0.649442195892334,0.19468247890472412,0.16109861433506012,-0.05429290980100632,0.1154678538441658,0.629680871963501,0.2965839207172394,-0.14043575525283813,0.14065256714820862,-0.5146017670631409,-0.10319395363330841,0.30191171169281006,0.013059868477284908,-0.3840118944644928,0.7275822162628174,-0.2964188754558563,-0.4251697063446045,0.3311242461204529,0.4007355272769928,0.411141037940979,0.058240652084350586,-0.2740337550640106,-0.5942679643630981,0.2614247500896454,0.364987313747406,-0.27083519101142883,0.11546047776937485,-0.1476660966873169,-0.0021114880219101906,0.11198275536298752,0.8260878324508667,-0.06703424453735352,0.14240261912345886,-0.22273258864879608,0.13577087223529816,0.17542515695095062,0.04563724994659424,-0.03168104961514473,-0.012500196695327759,0.2602846026420593,-1.000131368637085,-0.24601975083351135,0.9650551080703735,0.011236852034926414,-0.26248204708099365,-0.5703017115592957,0.33526167273521423,-0.5218599438667297,0.6166819930076599,-0.3266993761062622,0.38502252101898193,-0.2789979875087738,0.07985923439264297,0.1448821872472763,-0.5629388689994812,0.6479872465133667,-1.1691536903381348,0.9805927276611328,-0.6077742576599121,-0.5572172403335571,0.1261606514453888,0.21596327424049377,0.6171836256980896
http://dbpedia.org/resource/Ford_Motor_Company,-0.35403162240982056,-0.13495352864265442,0.19716666638851166,-0.11690284311771393,0.298053503036499,0.1784682720899582,-0.040607303380966187,0.4997239112854004,0.4002528786659241,0.08406258374452591,-0.3238692879676819,-0.04288030415773392,0.12655200064182281,0.6071038246154785,-0.1774481236934662,0.057195018976926804,0.01904505304992199,-0.023689649999141693,-0.139842689037323,0.0861964076757431,0.060189373791217804,-0.18487101793289185,-0.2756195664405823,0.3228795528411865,0.10651510208845139,-0.2651827037334442,0.3176407814025879,-0.6875478625297546,0.24216273427009583,0.03988347575068474,0.2042389065027237,1.081399917602539,0.6877772808074951,-0.452851265668869,-0.6270559430122375,0.35324493050575256,-0.40694618225097656,0.5675576329231262,-0.6803240776062012,0.11708255857229233,0.24113790690898895,-0.9803023338317871,-0.21927134692668915,0.31575044989585876,0.5093226432800293,0.6592766046524048,0.311771035194397,0.21758165955543518,-0.6622487902641296,-0.31404900550842285,-0.2718231976032257,0.6968250274658203,0.2676846385002136,0.25064852833747864,-0.988299548625946,0.6296871304512024,0.30979299545288086,-0.19911371171474457,0.5097030401229858,0.568477988243103,0.5089015364646912,-0.5103290677070618,0.8343757390975952,-0.05165577307343483,0.2951890528202057,0.32203444838523865,0.10632415860891342,-0.15219895541667938,0.30771780014038086,0.24725361168384552,-0.5419824123382568,-0.14798499643802643,-0.011075730435550213,-0.15722006559371948,-0.266255259513855,-0.21327967941761017,-0.3465755879878998,0.2301725447177887,-0.6207476854324341,0.06451357156038284,0.35292279720306396,0.13377156853675842,-0.15177325904369354,-0.10310959815979004,0.1804751753807068,-0.2331029623746872,-0.6449925303459167,0.35838785767555237,-0.2681720554828644,0.246528759598732,-0.11336849629878998,-0.046792883425951004,0.025402598083019257,0.43495824933052063,-0.4960097372531891,-0.37208274006843567,0.18415036797523499,0.08027832955121994,0.24191828072071075,0.7378743290901184,0.4077926278114319,0.011998137459158897,-0.7215628027915955,-0.3852015435695648,0.6603711247444153,-1.0138155221939087,0.2062816470861435,-0.8321315050125122,-0.2754741311073303,-0.599855363368988,0.4639800190925598,-0.5854332447052002,0.3365551233291626,-0.09100194275379181,0.6833553910255432,0.15201005339622498,0.4847063720226288,0.6232024431228638,0.48268797993659973,0.30316081643104553,-0.6812118887901306,0.2578345239162445,0.035628292709589005,0.5857383012771606,-0.2396596372127533,-0.6538195013999939,-0.39871078729629517,-0.13763484358787537,0.026719851419329643,0.9560701251029968,-0.40089282393455505,0.12158649414777756,0.33188822865486145,0.20655597746372223,-0.5140807628631592,-0.004131254740059376,-0.23939453065395355,-0.010703043080866337,0.6314119100570679,0.08915618807077408,0.47875282168388367,-0.1697530895471573,0.57718825340271,-0.2293030470609665,0.2966865599155426,0.09686597436666489,-0.07128236442804337,-0.47591835260391235,0.5199177861213684,0.2481643259525299,0.008825823664665222,-0.037221599370241165,-0.6216375231742859,-0.013652167282998562,0.17872194945812225,-1.1109670400619507,-0.01815376803278923,-0.6099587082862854,-0.19384640455245972,-0.0057085673324763775,-0.052777960896492004,-0.46183502674102783,-0.1678735911846161,0.5270019173622131,-0.5394942760467529,-0.3122073709964752,0.0743405818939209,-0.1491452306509018,-0.331601083278656,0.027735183015465736,0.7058645486831665,-0.5787469148635864,0.4841182231903076,-0.27830514311790466,0.015927795320749283,-0.18864162266254425,-0.22060947120189667,0.35129109025001526,0.16323550045490265,0.3385827839374542,-0.03338447958230972,-0.4730614721775055,0.07882063835859299,0.5905624032020569,-0.21307021379470825,-0.35146111249923706,0.05194378271698952,0.27092069387435913,0.605027437210083,-0.11014118790626526,-0.5273256301879883,0.6116206645965576,0.21615977585315704,-0.22407665848731995,1.1289019584655762,-0.24612104892730713,0.21743406355381012,0.2647740840911865,0.012397847138345242,0.3202488422393799
http://dbpedia.org/resource/Google,-0.23503132164478302,-0.31768104434013367,-0.028784800320863724,-0.23441553115844727,0.35041797161102295,0.15469345450401306,0.5349524021148682,0.2929198145866394,0.3410972058773041,-0.11626604199409485,0.10337803512811661,1.0793824195861816,-0.3369918167591095,-0.05578546226024628,0.24428974092006683,-0.09205074608325958,1.1289108991622925,-0.5994981527328491,-0.9225612282752991,-0.0843714103102684,0.1856568306684494,-0.10651412606239319,-0.23206613957881927,-0.3563525676727295,0.3355134129524231,0.13150279223918915,0.051807887852191925,-0.41672271490097046,0.02493915520608425,-0.49328649044036865,-0.27653026580810547,0.2767852544784546,0.4291142523288727,-0.18069308996200562,-0.47531095147132874,0.5606103539466858,0.3771229386329651,0.4133814573287964,0.5746657848358154,0.4308449327945709,0.4714376926422119,-0.6674673557281494,0.09182179719209671,-0.05150835961103439,0.7400195598602295,0.6760501861572266,0.51315838098526,0.42403173446655273,-0.028100911527872086,0.36424434185028076,0.4714986979961395,0.3670392334461212,0.04247136786580086,-0.11192819476127625,-1.5860295295715332,0.9252402186393738,0.64872807264328,-0.021227290853857994,0.3789505064487457,0.5208864808082581,0.012836195528507233,-0.028397686779499054,0.7794603109359741,0.4144213795661926,0.06423544138669968,0.14618095755577087,0.3064587712287903,-0.41142749786376953,0.042211681604385376,0.09443982690572739,-0.5994682908058167,-0.49579858779907227,-0.3817232847213745,-0.3754259943962097,-0.5324868559837341,-0.3646814823150635,-0.5491690635681152,-0.2532520890235901,-0.5697567462921143,-0.11481738835573196,-0.0741763710975647,0.10290881991386414,0.16762632131576538,-0.5836067199707031,0.13231277465820312,-0.24741892516613007,-0.260701447725296,0.21712522208690643,-0.466525673866272,-0.4141348898410797,0.05625864118337631,0.1736362874507904,-0.4393281936645508,-0.07388877123594284,0.30254459381103516,0.5798450708389282,-0.3754228949546814,-0.7900738716125488,0.45763474702835083,0.35118481516838074,-0.44373849034309387,-0.33846667408943176,-0.26490139961242676,-0.9261511564254761,0.9955059885978699,0.10594543069601059,0.491291880607605,-0.34458276629447937,-0.9943837523460388,-0.5406355857849121,-0.49837103486061096,0.05848555266857147,-0.6295772790908813,-0.3854057788848877,0.12554295361042023,0.3784618377685547,0.5016948580741882,0.444266140460968,0.06311248242855072,0.00440625473856926,-0.23532375693321228,-0.31799429655075073,-0.5725402235984802,0.42752209305763245,-0.6009942293167114,-0.4529735743999481,-0.2835109233856201,-0.044569142162799835,0.12884260714054108,0.14672403037548065,0.556534469127655,0.21080633997917175,-0.18365736305713654,0.469706654548645,-0.5736902952194214,0.6887634992599487,-0.3973989188671112,-0.15314364433288574,0.4284200668334961,0.07926730066537857,0.4503766894340515,-0.299184650182724,0.17026738822460175,-0.5380516052246094,-0.08084173500537872,0.06377130001783371,0.23143181204795837,-0.18264497816562653,1.1767572164535522,0.4908936321735382,-0.5432947278022766,0.8248180150985718,0.19657209515571594,0.054600585252046585,0.646213948726654,-0.06949343532323837,0.41085344552993774,0.16748899221420288,0.5500949621200562,-0.3099139630794525,0.04173479974269867,-0.5225564241409302,0.1368279904127121,-0.07101186364889145,-0.30202406644821167,-0.005696659442037344,-0.5984722375869751,0.3719698488712311,0.07132065296173096,0.3757648766040802,0.10207552462816238,-0.8268052935600281,-0.1607104241847992,-0.4770219624042511,0.08325804769992828,-0.029174232855439186,0.37424546480178833,0.12092803418636322,0.49546748399734497,0.09415514767169952,0.4948340058326721,-0.3509305715560913,-0.04316434636712074,-0.2029581069946289,0.40210801362991333,0.5657907724380493,0.026643821969628334,0.19766220450401306,0.3049091100692749,0.19086003303527832,-0.5978153944015503,0.47983986139297485,0.6122124195098877,-0.6094985008239746,1.6809875965118408,-0.9635645747184753,0.09384024143218994,0.8106968998908997,0.5830370783805847,-0.18723469972610474
http://dbpedia.org/resource/Larry_Page,-0.3622629642486572,-0.46072983741760254,0.10444600880146027,-0.40259602665901184,0.12921908497810364,0.14320693910121918,0.3361210823059082,0.24127638339996338,-0.13491179049015045,0.09620096534490585,0.139664426445961,0.7067081928253174,0.25559043884277344,0.5401031970977783,1.1370447874069214,-0.1626468151807785,0.4319259524345398,-0.04109745845198631,-0.194022536277771,-0.23828662931919098,0.26059043407440186,0.15726925432682037,-0.15748952329158783,0.032687753438949585,0.5303478240966797,-0.12443606555461884,-0.026374367997050285,-0.8121965527534485,-0.2800292372703552,-0.7196518182754517,-0.3158203661441803,0.4642271101474762,0.42819327116012573,-0.2795208692550659,0.06759421527385712,0.23558080196380615,0.4567809998989105,0.25909531116485596,-0.13346955180168152,0.9316636323928833,0.7502880692481995,-1.225083351135254,-0.5499293208122253,-0.18634264171123505,0.36909839510917664,0.13483867049217224,0.23315659165382385,0.08136656880378723,0.01653752103447914,-0.1696033477783203,0.25962933897972107,0.4283568263053894,0.5333130955696106,-0.1763032227754593,-1.4134010076522827,0.3251895606517792,1.1851691007614136,0.032868217676877975,-0.013403530232608318,0.3013332486152649,-0.010379965417087078,-0.36323750019073486,0.637816846370697,0.6056779026985168,-0.3578076660633087,0.15610451996326447,-0.31892454624176025,-0.10586950927972794,0.0024253427982330322,0.14827558398246765,-0.7349600195884705,-0.6917514204978943,-0.21983934938907623,0.4124908447265625,-0.06194561347365379,0.17946819961071014,-0.5485362410545349,0.1825357973575592,-0.023204708471894264,-0.14756067097187042,0.25797179341316223,-0.08213106542825699,0.09205971658229828,-0.2517465054988861,0.13224388659000397,-0.1494247317314148,-0.6722826957702637,0.839175820350647,-0.06404150277376175,0.07024942338466644,0.4845002293586731,-0.024012332782149315,0.2665673494338989,-0.2695596516132355,-0.19072066247463226,0.2384801059961319,0.07472233474254608,-0.7727347612380981,0.7898479700088501,-0.10871477425098419,-0.6273327469825745,-0.15387049317359924,-0.44910740852355957,-0.8616581559181213,0.2182571291923523,-0.27593207359313965,0.8927270770072937,-0.20861771702766418,-0.7296012043952942,-0.5596588253974915,-0.008290953934192657,-0.10211944580078125,-0.40409383177757263,-0.5490072965621948,0.21789339184761047,-0.06516865640878677,-0.48632919788360596,0.41816550493240356,-0.18038354814052582,0.465185284614563,-0.5468945503234863,-0.6959035992622375,-0.39240583777427673,0.2969140112400055,-0.4974793791770935,-0.2796105146408081,-0.6766467094421387,-0.34523728489875793,0.26529639959335327,0.289849191904068,0.5566972494125366,0.15557043254375458,0.20309363305568695,0.19093865156173706,-0.08042965084314346,0.6324498653411865,-0.031784288585186005,-0.007243709173053503,0.48642122745513916,0.3633114993572235,0.7242885828018188,-0.8962697386741638,-0.20665137469768524,-0.029958050698041916,0.3780019283294678,0.6527419090270996,0.07295144349336624,-0.3482692241668701,0.7485800981521606,0.013105771504342556,-0.4473569393157959,0.409053236246109,-0.2160881906747818,-0.360577791929245,0.09268825501203537,-0.24747300148010254,0.15939386188983917,-0.09537715464830399,0.16701045632362366,-0.7538725137710571,-0.4221222996711731,0.01911916770040989,0.12188047915697098,0.33375757932662964,-0.4598855972290039,-0.2619805335998535,-0.6930290460586548,0.0626857802271843,0.10577572882175446,0.2911076843738556,-0.3684198558330536,-0.5883779525756836,0.4700525403022766,-0.5429280400276184,0.18134965002536774,0.22804656624794006,-0.1509985327720642,-0.0850323960185051,0.3822651505470276,0.07073215395212173,-0.5470677614212036,-0.02284758910536766,-0.37336719036102295,-0.33369335532188416,0.4329674243927002,0.3277619481086731,0.07996213436126709,0.589300274848938,-0.10647430270910263,-0.1679282933473587,-0.7226338982582092,0.5659813284873962,0.7833528518676758,-0.34488940238952637,1.1169692277908325,-0.5698263645172119,-0.06493690609931946,0.11207514256238937,0.22253991663455963,0.293684184551239
http://dbpedia.org/resource/Sergey_Brin,-0.06068892031908035,0.13096071779727936,0.4021342098712921,0.45192885398864746,0.5329753160476685,-0.04162631928920746,0.36749643087387085,-0.042485978454351425,0.6283051371574402,-0.1385165899991989,-0.11570443212985992,0.29658085107803345,0.2003476768732071,0.6653221249580383,0.6191689968109131,-0.015881584957242012,-0.077295683324337,-0.005620469804853201,-0.11626871675252914,0.07053080201148987,0.5927528738975525,0.286511093378067,0.08821804821491241,0.6956243515014648,0.1280883252620697,0.283839613199234,-0.1566321849822998,0.13462497293949127,-0.14701031148433685,-0.7963395714759827,0.04402301460504532,0.08387511968612671,0.15305066108703613,-0.5005507469177246,-0.1984410285949707,0.11211001873016357,0.296848326921463,-0.419260710477829,-0.20663106441497803,0.1344052404165268,0.25251859426498413,-0.560872495174408,-0.19756512343883514,-0.2933952510356903,0.4502577483654022,0.6026100516319275,0.40418726205825806,-0.05371195077896118,-0.33436182141304016,0.2643684446811676,-0.09872721135616302,0.5866218209266663,0.34882569313049316,-0.13853026926517487,-1.3700004816055298,0.31739291548728943,0.5336455702781677,-0.460922509431839,-0.07437741756439209,0.09195436537265778,0.042276110500097275,0.010861481539905071,0.07411380857229233,0.4820576310157776,-0.11660785973072052,0.3617476224899292,-0.055950827896595,0.04787494242191315,0.416770875453949,0.2880784273147583,-1.011603832244873,-0.6766619682312012,-0.2631336450576782,0.17166496813297272,-0.008872277103364468,-0.49302342534065247,-0.6227284073829651,-0.19342657923698425,-0.0003306376747786999,0.16812632977962494,0.2666883170604706,-0.08490242809057236,0.1882932484149933,-0.6104983687400818,-0.0411793552339077,-0.04899606481194496,-0.6491925716400146,0.5776398777961731,-0.08880461752414703,-0.27309760451316833,-0.19488954544067383,0.2405145764350891,0.36427193880081177,-0.18881641328334808,-0.1693534255027771,0.27072855830192566,-0.24207836389541626,-0.9894497990608215,0.058543771505355835,0.0161894541233778,-0.303815633058548,-0.3622710704803467,0.21107684075832367,-0.45156335830688477,0.044320374727249146,-0.29442650079727173,0.15972650051116943,-0.07311319559812546,-0.3855970799922943,-0.3019004464149475,0.3838932514190674,-0.2961359918117523,-0.15202315151691437,-0.31095680594444275,0.12129222601652145,-0.37956923246383667,-0.1411897987127304,0.4515327215194702,-0.34818556904792786,0.26432913541793823,-0.415342777967453,-0.19073209166526794,-0.48174849152565,0.44791606068611145,-0.6253300309181213,-0.19588351249694824,-0.7611314654350281,-0.3223429322242737,0.5218560695648193,0.09893950074911118,0.20105870068073273,0.7745339870452881,-0.07118532061576843,0.004059181548655033,-0.47517138719558716,0.16600000858306885,-0.005418363492935896,0.0013145157136023045,0.34384235739707947,0.7045181393623352,0.08767399191856384,-0.641426682472229,0.036124154925346375,-0.2622305452823639,-0.1756516993045807,0.099827341735363,0.20775510370731354,0.3538030683994293,0.6847800016403198,-0.16063053905963898,-0.3326364755630493,0.2685937285423279,-0.2649348974227905,-0.5585064888000488,0.10742021352052689,-0.1841672956943512,0.5687691569328308,0.33539631962776184,0.5578939318656921,-0.475439190864563,-0.6865546703338623,0.03531796857714653,0.1551566869020462,-0.15885214507579803,-0.28483837842941284,-0.058343008160591125,-0.42458242177963257,0.41486242413520813,-0.17856375873088837,-0.05738754943013191,-0.07599103450775146,-0.7179485559463501,0.26774871349334717,-0.5193628668785095,-0.2333468198776245,0.38979238271713257,-0.4156557619571686,0.20729908347129822,0.7163054347038269,0.2712309956550598,-0.15146195888519287,-0.48998281359672546,0.34569883346557617,0.44440171122550964,0.31335458159446716,0.27463844418525696,0.464700847864151,0.39340275526046753,-0.17908123135566711,0.45290887355804443,-0.1767115443944931,0.04961672052741051,0.16820913553237915,-0.40454527735710144,0.5769188404083252,-0.4607020616531372,-0.08902758359909058,0.38487717509269714,0.4232708513736725,0.03764241933822632
